tree
version=v4
num_class=1
num_tree_per_iteration=1
label_index=0
max_feature_idx=226
objective=binary sigmoid:1
feature_names=BTC_spot_log_ret_1m BTC_spot_high_low_range BTC_spot_body_size BTC_spot_upper_shadow BTC_spot_lower_shadow BTC_spot_close_position_in_bar BTC_spot_log_ret_2m BTC_spot_log_ret_3m BTC_spot_log_ret_5m BTC_spot_log_ret_10m BTC_spot_log_ret_15m BTC_spot_log_ret_30m BTC_spot_log_ret_60m BTC_spot_log_ret_120m BTC_spot_log_ret_240m BTC_spot_taker_buy_volume_ratio BTC_spot_taker_buy_quote_ratio BTC_spot_taker_buy_quote_volume_ratio_diff BTC_spot_vwap_dist BTC_spot_taker_buy_vwap_dist BTC_spot_ret_x_buy_imbalance_1m BTC_spot_close_position_5m BTC_spot_close_position_10m BTC_spot_close_position_15m BTC_spot_close_position_30m BTC_spot_close_position_60m BTC_spot_close_position_120m BTC_spot_close_position_240m BTC_spot_ret_std_5m BTC_spot_volume_z_5m BTC_spot_quote_volume_z_5m BTC_spot_count_z_5m BTC_spot_range_mean_5m BTC_spot_close_vs_sma_5m BTC_spot_close_vs_kama_5m BTC_spot_close_vs_kama_z_5m BTC_spot_kama_velocity_5m BTC_spot_rolling_high_dist_5m BTC_spot_rolling_low_dist_5m BTC_spot_realized_vol_5m BTC_spot_upside_realized_vol_5m BTC_spot_downside_realized_vol_5m BTC_spot_realized_vol_balance_5m BTC_spot_ret_vol_scaled_5m BTC_spot_volume_ret_corr_5m BTC_spot_quote_volume_per_trade_z_5m BTC_spot_taker_quote_volume_per_trade_z_5m BTC_spot_buy_ratio_mean_5m BTC_spot_ret_std_10m BTC_spot_volume_z_10m BTC_spot_quote_volume_z_10m BTC_spot_count_z_10m BTC_spot_range_mean_10m BTC_spot_close_vs_sma_10m BTC_spot_close_vs_kama_10m BTC_spot_close_vs_kama_z_10m BTC_spot_kama_velocity_10m BTC_spot_rolling_high_dist_10m BTC_spot_rolling_low_dist_10m BTC_spot_realized_vol_10m BTC_spot_upside_realized_vol_10m BTC_spot_downside_realized_vol_10m BTC_spot_realized_vol_balance_10m BTC_spot_ret_vol_scaled_10m BTC_spot_volume_ret_corr_10m BTC_spot_quote_volume_per_trade_z_10m BTC_spot_taker_quote_volume_per_trade_z_10m BTC_spot_ret_std_30m BTC_spot_volume_z_30m BTC_spot_quote_volume_z_30m BTC_spot_count_z_30m BTC_spot_range_mean_30m BTC_spot_close_vs_sma_30m BTC_spot_close_vs_kama_30m BTC_spot_close_vs_kama_z_30m BTC_spot_kama_velocity_30m BTC_spot_rolling_high_dist_30m BTC_spot_rolling_low_dist_30m BTC_spot_realized_vol_30m BTC_spot_upside_realized_vol_30m BTC_spot_downside_realized_vol_30m BTC_spot_realized_vol_balance_30m BTC_spot_ret_vol_scaled_30m BTC_spot_volume_ret_corr_30m BTC_spot_quote_volume_per_trade_z_30m BTC_spot_taker_quote_volume_per_trade_z_30m BTC_spot_buy_ratio_mean_30m BTC_spot_buy_ratio_z_30m BTC_spot_ret_std_60m BTC_spot_volume_z_60m BTC_spot_quote_volume_z_60m BTC_spot_count_z_60m BTC_spot_range_mean_60m BTC_spot_close_vs_sma_60m BTC_spot_close_vs_kama_60m BTC_spot_close_vs_kama_z_60m BTC_spot_kama_velocity_60m BTC_spot_rolling_high_dist_60m BTC_spot_rolling_low_dist_60m BTC_spot_realized_vol_60m BTC_spot_upside_realized_vol_60m BTC_spot_downside_realized_vol_60m BTC_spot_realized_vol_balance_60m BTC_spot_ret_vol_scaled_60m BTC_spot_volume_ret_corr_60m BTC_spot_quote_volume_per_trade_z_60m BTC_spot_taker_quote_volume_per_trade_z_60m BTC_spot_buy_ratio_mean_60m BTC_spot_buy_ratio_z_60m BTC_spot_ret_std_120m BTC_spot_volume_z_120m BTC_spot_quote_volume_z_120m BTC_spot_count_z_120m BTC_spot_range_mean_120m BTC_spot_close_vs_sma_120m BTC_spot_close_vs_kama_120m BTC_spot_close_vs_kama_z_120m BTC_spot_kama_velocity_120m BTC_spot_rolling_high_dist_120m BTC_spot_rolling_low_dist_120m BTC_spot_realized_vol_120m BTC_spot_upside_realized_vol_120m BTC_spot_downside_realized_vol_120m BTC_spot_realized_vol_balance_120m BTC_spot_ret_vol_scaled_120m BTC_spot_volume_ret_corr_120m BTC_spot_quote_volume_per_trade_z_120m BTC_spot_taker_quote_volume_per_trade_z_120m BTC_spot_ret_velocity_2m BTC_spot_volume_velocity_2m BTC_spot_quote_volume_velocity_2m BTC_spot_ret_velocity_3m BTC_spot_volume_velocity_3m BTC_spot_quote_volume_velocity_3m BTC_spot_ret_velocity_5m BTC_spot_volume_velocity_5m BTC_spot_quote_volume_velocity_5m BTC_spot_ret_velocity_10m BTC_spot_volume_velocity_10m BTC_spot_quote_volume_velocity_10m BTC_spot_ret_velocity_15m BTC_spot_volume_velocity_15m BTC_spot_quote_volume_velocity_15m BTC_spot_ret_velocity_30m BTC_spot_volume_velocity_30m BTC_spot_quote_volume_velocity_30m BTC_spot_ret_velocity_60m BTC_spot_volume_velocity_60m BTC_spot_quote_volume_velocity_60m BTC_spot_ret_accel_2_10m BTC_spot_volume_accel_2_10m BTC_spot_ret_accel_5_15m BTC_spot_volume_accel_5_15m BTC_spot_ret_accel_10_30m BTC_spot_volume_accel_10_30m BTC_spot_ret_accel_15_60m BTC_spot_volume_accel_15_60m BTC_spot_kama_accel_5_10m BTC_spot_kama_accel_10_30m BTC_spot_kama_accel_30_60m BTC_spot_kama_accel_60_120m BTC_spot_realized_vol_ratio_5_30m BTC_spot_quote_volume_mean_ratio_5_30m BTC_spot_buy_ratio_mean_diff_5_30m BTC_spot_realized_vol_ratio_10_60m BTC_spot_quote_volume_mean_ratio_10_60m BTC_spot_buy_ratio_mean_diff_10_60m BTC_spot_realized_vol_ratio_30_120m BTC_spot_quote_volume_mean_ratio_30_120m BTC_spot_buy_ratio_mean_diff_30_120m BTC_spot_buy_pressure_x_ret_5m BTC_spot_buy_pressure_x_quote_volume_z_5m BTC_spot_buy_pressure_x_ret_30m BTC_spot_buy_pressure_x_quote_volume_z_30m BTC_spot_buy_pressure_x_ret_60m BTC_spot_buy_pressure_x_quote_volume_z_60m BTC_futures_basis BTC_futures_spot_volume_ratio BTC_futures_spot_buy_ratio_diff BTC_basis_change_1m BTC_futures_spot_ret_spread_1m BTC_basis_change_5m BTC_futures_spot_ret_spread_5m BTC_basis_change_15m BTC_futures_spot_ret_spread_15m BTC_basis_change_60m BTC_futures_spot_ret_spread_60m BTC_basis_z_5m BTC_futures_spot_volume_ratio_z_5m BTC_futures_spot_quote_volume_ratio_z_5m BTC_futures_spot_count_ratio_z_5m BTC_basis_z_15m BTC_futures_spot_volume_ratio_z_15m BTC_futures_spot_quote_volume_ratio_z_15m BTC_futures_spot_count_ratio_z_15m BTC_basis_z_30m BTC_futures_spot_volume_ratio_z_30m BTC_futures_spot_quote_volume_ratio_z_30m BTC_futures_spot_count_ratio_z_30m BTC_basis_z_60m BTC_futures_spot_volume_ratio_z_60m BTC_futures_spot_quote_volume_ratio_z_60m BTC_futures_spot_count_ratio_z_60m BTC_basis_accel_1_5m BTC_basis_accel_5_15m BTC_basis_accel_15_60m BTC_basis_vol_scaled_5m BTC_futures_spot_realized_vol_ratio_5m BTC_basis_x_ret_spread_5m BTC_buy_diff_x_ret_spread_5m BTC_basis_vol_scaled_15m BTC_futures_spot_realized_vol_ratio_15m BTC_basis_x_ret_spread_15m BTC_buy_diff_x_ret_spread_15m BTC_basis_vol_scaled_60m BTC_futures_spot_realized_vol_ratio_60m BTC_basis_x_ret_spread_60m BTC_buy_diff_x_ret_spread_60m sin_hour cos_hour sin_dayofweek cos_dayofweek session_asia session_europe session_us session_asia_europe_overlap session_europe_us_overlap
feature_infos=[-0.021365532651543617:0.018560886383056641] [7.9872201297348511e-08:0.030446391552686691] [0:0.021138906478881836] [0:0.018238307908177376] [0:0.012743836268782616] [0:1] [-0.028612816706299782:0.032677154988050461] [-0.042427904903888702:0.041894923895597458] [-0.047602236270904541:0.048931006342172623] [-0.062690354883670807:0.057615619152784348] [-0.075928226113319397:0.053934205323457718] [-0.080791585147380829:0.071655601263046265] [-0.092600099742412567:0.082220703363418579] [-0.14348186552524567:0.089387133717536926] [-0.12048685550689697:0.099063970148563385] [0.0040552346035838127:0.99813950061798096] [0.004055446945130825:0.99813944101333618] [-0.0011091922642663121:0.00062141858506947756] [-0.0083977654576301575:0.014761412516236305] [-0.0082360459491610527:0.016024410724639893] [-0.0022721248678863049:0.0089375423267483711] [0:1] [0:1] [0:1] [0:1] [0:1] [0:1] [0:1] [3.6567517014418627e-08:0.032010659575462341] [-1.7883790731430054:1.7888447046279907] [-1.7884083986282349:1.7888447046279907] [-1.7881149053573608:1.7888473272323608] [8.1747558056122216e-08:0.030743537470698357] [-0.023895222693681717:0.024241006001830101] [-0.022430364042520523:0.022596653550863266] [-1.7888543605804443:1.7888542413711548] [-0.0070578213781118393:0.0097744222730398178] [-0.04648701474070549:0] [0:0.051230840384960175] [8.1745440638769651e-08:0.064356811344623566] [0:0.043492686003446579] [0:0.056738801300525665] [-1:1] [-2.2300307750701904:2.234128475189209] [-0.99985939264297485:0.99961698055267334] [-1.7882134914398193:1.7887893915176392] [-1.7879188060760498:1.7888290882110596] [0.037163425236940384:0.95455420017242432] [2.9244359822655497e-08:0.021571986377239227] [-2.587360143661499:2.8456370830535889] [-2.5867838859558105:2.8456380367279053] [-2.6721138954162598:2.8455026149749756] [8.6458200598826807e-08:0.028086233884096146] [-0.035826850682497025:0.032019641250371933] [-0.022796198725700378:0.024857556447386742] [-2.8460476398468018:2.8460240364074707] [-0.0062796594575047493:0.0052166134119033813] [-0.064024984836578369:0] [0:0.079211369156837463] [9.2461192480186583e-08:0.065314061939716339] [0:0.043498266488313675] [0:0.057811837643384933] [-1:1] [-3.0361332893371582:2.9833915233612061] [-0.99101835489273071:0.97959458827972412] [-2.6529626846313477:2.8452441692352295] [-2.712254524230957:2.8448176383972168] [2.2701614454945229e-07:0.012149005196988583] [-2.7737782001495361:5.2884373664855957] [-2.7704014778137207:5.2883715629577637] [-3.1405966281890869:5.291837215423584] [3.3950104239011125e-07:0.021582076326012611] [-0.06140827015042305:0.051614861935377121] [-0.041126269847154617:0.037145748734474182] [-5.2583432197570801:5.1709561347961426] [-0.0022688768804073334:0.0017579309642314911] [-0.082104787230491638:0] [0:0.10613931715488434] [1.2240880096214823e-06:0.06558699905872345] [1.4990573049544764e-07:0.05147826299071312] [1.6144086600888841e-07:0.057931732386350632] [-0.99946224689483643:0.99915015697479248] [-3.5724670886993408:3.6263828277587891] [-0.854267418384552:0.8768463134765625] [-3.2930598258972168:5.277946949005127] [-3.4634718894958496:5.2721042633056641] [0.10024876147508621:0.82854145765304565] [-4.1155591011047363:4.2375478744506836] [1.232331578648882e-05:0.0089272987097501755] [-3.2928216457366943:7.5999040603637695] [-3.2930991649627686:7.599726676940918] [-2.8462843894958496:7.6056690216064453] [3.8812331695226021e-06:0.014694197103381157] [-0.073425114154815674:0.062321893870830536] [-0.055606264621019363:0.042847439646720886] [-7.3258185386657715:6.8594684600830078] [-0.0013095258036628366:0.0011460655368864536] [-0.097015120089054108:0] [0:0.11460147053003311] [9.4853494374547154e-05:0.06857810914516449] [2.2894082007951511e-07:0.053005624562501907] [1.2709160728263669e-06:0.059022124856710434] [-0.99896365404129028:0.99259734153747559] [-3.8460350036621094:3.8950917720794678] [-0.75709575414657593:0.7376558780670166] [-3.3941295146942139:7.5740208625793457] [-2.935340404510498:7.4872732162475586] [0.11375720798969269:0.79560405015945435] [-3.8523070812225342:4.8339595794677734] [1.9213661289541051e-05:0.0068945805542171001] [-2.4188807010650635:10.794002532958984] [-2.4148194789886475:10.795619010925293] [-2.6953258514404297:10.806105613708496] [6.0707625380018726e-06:0.0094536794349551201] [-0.091928154230117798:0.069220900535583496] [-0.060007315129041672:0.047067340463399887] [-8.1107501983642578:8.0309123992919922] [-0.00083352264482527971:0.00068343710154294968] [-0.14059793949127197:0] [0:0.11460147053003311] [0.00021046902111265808:0.075435064733028412] [0.00012435686949174851:0.057484682649374008] [0.00012600088666658849:0.060824919492006302] [-0.7425382137298584:0.81048464775085449] [-3.8372712135314941:3.8160877227783203] [-0.59376931190490723:0.6220632791519165] [-3.6470189094543457:10.766051292419434] [-3.1468508243560791:10.468791961669922] [-0.014306408353149891:0.01633857749402523] [-2.351515531539917:2.9587762355804443] [-2.351332426071167:2.9593513011932373] [-0.014142634347081184:0.013964975252747536] [-1.6456081867218018:1.9710574150085449] [-1.6455322504043579:1.9714062213897705] [-0.009520447812974453:0.0097862007096409798] [-1.0649199485778809:1.203288197517395] [-1.0648531913757324:1.2054709196090698] [-0.0062690353952348232:0.0057615619152784348] [-0.5514601469039917:0.61025905609130859] [-0.55151158571243286:0.61344408988952637] [-0.0050618816167116165:0.0035956136416643858] [-0.40801620483398438:0.40772098302841187] [-0.40802314877510071:0.40758231282234192] [-0.0026930528692901134:0.0023885201662778854] [-0.18912100791931152:0.19801245629787445] [-0.18913975358009338:0.19817394018173218] [-0.0015433350345119834:0.0013703450094908476] [-0.095570400357246399:0.10194778442382812] [-0.095568910241127014:0.10202714055776596] [-0.0014038950903341174:0.0016292568761855364] [-0.28605502843856812:0.30851989984512329] [-0.00098468770738691092:0.00063809327548369765] [-0.098457612097263336:0.089128546416759491] [-0.00019138932111673057:0.00029720907332375646] [-0.023348074406385422:0.02518031932413578] [-7.8189928899519145e-05:6.8024644860997796e-05] [-0.0083975046873092651:0.0076190726831555367] [-0.0012590002734214067:0.0012059295549988747] [-0.00021737396309617907:0.00017293410201091319] [-4.6672845201101154e-05:7.0353882620111108e-05] [-1.6268068065983243e-05:1.8536296920501627e-05] [-0.99991816282272339:-2.733028850343544e-05] [-0.96651679277420044:4.5097837448120117] [-0.45398324728012085:0.50392842292785645] [-0.99991399049758911:-0.0027118611615151167] [-0.92392259836196899:4.4782705307006836] [-0.40653419494628906:0.4540536105632782] [-0.99745005369186401:-0.0021477700211107731] [-0.85737591981887817:2.5702371597290039] [-0.32645115256309509:0.27083209156990051] [-0.0022635057102888823:0.01101310458034277] [-3.1700694561004639:3.174260139465332] [-0.0055891615338623524:0.014539120718836784] [-16.408613204956055:14.019063949584961] [-0.0051838476210832596:0.011356236413121223] [-20.5164794921875:19.698541641235352] [-0.017020037397742271:0.0069251637905836105] [0.087828852236270905:277.30340576171875] [-0.91713434457778931:0.90611034631729126] [-0.0051805390976369381:0.0046312590129673481] [-0.0052563995122909546:0.0046368623152375221] [-0.015928169712424278:0.0092562474310398102] [-0.016074078157544136:0.009294537827372551] [-0.016301983967423439:0.0075646829791367054] [-0.016448231413960457:0.0075410185381770134] [-0.016218813136219978:0.014977539889514446] [-0.016364997252821922:0.015094853937625885] [-1.7888543605804443:1.7888543605804443] [-1.78717041015625:1.7888543605804443] [-1.7871356010437012:1.7888543605804443] [-1.7879638671875:1.7888543605804443] [-3.608004093170166:3.6027793884277344] [-3.0278909206390381:3.6147844791412354] [-3.0279719829559326:3.6147844791412354] [-3.1743171215057373:3.6147844791412354] [-5.1670713424682617:5.2625250816345215] [-2.7685682773590088:5.2946515083312988] [-2.7684495449066162:5.2946515083312988] [-3.7559001445770264:5.2946515083312988] [-7.3234691619873047:7.5000238418579102] [-2.7937276363372803:7.6168670654296875] [-2.7942018508911133:7.6168670654296875] [-3.432509183883667:7.6168670654296875] [-0.0013061444042250514:0.0010824458440765738] [-0.00020988349569961429:0.0001838779280660674] [-1.8144119167118333e-05:8.4778303062194027e-06] [-6552.140625:4063.003173828125] [-1:1722.610107421875] [-7.3057776717178058e-06:0.00027358141960576177] [-0.0011682756012305617:0.0018431964563205838] [-2279.376708984375:5.9292893409729004] [-0.94631171226501465:713.9176025390625] [-1.1719364920281805e-05:0.00027994951233267784] [-0.0013694955268874764:0.0018861001590266824] [-5.0594944953918457:1.3344314098358154] [-0.63087153434753418:2.6140286922454834] [-5.6657809182070196e-06:0.00027853288338519633] [-0.0014597467379644513:0.0018765558488667011] [-1:1] [-1:1] [-0.97492790222167969:0.97492790222167969] [-0.90096884965896606:1] [0:1] [0:1] [0:1] [0:1] [0:1]
tree_sizes=4649 4691 4644 4674 4687 4706 4706 4696 4716 4689 4689 4713 4668 4719 4693 4669 4696 4706 4710 4715 4673 4721 4680 4700 4716 4680 4700 4702 4689 4681 4703 4663 4706 4696 4717 4718 4674 4684 4686 4683 4699 4683 4700 4673 4704 4678 4669 4670 4669 4728 4685 4719 4676 4681 4681 4702 4681 4703 4653 4709 4700 4699 4677 4688 4700 4680 4703 4675 4720 4645 4698 4679 4709 4678 4700 4669 4698 4690 4728 4703 4664 4711 4705 4664 4666 4669 4688 4653 4680 4691 4680 4693 4670 4691 4678 4686 4671 4682 4647 4653 4651 4679 4656 4655 4713 4706 4659 4679 4659 4674 4698 4647 4673 4708 4650 4664 4643 4669 4630 4663 4669 4668 4623 4632 4676 4660 4715 4680 4617 4663 4662 4651 4656 4671 4675 4674 4690 4684 4657 4700 4651 4677 4666 4641 4699 4658 4639 4638 4706 4614 4670 4682 4666 4656 4674 4663 4634 4673 4679 4656 4679 4695 4660 4671 4658 4636 4647 4675 4673 4563 4632 4662 4653 4690 4684 4693 4644 4675 4664 4668 4663 4596 4653 4693 4631 4699 4658 4663 4626 4647 4657 4645 4619 4677 4679 4636 4655 4608 4671 4637 4647 4658 4643 4639 4635 4710 4699 4638 4614 4673 4662 4627 4639

Tree=0
num_leaves=40
num_cat=0
split_feature=191 54 73 101 195 77 115 116 125 94 191 104 152 179 121 191 6 179 40 215 0 81 23 81 164 215 107 124 178 62 159 100 61 63 35 195 125 15 217
split_gain=717.704 268.453 220.449 102.824 105.798 74.9506 63.082 62.0351 58.7692 49.2415 38.3649 34.3572 34.2557 33.7727 31.7893 31.6644 36.816 31.4613 31.1083 31.076 30.182 29.9622 29.7218 31.4146 28.201 27.715 28.4371 26.4206 27.0314 30.0561 29.3132 26.1015 25.7658 25.2172 24.6774 24.5515 31.4206 28.5883 28.355
threshold=0.011175906285643579 -0.00032385256781708444 0.00079989313962869357 0.0020543318241834645 -0.66254061460494984 0.00056602267432026576 -0.0021686858963221307 1.785568952560425 -0.070187773555517183 0.0029981621773913507 -1.3279001116752622 -0.049341876059770577 0.028473908081650737 7.9909281339496388e-05 0.0017297879094257953 -0.88802361488342274 -0.00020392786973388863 2.1564434064202945e-05 0.00010768202264443973 0.089056100696325316 -0.00109081226401031 0.093059595674276366 0.97317945957183849 -0.29045133292675013 -0.73486497998237599 0.032361283898353584 0.35273511707782751 1.087141275405884 0.15357483923435214 -0.90089678764343251 -5.6812967841324269e-07 0.0014075778308324518 0.00026746465300675487 -1.5915664434432981 -1.5942146778106687 1.0321062207221987 -0.034520758315920823 0.4200942069292069 2.5530427592457276e-05
decision_type=2 2 2 2 2 2 2 2 2 2 2 2 2 2 2 2 2 2 2 2 2 2 2 2 2 2 2 2 2 2 2 2 2 2 2 2 2 2 2
left_child=1 6 5 4 25 12 18 35 31 10 -5 20 13 22 -15 -8 33 -6 -1 -10 -12 -9 23 -2 -19 26 -3 28 -25 -30 -31 -7 -32 -17 -26 36 38 -38 -4
right_child=2 3 7 9 17 8 15 21 19 -11 11 -13 -14 14 -16 16 -18 24 -20 -21 -22 -23 -24 27 34 -27 -28 -29 29 30 32 -33 -34 -35 -36 -37 37 -39 -40
leaf_value=0.0074468729166501813 0.0077753134216068821 0.0098767572523814143 0.0042162974346252168 -0.00031434402809432356 6.334023840671955e-05 0.0075675956129823887 0.0009962524906214007 0.0042571177622526468 0.0033293705890472041 -0.00098612367440134401 0.012186192946790393 0.00095325821069045663 0.0095976166680347523 0.012172099944123055 0.0066056156563676551 0.0079564927374066678 0.0012247692197679065 0.0085462908119747511 0.003844361143713039 0.0063147787084628405 0.0025770786573777065 -0.00083413961050333866 0.013691932720537111 0.0054558440770185092 0.014751126838576007 -0.0032328225755485396 -0.0013481511874228673 -0.00090539175687756991 -0.0097674239102350392 0.0067613335191848197 0.0088073428284575119 0.0048983943163958604 0.00069280455708100003 0.0034526034819552798 0.001402498994763323 0.0039897369102146127 0.0036139683737417497 0.00026123185764959046 -0.0037177852521562377
leaf_weight=963.3195153363049 1135.887734927237 76.466495782136917 2387.0725649632514 3580.779497012496 5614.1982385329902 1418.1557758413255 4923.9336387887597 444.07013073936105 16410.842236924917 3518.2727411426604 111.80199703201652 7591.6749063096941 817.4579725638032 417.31196524202824 2195.5071323774755 469.9663524851203 2718.4753948487341 258.02902174368501 5139.2095323912799 1267.5488335378468 6877.1690509021282 2902.1165583394468 133.99707039445639 4658.8167102113366 48.250914294272661 4886.1390327513218 3642.855936486274 292.13315513730049 61.505374532192945 556.90291872620583 149.32693438977003 10221.188579510897 1077.8887948282063 3995.8107904791832 1248.3635749779642 3423.8004900589585 1155.7201912514865 3228.4101946428418 161.04523201286793
leaf_count=3659 3923 195 9340 15262 21203 5877 19637 1660 67201 14882 484 31262 2487 2067 9168 1837 10676 1097 20839 6441 27443 11536 627 17995 204 20495 13294 1029 236 1781 685 42410 3485 15829 5035 13409 4209 13699 712
internal_value=0.00253422 0.00106921 0.00402976 0.000181054 -0.000946382 0.00470558 0.00289491 0.00201797 0.00421226 0.00100219 0.00138834 0.00180769 0.00596207 0.00568214 0.00750137 0.00212978 0.00290423 0.000703164 0.00441591 0.00354442 0.0027333 -0.000153255 0.0050907 0.0049432 0.00300247 -0.00231852 -0.00111267 0.00446731 0.0047113 0.00282241 0.00326623 0.00522512 0.00169443 0.0039305 0.00191273 0.00271784 0.00209217 0.00114905 0.00370799
internal_weight=110181 55664.7 54516.7 37454 15774.3 40814.5 18210.7 13702.2 29317.7 21679.7 18161.4 14580.6 11496.7 10679.3 2612.82 12108.2 7184.25 7168.84 6102.53 17678.4 6988.97 3346.19 8066.46 7932.46 1554.64 8605.46 3719.32 6796.57 6504.44 1845.62 1784.12 11639.3 1227.22 4465.78 1296.61 10356 6932.25 4384.13 2548.12
internal_count=443310 223333 219977 150856 61523 165412 72477 54565 121929 89333 74451 59189 43483 40996 11235 47979 28342 27539 24498 73642 27927 13196 29761 29134 6336 33984 13489 25211 24182 6187 5951 48287 4170 17666 5239 41369 27960 17908 10052
is_linear=0
shrinkage=1


Tree=1
num_leaves=40
num_cat=0
split_feature=187 72 73 195 41 116 191 122 83 76 64 95 102 191 125 72 117 83 25 6 208 83 12 43 71 107 182 107 66 40 207 195 0 151 208 27 217 215 165
split_gain=734.065 296.342 234.854 106.505 96.784 86.3129 76.7707 70.9894 53.4507 48.459 41.9873 40.3328 36.4168 31.1096 33.6808 30.0519 34.9039 30.0265 31.7534 29.4553 28.8662 28.5151 36.419 28.3226 34.199 31.1582 27.6477 28.7782 30.1407 27.3904 26.7293 26.6264 26.4397 26.1556 27.8292 25.8622 29.8886 25.6914 25.6827
threshold=0.14590929448604587 -0.00093441654462367285 0.0010021745110861959 -0.42891000211238856 0.00026303886261302983 1.8515557646751406 1.0002023577690127 0.0029373109573498373 0.10313367471098901 -0.00085441968985833217 -0.59938365221023548 -2.2181696891784664 0.017277861014008526 0.25955639779567724 -0.070187773555517183 -0.0027131013339385386 -4.896685641142539e-05 0.16951186209917071 0.55933690071105968 -0.00030236774182412768 3.530048608979542e-08 -0.17568751424551007 -0.0032789709512144323 -1.5133810043334959 0.00021558512526098641 0.37187439203262335 9.2887294158572345e-05 0.48010410368442541 -0.15406185388565061 4.3665178850460512e-07 0.065898764878511443 0.70860382914543163 -0.00023432703892467541 -9.5223867901950126e-06 -5.6716981333693177e-08 0.65741324424743663 -1.0768763786472844e-05 0.14330716431140902 -0.27580234408378596
decision_type=2 2 2 2 2 2 2 2 2 2 2 2 2 2 2 2 2 2 2 2 2 2 2 2 2 2 2 2 2 2 2 2 2 2 2 2 2 2 2
left_child=1 11 6 4 9 21 10 26 -5 -3 -2 -1 -6 19 38 16 -13 18 32 -12 37 22 -4 -16 25 -25 -8 -28 -29 -21 -7 -23 -9 34 -33 36 -34 -11 -15
right_child=2 3 5 8 12 30 7 17 -10 20 13 15 -14 14 23 -17 -18 -19 -20 29 -22 31 -24 24 -26 -27 27 28 -30 -31 -32 33 35 -35 -36 -37 -38 -39 -40
leaf_value=0.0036455121834189411 0.004082657779509247 -0.0023854173437425834 -0.0037864462676230298 -0.00023039006544367581 -0.001216219313618834 -0.0048948041850246796 0.0038095167815672577 0.0039466601991100456 -0.0022321648511238563 -0.003873882713884687 0.0020497884191053744 -0.00046903852721185015 -0.0027957479427029672 0.0050484379461598174 0.004724141663187493 0.00017662061564850255 0.0041225614206939392 1.003045548768587e-05 0.0051765172979924235 -0.0049306787422398789 -0.0070735967244681553 -0.0013841148616561636 0.0047161336495185786 -0.0087745613182613705 0.00036948737532318605 0.0040454528132417436 0.0082273671623908102 0.00096941762203902563 0.0069904047693074402 6.9242007943944695e-05 -0.0005018901112386477 0.0063692452522360098 0.0055921952283835745 0.0017771395700285917 -0.0034909233153908852 -0.0019606416722240203 0.0012248480980521623 -0.0098912398547517794 0.002217585776614218
leaf_weight=1773.1218394860625 2171.3541225977242 2667.0305445045233 210.87606819346547 11940.637780446559 9203.0249805003405 1849.7393628284335 3378.1072378605604 2025.6366492807865 7209.355193708092 3157.0036687552929 2695.5383024811745 857.09957367926836 10657.830266673118 1613.8465193025768 725.60827979445457 8966.899187348783 1556.4930241070688 1584.1202621497214 1521.8143260069191 398.05866293609142 2166.8605698533356 3606.4621725603938 826.33919131755829 65.979077596217394 6641.1207484714687 1409.7633177116513 1333.9644047319889 528.91828866675496 611.97897538542747 4891.45298037678 635.02889308705926 111.53836781904101 643.70209892094135 2578.4221329018474 665.90750409662724 650.50661331787705 3024.0949921198189 263.08947622030973 3373.8373905047774
leaf_count=7116 8955 10739 856 46817 36915 7185 12045 8604 29962 11474 10997 3569 43291 5985 2792 35139 6671 6984 6332 1512 9186 14947 3113 226 26869 5245 5544 2555 2920 19735 2860 562 2594 10179 2525 2667 12556 1298 13666
internal_value=-4.67643e-06 -0.00136349 0.00164438 -0.0020412 -0.00276006 -0.00079313 0.00229527 0.00331138 -0.000984907 -0.00443108 0.00164628 0.00107042 -0.00206471 0.00140298 0.00192966 0.000667675 0.00248477 0.00232478 0.00278874 0.000488573 -0.00540449 0.000132183 0.00297061 0.00124664 0.000933612 0.00346043 0.0049013 0.00638449 0.00421442 -0.000303717 -0.00377915 -0.00028816 0.00221319 0.000884421 -0.00205381 0.001396 0.00199609 -0.00434188 0.00313706
internal_weight=110192 60418.4 49773.7 47264.8 28114.8 10484.3 39289.4 15302.8 19150 8253.98 23986.6 13153.6 19860.9 21815.2 13830.2 11380.5 2413.59 9449.87 7865.75 7985.05 5586.95 7999.55 1037.22 8842.47 8116.86 1475.74 5852.97 2474.86 1140.9 5289.51 2484.77 6962.33 6343.94 3355.87 777.446 4318.3 3667.8 3420.09 4987.68
internal_count=443187 242177 201010 189682 112903 42227 158783 62801 76779 32697 95982 52495 80206 87027 54783 45379 10240 39737 32753 32244 21958 32182 3969 35132 32340 5471 23064 11019 5475 21247 10045 28213 26421 13266 3087 17817 15150 12772 19651
is_linear=0
shrinkage=0.0183401


Tree=2
num_leaves=40
num_cat=0
split_feature=195 115 94 195 52 52 42 53 116 116 97 15 6 121 166 180 174 155 184 179 163 89 175 175 73 162 181 115 14 10 42 181 32 163 53 195 19 61 82
split_gain=602.713 310.71 236.246 106.189 142.389 106.167 72.1455 63.6838 57.7805 57.5888 52.2085 51.9309 32.7756 31.4751 33.5864 30.275 30.2257 27.7875 25.6334 28.0062 27.2075 25.3458 24.1246 23.7124 23.3682 23.245 23.135 23.0649 22.9629 26.7358 28.4137 26.1063 23.3998 22.2293 24.914 23.0439 22.1113 26.9465 29.5264
threshold=0.091634035110473647 -0.0014070741599425671 0.0012343120761215689 -0.54914942383766163 0.0001486157925683074 0.00015805140719749036 -0.64975556731224049 0.0010803291224874558 -1.9266726970672605 1.5007404088974001 -0.00096285113249905397 0.6384229063987733 -0.00047037684998940671 0.0011505380971357229 -0.0071629518643021575 6.0294156355666935e-05 0.0011694362037815156 -4.0679246922081794e-06 0.00010306893818778919 9.6583404229022576e-05 -0.13326296955347058 -0.32714705169200892 -2.7727462053298946 0.54759019613266002 -0.0020847187843173738 -0.69227400422096241 5.7312339777126915e-05 -0.0010421735350973902 -0.0056039677001535884 0.00082748103886842739 -0.21040526777505872 -8.0496574810240404e-05 0.00042733774171210831 0.15244124084711078 -0.00027641134511213744 -1.0777071118354795 -1.0000000180025095e-35 0.0016124333487823608 -0.51936504244804371
decision_type=2 2 2 2 2 2 2 2 2 2 2 2 2 2 2 2 2 2 2 2 2 2 2 2 2 2 2 2 2 2 2 2 2 2 2 2 2 2 2
left_child=1 8 5 4 33 11 27 12 -1 25 24 18 17 14 -13 26 22 -5 19 20 -2 -11 -17 -9 -6 -4 -8 -7 29 36 -31 32 -30 34 -3 -36 37 38 -14
right_child=2 3 9 7 10 6 15 23 -10 21 -12 13 28 -15 -16 16 -18 -19 -20 -21 -22 -23 -24 -25 -26 -27 -28 -29 31 30 -32 -33 -34 -35 35 -37 -38 -39 -40
leaf_value=0.0036856004048376381 -0.0031270190976230437 -0.0026521410248611008 -0.0085149972389927889 0.0059485525989543733 0.0036030131438820117 0.0051169027933821313 0.00056751498820803035 -0.0028606434002773923 0.00063087362104594482 -0.00030345163700919538 -0.0035943197937288855 0.0038460075496904653 -0.0015478109624442401 0.0057961306248573421 0.01499029964238726 0.0085709131424730987 -0.0026286666644648429 0.00052959002861156389 0.0066540163291851822 0.008144026609131624 0.0025069908773015133 -0.0034704583059740803 0.0023064771092888812 -0.0075871051244737328 -0.00179374921690761 0.00027585151990553277 0.0018522230231695978 0.0024508284939822882 -0.0052569147175998629 -0.011353259181988169 0 -0.00084601859506038316 -0.00068366257405435204 -0.0014698173525337943 -0.0098436552344029742 -0.0059401893401416963 0 -0.0041090016822982302 0.010496084892138748
leaf_weight=2602.1662121899426 353.31115974113345 355.66375949978828 102.65978187322617 361.9687363281846 272.13422615081072 2548.0447106361389 12606.777444295585 1515.322139468044 10551.573686391115 1196.745025832206 6961.2121157310903 137.76144597679377 84.509949967265129 1401.9395290389657 297.88158337771893 213.17924961075187 408.82116778567433 2735.941837977618 555.75101733580232 237.81173078343272 1521.2225407324731 3043.4152177348733 10513.84700409323 477.85508872196078 16899.724339071661 6696.1970919407904 7588.4362380281091 1969.7325997240841 925.37771360576153 88.602751087397337 451.75059514865279 10702.785605031997 650.46375283971429 257.85195637121797 1097.4888309799135 1013.8339164964855 377.53883152827621 72.679769612848759 313.31017830967903
leaf_count=10283 1140 1359 267 1514 1148 10064 47047 6273 42075 4193 26631 545 290 5057 1178 744 1292 10961 2757 1052 5496 12427 47115 1916 70583 26701 32338 8002 4202 354 1787 40781 3406 856 4267 3972 1496 318 1176
internal_value=2.24008e-05 -0.00124601 0.0014732 -0.00196225 -0.00270208 0.00212368 0.0017894 -0.000902025 0.00123651 -0.000903132 -0.00225227 0.00477943 -0.000532359 0.00715939 0.0115063 0.00147609 0.00224522 0.0011684 0.00313373 0.00219927 0.00143576 -0.00258073 0.0024326 -0.00400257 -0.0017072 0.000140541 0.00105112 0.00395838 -0.000919152 0.00131051 -0.00185702 -0.00117269 -0.0033803 -0.00667945 -0.00721687 -0.00797754 0.00334943 0.00600233 0.0078936
internal_weight=110163 58769.8 51393.5 45616 26857.9 40354.5 35848.8 18758.1 13153.7 11039 24133.1 4505.68 16764.9 1837.58 435.643 31331.1 11135.8 3097.91 2668.1 2112.35 1874.53 4240.16 10727 1993.18 17171.9 6798.86 20195.2 4517.78 13667 1388.39 540.353 12278.6 1575.84 2724.84 2466.99 2111.32 848.039 470.5 397.82
internal_count=443063 235648 207415 183290 108816 163827 146602 74474 52358 43588 98362 17225 66285 6780 1723 128536 49151 12475 10445 7688 6636 16620 47859 8189 71731 26968 79385 18066 53810 5421 2141 48389 7608 10454 9598 8239 3280 1784 1466
is_linear=0
shrinkage=0.0183401


Tree=3
num_leaves=40
num_cat=0
split_feature=191 72 93 191 100 80 6 25 191 23 83 37 207 83 156 116 23 207 61 47 185 23 63 81 83 191 71 19 21 201 169 170 175 14 155 207 202 164 163
split_gain=614.502 213.559 212.032 147.681 102.249 102.001 100.112 59.7394 53.5854 49.5134 48.43 36.5895 35.0984 33.5956 31.2212 29.2252 28.7607 28.6273 30.5259 28.5976 28.0623 28.0389 32.2838 28.2697 28.0119 28.458 34.4696 37.479 31.6375 28.02 27.7417 28.3759 26.1124 25.5328 32.6001 25.1421 25.0824 24.9868 24.977
threshold=-0.34365227818489069 -0.00089365357416681934 0.0028226843569427733 0.68877875804901134 0.00167789519764483 0.0012777670635841789 -0.00021713818568969143 0.19275788962841037 -0.97319823503494252 0.068508319556713118 0.13046292960643771 -0.00038312720425892616 0.12379201129078866 0.0084149022586643713 0.0016197462682612242 -2.1901222467422481 0.90507510304451 0.3816720992326737 0.001713753037620336 0.45318381488323217 0.00020442600362002852 0.63747683167457592 -0.095670837908983217 0.16163717210292819 -0.26655551791191096 0.36351358890533453 0.00024743436370044952 3.9365744441965949e-07 0.031093749217689041 -0.41147764027118677 0.018827661871910099 5.885486280021724e-05 1.111000180244446 -0.00058876402908936132 2.0742290871567097e-06 -0.2677603662014007 -0.66908630728721608 -0.70546156167983998 0.18582157790660861
decision_type=2 2 2 2 2 2 2 2 2 2 2 2 2 2 2 2 2 2 2 2 2 2 2 2 2 2 2 2 2 2 2 2 2 2 2 2 2 2 2
left_child=1 15 3 6 17 8 7 14 11 -6 16 38 -10 36 -2 -1 33 18 -5 -4 -21 -9 -23 -24 -8 28 27 32 29 -26 31 -18 -27 -7 -35 -13 -11 -29 -3
right_child=2 5 19 4 9 10 24 21 12 13 -12 35 -14 -15 -16 -17 30 -19 -20 20 -22 22 23 -25 25 26 -28 37 -30 -31 -32 -33 -34 34 -36 -37 -38 -39 -40
leaf_value=0.0030656694055882228 0.0029505098155457083 -0.0034810051545213216 0.00058885391980737498 0.0036672558416722522 0.0044293082362487765 0.00031964124320453741 0.0012008808684689988 0.00046725710085942905 -0.001652383866676016 0.0035512279675286706 -0.0028903880275166463 0.0018964629405055587 -0.0045212643334782785 0.0004504598169786855 0.0070516080249020657 0.00023616834329818624 0.0020814207768481436 0.0073394835654789561 0.015844195075827305 -0.0032360226203002238 0.0012184025731667488 0.014808244442532793 0.0039760459957959744 -0.0022107222123059641 -0.0086395966098540278 0.0053660399041462808 -0.00013882496216773707 -0.012268010357467322 -0.00068671873250224084 -0.0013943199688605254 -0.0054193486797890914 -0.0033343218643886838 -0.0059661804790772715 -0.0022260969419409717 0.0011270071087705856 -0.0063517807233780766 0.001499904584506882 0.00052932958089126113 0.0087130018229251063
leaf_weight=1469.1750313676894 3234.5990725792944 2364.7313329279423 1006.8204636611044 6189.9754251651466 1998.0574585907161 5203.4650645628572 4319.8077712319791 6364.7935716323555 4420.7612657919526 2799.4448379054666 7024.6296419724822 125.22393238544464 2147.5539941415191 7559.2243520990014 785.76705393567681 7588.6838202215731 527.89862498641014 896.27023335546255 70.947878517210484 4611.1945292241871 524.34492363780737 77.727173868566751 1124.6534236632288 314.92803078889847 324.92342769354582 1039.3275122828782 4488.6572689339519 73.661808803677559 12418.327538430691 416.83017140626907 885.18870239704847 838.43653866648674 71.769555199891329 4300.5608288273215 1253.682038500905 3747.1879782192409 7282.921943821013 161.44561263173819 57.095511227846146
leaf_count=5891 12586 9708 3456 23965 7498 20947 17277 26164 16641 12190 30539 765 9033 31395 2674 29969 2262 4230 254 18876 3088 313 4335 1189 1168 3834 18220 311 49004 1518 3061 3301 295 16903 5204 14513 29307 601 157
internal_value=-4.86559e-05 -0.00179508 0.00102612 0.00134823 0.00237445 -0.00248181 0.000566879 0.00193553 -0.00375741 0.00168907 -0.00166195 -0.0049697 -0.00259305 0.00137773 0.00375641 0.000697042 -0.000997277 0.00425271 0.00380804 -0.00222312 -0.00277781 0.00100455 0.00324684 0.00261045 -0.000131084 -0.000434919 0.000629412 0.00320394 -0.000908147 -0.00459168 -0.00288426 -0.00122909 0.00461831 -0.000600716 -0.0014661 -0.00608054 0.0020712 -0.00340582 -0.0031863
internal_weight=110111 41954.3 68156.4 62014.1 26796.8 32896.4 35217.2 11902.5 12862.6 19639.6 20033.9 6294.24 6568.32 17641.6 4020.37 9057.86 13009.2 7157.19 6260.92 6142.36 5135.54 7882.1 1517.31 1439.58 23314.8 18994.9 5834.86 1346.2 13160.1 741.754 2251.52 1366.34 1111.1 10757.7 5554.24 3872.41 10082.4 235.107 2421.83
internal_count=442642 168894 273748 248328 108839 133034 139489 47261 50817 80390 82217 25143 25674 72892 15260 35860 51678 28449 24219 25420 21964 32001 5837 5524 92228 74951 23261 5041 51690 2686 8624 5563 4129 43054 22107 15278 41497 912 9865
is_linear=0
shrinkage=0.0183401


Tree=4
num_leaves=40
num_cat=0
split_feature=191 72 72 191 1 113 24 191 6 23 22 205 104 215 53 155 114 220 104 40 203 191 115 139 81 208 167 53 47 27 191 71 177 214 158 173 209 46 2
split_gain=592.453 329.896 165.019 114.553 134.123 81.8279 71.2393 54.3839 44.9515 42.6655 42.5699 40.2027 40.0036 39.1702 37.9012 37.2537 35.9518 35.0913 34.0868 32.7847 32.0336 28.9332 34.0814 31.0472 29.6437 28.8692 28.2888 28.0333 27.2795 29.8773 25.1098 27.5785 28.1501 24.857 24.7726 24.4968 26.1843 25.9782 24.6408
threshold=0.21387454122304919 -0.00093441654462367285 0.0012391260825097563 -0.42577759921550745 0.00020669087098212915 0.00019538908964022997 0.86114808917045604 0.46924838423728948 -3.4470711398171254e-05 0.068508319556713118 0.88178589940071117 1.2682440342359771e-07 0.041006717830896385 0.047650385648012168 0.0010017490712925794 9.8185279284734882e-07 0.002912777592428029 -0.87837970256805409 -0.043033797293901437 0.0006795247900299729 2.4658289476064969e-05 0.83446738123893749 0.0030651924898847942 0.10373127833008768 0.11412569507956506 -3.3134520904809499e-08 -0.49843326210975641 -0.00047650003398302937 0.27986103296279913 0.26711840927600866 -1.5625486969947813 0.0013373977271839978 9.2145824432373065 -0.18418703228235242 -1.7483363308201658e-06 0.59874325990676891 -1.6085198694781863e-05 1.779248118400574 0.00012627805699594322
decision_type=2 2 2 2 2 2 2 2 2 2 2 2 2 2 2 2 2 2 2 2 2 2 2 2 2 2 2 2 2 2 2 2 2 2 2 2 2 2 2
left_child=1 8 5 4 13 7 15 -2 -1 19 16 20 35 18 28 -6 -4 -8 -3 27 25 24 -23 26 -12 -9 -24 -7 34 -30 31 -19 -33 -26 -5 36 -11 38 -37
right_child=2 3 10 14 6 9 17 11 -10 12 21 -13 -14 -15 -16 -17 -18 30 -20 -21 -22 22 23 -25 33 -27 -28 -29 29 -31 -32 32 -34 -35 -36 37 -38 -39 -40
leaf_value=0.0020566748346996992 0.00017090530243513954 -0.0015587753595162428 0.0023277919308483928 0.0019652401304621064 -0.0019161044972246502 0.0049430268302984946 -0.0084057893373451452 0.0070904190128579696 -0.00027024247993871758 0.0046396766262751877 -0.00088965407730872 0.0088091003400677884 0.00064256126900734878 -0.0059929759518422918 -0.002847933850444493 -0.00017242030656260156 -0.0011840336175398686 -0.0073795886719050432 -0.0047845320133938071 -0.00069289414463407977 0.010555941190757725 0.001096911166042104 -0.002178102734129187 0.00074686503609623547 -0.017493186742880203 0.0022426197078720717 -0.010417266432565844 0.00078125603114041818 0.0014937385457628716 -0.00061618885177870274 -0.0025540498352992456 -0.0041740174418923616 0.014817897981270693 -0.0053580022828904738 -0.005965456611105935 -0.0025022126020453968 0.0020519974366715764 -0.011437108763426025 0.0017246461899375846
leaf_weight=9624.7094274684787 793.90444489941001 1936.1985073760152 1818.3817056044936 173.469627648592 10995.454166453332 2898.4984275996685 495.36176926642656 569.6455263979733 3916.0314001962543 1449.7246998548508 584.48050395026803 922.25472779199481 11028.344106949866 3597.7410139478743 2470.9238710515201 6629.3779289238155 2122.1938313581049 740.20735700055957 2619.6969742625952 533.21197070926428 247.32622696459293 1217.5613508597016 296.70402153208852 342.35262341424823 62.154020749032497 1576.5156253129244 277.34873702377081 683.05626991391182 2720.7926932796836 13185.28363962844 3609.2811115197837 76.694331463426352 39.421023666858673 922.85556088387966 523.06010112538934 625.71308533847332 15697.881212294102 61.612575046718121 1775.7732897922397
leaf_count=38110 2901 6347 7602 518 46235 10721 2023 2258 15539 5840 2197 4196 47284 15232 10035 28596 9159 2935 8877 2075 1077 4466 1131 1264 217 5079 1070 2430 10161 53021 14067 400 163 3425 1647 2695 63429 187 7786
internal_value=-1.09715e-06 -0.00115519 0.00157066 -0.00184535 -0.00253836 0.0020553 -0.00180919 0.0045053 0.00138243 0.00176508 -0.00089103 0.00553783 0.00152858 -0.00455604 -0.000727547 -0.00126123 0.000432062 -0.00375241 -0.00341747 0.00352184 0.00427004 -0.00230356 -0.000902885 -0.00357896 -0.00419684 0.0035375 -0.00618926 0.0041542 -0.000410921 -0.000254178 -0.0032323 -0.00607062 0.00212306 -0.00614149 -0.00396521 0.00202596 0.00227179 0.000307441 0.000616044
internal_weight=109861 63353.7 46507.5 49813 30739.4 38863.5 22585.8 4109.65 13540.7 34753.8 7644.03 3315.74 30639 8153.64 19073.5 17624.8 3940.58 4960.97 4555.9 4114.77 2393.49 3703.46 2133.97 916.405 1569.49 2146.16 574.053 3581.55 16602.6 15906.1 4465.6 856.323 116.115 985.01 696.53 19610.7 17147.6 2463.1 2401.49
internal_count=442395 253906 188489 200257 124875 157958 94419 15511 53649 142447 30531 12610 127221 30456 75382 74831 16761 19588 15224 15226 8414 13770 7931 3465 5839 7337 2201 13151 65347 63182 17565 3498 563 3642 2165 79937 69269 10668 10481
is_linear=0
shrinkage=0.0183401


Tree=5
num_leaves=40
num_cat=0
split_feature=191 53 73 113 199 10 116 71 104 191 6 37 170 102 183 130 108 104 125 104 122 108 220 179 42 180 191 212 191 75 157 10 33 75 107 86 191 144 151
split_gain=559.388 224.798 187.602 91.4096 92.4012 74.9687 74.7976 74.2621 64.0523 60.8309 53.2189 38.9655 35.1368 31.4301 31.0017 30.1629 30.1379 29.6981 29.2937 28.6485 27.7167 33.9977 26.7265 26.0896 26.5908 25.8605 25.701 25.6749 25.3264 31.4182 30.5226 29.4044 28.3072 25.7625 24.703 24.4763 27.4168 24.3343 24.0769
threshold=0.011175906285643579 -0.00040703595732338721 0.0010021745110861959 0.00026526881265454 -0.52491798996925343 -0.0021778231021016832 1.8200886249542239 0.00023985924053704369 0.034570321440696723 0.46924838423728948 -0.00034972524736076588 -0.00030943994352128351 0.00042068141920026397 0.082404483109712615 0.00016441501065855849 0.98146191239357006 1.6588243842124941 -0.087426561862230287 -0.34690061211585993 -0.14319383352994916 0.0010910865385085346 -0.58230158686637867 -0.60785761475563038 0.0001140277490776498 0.96483111381530773 -0.0001025850542646367 -0.46236595511436457 8.2433988524144314e-09 0.94267708063125621 0.00017126393504440787 4.6073168050497777e-05 -0.0017240011948160825 -0.0003739440871868282 -3.3846359656308771e-05 0.58741295337677013 0.56358271837234508 -0.29733371734619135 -0.089821085333824144 2.3315071757679111e-06
decision_type=2 2 2 2 2 2 2 2 2 2 2 2 2 2 2 2 2 2 2 2 2 2 2 2 2 2 2 2 2 2 2 2 2 2 2 2 2 2 2
left_child=1 5 7 4 20 -1 -4 9 11 -2 12 -5 15 34 19 -9 17 -7 -12 -11 21 -3 -15 24 -21 -22 -19 -23 30 31 33 -30 -33 37 -10 36 -6 -20 -27
right_child=2 3 6 8 35 16 -8 10 13 14 18 -13 -14 22 -16 -17 -18 26 28 23 25 27 -24 -25 -26 38 -28 -29 29 -31 -32 32 -34 -35 -36 -37 -38 -39 -40
leaf_value=0.002530918289157497 0.0010265227735027525 -0.013257388840478421 8.0923656949773482e-05 -0.00022043302188372516 -0.0034384795080570703 0.00095488814903788683 -0.0033118744025332036 0.0017620690763012039 -0.001335910580511386 0.0066194054870120974 0.0060230994188793388 -0.0019410671540687392 0.0044449637168332253 -0.0054134331901428004 0.0091105203895117427 0.0079464450480386441 0.0093599372558641949 -0.0018534333655024857 0.014303596588661744 0.0020865271802435375 -0.0079895214736756762 0.0036141952814575593 -0.0027652455261798353 0.0074464391105088018 0.0063286065449205207 -0.0053219113772747257 0.0005660501379969315 -0.0076996453990602846 -0.00025472692106936909 -0.007831310029911236 -0.0035685924333739489 -0.003969937924791442 0.0025294782748743398 0.00011096828757356428 -0.0078093400787084656 0.0036934360236968787 0.00027433944100459571 0.001703088422113315 -0.0020048992157792865
leaf_weight=4608.0948044620454 2488.6089611202478 322.21989534050226 8520.9189618900418 11175.069617815316 1580.7863352447748 3677.567502643913 2935.2941745221615 8051.3899821490049 5885.5647311247885 1166.6534310653806 385.19372022897005 7360.4908595792949 2534.0997574850917 1641.7070384286344 452.61397906392813 276.23016673326492 108.06080325320363 4667.9682663343847 52.682225681841373 3004.2766138166189 734.56963465735316 86.525095775723457 6209.9348493441939 465.14874028787017 603.37769659981132 2100.0705136060715 2146.2033612057567 279.99104371666908 1866.7133727818727 114.99769516661763 612.95218339562416 230.85579214245081 6990.988858025521 9843.3295234963298 206.58673079311848 292.66425124183297 1145.5556514076889 3819.030935306102 1164.7571371831
leaf_count=18628 9002 1400 33947 45730 6028 14196 11667 35267 25112 4094 1925 28186 8515 7719 2543 834 425 18879 150 10534 3125 405 26150 2036 2226 7307 8683 1348 7764 554 2560 940 29139 40405 440 872 4173 15180 3856
internal_value=-2.31814e-05 -0.00132071 0.00129737 -0.00203952 -0.00383679 0.000577588 -0.000786847 0.00185359 -0.00161251 0.00342746 0.00148288 -0.000904642 0.0025485 -0.00255222 0.00447409 0.00196931 -0.000269941 -0.000370792 0.000998199 0.00407023 -0.00544947 -0.00887845 -0.00332119 0.00333572 0.00280086 -0.0048546 -0.00108882 -0.00498101 0.000915201 0.00166658 0.000431331 0.00178869 0.00231929 0.000611371 -0.0015583 -0.0013267 -0.00187201 0.00187906 -0.0041439
internal_weight=109810 55394.4 54415.4 40186.5 7707.14 15207.9 11456.2 42959.1 32479.4 8180.68 34778.5 18535.6 10861.7 13943.8 5692.07 8327.62 10599.8 10491.7 23916.7 5239.46 4688.13 688.736 7851.64 4072.8 3607.65 3999.4 6814.17 366.516 23531.6 9203.56 14328 9088.56 7221.84 13715 6092.15 3019.01 2726.34 3871.71 3264.83
internal_count=441944 222662 219282 161851 28514 60811 45614 173668 133337 30435 143233 73916 44616 59421 21433 36101 42183 41758 98617 18890 17441 3153 33869 14796 12760 14288 27562 1753 96692 38397 58295 37843 30079 55735 25552 11073 10201 15330 11163
is_linear=0
shrinkage=0.0183401


Tree=6
num_leaves=40
num_cat=0
split_feature=187 72 73 101 187 77 23 93 72 117 102 125 77 36 181 53 148 141 181 63 177 125 151 141 207 184 22 214 123 183 113 160 169 15 184 184 6 130 2
split_gain=500.028 263.871 166.535 118.769 83.3684 58.9158 68.0261 55.1362 50.8155 48.7869 45.2448 42.9339 41.538 39.1461 36.9658 36.1999 35.9664 34.8857 34.6515 32.8115 32.9129 32.0376 30.3378 28.9208 28.3267 28.0737 27.9155 27.7305 27.4101 27.0956 26.7973 26.5582 26.2138 26.1487 26.0109 25.4706 25.4509 30.1685 30.8513
threshold=0.16874178498983386 -0.00093441654462367285 0.00086743460269644867 0.0020803288789466028 -0.86205685138702381 0.00055362060084007691 0.56240597367286693 0.0021055695833638315 -0.0027131013339385386 -4.4543392505147488e-05 0.1742147505283356 -0.047930875793099396 0.0013510388089343908 -5.55928472749656e-05 -3.866547558573074e-05 -0.0012910717050544915 0.0034591978183016185 0.11241530254483224 0.00017724099598126489 -0.074744991958141313 13.945799350738527 -0.098831377923488603 3.4034299460472546e-05 0.063807900995016112 0.15615469217300418 9.4588183856103583e-05 0.33905681967735296 -0.16788980364799497 -0.15002612769603726 0.0001014099361782428 0.0018974615959450605 -7.7378382457027318e-07 -0.056078225374221795 0.30736705660820013 0.00010839905371540227 -5.4977052059257396e-05 -0.00034972524736076588 0.53618085384368908 0.00034595583565533167
decision_type=2 2 2 2 2 2 2 2 2 2 2 2 2 2 2 2 2 2 2 2 2 2 2 2 2 2 2 2 2 2 2 2 2 2 2 2 2 2 2
left_child=1 8 5 4 14 15 13 21 9 -1 16 -6 29 36 24 32 -4 18 19 20 25 -5 -13 -11 -3 33 28 -9 -10 -8 -30 -22 -2 -17 -12 -19 -7 -38 -39
right_child=2 3 10 7 11 6 12 27 26 23 34 22 -14 -15 -16 17 -18 35 -20 -21 31 -23 -24 -25 -26 -27 -28 -29 30 -31 -32 -33 -34 -35 -36 -37 37 38 -40
leaf_value=-0.00011624341175303512 0.010211331717524225 -0.0043110913089018047 0.0010452629142331811 0.00060042887685701448 -0.00033136295164910173 0.0031960275618993029 0.0033868049596975482 -0.012635523410797276 0.0048262331342207492 0.0031332694116274749 -0.00390265404044771 -0.0025002538246432331 0.001891918223296698 -8.4791277942484398e-05 -0.002528717765574564 -0.0017355726428369934 -0.0012975270901325851 -0.0048913503818541334 0.0087467810863105493 0.0050471924781875926 -0.0057665192751147924 -0.00095405264303151751 -0.014980635137458481 0.0075153415992208752 -0.0073815344841260721 0.0033348753052685372 -0.00097358435135683262 -0.0021576909454748849 0.00095227310789555806 0.0071812135671826148 -0.008469325876761807 0.0045176691987527046 0.0044473324760606215 0.0013621575584011104 0.00022198275925175897 0.007627360019027779 0.0013082413918809026 0.00094794599789690839 -0.011118495926687181
leaf_weight=1036.0250374041498 352.34559740126133 3934.5645819753408 5326.2846143208444 6751.9912123940885 4277.3700998164713 2618.6064977198839 2559.4490726105869 86.707505166530609 626.42295293882489 1474.5659001804888 1776.9671307243407 8107.9249336570501 7367.6662089005113 8334.1989805102348 2896.8890550099313 1510.4816574081779 3758.6890077292919 57.838335130363703 278.17952410131693 1120.3828024193645 87.999865986406803 13081.633783150464 66.641229342669249 791.61509454995394 1394.5601652599871 1222.8518287390471 2905.8720377162099 7284.107429459691 6413.6020014435053 859.74700601026416 102.84827527403831 1510.7844096198678 1182.7287802807987 2327.7626972459257 712.68422237038612 661.98989954590797 5036.7451301552355 144.07725574076176 136.51133790239692
leaf_count=4387 956 15380 21097 27491 15949 11709 9542 420 2316 6381 6997 32087 30308 34309 10801 4805 14809 218 1694 4393 259 53225 252 3175 6201 5459 12042 30400 24293 3979 569 4610 4599 9774 3533 1977 21329 494 471
internal_value=1.46293e-05 -0.00108982 0.00139673 -0.0017257 -0.00277381 0.0019922 0.00154135 -0.000928393 0.0011894 0.00316426 -0.000524321 -0.00182482 0.00267143 0.000791052 -0.00420819 0.00317329 7.40645e-05 0.00271515 0.00236622 0.00213583 0.00164343 -0.000423976 -0.00260414 0.00467172 -0.00511787 0.000914286 0.000538685 -0.00228332 0.00115636 0.00434601 0.000800889 0.00394067 0.00578174 0.000138536 -0.00271491 0.00659718 0.00171305 0.000979449 -0.00486025
internal_weight=110178 61233.3 48945 47882.4 20678 37370.3 27057 27204.4 13351 3302.21 11574.6 12451.9 10786.9 16270.1 8226.01 10313.3 9084.97 8778.27 8058.44 7780.26 6659.88 19833.6 8174.57 2266.18 5329.12 5061.1 10048.7 7370.81 7142.87 3419.2 6516.45 1598.78 1535.07 3838.24 2489.65 719.828 7935.94 5317.33 280.589
internal_count=442690 245369 197321 192206 80670 150885 112141 111536 53163 13943 46436 48288 43829 68312 32382 38744 35906 33189 30994 29300 24907 80716 32339 9556 21581 20038 39220 30820 27178 13521 24862 4869 5555 14579 10530 2195 34003 22294 965
is_linear=0
shrinkage=0.0183401


Tree=7
num_leaves=40
num_cat=0
split_feature=195 73 41 102 195 79 92 53 118 128 83 53 75 158 26 203 83 47 3 144 189 85 11 60 162 152 20 112 195 62 102 55 132 154 64 11 165 213 83
split_gain=555.128 211.291 180.372 99.2029 84.0569 92.248 62.8873 61.5729 57.8807 55.5286 51.8334 43.4698 40.6415 33.8073 33.7049 33.0344 33.1416 51.9791 29.5109 27.9167 29.6113 28.5339 27.8848 28.2945 28.208 27.7756 28.3652 27.152 27.1063 25.8619 26.3575 25.5087 25.4773 33.0481 28.8432 25.3874 25.0997 25.0173 26.7053
threshold=-0.4404976069927215 0.0010021745110861959 0.00026303886261302983 0.041157541796565063 0.091634035110473647 0.0009274230687879027 0.00019938147306675094 -0.00034325782326050097 -0.0013272465439513324 8.6584150267299278e-05 0.10604820400476457 -0.0002242759146611206 -4.5014036004431539e-05 2.1115273511895798e-06 0.73902592062950145 2.1029140043538067e-05 -0.12309142202138899 0.53985643386840831 3.8436554916643223e-07 0.050609141588211067 -1.0149503350257871 -0.47705554962158198 -0.0026142091955989595 0.00098607601830735824 -0.47591572999954218 -0.035607937723398202 0.00010420204853289762 0.18910960853099826 -0.89412033557891835 -0.28102836012840265 -0.13781741261482236 -0.34271191060543055 0.65691721439361583 0.0040728207677602777 0.5855994224548341 0.0036269304109737281 0.10480086505413057 -2.7291765718473467e-06 -0.40363363921642298
decision_type=2 2 2 2 2 2 2 2 2 2 2 2 2 2 2 2 2 2 2 2 2 2 2 2 2 2 2 2 2 2 2 2 2 2 2 2 2 2 2
left_child=2 4 6 11 7 15 -1 22 28 14 27 -4 13 -9 35 16 -6 -18 31 25 -21 -22 23 -2 -25 -5 -27 -3 -8 -12 -31 -11 33 34 -16 36 -7 -38 -39
right_child=1 10 3 19 5 9 8 12 -10 18 29 -13 -14 -15 32 -17 17 -19 -20 20 21 -23 -24 24 -26 26 -28 -29 -30 30 -32 -33 -34 -35 -36 -37 37 38 -40
leaf_value=-0.0066122655753505215 0.0061054281265094162 0.00088563931689966268 0.00054009194693643197 -0.007592650999673628 0.0045586092935562149 0.002658018621794819 -0.0031162422754599985 -0.00088544882079177509 -0.0054700582317009534 -0.0025691284642134085 -0.011890005940970474 -0.0012627018725432889 -0.0011336141813108967 0.0039850522250935118 0.00026902201041759252 0.0062946096833311604 0.0005781148009575207 0.0050416244110552625 -0.00056495588599486505 -0.011155570321803053 -0.010212635459015454 -0.0014226269533403272 0.00095795218690514477 0.012660949645025859 0.00041537204040615586 -0.0028352164211602289 -0.00081428955548672915 -0.0016177908755437541 -0.00010678516987926765 0.006778767303027948 -0.0020472910020920081 0.0016665428260325861 -0.01121436715585636 0.0053193501919426263 -0.0067282816439068627 0.0079331053599674666 0.0031534766572691901 0.0039717440157680641 -0.00029466261409988602
leaf_weight=2470.78853405267 859.00423126667738 4826.9768398217857 9628.5832969993353 316.49443667754531 2960.9875315986574 12117.081720281392 2419.7916236557066 855.86298087239265 2349.0750530324876 521.71847555041313 89.192549671977758 8432.8094783127308 8289.1286276504397 1075.8997315913439 2398.1068023443222 1284.0415514446795 2781.554613661021 1289.5210036486387 5612.3274179957807 239.42383310943842 166.31748004257679 517.00375009700656 4171.6335996091366 69.003659330308437 811.44350480660796 6047.4468991234899 3853.3248280249536 2085.9564459845424 1744.999285582453 114.58001633733511 7916.1872906573117 5395.7429991848767 64.295633193105459 405.84803500026464 215.73284187540412 265.84407043084502 1494.6950213946402 581.06608935818076 3244.5959116071463
leaf_count=9572 3143 18157 38332 1043 11245 50723 10107 3361 8965 1801 383 34215 32508 4252 9136 6040 11661 4786 26596 774 515 1829 16451 280 3451 27035 14762 7768 7065 503 33271 18831 169 1283 821 1154 6437 2333 11939
internal_value=-5.44847e-05 0.000895581 -0.00184127 -0.00114127 0.00140771 0.00185247 -0.00411441 0.000286358 -0.00316426 0.00140829 -0.00103707 -0.000300658 -0.000574018 0.00181813 0.00197468 0.00357648 0.00307766 0.00199624 0.000385625 -0.0025026 -0.00557027 -0.00358768 0.001777 0.00373122 0.00139497 -0.00222384 -0.00205045 0.000127706 -0.00185951 -0.00203086 -0.00191919 0.00129014 0.000199078 0.000447887 -0.000301807 0.002283 0.00219586 0.00114001 0.000348774
internal_weight=109984 71798 38186.1 29201.4 56765.1 40633.2 8984.65 16132 6513.87 32317.1 15032.9 18061.4 10220.9 1931.76 20787.3 8316.1 7032.06 4071.08 11529.8 11140 922.745 683.321 5911.08 1739.45 880.447 10217.3 9900.77 6912.93 4164.79 8119.96 8030.77 5917.46 3083.98 3019.69 2613.84 17703.3 17437.4 5320.36 3825.66
internal_count=442697 288483 154214 118505 228401 164955 35709 63446 26137 131223 60082 72547 40121 7613 83995 33732 27692 16447 47228 45958 3118 2344 23325 6874 3731 42840 41797 25925 17172 34157 33774 20632 11409 11240 9957 72586 71432 20709 14272
is_linear=0
shrinkage=0.0183401


Tree=8
num_leaves=40
num_cat=0
split_feature=187 72 115 97 116 181 181 92 52 212 128 205 27 22 166 155 181 0 147 151 138 104 163 92 102 140 43 212 187 56 211 21 17 112 138 132 203 140 44
split_gain=542.396 251.696 162.891 83.805 64.5462 54.2227 52.0782 53.8099 45.3676 40.112 38.9555 37.0747 35.2248 33.3794 32.4981 31.8147 29.6356 29.54 29.5362 29.3821 29.0639 28.7868 28.5555 27.0953 26.4133 39.9969 31.0148 26.6484 25.9642 30.4701 26.5329 25.2459 25.1592 25.0605 35.2259 25.0594 24.9452 23.9152 23.7895
threshold=0.14590929448604587 -0.00089365357416681934 0.0012278035283088686 -0.00064392219064757217 1.8876918554306032 -7.1225957071874277e-05 1.0109215054399103e-05 0.00039929580816533422 0.00020993658836232501 1.0387526838684382e-08 3.3934920793399222e-05 9.3736716166858982e-08 0.6261270046234132 0.14987143874168399 0.16565365344285968 -3.5163006941729687e-06 -2.0197509002173316e-05 -0.00016517929179826749 -0.04656811244785785 -1.5935484043438916e-05 -0.087150752544403062 -0.11087841168045996 0.13092853128910067 0.00011122507203253919 0.11161556467413904 1.3251477867015639e-05 1.7095698118209841 1.7599601775941668e-08 0.66972351074218761 4.5188899093773223e-05 0.037931399419903762 0.98572301864624035 1.2542184890662613e-06 0.60689190030097973 0.15437260270118716 0.85823941230773937 4.7744570110808135e-06 -0.00044309181976132089 -0.19796955585479734
decision_type=2 2 2 2 2 2 2 2 2 2 2 2 2 2 2 2 2 2 2 2 2 2 2 2 2 2 2 2 2 2 2 2 2 2 2 2 2 2 2
left_child=1 13 6 8 28 20 14 11 16 22 -9 32 18 -1 21 -14 -3 -11 -10 -20 -5 -2 -7 -13 -17 -26 27 -27 29 -4 36 37 35 38 -35 -8 -31 -12 -30
right_child=2 3 4 5 -6 9 7 10 12 17 31 23 15 -15 -16 24 -18 -19 19 -21 -22 -23 -24 -25 25 26 -28 -29 33 30 -32 -33 -34 34 -36 -37 -38 -39 -40
leaf_value=0.0020117273953394518 0.0020200349437549856 -0.004198371817486295 0.00066986427811898622 -0.0093375213616037813 -0.003079638113850511 -0.0018494073125209375 0.0030807885159581123 0.002638648746919681 -0.0074293259893209789 0.00082640038142305235 0.0076400557919552659 0.0095820831603684094 0.0015996507901101477 0.00018593366265114383 0.007642885575770161 -0.0014406805362338897 -0.0013204072920958039 -0.0045504685257186381 0.0011613868178214695 -0.00085414623371222597 -0.0045114909163805417 6.026121358050243e-05 0.0022686672441352904 0.004454528380827512 -0.0060908107079201967 -0.00023478742283950885 -0.011963440016305053 -0.0035119861870042865 0.0031944209187155289 -0.0014160989143824074 0.00069065779792572897 0.0030142247174827982 0.00029237350739565361 -0.0030891488559311579 0.0059003168551065221 0.013367938489691396 -0.0062831640243576937 2.3107838240778619e-05 0.00064156219825148026
leaf_weight=6328.6556208245456 4174.7754571028054 2959.6517653539777 2163.5327243357897 511.51589122787118 2339.3137081973255 2817.6955479085445 5128.4299307651818 8751.1193407177925 211.46636041626334 386.72608395665884 142.49778012186289 394.69284764677286 842.34639766812325 7249.4939343370497 241.97743199393153 8247.1746974885464 2064.7186463326216 2745.5292410440743 2896.3531476072967 15024.36838055402 2610.316211540252 6412.9805174022913 705.55840986222029 3367.3050707355142 1186.3088920973241 1701.1983234547079 106.17658163607121 1661.7742127589881 1838.3183879889548 734.71453361585736 625.36276502162218 1369.3065344728529 1208.2096012756228 883.98375228047371 174.78297837078571 82.012765396386385 705.19102670252323 5322.6849036216736 3770.1429858654737
leaf_count=23878 16540 11281 8494 1873 9390 10320 17322 38256 637 1226 673 1738 3633 30224 682 32946 7377 9610 12097 62988 11120 25238 2172 13437 4786 7404 473 7518 7311 2743 2712 4817 5140 3484 630 248 2757 24167 15070
internal_value=1.18069e-05 -0.00115871 0.00142756 -0.00179813 -0.000314889 -0.00330913 0.00205822 0.0025072 -0.0013973 -0.00236898 0.0018275 0.00354603 -0.00114112 0.00103821 0.000988394 -0.00184198 -0.00301918 -0.00388102 -0.000608877 -0.000527419 -0.00530785 0.000834657 -0.00101977 0.00499714 -0.00206802 -0.00317559 -0.00217367 -0.00185938 0.000277081 -0.000844821 -0.00244005 0.000786316 0.00269281 0.00099129 -0.00158863 0.00324607 -0.00381188 0.000224911 0.00148145
internal_weight=110088 60257 49831.3 46678.9 13235.3 9777.34 36596 25766.3 36901.5 6655.51 15585.6 10180.7 31877.2 13578.1 10829.7 13745 5024.37 3132.26 18132.2 17920.7 3121.83 10587.8 3523.25 3762 12902.6 4655.46 3469.15 3362.97 10896 4228.8 2065.27 6834.49 6418.65 6667.23 1058.77 5210.44 1439.91 5465.18 5608.46
internal_count=442412 241563 200849 187461 52591 36321 148258 105798 151140 23328 67913 37885 132482 54102 42460 56760 18658 10836 75722 75085 12993 41778 12492 15175 53127 20181 15395 14922 43201 16706 8212 29657 22710 26495 4114 17570 5500 24840 22381
is_linear=0
shrinkage=0.0183401


Tree=9
num_leaves=40
num_cat=0
split_feature=187 97 93 191 191 24 92 113 150 183 54 212 54 37 125 33 94 32 173 96 83 74 147 54 119 124 186 24 46 20 169 83 199 92 42 37 64 201 54
split_gain=557.73 248.1 169.877 90.5347 77.5882 75.6168 58.0871 52.9514 44.8005 44.1042 37.315 36.2013 35.813 35.1872 35.7161 41.7676 33.781 33.1492 30.9303 30.3964 30.0531 30.0142 29.3218 28.6463 28.3602 28.2356 31.2153 28.2095 27.1327 34.5238 28.0763 26.6696 25.4681 24.8001 26.5727 28.1734 26.3438 24.2775 23.6085
threshold=0.14590929448604587 -0.0025469698011875148 0.0016337587148882451 -1.0032352209091184 0.68877875804901134 0.22816620767116549 0.00033189654641319072 0.00026526881265454 0.13658781349658969 -8.2722632214426981e-05 0.00078711460810154687 4.4025968648497844e-08 4.7349943997687667e-05 -1.1139803518744882e-05 -0.046303233131766312 -0.00048922642599791278 0.00023544615396531301 0.00050277684931643318 -1.0814023017883299 -2.1136384930287019e-05 0.14344426244497302 -2.2201590538024898 0.020713080652058128 -0.0010349286603741346 0.0034000568557530646 0.44383732974529272 3.5913099054596394e-05 0.93890097737312328 1.4507933259010317 6.5548258135095252e-05 0.049439324066042907 -0.1723225340247154 1.5434020161628725 8.8114320533350124e-05 -0.57641667127609242 -1.0000000180025095e-35 0.074349321424961104 1.0676655173301699 -0.00058205192908644665
decision_type=2 2 2 2 2 2 2 2 2 2 2 2 2 2 2 2 2 2 2 2 2 2 2 2 2 2 2 2 2 2 2 2 2 2 2 2 2 2 2
left_child=1 5 4 7 10 9 33 24 16 17 13 18 21 14 -2 -16 -9 -1 -5 27 22 -11 -8 -4 -3 26 -20 -7 29 -24 -31 -25 -33 34 -6 -36 -35 -21 -27
right_child=2 3 23 11 6 19 20 8 -10 12 -12 -13 -14 -15 15 -17 -18 -19 25 37 -22 -23 28 31 -26 38 -28 -29 -30 30 -32 32 -34 36 35 -37 -38 -39 -40
leaf_value=-0.0034069220980921227 0.0019899689757160049 -0.0050325529556818844 0.0044427610457705869 0.0016122288447870637 0.0010663658867712661 0.00040915711920263718 0.0027431007906040411 -0.00055599803896095288 -0.015453109632979991 0.0059443942283030349 -0.0018535474288675607 -0.0035180513139848142 -0.0059720737388950567 0.0038898710038622591 0.0028158944841564578 -0.00047459403158252154 -0.0033601230644266871 0.00070157601298493288 -0.0015089555499740055 -0.0017647421599659198 0.00038858682326618158 0.0018563873386270525 -0.0044498562938579799 0.0028480758718201255 -0.010498514533171476 0.0033669836438215174 0.00065925752805748718 -0.0056658518699619319 0.0047338218998227077 0.00042526010114304051 0.013309878918454124 -0.0017838069732038447 0.00097342805976013492 0.0046781844958201663 0.014196137004010926 0.0035873159263422973 0.0022577523023147522 0.0012869837600218133 -0.0025466510952520281
leaf_weight=955.01067643240094 6520.8694020695984 2556.0880899652839 328.84259955585003 1146.1260339654982 144.6522077396512 6957.657022472471 11256.742264643312 1903.3098977021873 94.421265073120594 667.45456967130303 1408.2047434337437 2859.5392907336354 182.81484906002879 1546.130374211818 1614.0218401737511 6602.9665313623846 6214.666102014482 2130.0424844957888 7838.2138830535114 7799.8393460065126 3104.1096862480044 6919.630821198225 571.91295064613223 546.70563592389226 373.65201918780804 231.94257722049952 3110.3813063539565 266.77807486057281 345.49348049610853 709.60664653405547 62.210216749459505 6806.0274537205696 1341.6070316806436 3831.0378068685532 244.14796417951584 136.22527775168419 2560.2430259138346 981.1013245023787 7204.1883578933775
leaf_count=3668 25817 9749 1515 4449 599 28979 48215 8088 232 2528 5780 13118 592 5525 6573 26970 25206 9680 29313 34691 13818 25204 2098 2039 1274 781 12741 1094 1191 2461 167 27660 5279 13867 1068 574 9619 4456 26326
internal_value=-2.4496e-05 -0.00120872 0.00141468 -0.00226081 0.00192003 0.000104068 0.00262368 -0.00361293 -0.00285354 0.00128624 0.00100562 -0.00158717 0.00202337 0.00125395 0.000976228 0.000169611 -0.00270483 -0.000564582 -0.00130357 -0.000696597 0.00201603 0.00221833 0.0024049 -0.000860469 -0.00573564 -0.00148629 -0.000891391 0.000182403 0.000140802 -0.00102712 0.00148646 -0.00106306 -0.00132765 0.00403128 0.00789272 0.0104427 0.00371134 -0.00142178 -0.00235984
internal_weight=110075 60392.9 49681.8 33532.5 40658.6 26860.3 22966.4 11142.1 8212.4 10855 17692.2 22390.4 7769.9 16284 14737.9 8216.99 8117.98 3085.05 19530.9 16005.4 16050.1 7587.09 12946 9023.18 2929.74 18384.7 10948.6 7224.44 1689.22 1343.73 771.817 8694.34 8147.63 6916.31 525.025 380.373 6391.28 8780.94 7436.13
internal_count=443004 242169 200835 131277 164342 110892 93677 44549 33526 41672 70665 86728 28324 64885 59360 33543 33294 13348 73610 69220 67950 27732 54132 36493 11023 69161 42054 30073 5917 4726 2628 34978 32939 25727 2241 1642 23486 39147 27107
is_linear=0
shrinkage=0.0183401


Tree=10
num_leaves=40
num_cat=0
split_feature=187 115 73 195 116 81 57 116 61 34 128 72 181 101 103 44 211 24 195 149 67 195 117 139 114 155 200 83 202 73 58 100 70 175 210 103 108 13 85
split_gain=557.892 209.775 160.837 76.6836 64.8492 49.7942 50.7736 49.3921 46.9808 45.5862 45.1471 39.0956 38.6845 36.7344 34.5705 33.4298 32.5817 30.726 30.382 33.2693 29.9459 31.2634 30.8102 29.8958 28.5863 28.2627 28.1582 28.0193 26.5098 26.3481 26.2466 25.9043 25.8752 25.3918 24.9912 27.6457 27.1859 25.3278 25.1723
threshold=0.14590929448604587 -0.0012260982184670863 0.0013696794048883023 -0.96628132462501515 1.6198245286941531 -0.29750697314739222 -1.9013685232494023e-05 -2.1901222467422481 0.00033231651468668138 0.0012505842023529115 -7.1785620093578459e-05 -0.00087337664444930841 4.9549164032214328e-05 0.0016891626873984935 0.89814612269401561 0.022217364981770519 0.039735667407512672 0.89939069747924816 -0.2780120968818664 9.1606416390277462e-06 0.00050468475092202436 0.70860382914543163 2.6955148314300462e-05 -0.23506148904561994 0.0051470834296196708 4.4132066534530173e-07 -0.66003227233886708 0.065077055245637908 -0.07994381338357924 0.0025600632652640347 0.0017200883594341578 0.0098120104521513003 -0.65380340814590443 0.54759019613266002 -0.17369071394205091 0.7476886808872224 0.40418499708175665 -0.0055091374088078729 0.51972258090972911
decision_type=2 2 2 2 2 2 2 2 2 2 2 2 2 2 2 2 2 2 2 2 2 2 2 2 2 2 2 2 2 2 2 2 2 2 2 2 2 2 2
left_child=1 7 5 8 -4 26 10 -1 16 11 15 -5 14 -14 -12 -7 -3 -10 -9 23 21 29 24 -20 -22 -8 -2 28 -11 -13 32 -19 -28 -16 36 37 -17 -36 -38
right_child=2 3 4 9 -6 6 25 18 17 27 12 20 13 -15 33 34 -18 31 19 -21 22 -23 -24 -25 -26 -27 30 -29 -30 -31 -32 -33 -34 -35 35 -37 38 -39 -40
leaf_value=0.0034389018885767897 0.00054555322625946413 -0.0027617145327330506 0.00028414248212474147 0.00092448885597606705 -0.003229611013936178 0.0029302270077456931 0.0058447745297329221 -0.00040887285508675559 -0.0020921057917059282 0.0032916967802581001 0.0005657511640542117 -0.0019141186761131403 0.0034532657447575266 0.0010429126383625239 -0.0035930655849182478 0.0029705748664277326 -0.0072704789979101915 -0.0050195720794471684 0.01678739009719548 -0.00033383163326144652 0.0008303293473112635 0.0012441553478664861 -0.0020033252851243879 0.0024087405089533807 -0.0038805557206529023 0.002447158034344349 0.0014929387545308045 -0.0064561503061820154 -0.0045363508411879749 -0.011890650700371678 0.00010867568179808647 0.0084419858013776161 0.0070933069735805172 0.0039460570569213559 -0.0025324822853610377 -0.004577163082139275 -0.0044199928248310535 0.0019816492251760283 0.0031914043371886512
leaf_weight=1889.6813635751605 549.90369451791048 963.72039542347193 4667.0599300414324 2856.7498932816088 2835.2183239422739 9514.3124760575593 1405.0593108199537 8354.4461444728076 11376.527846951038 245.91603660210967 9320.0297023057938 16001.718121722341 3017.8000816479325 7324.7706802934408 1149.2788857966661 2706.510111130774 1271.7785615846515 1793.5318498574197 49.937263146042824 2158.2008365243673 4818.8019283488393 1078.9843811765313 2694.4832454510033 2884.5483276955783 475.29728943109512 2058.7150062918663 350.50987100973725 895.46270716935396 351.97386652603745 90.24000796303153 296.77696104347706 48.456890482455492 1503.0939992703497 170.74092010036111 594.80443390831351 415.12780627980828 359.73601111024618 1394.9000572152436 243.88247771188617
leaf_count=7591 2089 3868 19074 11496 11321 38179 5028 33022 46476 941 36081 61813 13296 32075 4246 9774 5367 6859 145 8872 19683 4631 11166 11762 1993 7200 1275 4172 1471 304 1576 208 5773 716 2674 1890 1214 6854 891
internal_value=-2.54338e-06 -0.00118962 0.00143223 -0.00182149 -0.00104142 0.00187058 0.00170584 0.000661708 -0.002869 -0.00127232 0.00150213 -0.00110507 0.000948999 0.00174791 0.000170783 0.00226308 -0.00533458 -0.0024507 0.000270137 0.00138747 -0.00133621 -0.00176809 -0.000405723 0.00265939 0.000404088 0.00383043 0.00428471 -0.00439845 -0.00128737 -0.00197115 0.00523276 -0.00465594 0.00604373 -0.00260465 0.00114934 -0.000267061 0.00218366 0.000623398 -0.00131575
internal_weight=110179 60300.5 49878.2 44963.6 7502.28 42376 39675.7 15336.8 15454 29509.6 36211.9 28016.3 20982.6 10342.6 10640 15229.3 2235.5 13218.5 13447.1 5092.69 25159.5 17170.9 7988.58 2934.49 5294.1 3463.77 2700.28 1493.35 597.89 16092 2150.38 1841.99 1853.6 1320.02 5714.96 2404.83 3310.13 1989.7 603.618
internal_count=443066 241840 201226 180448 30395 170831 160118 61392 62778 117670 147890 111086 86414 45371 41043 61476 9235 53543 53801 20779 99590 66748 32842 11907 21676 12228 10713 6584 2412 62117 8624 7067 7048 4962 23297 11418 11879 9528 2105
is_linear=0
shrinkage=0.0183401


Tree=11
num_leaves=40
num_cat=0
split_feature=195 115 115 32 71 195 34 181 137 72 42 182 87 66 195 37 144 176 23 212 198 159 73 195 194 183 56 180 34 195 99 6 97 152 54 27 221 10 27
split_gain=573.689 220.904 170.32 88.0593 80.1994 61.5075 57.6705 50.8205 46.6576 42.2368 40.3195 39.2214 38.4362 36.537 36.4474 32.4578 32.3104 39.8022 31.2231 28.337 29.5473 31.0187 27.7007 27.2545 27.325 26.7777 30.3324 28.0861 26.5533 28.9533 34.6693 25.2017 28.8176 24.8792 24.8429 24.7594 24.129 24.1271 23.6982
threshold=0.080596614629030242 -0.0012260982184670863 0.0012278035283088686 0.00021829091565450656 0.00025121265207417315 -0.89412033557891835 9.917841816786678e-05 4.8524985686526641e-05 -6.6587646870175363e-05 0.0023199347779154782 -0.7389385700225829 -8.0517347669228898e-05 -0.01224249182268977 1.5023071169853213 0.81418782472610485 -5.3952742746332654e-05 0.05731568485498429 -0.00051930992049165059 0.080236416310071959 2.6096190097746333e-08 -1.1003450751304624 9.1588754003169026e-07 -0.00030767759017180646 -1.0453609824180601 0.79144921898841869 8.5257099271984784e-05 2.2272669184530973e-06 0.00012622784561244774 0.00094339615316130232 -0.99706006050109852 0.0026372501160949473 -0.00014963535068091002 -0.0026237624697387214 -0.015931927599012848 -0.0010107089183293281 0.15048962086439135 -0.56174489110708226 -0.0021246573887765403 0.18743953853845599
decision_type=2 2 2 2 2 2 2 2 2 2 2 2 2 2 2 2 2 2 2 2 2 2 2 2 2 2 2 2 2 2 2 2 2 2 2 2 2 2 2
left_child=1 10 4 5 14 8 13 31 -3 -4 -1 -7 -10 23 15 22 19 -18 34 -8 -21 -22 36 -5 -25 26 27 -16 29 30 -12 32 -6 -19 -9 -24 -2 -33 -14
right_child=2 3 9 6 7 11 16 18 12 -11 28 -13 38 -15 25 -17 17 33 -20 20 21 -23 35 24 -26 -27 -28 -29 -30 -31 -32 37 -34 -35 -36 -37 -38 -39 -40
leaf_value=0.0030217414917151314 -0.0021486255248836798 0.00067700277062952125 0.00023544159255135745 -0.0015456728641449471 0.0024999339928124557 -0.0057982035731083993 -0.0013146383605650907 0.006201744146351185 -0.0076397666970548098 -0.0021773424596845865 -0.0055886607714420514 -0.0015655336402513229 -0.012650054697398782 -0.0040053057553021774 0.00080188769803524445 0.0047376026133861097 -0.0087125577218521398 -0.013061196363710621 0.0020439321773987372 0.00071464647200803193 -0.0022643469013777133 -0.00495619351951033 -0.0095490147645106282 -0.00031329572975081436 0.0022585932074098212 0.0065939934142139446 0.0061256384225270985 0.010052013051662537 -0.0032136515963379995 0.0011673998644621435 -0.00012996355030113214 -0.0021886899619914918 -0.00026831519870288789 -0.0009663657994377358 0.00216480965181146 0.00029297527253520491 0.0048485471153201388 0.0006229135015825729 -0.0026173298466058981
leaf_weight=2234.7852182723582 200.37157754972577 377.98934712633491 10196.681518305093 5117.2073106318712 4703.2313315011561 883.8599929176271 9988.4894040264189 1200.320940349251 2004.5305264741182 3204.6385361813009 448.10169185325503 4575.6020783483982 86.970160860568285 1035.3150848597288 1151.9438794031739 1387.9373175986111 550.09473012387753 63.424741178750992 12848.548718295991 699.57665671035647 4035.7362267635763 2276.5446247383952 91.081185512244701 9015.6856943145394 1642.0561796352267 1814.658307723701 904.43041224405169 122.96219182759523 667.34030071273446 7920.0550805255771 3150.688160225749 1183.1905617788434 1715.2016942575574 639.36051177605987 924.63190484791994 1504.0936194658279 880.7015959918499 7694.5149436183274 1058.8214933648705
leaf_count=8573 717 1377 39673 21264 18387 3940 39759 4774 7749 13207 1660 16047 313 4060 3817 5265 1804 197 57550 3506 17111 9894 330 36704 6927 7722 3053 564 3034 31371 12783 4646 6558 2175 3517 5417 3079 30449 3893
internal_value=3.13489e-05 -0.00121311 0.00143837 -0.00185821 0.00206071 -0.0034792 -0.0014422 0.00162682 -0.00537005 -0.000340219 0.000756223 -0.00225399 -0.00610115 -0.000665642 0.0036884 0.00245708 -0.00215642 -0.00500764 0.00238704 -0.00194526 -0.00284109 -0.00323794 0.00126783 -0.00044535 8.13181e-05 0.00493698 0.00354922 0.00170777 0.000339321 0.00054668 -0.000814512 0.000881493 0.00175745 -0.00208279 0.00445338 -0.000258016 0.00353547 0.000246222 -0.00339412
internal_weight=110201 58472.2 51729.1 44051.3 38327.8 8987.77 35063.5 30269.6 3528.31 13401.3 14421 5459.46 3150.32 16810.3 8058.18 4064.19 18253.2 1252.88 14973.5 17000.3 7011.86 6312.28 2676.25 15774.9 10657.7 3993.99 2179.34 1274.91 12186.2 11518.8 3598.79 15296.1 6418.43 702.785 2124.95 1595.17 1081.07 8877.71 1145.79
internal_count=442866 234141 208725 176720 155845 33319 143401 125881 13332 52880 57421 19987 11955 68955 29964 14808 74446 4176 65841 70270 30511 27005 9543 64895 43631 15156 7434 4381 48848 45814 14443 60040 24945 2372 8291 5747 3796 35095 4206
is_linear=0
shrinkage=0.0183401


Tree=12
num_leaves=40
num_cat=0
split_feature=191 72 114 71 71 164 83 16 195 203 43 36 53 33 149 35 83 207 83 130 182 170 87 54 175 5 5 41 41 194 74 126 36 176 26 56 72 5 83
split_gain=421.759 229.398 177.813 97.6626 71.5867 57.5772 56.914 54.9714 52.1851 51.2231 47.4818 36.415 35.7191 33.6039 32.9513 32.2162 31.5559 30.7863 30.3335 29.8321 29.0341 28.9068 28.8775 27.967 27.1904 26.6412 26.605 26.3418 27.3607 26.2762 25.8925 25.5881 25.5274 34.6624 25.3072 25.1045 34.1699 24.9128 32.0165
threshold=0.011175906285643579 -0.00093441654462367285 0.00095055843121372174 0.00017129094339907172 0.00023985924053704369 -0.55994734168052662 0.053304830566048629 0.638433337211609 -1.0136272907257078 8.5429834939532167e-07 -1.3992184996604917 -7.1619881055084975e-05 3.5868524719262502e-05 -0.00061913119861856092 -9.9425756161508599e-06 1.1136675477027895 -0.050936428830027573 -0.070854071527719484 0.13370682299137118 1.2270014286041262 -6.2716266256757067e-05 0.00045950189814902847 0.65634641051292431 0.00045274951844476169 -0.093077480792999254 0.0013408036320470276 0.2519426047801972 1.2762113499320551e-07 0.00011523250941536391 -1.1268308758735655 -0.78134429454803456 -0.59805396199226368 5.3002062486484654e-05 -0.00047115380584727967 0.67193594574928295 -2.7473508453113024e-05 0.00074962459621019672 0.99958011507987987 -0.31546700000762934
decision_type=2 2 2 2 2 2 2 2 2 2 2 2 2 2 2 2 2 2 2 2 2 2 2 2 2 2 2 2 2 2 2 2 2 2 2 2 2 2 2
left_child=1 11 4 8 7 18 13 9 27 -2 21 15 -9 -5 16 -1 17 29 -4 -8 -15 -6 25 -7 -18 -10 -25 -3 -29 -12 -31 32 -16 -34 -20 -22 -37 38 -33
right_child=2 3 5 6 10 23 19 12 22 -11 14 -13 -14 20 31 -17 24 -19 34 -21 35 -23 -24 26 -26 -27 -28 28 -30 30 -32 37 33 -35 -36 36 -38 -39 -40
leaf_value=0.0024561451589545018 -9.0656714774046111e-05 0 0.0012069622226688363 0.002207569617147717 0.0018925136238719358 -0.00026570882211856802 -0.0020736793349168756 0.0031115954442309597 -0.0019836227312783694 0.0039316315101153064 0.015313311415017237 -0.00022764666618637903 0.0074674563770736049 -0.0017961277934371697 0.0024453889596706747 -0.00067975484287952374 -0.0011110134436339903 0.0025815146047456546 0.0022645022509849397 -0.0093630235168010827 -0.00203640105901639 0.0055178179622157042 0.00039502255429328626 0.00077126202666804461 0.0021602746529964488 -0.0061044632804234285 -0.0036506099706866044 -0.011903983028386413 -0.0061471030883196963 0.010624519850308914 0.0022444777330383964 0.0018788188984388734 -0.0093903169666715875 0.00060753628037514659 -0.0010961928060973227 0.00091321513402539581 -0.0014164671171159294 0.001635381115995785 -0.00075800739055728963
leaf_weight=6382.5882210917771 1772.5161141566932 164.12505932897329 6835.3158417344093 1211.0480330735445 1507.5992693565786 2234.4210117571056 18554.757368352264 1101.2519387118518 1186.8848622664809 2636.50504976511 105.98979155346751 4055.5404740832746 1549.0288791172206 7888.3663710094988 4413.933509260416 1321.9114733226597 1387.3823910467327 4217.988119378686 884.87978940084577 192.23241398483515 2366.9805471040308 1491.0521609596908 707.68715047836304 540.09224846959114 2205.8916078582406 976.14077206328511 2787.3364098332822 396.37454262748361 1025.4791686795652 195.0009564012289 360.98211558908224 1996.8579667694867 139.31712714955211 703.10672103241086 5001.283389415592 5928.6855361163616 3293.0665493942797 3647.8194770216942 6887.3077787347138
leaf_count=25531 6896 493 26056 4736 7125 8751 77593 3905 4112 10094 520 16031 5693 34061 19548 5094 5541 17030 4147 534 8858 5011 2570 2189 9262 4092 11293 1805 3850 962 1644 9128 509 3152 20407 22043 11853 11407 30019
internal_value=2.46408e-05 -0.00109877 0.00116996 -0.00170843 0.00191258 -0.000304306 -0.00141693 0.0035721 -0.00428377 0.00231062 0.00151161 0.00117515 0.0056641 -0.000752388 0.00126095 0.00191583 0.00220344 0.00316526 0.000375067 -0.00214936 -0.000937331 0.003701 -0.00279847 -0.00186136 0.000892344 -0.00385138 -0.00292762 -0.00696123 -0.00776427 0.00685836 0.00521509 0.00081103 0.00188585 -0.00102511 -0.000588 -0.000351244 7.9394e-05 0.000358816 -0.00016337
internal_weight=110255 55651.9 54602.9 43891.8 36319.5 18283.3 39435.1 7059.3 4456.69 4409.02 29260.2 11760 2650.28 20688.1 26261.6 7704.5 8473.23 4879.96 12721.5 18747 19477.1 2998.65 2870.71 5561.85 3593.27 2163.03 3327.43 1585.98 1421.85 661.973 555.983 17788.3 5256.36 842.424 5886.16 11588.7 9221.75 12532 8884.17
internal_count=443545 223256 220289 176600 147446 72843 159678 26588 16922 16990 120858 46656 9598 81551 108722 30625 34959 20156 50610 78127 76815 12136 10774 22233 14803 8204 13482 6148 5655 3126 2606 73763 23209 3661 24554 42754 33896 50554 39147
is_linear=0
shrinkage=0.0183401


Tree=13
num_leaves=40
num_cat=0
split_feature=191 97 73 1 191 71 54 81 115 3 149 203 13 6 116 104 133 44 52 144 3 215 166 170 21 103 169 183 46 45 217 83 9 163 181 7 200 144 174
split_gain=488.161 189.832 157.879 96.038 95.674 80.4551 60.4007 43.0412 39.8363 38.8633 47.0026 38.5825 37.9924 32.8667 29.4218 29.0202 28.7168 28.3456 27.3151 27.5011 26.3384 26.1777 26.1082 25.8647 31.2249 25.6506 25.225 24.7927 24.4589 27.6561 23.8361 23.9834 24.7464 23.6036 25.7614 25.5856 33.1969 23.5415 29.1403
threshold=-0.41312244534492487 -0.0030731041915714736 0.0010208446765318515 0.00017037311044987294 0.45713444054126745 0.00025121265207417315 -0.00059489058912731696 0.14126995950937274 -0.0024232713039964433 1.0243440229373847e-07 -8.9233712969871687e-06 -1.7971407032746353e-05 -0.0015615821466781197 -0.00016718274127924812 1.7283117771148684 0.17490966618061068 -0.47111923992633814 0.065871860831975951 0.00032577727688476449 -0.063398294150829301 1.1837671110015437e-07 0.012803172226995231 0.027809291146695617 0.0005046658916398884 0.2714421153068543 -0.027023396454751488 -0.039780875667929642 0.0001047838704835158 -0.36292357742786402 -0.013534091413021086 4.6477758587570868e-05 -0.12612023204565045 0.0011350687127560379 -0.080217171460390077 -8.6282110714819269e-05 -0.00031367850897368038 1.5704092979431155 0.0012315736967138948 0.0010302931768819692
decision_type=2 2 2 2 2 2 2 2 2 2 2 2 2 2 2 2 2 2 2 2 2 2 2 2 2 2 2 2 2 2 2 2 2 2 2 2 2 2 2
left_child=1 8 4 15 6 27 21 37 16 30 20 26 -8 17 22 18 -1 -7 19 -3 -11 -2 -12 -23 -25 -19 -9 -6 -22 -30 31 32 -4 35 -35 36 -14 38 -5
right_child=2 3 9 7 5 13 12 11 -10 10 14 -13 33 -15 -16 -17 -18 25 -20 -21 28 23 -24 24 -26 -27 -28 -29 29 -31 -32 -33 -34 34 -36 -37 -38 -39 -40
leaf_value=0.0074918565747737996 0.00078921991173607528 -0.00028789210631562805 0.008295779173634589 -0.00023407526186645643 0.0032793108460888146 0.0031544332936957438 0.0012339344881377105 -0.014188843511892807 -0.00059105948118117803 -0.0066442962146639742 -0.00018283946038296283 -0.0021292811774676632 -0.00048935998328962559 0.0010592360070910633 -0.0040471666668763073 -0.0072109155072531692 0.0011218974547708362 0.0024372381625708045 -0.00099110366706431363 -0.0049711400333681318 0.002095805038302743 0.0022822976795024374 -0.002918881265750023 0.0073727852142441517 -0.003871434632756127 -0.00085294445129526365 -0.004720830217406654 0.0059262066157774844 -0.0044051573816815586 0.00072375803803403362 -0.0086678981467744991 0.00034287970406135667 0.0011658658167075894 -0.0035986536484205601 0.00015203840891662738 -0.0032474302678038207 0.012821400556102818 -0.0020142439621864665 -0.011021768493761021
leaf_weight=252.18785946816206 3256.5807273574173 479.45312217250466 281.6107685379684 5905.5717739872634 4598.9788705818355 6487.1176978871226 6205.4856881164014 101.98943228647113 9204.6003244109452 172.02039676904678 2622.125594150275 4522.0867907777429 856.10810838639736 13890.992345951498 2067.9905663542449 1081.4827959910035 4681.7170425094664 1886.8393816053867 920.43764864653349 4067.4675800688565 1919.6317540854216 3273.7639727592468 2144.5618435330689 688.09347481653094 92.322407249361277 1369.7015921473503 1859.0536013692617 1642.2858136706054 529.06196368485689 1054.5964297614992 87.618108909577131 3383.0046732276678 407.64544258639216 659.5996120646596 9253.8753869533539 1862.5361901931465 67.919831674546003 6095.6205753870308 85.563625548034906
leaf_count=833 12452 1551 853 24313 15960 26842 24081 328 38840 360 12953 17898 2846 58249 8965 4194 19368 7788 3269 15278 8384 14277 8103 2323 323 5712 8227 7469 2395 4716 318 10456 1212 3562 37605 5939 211 24193 233
internal_value=6.16122e-05 -0.00157838 0.000971694 -0.00253523 0.00141482 0.00212458 0.000605309 -0.00186017 0.000120331 -0.000721467 -0.00131596 -0.00306753 5.69341e-05 0.00163425 -0.00221571 -0.00444677 0.00145103 0.00245222 -0.0038968 -0.00448116 0.000352459 0.00202101 -0.00141747 0.00300614 0.00602019 0.00104802 -0.00522216 0.0039786 0.000701011 -0.000978642 0.000776329 0.000983825 0.00410433 -0.000516794 -9.57518e-05 -0.00200841 0.000470104 -0.00121112 -0.000391062
internal_weight=110019 39257.2 70762.1 25118.7 56092.2 29875.9 26216.3 18569.9 14138.5 14669.9 10510 6483.13 18905.5 23634.7 6834.68 6548.84 4933.9 9743.66 5467.36 4546.92 3675.31 7310.76 4766.69 4054.18 780.416 3256.54 1961.04 6241.26 3503.29 1583.66 4159.88 4072.26 689.256 12700 9913.47 2786.56 924.028 12086.8 5991.14
internal_count=442879 158525 284354 99484 225639 122020 103619 75192 59041 58715 45876 26453 74244 98591 30021 24292 20201 40342 20098 16829 15855 29375 21056 16923 2646 13500 8555 23429 15495 7111 12839 12521 2065 50163 41167 8996 3057 48739 24546
is_linear=0
shrinkage=0.0183401


Tree=14
num_leaves=40
num_cat=0
split_feature=195 34 73 187 113 128 52 36 19 22 123 83 150 25 205 192 191 208 36 180 117 31 13 142 83 84 83 22 83 35 77 118 157 26 86 31 171 165 44
split_gain=487.401 167.194 160.499 120.959 117.684 68.1347 54.9518 47.549 44.2156 40.0505 41.8782 38.3108 38.0049 37.9803 36.5925 35.2361 35.1701 31.5536 31.3996 31.3971 30.3131 29.509 29.6019 27.2978 26.8337 26.6262 28.3831 26.1494 26.072 26.4276 25.9067 25.4699 29.9536 25.252 24.9808 25.2008 24.5887 29.3363 30.0108
threshold=-0.47626365721225733 -0.00037744856672361488 0.0010208446765318515 0.45816844701766973 0.00025243732670787727 -0.00014376138278748837 0.00018916579574579376 -0.00018203540821559724 1.273562065762235e-05 0.12632837891578677 -0.072664782404899583 0.21513124555349353 0.11647776141762735 0.83373010158538829 -9.6457832832186324e-09 0.59712332487106334 0.84745684266090404 3.530048608979542e-08 -6.8317963268782469e-06 5.0870001359726309e-05 -4.7487665142398321e-05 -0.52518683671951283 0.0042315106838941583 0.036427743732929237 -0.27460005879402155 -0.28074187040328974 -0.3587957471609115 0.31296329200267797 -0.028031956404447552 -1.0516018271446226 0.00051577234989963483 -0.0038528569275513287 -5.8125700888922431e-05 0.78480494022369396 0.62362369894981395 -1.1976945400238035 -0.68908509612083424 0.73854908347129833 0.19709794968366626
decision_type=2 2 2 2 2 2 2 2 2 2 2 2 2 2 2 2 2 2 2 2 2 2 2 2 2 2 2 2 2 2 2 2 2 2 2 2 2 2 2
left_child=1 7 3 5 19 18 8 20 -5 21 36 23 13 31 -14 24 -12 -15 33 28 -1 22 -8 -4 -7 -9 -27 -18 -3 -30 -17 32 -6 -2 35 -31 37 38 -11
right_child=2 4 11 6 12 15 9 25 -10 10 16 -13 14 17 -16 30 27 -19 -20 -21 -22 -23 -24 -25 -26 26 -28 -29 29 34 -32 -33 -34 -35 -36 -37 -38 -39 -40
leaf_value=-0.0013466006905380355 0.0029214319507329684 -0.003688195122609129 0.00057287781659840159 0.0047615776890403902 -0.0074036943900721236 0.0010454196595750375 0.002290358031667205 -0.0015193652323325451 -0.00045964693718445219 0.0083353188886585525 -0.00018809355064245065 -0.0019803596834768551 -0.010623910207580153 -0.0019161589711092989 0.0027894724156086294 0.004244205871983462 2.2270405134123174e-05 -0.004675457209400726 0.0004178010426646049 0.0021758108815859872 0.0035748239590431517 0.004184458244234187 -0.0043366465700255853 -0.001573376436352112 -0.00089596575564255632 0.005131312066953264 0.0001230242775669821 0.0022828818329784562 -0.0097541090530957244 0.001599150404356744 0.00064507409490910329 -0.0019801152586652842 -0.00033330817916173204 -0.0034077117846428558 0.0050319519176468897 -0.0063570566041035474 0.0022142631397235654 -0.0018496531576780476 -0.00013249745747687355
leaf_weight=524.98599729314446 5316.3825238607824 2133.4982498660684 6631.4381082355976 3876.9871867448092 207.387296885252 2955.9933232329786 1432.7854859791696 3413.5425160676241 627.88720089942217 714.21039242297411 5700.4807130508125 5647.8141023889184 298.16702777147293 3602.8422328904271 86.308395609259605 842.16965457051992 2389.7240780293941 2310.5217634476721 3376.816569827497 197.25446255132556 2033.6560278050601 3597.4052045270801 267.94253848865628 2848.7817658819258 12478.995697651058 437.48197173327208 2992.2375618293881 6299.4806746840477 629.29124108701944 140.4121102951467 3435.2046925760806 8381.2512370683253 7639.595366794616 218.31356026604772 72.522931009531021 1889.5995378792286 4143.9709037654102 156.3589787222445 170.30054768174887
leaf_count=2154 21417 7643 25607 14426 949 12146 5255 12769 2469 2825 23523 24522 841 13676 237 3054 10033 9487 13549 864 8208 13973 1017 10307 49542 1911 12728 26376 2376 579 13610 35032 32459 791 183 7166 17475 579 732
internal_value=2.91937e-05 -0.00168622 0.000897131 0.00133604 -0.00240611 0.000486766 0.00216293 0.000424337 0.00402996 0.00182407 0.00143959 -0.000784498 -0.00183702 -0.00173673 -0.00756733 -0.000114026 0.000928579 -0.00299725 0.00181769 -0.00493485 0.0025582 0.00324129 0.00123602 -7.02208e-05 -0.000523033 -0.000370942 0.000766963 0.00166318 -0.00522673 -0.0064219 0.00135779 -0.00127633 -0.0005224 0.00266862 -0.00541624 -0.00579812 0.00285443 0.00538627 0.00668518
internal_weight=110120 36990.6 73129.4 58001.4 27588.7 28623.9 29377.5 9401.9 4504.87 24872.7 19574.5 15128 22526.1 22141.6 384.475 19712.4 14389.7 5913.36 8911.51 5062.58 2558.64 5298.13 1700.73 9480.22 15435 6843.26 3429.72 8689.2 4865.32 2731.83 4277.37 16228.2 7846.98 5534.7 2102.53 2030.01 5184.84 1040.87 884.511
internal_count=442490 149262 293228 232792 111492 114109 118683 37770 16895 101788 81543 60436 92681 91603 1078 78352 59932 23163 35757 18811 10362 20245 6272 35914 61688 27408 14639 36409 17947 10304 16664 68440 33408 22208 7928 7745 21611 4136 3557
is_linear=0
shrinkage=0.0183401


Tree=15
num_leaves=40
num_cat=0
split_feature=195 54 54 71 121 83 195 115 75 15 191 125 0 102 162 77 153 195 6 62 150 27 59 153 99 191 153 17 44 8 90 28 174 108 5 67 210 17 117
split_gain=463.13 213.036 132.184 81.914 77.5181 61.1832 59.18 53.3083 46.7643 41.6708 36.0463 35.9152 34.8179 37.5591 33.0211 31.8509 29.1596 28.9385 27.8059 31.1489 32.2986 28.782 31.4292 27.1785 26.569 25.8012 25.7408 25.3067 25.3011 31.1238 25.2981 25.0317 26.2706 24.818 37.2186 35.8625 27.0035 24.6918 24.5388
threshold=0.080596614629030242 -0.00030636021983809764 0.00041412669816054409 0.00018064416508423167 0.0017297879094257953 0.10006904974579812 -1.0136272907257078 -0.0026613350491970773 2.0238610886735845e-05 0.58872225880622875 0.75369134545326244 1.0000000180025095e-35 -5.3502770242630497e-05 0.019995740614831451 -0.25894640386104578 0.00021664534870069477 5.3729006594949178e-06 -1.061630845069885 0.00016121449880301955 -0.33743461966514582 -0.13673811405897138 0.10010040551424028 0.0015577362501062455 -6.1182843182905336e-06 0.00082026331801898788 -1.0483880043029783 2.221805789304199e-05 -4.4849137339042493e-05 -0.17562066763639447 -1.3198832675698212e-05 -0.045281691476702683 0.0003793098585447297 -0.00016356251580873502 0.59118109941482555 0.00071916586603038024 0.00015189796249615031 -2.2409038543701167 -8.889673154044429e-06 2.3392199182126209e-05
decision_type=2 2 2 2 2 2 2 2 2 2 2 2 2 2 2 2 2 2 2 2 2 2 2 2 2 2 2 2 2 2 2 2 2 2 2 2 2 2 2
left_child=1 7 4 6 9 12 14 -1 16 10 -2 18 13 -5 -3 -13 30 -9 19 -6 -21 22 -20 38 -11 -7 -22 -19 29 -16 31 -4 -33 34 -8 -35 -36 -12 -14
right_child=2 3 8 5 11 25 33 17 -10 24 37 15 23 -15 28 -17 -18 27 21 20 26 -23 -24 -25 -26 -27 -28 -29 -30 -31 -32 32 -34 35 36 -37 -38 -39 -40
leaf_value=0.0020834871353324386 0.0004226812526720815 -0.010940738348426239 0.0010669728217133846 0.0011962804330775021 0.0041059277332193399 -0.0037122591546237976 -0.001219898347606437 -0.001331197845661642 -0.0013824060413193118 0.013002961187973124 0.01040042188406826 0.0033137951527241029 0.0043580939314682961 -0.0014826754402779924 -0.0051122501788932037 0.00059482128638853402 -0.00036307699904097581 -0.0027663300255752381 -0.0093039750403720416 0.013824577204463707 0.0020099988611395146 0.0014848176937875147 0 -0.0016938650432010147 0.0055904490275244315 -0.0019858649867788218 -0.011658580023606474 0.00069854328581171906 -0.0074935154061383626 0.0057254792730191744 -0.00019658953866234509 0.012372577456685385 0.0036428467157970179 0.0044843609598521081 -0.01934098868038648 -0.003085252739825046 -0.0054355524151981447 0.0036299582292165381 -0.0039384735762885868
leaf_weight=5035.4005678221583 1223.8999190703034 514.60605240240693 1556.1776113882661 4245.3525107912719 3410.2343027293682 4247.2981263138354 1030.5758891068399 4484.292687099427 6151.6784687489271 186.37786446511745 225.82770388573408 1638.484902959317 465.84592140093446 3006.0014331229031 273.89898534119129 12868.104313954711 4411.0857672095299 765.23399675637484 176.57334030047059 78.065975077450275 8977.7711945511401 4619.8761029876769 393.056585483253 12268.467732146382 1579.5915332324803 9566.0996430069208 46.215760104358196 9421.9140140749514 632.92725307866931 131.08853486552835 1511.19356136024 129.45635097101331 1330.8476282507181 347.6243260614574 50.340835578739643 533.42301737889647 1066.5308944769204 1020.0905424244702 159.42768665775657
leaf_count=20423 5501 1916 6147 16632 12971 18419 3641 17848 24757 928 789 6137 1839 11415 1119 54362 17703 2803 509 194 35487 18589 1383 48659 5804 40565 235 37133 2519 492 6285 398 5472 1385 270 1830 4252 5063 578
internal_value=2.5058e-05 -0.00109526 0.00129162 -0.00188848 0.00188935 -0.00157711 -0.00419287 0.000455118 -0.000150764 0.00422424 0.00267384 0.00158174 -0.000931101 8.33243e-05 -0.00711115 0.000903129 0.000694899 -0.000102564 0.00213687 0.00260587 0.00204193 0.00100272 -0.00287655 -0.00150296 0.00638266 -0.00251796 0.00193806 0.000436553 -0.00519556 -0.00156104 0.00172949 0.00270022 0.00442872 -0.00269107 -0.00375469 -7.87455e-05 -0.00607798 0.00487117 0.00221472
internal_weight=109781 58246.4 51534.6 38539.5 36444.2 33958.5 4581.02 19706.8 15090.4 4235.79 2469.82 32208.4 20145.1 7251.35 1552.52 14506.6 8938.76 14671.4 17701.8 12512.3 9102.05 5189.51 569.63 12893.7 1765.97 13813.4 9023.99 10187.1 1037.91 404.988 4527.68 3016.48 1460.3 3028.49 2147.45 881.047 1116.87 1245.92 625.274
internal_count=442452 233738 208714 155531 147952 138107 17424 78207 60762 18085 11353 129867 79123 28047 6046 60499 36005 57784 69368 48887 35916 20481 1892 51076 6732 58984 35722 39936 4130 1611 18302 12017 5870 11378 8163 3215 4522 5852 2417
is_linear=0
shrinkage=0.0183401


Tree=16
num_leaves=40
num_cat=0
split_feature=191 10 94 32 187 44 113 6 116 32 75 102 62 195 87 81 144 53 43 162 65 76 139 207 113 202 145 125 202 215 160 208 155 10 211 44 45 21 107
split_gain=413.4 155.325 140.619 87.3603 85.6308 60.7479 59.9777 57.6663 50.179 40.4486 39.5009 39.2538 38.3728 35.8096 33.1037 36.4283 31.1866 29.287 34.2727 28.4914 27.4778 25.1682 25.0776 25.0258 24.7069 24.6232 24.4039 23.9977 26.8746 23.8895 23.7222 23.7222 23.0551 24.7981 23.0407 24.9621 22.9447 22.8919 24.6571
threshold=-0.3203838169574737 -0.0016490850248374043 0.0019915233133360748 0.00015121026081033054 0.63465574383735668 0.12577344477176669 0.00016383556067012253 9.452719314140269e-05 1.8876918554306032 9.5396233518840759e-05 -5.2906552809872658e-05 -0.19947683066129682 -0.90089678764343251 -0.25636993348598475 -0.01224249182268977 -0.16467339545488355 0.066870916634798064 -0.00082836588262580324 0.57852101325988781 -0.13116821646690366 1.3747993111610415 -0.00015694698231527579 0.0024761105887591843 0.34245687723159796 0.0013283957378007474 0.76434814929962169 0.034395517781376846 -0.13331043720245359 -1.0741428136825559 0.0013906652457080784 -1.3676181254140826e-07 8.7759794098474244e-08 1.4396342749023463e-06 0.0011087834718637171 0.055050566792488105 -0.20506048947572705 -0.478192389011383 0.083305291831493392 0.58123058080673229
decision_type=2 2 2 2 2 2 2 2 2 2 2 2 2 2 2 2 2 2 2 2 2 2 2 2 2 2 2 2 2 2 2 2 2 2 2 2 2 2 2
left_child=1 19 4 12 7 11 23 10 -4 -9 -2 -5 -3 -13 15 -14 27 24 32 26 25 31 -23 -6 -12 -21 -1 -11 -29 -18 -15 -7 33 -19 -16 -36 -32 38 -8
right_child=2 3 8 5 6 21 37 9 -10 16 17 13 14 30 34 -17 29 18 -20 20 -22 22 -24 -25 -26 -27 -28 28 -30 -31 36 -33 -34 -35 35 -37 -38 -39 -40
leaf_value=8.9860412281225893e-05 0.0030122055401390273 -0.011756892003246163 -0.00050294721855499876 0.0030588416705617672 0.0036736539809103389 -0.0020499877107250878 0.0026354686463731869 0.0055015361417732585 -0.0035740048720889371 0.00091526744586890505 0.0031652339009839059 -0.0014110360518168729 -0.00053211327002494627 -0.0012634452331839606 0.00084785062927003596 -0.0063568755104182655 0.0036794332285757314 -0.00028004004051596201 0.0022251002393068576 0.00037872770423727362 0.0055962126955775276 -0.0079836975235864204 -0.0029321926737273926 0.0084032483622693832 -0.0014116536746650154 0.0038325550119041036 -0.0064578952417923196 0.0018441426276980565 -0.0013287332147567763 -0.0079411657610782595 -0.00028713386124582359 -0.0049729000126390501 0.0024442986437495256 -0.0058200000247954379 0.00039421459220326862 -0.0062766987737434034 0.0052160455438385765 0.0013710979816047618 0.011210179537513324
leaf_weight=2218.0105260163546 3048.3643648549914 233.63610827177763 6193.9844780750573 795.64997617527843 1451.208694960922 12800.130331870168 3840.2422309890389 366.64475760236382 2526.9234304390848 2985.8656448572874 2373.3965290077031 14393.21009530127 445.8090234361589 692.53814164176583 614.57430778071284 2064.5485541969538 70.885271221399307 8540.1437563225627 2563.6817974485457 2402.5659031160176 622.55463919043541 537.24001940712333 905.34757898002863 522.19956680014729 470.55611664056778 984.53410096466541 209.08688274398446 1005.366899497807 8113.1133153140545 319.08371046930552 407.90245792642236 1018.2658180966973 1026.5764473676682 281.26221096888185 290.39800339192152 514.60982392728329 654.28207616135478 21420.426489435136 117.67389447614551
leaf_count=8625 12284 947 24916 3264 5328 51474 14654 1370 10255 12302 9064 57989 1703 2756 2082 7966 210 34053 10269 9118 2535 1928 3363 2440 2416 4775 708 4860 31866 995 1698 6022 4095 1061 1117 2051 2717 87981 263
internal_value=-0.000119843 -0.00152883 0.00077689 -0.00199378 0.00110084 -0.00166972 0.00184993 0.000442848 -0.00139481 -0.000497377 0.00110444 -0.00091214 -0.00449617 -0.00110888 -0.00406006 -0.00532944 -0.000674815 0.00072208 0.000335788 0.00109546 0.0020456 -0.00250968 -0.00482557 0.00493405 0.0024018 0.00138782 -0.000467001 -0.000508765 -0.000976986 -0.00578401 0.00135957 -0.00226664 -0.000154272 -0.00045866 -0.00180301 -0.00384851 0.00308623 0.00160942 0.00289483
internal_weight=110042 42804.9 67237.6 36368.1 58516.7 32204.6 27351.8 31164.9 8720.91 12861 18304 16943.6 4163.58 16147.9 3929.94 2510.36 12494.3 15255.6 12411.7 6436.75 4009.65 15261 1442.59 1973.41 2843.95 3387.1 2427.1 12104.3 9118.48 389.969 1754.72 13818.4 9847.98 8821.41 1419.58 805.008 1062.18 25378.3 3957.92
internal_count=443520 172838 270682 147077 235511 131211 110666 124845 35171 51603 73242 68424 15866 65160 14919 9669 50233 60958 49478 25761 16428 62787 5291 7768 11480 13893 9333 49028 36726 1205 7171 57496 39209 35114 5250 3168 4415 102898 14917
is_linear=0
shrinkage=0.0183401


Tree=17
num_leaves=40
num_cat=0
split_feature=195 76 93 10 195 52 71 6 197 143 6 13 0 83 4 36 36 61 88 122 152 173 204 207 91 86 169 77 50 65 178 83 36 212 177 62 68 48 101
split_gain=407.516 173.039 152.071 70.2003 67.5035 99.7295 59.5174 56.2964 39.6269 36.3351 30.3766 29.9777 32.5558 29.2793 27.7918 27.7605 27.5595 25.9695 27.2273 24.2836 24.1414 23.8674 29.8521 26.1055 24.1911 23.6655 23.6402 31.3906 23.5425 23.5085 30.3004 24.1704 22.8564 22.7605 30.1626 22.6249 22.4398 22.3362 24.1288
threshold=-0.33563826978206629 -0.0010615235660225151 0.0021055695833638315 -0.0013019447214901445 0.84228599071502697 0.00022189096489455554 0.00017129094339907172 -0.00027235214656684542 3.116496324539185 1.9600904124672528e-05 0.00012183470244053753 -0.0047663305886089793 0.00029401056235656148 -0.213236428797245 3.9038140187130926e-07 5.4549009291804402e-05 -5.4102370995678932e-05 5.322748961589242e-07 9.2636360932374387e-05 0.0031869069207459693 -0.035607937723398202 0.37274727225303655 -2.0979042147928337e-07 0.077709350734949126 1.8993870019912722 0.43914000689983373 -0.036566162481904023 0.00026632899243850266 -0.6598660647869109 -0.3046844601631164 0.51073715090751659 0.097016200423240675 -0.00022208502923604098 4.315096724383239e-08 15.12591075897217 0.76966413855552684 -1.0566123723983762 0.00079808518057689082 0.0058209018316119918
decision_type=2 2 2 2 2 2 2 2 2 2 2 2 2 2 2 2 2 2 2 2 2 2 2 2 2 2 2 2 2 2 2 2 2 2 2 2 2 2 2
left_child=1 3 4 10 7 -6 17 16 15 -8 32 -5 19 -7 -4 35 -2 -3 -19 33 -16 23 24 -11 -23 -12 27 -15 -24 31 -31 -20 -1 -13 -35 -9 -25 -21 -39
right_child=2 6 14 11 5 13 9 8 -10 21 25 12 -14 26 20 -17 -18 18 29 37 -22 22 28 36 -26 -27 -28 -29 -30 30 -32 -33 -34 34 -36 -37 -38 38 -40
leaf_value=0.0031343831619944332 0.0028440538128487979 0.0019582369522382426 -0.0027755393581895848 0.0005795746832468132 0.0047053464378017324 0.0026195089627989855 -0.00082922346054345962 0.00047223137935014335 0.0066032814740272531 -0.0016675862925430419 0.0023283536670398084 -0.0012436399300636272 -0.0033935485229839302 0.0038237788298495041 -0.0078244705257382672 -0.00089948894412579744 0.0010281348263167485 -0.012472577598835055 -0.0049587394139499336 0.00014518938859487239 -0.00042682203280309524 -0.0064852709898647149 0.0024191507927203678 0.0051836248496629385 -0.00018378962729414351 -0.0023042455613633593 0.0014234342026256104 -0.0012592403680201638 -0.0036020858024797707 -0.0040202287873964239 0.010254903584434646 -0.010294756935664879 0.00076409017191701419 -0.0052658435643007668 0.001179923702709291 0.0075292444894286279 -0.004705430467967813 -0.0035741887754244393 0.0011953505340291932
leaf_weight=2024.3530380949378 5011.0730736888945 154.93215445801616 3008.1297771893442 2847.4956443943083 3878.8389814309776 5076.6432178840041 3730.3694530203938 19824.068222280592 329.42035396397114 4970.9510946422815 497.35659888386726 3388.3826623000205 2475.8117369934916 485.76890493556857 152.59985317662358 5944.2655489146709 6504.2443541102111 188.41309289634228 775.31231419369578 5624.3886179700494 5932.2480472512543 1679.9552982188761 305.7327137067914 79.144167210906744 239.92080353572965 1431.4236004427075 9144.8614034093916 2550.6822549700737 743.4300650767982 1287.4272193796933 51.391477696597576 473.88999943807721 4314.4007217437029 1205.2096455097198 300.98927593231201 154.37127494812012 1716.3217554688454 1258.5444187484682 491.25718831643462
leaf_count=8091 19960 581 10298 11829 14706 21268 15216 78622 1156 18953 1504 12852 10729 1561 556 23532 26115 1149 2795 23686 26073 6175 1165 401 962 6298 40863 8173 2788 4872 150 1770 16955 5529 1039 695 6976 5580 2316
