tree
version=v4
num_class=1
num_tree_per_iteration=1
label_index=0
max_feature_idx=214
objective=binary sigmoid:1
feature_names=ETH_spot_log_ret_1m ETH_spot_high_low_range ETH_spot_body_size ETH_spot_upper_shadow ETH_spot_lower_shadow ETH_spot_close_position_in_bar ETH_spot_log_ret_2m ETH_spot_log_ret_3m ETH_spot_log_ret_5m ETH_spot_log_ret_10m ETH_spot_log_ret_15m ETH_spot_log_ret_30m ETH_spot_log_ret_60m ETH_spot_log_ret_120m ETH_spot_log_ret_240m ETH_spot_taker_buy_volume_ratio ETH_spot_taker_buy_quote_ratio ETH_spot_taker_buy_quote_volume_ratio_diff ETH_spot_vwap_dist ETH_spot_taker_buy_vwap_dist ETH_spot_ret_x_buy_imbalance_1m ETH_spot_ret_std_5m ETH_spot_volume_z_5m ETH_spot_quote_volume_z_5m ETH_spot_count_z_5m ETH_spot_range_mean_5m ETH_spot_close_vs_sma_5m ETH_spot_close_vs_kama_5m ETH_spot_close_vs_kama_z_5m ETH_spot_kama_velocity_5m ETH_spot_rolling_high_dist_5m ETH_spot_rolling_low_dist_5m ETH_spot_realized_vol_5m ETH_spot_upside_realized_vol_5m ETH_spot_downside_realized_vol_5m ETH_spot_realized_vol_balance_5m ETH_spot_ret_vol_scaled_5m ETH_spot_volume_ret_corr_5m ETH_spot_quote_volume_per_trade_z_5m ETH_spot_taker_quote_volume_per_trade_z_5m ETH_spot_buy_ratio_mean_5m ETH_spot_ret_std_10m ETH_spot_volume_z_10m ETH_spot_quote_volume_z_10m ETH_spot_count_z_10m ETH_spot_range_mean_10m ETH_spot_close_vs_sma_10m ETH_spot_close_vs_kama_10m ETH_spot_close_vs_kama_z_10m ETH_spot_kama_velocity_10m ETH_spot_rolling_high_dist_10m ETH_spot_rolling_low_dist_10m ETH_spot_realized_vol_10m ETH_spot_upside_realized_vol_10m ETH_spot_downside_realized_vol_10m ETH_spot_realized_vol_balance_10m ETH_spot_ret_vol_scaled_10m ETH_spot_volume_ret_corr_10m ETH_spot_quote_volume_per_trade_z_10m ETH_spot_taker_quote_volume_per_trade_z_10m ETH_spot_ret_std_30m ETH_spot_volume_z_30m ETH_spot_quote_volume_z_30m ETH_spot_count_z_30m ETH_spot_range_mean_30m ETH_spot_close_vs_sma_30m ETH_spot_close_vs_kama_30m ETH_spot_close_vs_kama_z_30m ETH_spot_kama_velocity_30m ETH_spot_rolling_high_dist_30m ETH_spot_rolling_low_dist_30m ETH_spot_realized_vol_30m ETH_spot_upside_realized_vol_30m ETH_spot_downside_realized_vol_30m ETH_spot_realized_vol_balance_30m ETH_spot_ret_vol_scaled_30m ETH_spot_volume_ret_corr_30m ETH_spot_quote_volume_per_trade_z_30m ETH_spot_taker_quote_volume_per_trade_z_30m ETH_spot_buy_ratio_mean_30m ETH_spot_buy_ratio_z_30m ETH_spot_ret_std_60m ETH_spot_volume_z_60m ETH_spot_quote_volume_z_60m ETH_spot_count_z_60m ETH_spot_range_mean_60m ETH_spot_close_vs_sma_60m ETH_spot_close_vs_kama_60m ETH_spot_close_vs_kama_z_60m ETH_spot_kama_velocity_60m ETH_spot_rolling_high_dist_60m ETH_spot_rolling_low_dist_60m ETH_spot_realized_vol_60m ETH_spot_upside_realized_vol_60m ETH_spot_downside_realized_vol_60m ETH_spot_realized_vol_balance_60m ETH_spot_ret_vol_scaled_60m ETH_spot_volume_ret_corr_60m ETH_spot_quote_volume_per_trade_z_60m ETH_spot_taker_quote_volume_per_trade_z_60m ETH_spot_buy_ratio_mean_60m ETH_spot_buy_ratio_z_60m ETH_spot_ret_std_120m ETH_spot_volume_z_120m ETH_spot_quote_volume_z_120m ETH_spot_count_z_120m ETH_spot_range_mean_120m ETH_spot_close_vs_sma_120m ETH_spot_close_vs_kama_120m ETH_spot_close_vs_kama_z_120m ETH_spot_kama_velocity_120m ETH_spot_rolling_high_dist_120m ETH_spot_rolling_low_dist_120m ETH_spot_realized_vol_120m ETH_spot_upside_realized_vol_120m ETH_spot_downside_realized_vol_120m ETH_spot_realized_vol_balance_120m ETH_spot_ret_vol_scaled_120m ETH_spot_volume_ret_corr_120m ETH_spot_quote_volume_per_trade_z_120m ETH_spot_taker_quote_volume_per_trade_z_120m ETH_spot_ret_velocity_2m ETH_spot_volume_velocity_2m ETH_spot_quote_volume_velocity_2m ETH_spot_ret_velocity_3m ETH_spot_volume_velocity_3m ETH_spot_quote_volume_velocity_3m ETH_spot_ret_velocity_5m ETH_spot_volume_velocity_5m ETH_spot_quote_volume_velocity_5m ETH_spot_ret_velocity_10m ETH_spot_volume_velocity_10m ETH_spot_quote_volume_velocity_10m ETH_spot_ret_velocity_15m ETH_spot_volume_velocity_15m ETH_spot_quote_volume_velocity_15m ETH_spot_ret_velocity_30m ETH_spot_volume_velocity_30m ETH_spot_quote_volume_velocity_30m ETH_spot_ret_velocity_60m ETH_spot_volume_velocity_60m ETH_spot_quote_volume_velocity_60m ETH_spot_ret_accel_2_10m ETH_spot_volume_accel_2_10m ETH_spot_ret_accel_5_15m ETH_spot_volume_accel_5_15m ETH_spot_ret_accel_10_30m ETH_spot_volume_accel_10_30m ETH_spot_ret_accel_15_60m ETH_spot_volume_accel_15_60m ETH_spot_kama_accel_5_10m ETH_spot_kama_accel_10_30m ETH_spot_kama_accel_30_60m ETH_spot_kama_accel_60_120m ETH_spot_realized_vol_ratio_5_30m ETH_spot_quote_volume_mean_ratio_5_30m ETH_spot_buy_ratio_mean_diff_5_30m ETH_spot_realized_vol_ratio_10_60m ETH_spot_quote_volume_mean_ratio_10_60m ETH_spot_buy_ratio_mean_diff_10_60m ETH_spot_realized_vol_ratio_30_120m ETH_spot_quote_volume_mean_ratio_30_120m ETH_spot_buy_ratio_mean_diff_30_120m ETH_spot_buy_pressure_x_ret_5m ETH_spot_buy_pressure_x_quote_volume_z_5m ETH_spot_buy_pressure_x_ret_30m ETH_spot_buy_pressure_x_quote_volume_z_30m ETH_spot_buy_pressure_x_ret_60m ETH_spot_buy_pressure_x_quote_volume_z_60m ETH_futures_basis ETH_futures_spot_volume_ratio ETH_futures_spot_buy_ratio_diff ETH_basis_change_1m ETH_futures_spot_ret_spread_1m ETH_basis_change_5m ETH_futures_spot_ret_spread_5m ETH_basis_change_15m ETH_futures_spot_ret_spread_15m ETH_basis_change_60m ETH_futures_spot_ret_spread_60m ETH_basis_z_5m ETH_futures_spot_volume_ratio_z_5m ETH_futures_spot_quote_volume_ratio_z_5m ETH_futures_spot_count_ratio_z_5m ETH_basis_z_15m ETH_futures_spot_volume_ratio_z_15m ETH_futures_spot_quote_volume_ratio_z_15m ETH_futures_spot_count_ratio_z_15m ETH_basis_z_30m ETH_futures_spot_volume_ratio_z_30m ETH_futures_spot_quote_volume_ratio_z_30m ETH_futures_spot_count_ratio_z_30m ETH_basis_z_60m ETH_futures_spot_volume_ratio_z_60m ETH_futures_spot_quote_volume_ratio_z_60m ETH_futures_spot_count_ratio_z_60m ETH_basis_accel_1_5m ETH_basis_accel_5_15m ETH_basis_accel_15_60m ETH_basis_vol_scaled_5m ETH_futures_spot_realized_vol_ratio_5m ETH_basis_x_ret_spread_5m ETH_buy_diff_x_ret_spread_5m ETH_basis_vol_scaled_15m ETH_futures_spot_realized_vol_ratio_15m ETH_basis_x_ret_spread_15m ETH_buy_diff_x_ret_spread_15m ETH_basis_vol_scaled_60m ETH_futures_spot_realized_vol_ratio_60m ETH_basis_x_ret_spread_60m ETH_buy_diff_x_ret_spread_60m sin_hour cos_hour sin_dayofweek cos_dayofweek
feature_infos=[-0.032690674066543579:0.044521696865558624] [2.0869943000434432e-06:0.05418701097369194] [0:0.045527659356594086] [0:0.02745344303548336] [0:0.025225274264812469] [0:1] [-0.057063944637775421:0.039983231574296951] [-0.067752011120319366:0.050560463219881058] [-0.089900493621826172:0.05981895700097084] [-0.097455061972141266:0.088671401143074036] [-0.098435685038566589:0.092434942722320557] [-0.11822041869163513:0.10588365793228149] [-0.13738854229450226:0.10166438668966293] [-0.1636718213558197:0.12744592130184174] [-0.19132056832313538:0.14861714839935303] [0.0017362325452268124:0.99746465682983398] [0.0017364909872412682:0.99746441841125488] [-0.00060729112010449171:0.0013085034443065524] [-0.022463010624051094:0.01940043643116951] [-0.021931089460849762:0.018949678167700768] [-0.0035103599075227976:0.018775574862957001] [1.3180457472117268e-06:0.051701247692108154] [-1.7881940603256226:1.7888317108154297] [-1.7882201671600342:1.7888317108154297] [-1.7879842519760132:1.7888450622558594] [2.9472444111888763e-06:0.05427112802863121] [-0.048772033303976059:0.03480973094701767] [-0.031442392617464066:0.025496305897831917] [-1.7888116836547852:1.7888486385345459] [-0.011864532716572285:0.0092449653893709183] [-0.098175801336765289:0] [0:0.097261957824230194] [2.9472398637153674e-06:0.10347894579172134] [0:0.054622665047645569] [0:0.087887749075889587] [-1:1] [-2.2298867702484131:2.2324728965759277] [-0.99966442584991455:0.99975919723510742] [-1.7861727476119995:1.7887974977493286] [-1.7871526479721069:1.7887595891952515] [0.063027016818523407:0.9603809118270874] [2.1550320070673479e-06:0.040094610303640366] [-2.4765617847442627:2.8456587791442871] [-2.4759554862976074:2.8456554412841797] [-2.5856716632843018:2.8453519344329834] [3.2325531265087193e-06:0.042179640382528305] [-0.068772085011005402:0.048772953450679779] [-0.032529771327972412:0.032493982464075089] [-2.8376944065093994:2.8127086162567139] [-0.010130028240382671:0.0065256068482995033] [-0.098175801336765289:0] [0:0.15421104431152344] [6.4650957938283682e-06:0.1203262060880661] [0:0.059914600104093552] [0:0.10434862226247787] [-1:1] [-2.984691858291626:2.8367767333984375] [-0.97995775938034058:0.98550689220428467] [-2.6398279666900635:2.8447623252868652] [-2.5851330757141113:2.8446524143218994] [6.5216854636673816e-06:0.028409523889422417] [-2.5709743499755859:5.2852120399475098] [-2.5698575973510742:5.285102367401123] [-3.0960061550140381:5.2875890731811523] [6.8507379182847217e-06:0.029873637482523918] [-0.085112214088439941:0.078020676970481873] [-0.044973153620958328:0.049562342464923859] [-5.1560535430908203:4.9146857261657715] [-0.0044233938679099083:0.0028768829070031643] [-0.12040707468986511:0] [0:0.1590157151222229] [3.5465687687974423e-05:0.15440723299980164] [9.3627149908570573e-06:0.080994598567485809] [9.375993613502942e-06:0.13145899772644043] [-0.98096722364425659:0.94917768239974976] [-3.5434036254882812:3.5439412593841553] [-0.87181246280670166:0.848949134349823] [-3.5585558414459229:5.2607769966125488] [-2.8512105941772461:5.2619752883911133] [0.16136299073696136:0.84426140785217285] [-3.8046622276306152:3.7211668491363525] [2.4581931938882917e-05:0.020496882498264313] [-2.2984554767608643:7.590703010559082] [-2.2978255748748779:7.5900425910949707] [-3.063739538192749:7.5811009407043457] [1.1088459359598346e-05:0.026229036971926689] [-0.098373480141162872:0.094806715846061707] [-0.057746376842260361:0.078564934432506561] [-6.8293018341064453:5.7117476463317871] [-0.0024248654954135418:0.0014757801545783877] [-0.14050887525081635:0] [0:0.17576858401298523] [0.00019355278345756233:0.15792475640773773] [2.705348379095085e-05:0.085142120718955994] [4.2205814679618925e-05:0.13300769031047821] [-0.8372809886932373:0.84343832731246948] [-3.6964340209960938:3.7008817195892334] [-0.79303151369094849:0.74663847684860229] [-3.3628180027008057:7.3359270095825195] [-2.7617263793945312:7.4735617637634277] [0.18601319193840027:0.81870609521865845] [-3.9662055969238281:3.9094347953796387] [3.5781282349489629e-05:0.01460430771112442] [-2.0551702976226807:10.796917915344238] [-2.0539302825927734:10.796005249023438] [-3.3989849090576172:10.687000274658203] [1.4921807633072603e-05:0.016749769449234009] [-0.12016457319259644:0.10746908932924271] [-0.07068982720375061:0.083747841417789459] [-7.9436383247375488:7.4670357704162598] [-0.0012906974880024791:0.00091034121578559279] [-0.15981505811214447:0] [0:0.18922734260559082] [0.0003928496444132179:0.15961429476737976] [0.00017427158309146762:0.086784511804580688] [0.00016905303345993161:0.13396401703357697] [-0.79313105344772339:0.8163444995880127] [-3.6786246299743652:3.9887542724609375] [-0.64858698844909668:0.60473877191543579] [-3.4077553749084473:10.151366233825684] [-2.7004499435424805:10.432126998901367] [-0.028531972318887711:0.019991615787148476] [-2.6925680637359619:2.8277537822723389] [-2.6924898624420166:2.8265390396118164] [-0.022584004327654839:0.016853487119078636] [-1.7156901359558105:1.9510846138000488] [-1.7158350944519043:1.9507749080657959] [-0.017980098724365234:0.011963791213929653] [-1.1059154272079468:1.3516067266464233] [-1.1060346364974976:1.3502316474914551] [-0.0097455065697431564:0.0088671399280428886] [-0.59236609935760498:0.56867915391921997] [-0.59210216999053955:0.56793802976608276] [-0.0065623787231743336:0.0061623295769095421] [-0.39590579271316528:0.44547587633132935] [-0.39591500163078308:0.44587862491607666] [-0.0039406805299222469:0.003529455279931426] [-0.20886935293674469:0.21833455562591553] [-0.20884132385253906:0.21799907088279724] [-0.0022898090537637472:0.0016944063827395439] [-0.10467105358839035:0.1167643666267395] [-0.10462263971567154:0.11671274155378342] [-0.0023483082186430693:0.0022942554205656052] [-0.31981924176216125:0.32114690542221069] [-0.0011537442915141582:0.0010617353254929185] [-0.10941892862319946:0.10404462367296219] [-0.00032972727785818279:0.0002668842498678714] [-0.025380181148648262:0.022426577284932137] [-0.00010474398004589602:0.00010874285362660885] [-0.0081638917326927185:0.0085216742008924484] [-0.0010796444257721305:0.0020065964199602604] [-0.00029616683605127037:0.00025673990603536367] [-7.1377238782588392e-05:0.00011159418500028551] [-2.3393376977765001e-05:2.1643118088832125e-05] [-0.99702125787734985:-0.0021221013739705086] [-0.96689510345458984:4.7146620750427246] [-0.46416142582893372:0.44722732901573181] [-0.99650114774703979:-0.0050645093433558941] [-0.94242697954177856:4.5621356964111328] [-0.36596760153770447:0.34543639421463013] [-0.93464565277099609:-0.0018660470377653837] [-0.89482742547988892:2.8170275688171387] [-0.25484630465507507:0.26012536883354187] [-0.0045169051736593246:0.034205067902803421] [-3.1733887195587158:3.1685535907745361] [-0.013572408817708492:0.020149553194642067] [-16.253499984741211:14.587065696716309] [-0.0097637111321091652:0.015449593774974346] [-21.706445693969727:19.830625534057617] [-0.038396138697862625:0.0076434542424976826] [0.078329510986804962:341.09640502929688] [-0.95488321781158447:0.88739198446273804] [-0.0064141242764890194:0.0060245804488658905] [-0.0066480878740549088:0.0060445577837526798] [-0.038050118833780289:0.021842800080776215] [-0.038806617259979248:0.022113095968961716] [-0.037790298461914062:0.03722357377409935] [-0.038546673953533173:0.037979450076818466] [-0.037898704409599304:0.037993893027305603] [-0.038655143231153488:0.03875037282705307] [-1.7888543605804443:1.7888543605804443] [-1.7871682643890381:1.7888543605804443] [-1.7871677875518799:1.7888543605804443] [-1.7878295183181763:1.7888543605804443] [-3.5832269191741943:3.6053187847137451] [-3.076347827911377:3.6147844791412354] [-3.0759255886077881:3.6147844791412354] [-3.1666955947875977:3.6147844791412354] [-5.2108445167541504:5.2566099166870117] [-2.8975050449371338:5.2946515083312988] [-2.8976542949676514:5.2946515083312988] [-3.7264707088470459:5.2946515083312988] [-7.3965163230895996:7.4343461990356445] [-2.9026577472686768:7.6168670654296875] [-2.9022829532623291:7.6168670654296875] [-4.004753589630127:7.6168670654296875] [-0.0011229906231164932:0.0012262212112545967] [-0.00050906703108921647:0.00045156484702602029] [-4.1949067963287234e-05:5.5360545957228169e-05] [-180.00032043457031:63.999820709228516] [-1:48.8843994140625] [-2.7899131964659318e-05:0.001490024384111166] [-0.0067315748892724514:0.0029265137854963541] [-50.088005065917969:1.8777085542678833] [-0.73806357383728027:15.846970558166504] [-4.4533349864650518e-05:0.0014800435164943337] [-0.0066864839754998684:0.00037002662429586053] [-2.36553955078125:0.61269611120223999] [-0.39204341173171997:1.3782805204391479] [-1.5587249436066486e-05:0.0014842082746326923] [-0.0083391880616545677:0.0027559674344956875] [-1:1] [-1:1] [-0.97492790222167969:0.97492790222167969] [-0.90096884965896606:1]
tree_sizes=4510 4660 4649 4632 4642 4637 4624 4628 4647 4671 4641 4643 4667 4650 4648 4628 4640 4631 4621 4631 4641 4650 4626 4645 4652 4657 4641 4642 4629 4645 4624 4650 4613 4655 4661 4672 4637 4639 4647 4650 4649 4601 4658 4647 4656 4624 4630 4652 4653 4640 4645 4627 4634 4659 4627 4658 4631 4605 4624 4620 4620 4631 4622 4656 4625 4638 4636 4618 4644 4623 4637 4654 4640 4640 4622 4630 4634 4630 4650 4645 4673 4633 4639 4651 4661 4607 4660 4645 4638 4617 4644 4640 4644 4640 4636 4617 4648 4615 4654 4640 4634 4617 4636 4643 4637 4635 4637 4647 4644 4622 4652 4647 4604 4636 4645 4630 4625 4608 4634 4613 4647 4625 4623 4638 4643 4603 4626 4627 4637 4632 4652 4642 4611 4649 4623 4620 4614 4614 4668 4635 4624 4681 4640 4637 4631 4639 4599 4634 4596 4637 4640 4612 4638 4641 4625 4623 4620 4614 4662 4631 4633 4650 4613 4642 4617 4640 4629 4657 4639 4612 4629 4630 4635 4605 4627 4623 4657 4646 4600 4629 4632 4640 4631 4628 4620 4618 4617 4638 4642 4632 4628 4644 4652 4624 4630 4618 4574 4643 4614 4622 4642 4622 4612 4592 4621 4624 4658 4606 4616 4642 4607 4616 4620 4623 4624 4598 4611 4630 4647 4642 4623 4617 4637 4622 4624 4617 4637 4646 4635 4602 4664 4660 4629 4626 4611 4663 4638 4618 4633 4638 4640 4621 4622 4598 4658 4640 4659 4652 4615 4637 4621 4629 4626 4607 4633 4630 4625 4617 4628 4583 4663 4629 4590 4606 4611 4647 4630 4635 4604 4605 4640 4647 4628 4629 4607 4604 4636 4644 4635 4631 4618 4646 4633 4614 4605 4647 4613 4621 4632 4632 4635 4641 4640 4625 4628 4616 4617 4617 4629 4630 4587 4630 4607 4614 4643 4618 4595 4630 4625 4615 4602 4601 4622 4595 4632 4612 4609 4618 4618 4608 4638 4611 4635 4635 4631 4626 4658 4654 4622 4636 4650 4607 4598 4620 4592 4639 4621 4599 4639 4615 4620 4624 4622 4636 4632 4618 4623 4646 4625 4619 4624 4613 4627 4619 4583 4605 4641 4626 4623 4609 4637 4640 4620 4632 4627 4621 4627 4621 4625 4590 4604 4645 4597 4607 4636 4622 4636 4622 4640 4639 4642 4614 4608 4629 4605 4619 4641 4626 4625 4623 4630 4605 4637 4642 4616 4590 4593 4643 4603 4615 4642 4612 4640 4643 4597 4633 4627 4626 4623 4625 4612 4637 4622 4602 4652 4605 4654 4641 4659 4609 4583 4616 4644 4612 4628 4631 4623 4614 4599 4616 4607 4619 4628 4641 4605 4639 4620 4636 4623 4631 4624 4634 4651 4593 4636 4623 4603 4624 4605 4633 4615 4605 4614 4612 4627 4613 4635 4640 4614 4642 4657 4619 4615 4606 4621 4630 4613 4593 4643 4637 4624 4630 4592 4615 4632 4608 4621 4621 4600 4653 4622 4616 4653 4617 4641 4611 4598 4635 4599 4648

Tree=0
num_leaves=40
num_cat=0
split_feature=108 74 55 9 118 55 39 154 194 108 116 212 17 14 164 116 171 183 184 75 47 12 207 74 171 187 212 52 197 10 155 149 169 78 14 12 74 70 155
split_gain=468.052 110.137 100.07 46.3264 37.6812 32.5289 31.8884 31.3153 32.1029 27.4538 27.2863 26.0688 30.4457 25.2065 25.0324 28.8149 25.0266 23.9202 23.9058 30.2966 23.8012 28.9398 23.7174 29.2735 39.463 26.3929 23.6867 23.2426 22.4295 22.0131 28.7261 21.8574 27.1009 21.7952 23.0684 25.6568 26.659 21.384 21.2035
threshold=0.00057930976618081342 -0.11599287763237952 0.23997560143470767 -0.00057642185129225243 -0.0033189683454111214 -0.13461171835660932 1.4151011705398562 -0.62671658396720875 0.65424561500549328 0.0027296439511701469 0.022364284843206409 0.91597560048103344 -1.6299621165671848e-05 -0.003179497085511684 -0.62073436379432667 -0.039496239274740212 0.10714453831315042 1.5420748591423037 -0.67866662144660939 0.72312641143798839 0.00068342802114784728 -0.0059515356551855794 -0.096743408590555177 0.027942631393671039 -0.15374454855918882 0.6659664809703828 0.37940952181816107 0.00416879402473569 1.2670645901380342e-06 -0.0017105049337260423 -0.025266259908676144 -0.00016481359489262101 -0.00038233715167734767 -0.050193121656775468 0.011281717102974655 0.00025856589491013443 0.13048397004604342 0.0023776588495820765 -0.3562346994876861
decision_type=2 2 2 2 2 2 2 2 2 2 2 2 2 2 2 2 2 2 2 2 2 2 2 2 2 2 2 2 2 2 2 2 2 2 2 2 2 2 2
left_child=1 4 5 6 20 33 13 8 14 -9 17 -6 -13 16 -4 -16 -3 18 19 -5 -1 -22 -7 25 -25 -24 -23 -12 -11 30 -15 -8 -33 38 35 -35 -37 -27 -2
right_child=2 3 7 10 11 22 31 9 -10 28 27 12 -14 29 15 -17 -18 -19 -20 -21 21 26 23 24 -26 37 -28 -29 -30 -31 -32 32 -34 34 -36 36 -38 -39 -40
leaf_value=0.021535267759510653 0.016418072424454311 0.018486530934447663 0.016960814583421059 0.0158367717408892 0.019216611353620402 0.013247570708822444 0.017431746438345552 0.013215634005657655 0.017285717131786817 0.0080252041141529191 0.01497226673610211 0.021648603831123714 0.010061692154124783 0.012249225605239555 0.016848186828508086 0.010800962501447051 0.023298396608877361 0.021459662311564594 0.017623387241275587 0.0076845080886366775 0.021741963038414944 0.0076810493758299007 0.016382478267098197 0.018596829224408709 0.013533067650563616 0.016131978646838817 0.019689406882723838 0.0044181213246488171 0.013257242875594582 0.018670466613578192 0.01892645860035027 0.029146138533004386 0.019336742438607068 0.0076040705062551846 0.0095629611183680324 0.015423566145213546 0.023836070755188642 0.025977032218088066 0.020506764968481445
leaf_weight=3716.4093608595431 629.62751146033406 808.81329250335693 277.43122854828835 790.83152117952704 1708.1531654372811 1597.3711212575436 121.66911399364471 734.14906610175967 469.79534164816141 839.93313208967447 1154.9774543233216 83.1906403824687 172.65735965594649 403.34688099473715 233.33990616351366 1187.5928517095745 400.34317072108388 302.40123374760151 2583.033266544342 131.72877554222941 171.16438412666321 100.18468578159809 663.03976335003972 487.37419154122472 1746.9254956394434 84.560343444347382 68.417291689664125 54.112144235521555 267.94620924815536 891.14981390163302 263.88559249788523 181.01436482742429 113.66636121273041 69.144424255937338 152.48121330887079 316.48795580863953 132.25109861418605 154.00654655322433 626.45930869877338
leaf_count=14502 2378 3432 1107 3313 7052 6092 416 3231 1783 3240 5183 392 701 1620 848 4598 1577 970 10816 592 657 368 2675 1873 6904 297 252 205 1201 3820 1027 614 505 260 539 1202 484 505 2514
internal_value=0.0168188 0.018688 0.0143275 0.0175014 0.0203044 0.0155102 0.0189861 0.0123635 0.0136457 0.0108545 0.0165592 0.0185148 0.0138309 0.018375 0.0126385 0.0117943 0.0200801 0.0172131 0.0168466 0.0146723 0.0211708 0.0171826 0.0148085 0.0156037 0.0146378 0.0179969 0.0125564 0.0144996 0.00929022 0.0170518 0.0148906 0.0230468 0.0253638 0.0172339 0.014943 0.0165278 0.017902 0.0224857 0.0184569
internal_weight=24891.1 14221.1 10669.9 8200.97 6020.18 6659.73 3183.89 4010.19 2168.16 1842.03 5017.08 1964 255.848 2767.54 1698.36 1420.93 1209.16 3807.99 3505.59 922.56 4056.18 339.766 4733.28 3135.91 2234.3 901.607 168.602 1209.09 1107.88 1558.38 667.232 416.35 294.681 1926.45 670.365 517.883 448.739 238.567 1256.09
internal_count=99745 58014 41731 34090 23924 25723 13011 16008 8336 7672 21079 8145 1093 11476 6553 5446 5009 15691 14721 3905 15779 1277 18346 12254 8777 3477 620 5388 4441 6467 2647 1535 1119 7377 2485 1946 1686 802 4892
is_linear=0
shrinkage=1


Tree=1
num_leaves=40
num_cat=0
split_feature=86 56 56 117 117 193 97 169 160 96 149 47 97 66 155 132 213 47 57 198 200 200 20 174 85 152 68 172 181 208 107 36 151 129 165 112 20 10 161
split_gain=485.05 94.8387 76.6461 71.7515 55.1078 36.943 34.6577 33.7193 32.4461 30.6735 30.6779 29.9689 27.6909 27.52 25.0032 24.3708 24.0003 25.8052 23.4911 23.4433 27.3769 24.4418 23.4298 23.2966 22.5238 22.8504 22.4676 23.2949 21.7356 21.0482 22.4515 20.9338 20.227 23.9938 25.2542 22.5941 21.7263 21.9566 21.2761
threshold=0.00024331636086571964 0.14051698893308642 -0.54550185799598683 0.58926120400428783 -0.80377161502838124 -1.5211766958236692 0.017660614103078846 -0.0004178965173196047 -0.69426164031028736 0.88525837659835827 0.001148829411249608 0.00027449644403532153 0.093771047890186324 0.0013001556508243086 0.92716696858406078 -0.20411453396081922 -0.60785761475563038 -0.00032288332295138383 0.14854931086301806 -2.3345402944130452e-08 -0.062783364206552492 0.11978078633546831 -0.00021377539815148336 -1.1664082649076589e-05 0.0018126588547602298 3.4406467648295806e-06 -2.1108219698362515e-05 -3.569464206520933e-05 -0.050289655104279511 0.0094871944747865217 0.0014339858316816392 -1.4443078041076658 -1.5750628108435192e-06 0.3025148212909699 1.6664026247781296e-06 0.0019237202941440048 0.0002180392621085048 -0.00029012917366344476 -0.26360085606575007
decision_type=2 2 2 2 2 2 2 2 2 2 2 2 2 2 2 2 2 2 2 2 2 2 2 2 2 2 2 2 2 2 2 2 2 2 2 2 2 2 2
left_child=2 9 6 7 8 -5 15 18 -4 31 -11 23 14 -10 22 -1 17 -17 -3 -20 -21 24 -6 -7 25 -22 -9 -28 -19 30 -29 -2 33 34 35 -8 37 -34 -37
right_child=1 3 4 5 12 11 32 26 13 10 -12 -13 -14 -15 -16 16 -18 28 19 20 21 -23 -24 -25 -26 -27 27 29 -30 -31 -32 -33 36 -35 -36 38 -38 -39 -40
leaf_value=-0.0042451958830023537 0.0055748218578132256 -0.0014534824944856912 -0.0077534800475032965 0.0061169206711817357 -0.0082277789850983881 -0.005081636939613326 -0.011086793156991752 0.0029814040778217369 0.0041321892018055069 -0.0014465081618586233 -0.0089369335887006483 -0.0060257815008754488 -0.0021126978489051916 -0.0033019727083562866 0.0092319021328582575 0.007532787893993859 0.0035718964219209372 0.00545211307497615 -0.0065084220660857721 0.0060687662134635712 -0.0046817960170725771 0.0043108584503511451 0.00067992527243728568 0.001479374900419823 0.0025565854069582597 -0.014192929602473627 -0.0045783016674854982 0.0062884992342133236 -0.0041225408737027439 -0.0016963961303876158 -0.00099206915270144409 0.00022366088220414932 0.0085215717532681323 0.0083589423972886875 0.0015837986841441792 0.004323235902140221 -0.0018191910874500773 0.00077626926661574175 -0.004020637174722866
leaf_weight=83.711510624736547 195.69211086258292 1005.2311545945704 64.481218919157982 71.00444882363081 74.481230862438679 281.39593679457903 72.393426146358252 362.14667437970638 1722.3172813691199 1104.1301547251642 154.38043431937695 2718.7496635988355 1103.5720083713531 132.76200531050563 83.198674619197845 884.49607465416193 2900.4340259023011 153.6285403072834 754.69069551303983 81.332407888025045 380.9777852781117 83.036794371902943 3999.4239366613328 255.77012717723846 85.414858601987362 74.925760187208652 414.64985843002796 207.22762948647141 94.996396269649267 859.37648110091686 212.24052143469453 2421.8442804813385 272.26645567268133 92.63768707588315 888.25140265375376 109.60061115771532 114.24574860557914 136.0589599981904 244.36054390668869
leaf_count=293 776 3609 273 279 270 1224 359 1573 6590 4359 575 10720 4726 498 344 3588 11615 652 2785 306 1248 351 16149 1053 305 219 2040 804 450 4036 787 9323 1184 374 3596 462 445 647 1049
internal_value=-3.02502e-05 -0.0023608 0.00203543 -0.00335547 0.000936019 -0.00510966 0.00334079 -0.00206457 0.00321833 -0.00034669 -0.00236569 -0.00535461 0.000103151 0.00359993 0.000691485 0.00415649 0.00433096 0.00627355 -0.00330551 -0.00458004 -0.00251716 -0.00363629 0.000516967 -0.00195686 -0.00485613 -0.00624584 -0.000575944 -0.00133691 0.00179209 -0.000285607 0.00260372 0.000623884 0.00160028 0.000618157 7.23587e-05 -0.00307554 0.00424425 0.00594177 -0.00143586
internal_weight=24951.5 11724.2 13227.3 7848.17 7180.24 3326.92 6047.08 4521.25 1919.56 3876.05 1258.51 3255.92 5260.68 1855.08 4157.1 4117.27 4033.56 1133.12 2465.61 1460.38 705.688 624.355 4073.91 537.166 541.318 455.904 2055.64 1693.49 248.625 1278.84 419.468 2617.54 1929.81 1407.24 1314.61 426.355 522.571 408.325 353.961
internal_count=99936 46372 53564 31339 28850 13276 24714 18063 7361 15033 4934 12997 21489 7088 16763 16598 16305 4690 8823 5214 2429 2123 16419 2277 1772 1467 9240 7667 1102 5627 1591 10099 8116 5840 5466 1870 2276 1831 1511
is_linear=0
shrinkage=0.0157368


Tree=2
num_leaves=40
num_cat=0
split_feature=108 74 55 146 117 90 108 200 97 192 78 91 180 37 14 99 17 117 50 38 64 21 198 144 187 9 98 161 168 55 159 146 97 165 163 26 164 159 201
split_gain=516.782 116.799 102.215 44.0726 41.7182 38.4636 36.1475 33.8679 33.2107 27.5381 31.1321 27.162 25.0222 27.3251 24.2912 24.0358 23.1609 22.652 27.8385 22.1603 21.8444 23.7661 21.6182 36.7492 23.3423 22.1572 21.4472 21.4193 23.1442 21.3222 26.6756 21.1441 25.9556 27.1614 23.4541 21.8688 21.2615 32.2543 20.9085
threshold=0.00060698535526171337 -0.11599287763237952 -0.050781557336449616 -5.6398782817268503e-06 0.67531421780586254 -0.0011523569119162855 -0.0012518715811893342 -0.10970652848482131 -0.12651143968105313 1.2485565543174746 0.68586462736129772 0.00036116565752308821 -0.012104407884180544 -0.19017635285854337 -0.0028172050369903441 -0.50482806563377369 -1.3835818663210374e-05 -0.7043277621269225 -0.0011480393586680291 1.5440908670425417 0.0019801998278126125 0.00069656135747209202 -2.1816447315359252e-08 -3.1727706300443963e-05 0.88946503400802623 0.002621072693727911 2.4183813333511357 -0.16964830458164212 0.26108683645725256 0.19212085753679278 0.063246522098779692 -1.5413583241752345e-05 0.24655732512474063 -0.00023258748842636121 -6.2669957969774251e-06 -0.00072984493453986932 0.055090056732296951 0.022097285836935047 4.7450003037852191e-08
decision_type=2 2 2 2 2 2 2 2 2 2 2 2 2 2 2 2 2 2 2 2 2 2 2 2 2 2 2 2 2 2 2 2 2 2 2 2 2 2 2
left_child=1 8 9 19 12 7 17 -6 11 10 -2 -1 -4 -14 -9 -13 20 18 29 -3 21 -10 -8 -24 25 27 -12 28 -25 30 -5 -16 34 -34 -33 -36 -35 -38 -20
right_child=2 3 4 6 5 -7 22 14 16 -11 26 15 13 -15 31 -17 -18 -19 38 -21 -22 -23 23 24 -26 -27 -28 -29 -30 -31 -32 32 33 36 35 -37 37 -39 -40
leaf_value=0.0088748426177531706 0.00029295320010671596 0.0022708550790572035 -0.0036179198685028797 0.0010485799384041526 -0.01419133399901518 -0.0067587409910432415 -0.0020624592073490771 0.0031176273463509744 0.0031453201577410603 0.004693870340150271 -0.0059692869797209613 0.001803623717332836 0.0016952001331722703 -0.0023346848074303267 0.0051805471772199112 0.0050742434406834134 0.0012976869411794774 0.00028597910864400688 0.0076528326193803934 0.0079144118129075795 -0.0043785365748494941 0.0084463625193645694 0.011113803072446148 -0.00052855097387577519 0.0030156979724164229 -0.0081904050950753083 0.0034848958124001042 0.001417845351733139 -0.006066776038724314 -0.0055154008453257878 0.012002516413066698 0.0012519325087771811 0.0036437167534908851 -0.004183231205286228 0.0047377574035277837 -0.0045640562669066014 -0.0058404512231037195 -0.015872977711180566 -0.0021931963991719604
leaf_weight=351.31217134743929 2064.1006146259606 1894.6007757596672 2207.5158241316676 407.56252190470695 69.785593807697296 1426.7128356993198 1745.5893007665873 147.10361694172025 630.61573713645339 280.68573013320565 354.00682127103209 746.39209112524986 578.06292518228292 1491.7897189073265 66.675274606794119 2191.7922352552414 1745.2966798506677 1205.1902754195035 399.72991681843996 189.63222845643759 67.148847032338381 313.92272360995412 74.711209796369076 637.99921706691384 469.24396078661084 98.360833417624235 71.350322645157576 772.77822803705931 264.38744632527232 98.643709249794483 63.677940122783184 316.96629136055708 62.204962521791458 293.57187100499868 68.24072502925992 750.87167022377253 190.69199376553297 136.1719845123589 61.575745828449726
leaf_count=1470 8034 7553 8690 1627 282 5684 7658 584 2681 1037 1349 3077 2165 6041 284 8135 6938 4795 1605 670 319 1320 273 2855 1720 366 217 3580 1164 357 195 1208 208 1251 253 2908 819 521 268
internal_value=6.65248e-05 0.00200331 -0.0025759 0.000800889 -0.00349748 -0.00476414 0.000144516 -0.0034103 0.00367044 2.09682e-05 -0.000505734 0.00473829 -0.00245234 -0.00120903 -0.00303992 0.00424354 0.00239619 0.00175136 0.00346359 0.00278453 0.00429083 0.0049076 -0.000739813 0.00025626 -0.000105244 -0.000931226 -0.00438244 -0.000504737 -0.00215164 0.00113637 0.00252966 -0.00352057 -0.00383979 -0.00626542 -0.00238193 -0.00378861 -0.00725958 -0.0100213 0.00633767
internal_weight=25006.7 14430.2 10576.5 8383.68 7806.37 3529 6299.45 2102.28 6046.48 2770.14 2489.46 3289.5 4277.37 2069.85 2032.5 2938.18 2756.98 2236.38 1031.19 2084.23 1011.69 944.538 4063.07 2317.48 2242.77 1773.53 425.357 1675.16 902.387 569.884 471.24 1885.39 1818.72 682.641 1136.08 819.112 620.436 326.864 461.306
internal_count=100161 58626 41535 34686 30898 14002 26463 8318 23940 10637 9600 12682 16896 8206 8036 11212 11258 8847 4052 8223 4320 4001 17616 9958 9685 7965 1566 7599 4019 2179 1822 7452 7168 2799 4369 3161 2591 1340 1873
is_linear=0
shrinkage=0.0157368


Tree=3
num_leaves=40
num_cat=0
split_feature=108 55 56 117 117 157 55 74 53 95 77 137 153 82 65 96 153 32 68 147 69 155 114 109 108 201 166 159 23 39 131 185 120 159 78 190 81 7 209
split_gain=433.799 108.978 85.4596 62.1665 46.1977 36.1922 34.3749 36.6278 32.0175 29.2095 28.3948 26.9878 24.8306 23.8331 33.543 26.1091 43.1047 23.5803 26.5702 23.508 23.3346 23.3274 23.2223 22.8844 22.7295 22.6479 27.5863 32.878 23.9685 22.5466 22.1147 22.0551 21.8574 22.8203 23.8244 21.3457 24.0788 21.5801 24.3379
threshold=0.00060698535526171337 0.196146234869957 -0.56727623939514149 -0.85738703608512867 0.57842910289764415 -0.69896021485328663 -0.19874757528305051 0.048251243308186538 0.0023566490272060041 0.1123306453227997 0.56920582056045543 -0.018465382046997544 2.2331472138148459e-07 3.2708517313003544 -0.011798932217061518 -1.0146368145942686 1.7976159938370986e-07 0.0043657331261783847 -8.7422260548919426e-05 -0.00021230822312645611 -0.00050032720901072014 0.8885629177093507 0.003843700978904963 0.8255540430545808 0.0021079257130622868 -1.5514942108829641e-09 -0.49661879241466517 0.047837667167186744 -0.78548556566238392 1.5971897244453432 0.22646289318799975 0.38117519021034246 -0.18308082967996595 -0.086808711290359483 -0.71089744567871083 1.1269888877868655 0.00052547894301824283 0.0006928356015123428 7.8214835497192339e-08
decision_type=2 2 2 2 2 2 2 2 2 2 2 2 2 2 2 2 2 2 2 2 2 2 2 2 2 2 2 2 2 2 2 2 2 2 2 2 2 2 2
left_child=2 6 9 12 5 -3 11 8 10 13 -8 23 20 14 -1 -16 -17 18 31 -12 -4 -20 -23 32 -7 -9 27 -27 -28 -13 -15 -5 33 -2 -35 37 -37 38 -6
right_child=1 4 3 17 35 24 7 25 -10 -11 19 29 -14 30 15 16 -18 -19 21 -21 -22 22 -24 -25 -26 26 28 -29 -30 -31 -32 -33 -34 34 -36 36 -38 -39 -40
leaf_value=-0.0079480344808720502 -0.0082240775532502995 0.00044882555968171094 0.0044202319675434075 0.0036672095048346253 -0.0059412247551113989 -0.0021238197856142671 0.0005471021724665669 -0.0014094986855699863 0.0059565642171419122 -0.0013495063382260081 -0.01051226134116846 0.0035192761752748424 -0.00046366269512267491 0.01315528191778877 0.0050666719200263364 0.0013855968362914439 0.0049371723089885093 -0.008468290879995264 -0.00062439310272337895 -0.0018598705036210047 -0.003319681696371396 -0.0002696460610230389 0.012850599059806272 0.0040860066916605098 -0.0059108839604110168 0.0032704287908043579 -0.008735610679583939 -0.009303294101141165 -0.0038560567406099853 -0.0047341839571335177 0.0028618144278048136 -0.0013369149798295602 -0.0095487715166875271 -0.0044013862449097186 0.0070229257250851848 -0.0088662705673315679 0.00045638517292565303 -0.0084781693182247285 0.0014048336680234823
leaf_weight=66.360750831663609 81.78882147744298 624.63676436990499 1504.8460668958724 770.86020736396313 1077.3848185911775 780.80709828063846 1057.5188613571227 1389.9922348111868 200.84393253549933 344.35099811851978 112.97028598561883 790.67492180690169 398.36595191806555 116.38475525006652 1496.3695802502334 2460.4731565453112 1290.3652015738189 82.615385752171278 5243.5885856933892 250.04268953576684 103.00688376277685 69.467846591025591 64.251420617103577 119.4202404730022 790.10217783600092 215.61102952063084 340.71064860746264 67.65868866443634 931.64705277606845 91.406462669372559 93.201711889356375 304.03634805604815 114.72695705667138 83.467447195202112 98.560208324342966 96.439932987093925 237.49594293534756 832.29977644234896 124.50575644522905
leaf_count=307 264 2493 5899 2838 4201 3172 4165 5308 795 1436 361 3060 1472 454 6023 10132 5137 351 21855 938 484 314 239 447 3050 884 1275 263 3795 314 353 1124 393 414 355 415 896 3436 656
internal_value=-0.000139203 -0.00257023 0.00163415 0.000629567 -0.00439946 -0.00275473 -0.00116643 -0.00182414 7.51652e-05 0.00309639 -0.000756094 0.00100986 0.00305265 0.00337365 0.00316822 0.00330889 0.00260752 -0.000114267 -7.23463e-06 -0.00455367 0.00392412 -0.000458801 0.00603148 -0.00191858 -0.00402882 -0.00286973 -0.00417422 0.000265726 -0.00516303 0.00266353 0.00857985 0.0022514 -0.00381397 -0.00131846 0.00178211 -0.00592415 -0.00223474 -0.0065296 -0.00517989
internal_weight=24919.3 10510.7 14408.5 8541.04 4563.67 2195.55 5947.04 4567 1621.38 5867.51 1420.53 1380.05 2006.22 5523.16 5313.57 5247.21 3750.84 6534.82 6452.2 363.013 1607.85 5377.31 133.719 497.964 1570.91 2945.62 1555.63 283.27 1272.36 882.081 209.586 1074.9 378.543 263.816 182.028 2368.13 333.936 2034.19 1201.89
internal_count=99768 41350 58418 34576 18319 8715 23031 17784 6259 23842 5464 5247 7855 22406 21599 21292 15269 26721 26370 1299 6383 22408 553 1873 6222 11525 6217 1147 5070 3374 807 3962 1426 1033 769 9604 1311 8293 4857
is_linear=0
shrinkage=0.0157368


Tree=4
num_leaves=40
num_cat=0
split_feature=87 55 117 107 56 100 76 146 116 180 99 106 5 148 6 153 188 66 84 153 96 208 62 143 57 161 162 63 207 188 126 10 100 30 72 91 84 74 2
split_gain=372.726 95.1309 73.7865 65.4631 42.5949 41.775 39.6078 37.2516 35.0321 30.9916 30.127 34.0531 27.381 31.7377 26.0866 25.8653 24.3539 23.6631 23.0276 22.9753 22.9372 25.815 22.6858 23.0783 30.1276 27.0569 26.1247 22.2242 22.1283 22.083 21.8074 22.9005 20.8579 20.7774 20.6661 20.8599 20.224 20.1824 19.5323
threshold=0.0001164263376267627 -0.050781557336449616 0.66405338048934948 -0.0036313581513240929 -0.16953736543655393 0.58525615930557262 -0.0057330681011080733 -1.7225480405613777e-05 0.10588412731885911 0.5211387872695924 -0.56693756580352772 0.0019763960735872392 0.0077639939263463029 -2.0696078308901629e-06 0.00014760311023565012 1.2583042234837196e-06 -1.1594051718711851 0.0012312107137404384 -0.11633160710334776 2.8438909112082915e-06 0.66839811205863964 0.0085881110280752199 -0.70045092701911915 0.047181731089949615 0.34644182026386267 0.18712209165096286 -0.054372711107134812 -1.3803438544273374 -0.056309942156076424 0.89523932337760936 -0.26287661492824549 -0.00099703198065981247 0.42802344262599951 -0.00090156897203996767 0.0033778268843889241 0.010223477613180878 -1.384156286716461 0.040869535878300674 0.00087639124831184756
decision_type=2 2 2 2 2 2 2 2 2 2 2 2 2 2 2 2 2 2 2 2 2 2 2 2 2 2 2 2 2 2 2 2 2 2 2 2 2 2 2
left_child=3 5 6 17 10 8 16 -4 32 20 15 12 -12 33 -9 -5 -3 19 -11 -1 21 34 27 24 26 -25 -24 -18 -17 30 -10 -32 -2 -14 -8 -36 -15 -16 -22
right_child=1 2 7 4 -6 -7 9 14 29 18 11 -13 13 36 37 28 22 -19 -20 -21 38 -23 23 25 -26 -27 -28 -29 -30 -31 31 -33 -34 -35 35 -37 -38 -39 -40
leaf_value=0.0040415905728255373 0.0086321248194170044 -0.0040144816210867804 0.0071168274850101519 0.00096637750635668231 -0.00012832450505455013 -0.0073822708157722716 -0.0020257383694735373 -0.0032594699261987888 -0.0098334210251793189 0.00099630690317728207 -0.0003199563494500006 -0.0051659163636306807 0.0033454114730935122 0.011437802695827835 -0.0027785718248875915 -0.012900395786370176 -0.0015131826370424768 -0.0052485896922155537 -0.0041152228352570024 -0.0054106112487746997 -0.004606814211910555 -0.0038634860341628416 0.01006545638867914 0.0010576887015839164 -0.0067588690162216055 0.012559641219039675 -0.00083320616699111274 0.0056456110778847863 -0.00052465296027849021 0.0037250700792528691 0.0033634240454233945 -0.0045602997980877759 0.0016030154729253839 -0.0008012043451304557 0.0079037884700517945 -0.0022117829258806797 0.0046925570026182147 -0.0068489476303577844 -0.011345009320169555
leaf_weight=3622.3832962103188 110.16141278296709 303.35961420834064 67.556081257760525 1541.3721986934543 3496.6863481625915 155.22663969174027 361.1895417869091 1668.5877147763968 110.86547148227692 813.17787332832813 473.66981125250459 124.76634281873703 867.25914446264505 118.31399125605822 383.00800873711705 64.004584547132254 150.99392123147845 71.725025929510593 298.31544443964958 64.785190258175135 802.12392220646143 1055.8851128704846 58.640746295452118 232.19902494549751 208.10076575353742 64.814366620033979 765.15242289751768 371.22319835051894 81.302945107221603 124.95273752138019 134.26726242154837 275.76640561595559 2062.9335881955922 456.69224465638399 135.29258085787296 80.452641170471907 1601.0710432380438 1427.2718648314476 122.98781583085656
leaf_count=13807 271 1195 287 6987 14427 456 1198 6504 434 3161 1874 484 3222 327 1488 254 468 296 1398 266 3255 4478 182 872 773 234 3162 1534 367 459 528 1167 8285 1728 472 290 6811 5785 528
internal_value=5.61218e-05 -0.00188669 -0.002665 0.00196199 0.00122117 0.000565268 -0.00157517 -0.00445459 0.00100305 -0.0025696 0.00210682 0.00291213 0.00319882 0.00374662 -0.00467942 0.000367804 0.000118308 0.00370119 -0.000375212 0.0038754 -0.00352296 -0.00240082 0.000795809 -0.000295979 -0.00140887 0.00356907 -5.6886e-05 0.00357492 -0.00597877 -0.00221459 -0.00364019 -0.00196463 0.00195954 0.00191474 0.000275377 0.00412971 0.00515696 -0.00598799 -0.00550307
internal_weight=24928.5 12344.5 9370.33 12584 8825.14 2974.17 5823.91 3546.42 2818.95 3669.42 5328.45 3641.77 3517.01 3043.34 3478.87 1686.68 2154.48 3758.89 1111.49 3687.17 2557.93 1632.82 1851.12 1328.91 1031.89 297.013 823.793 522.217 145.308 645.852 520.899 410.034 2173.1 1323.95 576.935 215.745 1719.39 1810.28 925.112
internal_count=99714 48864 37264 50850 36481 11600 23200 14064 11144 14780 22054 14446 13962 12088 13777 7608 8420 14369 4559 14073 10221 6438 7225 5223 4117 1106 3344 2002 621 2588 2129 1695 8556 4950 1960 762 7138 7273 3783
is_linear=0
shrinkage=0.0157368


Tree=5
num_leaves=40
num_cat=0
split_feature=86 57 56 117 118 69 27 95 137 110 212 212 166 180 183 49 111 213 128 53 26 0 36 203 192 115 204 97 53 4 79 63 130 14 27 206 4 54 192
split_gain=411.397 88.1329 70.7028 59.4791 57.2952 48.9149 39.1852 31.2952 29.6074 27.9286 27.2048 26.934 24.717 23.6555 30.9391 22.5367 22.1527 22.1391 21.7369 26.528 21.6154 37.3877 24.3607 21.2343 20.9031 20.5907 21.8284 20.4763 20.1865 20.0623 20.8336 19.9063 19.7112 19.6704 25.3979 20.3705 20.2019 19.5057 21.2939
threshold=0.00018402255227556455 0.15868707746267322 -0.56727623939514149 0.6973438858985902 0.0051221819594502458 -0.0011563733569346366 0.00012319052621023732 -0.15315184742212293 -0.069651611149311052 -1.1403883036109617e-05 0.37940952181816107 0.60355338454246532 0.53400141000747692 0.15548159927129748 -0.93607488274574269 1.0604882845655085e-05 -0.0071717370301485053 -0.60785761475563038 0.031613657251000411 0.0033588098594918851 7.6808340963907553e-05 0.00016016244626371193 -1.275779068470001 -0.12976720184087751 0.22827672213315967 0.017633435316383842 0.09661342948675157 0.11874702945351602 0.0018736243364401164 0.00012236736074555668 0.46807964146137243 -1.0077714920043943 -7.0883699663681896e-05 -0.0024771536700427528 0.00034199698711745446 1.1551016996236287e-05 4.2378446778457155e-06 0.0011975303641520443 -0.62485802173614491
decision_type=2 2 2 2 2 2 2 2 2 2 2 2 2 2 2 2 2 2 2 2 2 2 2 2 2 2 2 2 2 2 2 2 2 2 2 2 2 2 2
left_child=2 3 7 25 9 -5 8 20 -3 10 18 16 29 14 -10 -16 -6 37 -4 -20 22 -22 -1 -23 -19 26 -2 -13 -25 -11 -31 -32 -8 -7 35 -35 -36 38 -9
right_child=1 6 4 5 11 33 32 17 13 12 -12 27 -14 -15 15 -17 -18 24 19 -21 21 23 -24 28 -26 -27 -28 -29 -30 30 31 -33 -34 34 36 -37 -38 -39 -40
leaf_value=0.0030081308441571352 0.00104272291478514 0.0080292000387806282 0.0031977799931080498 -0.00097494131065915075 0.002644940559988099 0.0024279962306664625 0.002824560294007255 -0.0019048150004887347 0.0024170515098129123 0.0025335741441072555 0.0053722302615316058 -0.001549679833510166 -0.0032009749079245707 0.00018835357228925325 0.00036192597524388416 -0.0060167716970174964 -0.0010941241583099881 0.00081331041469865728 0.00068254227896492198 -0.0098023545427099786 0.0092122449344923234 -0.0084989098874076827 0.0078337245908798366 0.0078433617187771646 0.0034078316384578851 -0.0070305647268693559 -0.0032435482294143488 -0.0070182149823185859 -0.0047176896776870737 0.0024131199091660441 -0.012526463379670279 -0.0019807927960787848 -0.0043557372239749603 -0.0054952610449537712 -0.013891255331426208 0.0049784556675285304 -0.0065806074713009623 0.0064622626121790079 0.00434583988537076
leaf_weight=385.08163503184915 3453.7849989756942 78.062547851353884 1122.5154396779835 1246.476558342576 585.59561930969357 60.806035254150629 96.853426832705736 190.07298805564642 183.36403749883175 1203.2377631366253 877.58507498726249 499.86345164850354 342.07532282546163 784.78471244126558 172.24321880191565 671.30434696748853 1189.3502513878047 1780.2260394990444 474.19457470998168 68.369730234146118 106.32542948424816 81.894745741039515 793.81163332238793 65.638311162590981 1354.5458757169545 87.813062135130167 321.59909504279494 256.83582685515285 61.213716614991426 218.31332268193364 55.369847916066647 223.0329244248569 4089.3316617645323 206.16460023075342 154.8039215952158 59.149165082722902 237.74326527863741 598.90292363986373 464.9220659956336
leaf_count=1576 13181 292 4293 4819 2400 253 383 863 844 4812 3485 2124 1333 3133 680 2658 5088 7378 1764 226 397 277 3199 267 5427 345 1813 1047 238 743 181 1040 16347 826 554 258 945 2417 1910
internal_value=9.94123e-05 -0.00201416 0.00203503 -0.000631566 0.000979738 -0.00286056 -0.00334035 0.00331156 -0.00145906 0.00202905 0.0031298 -0.000920353 0.000658229 -0.00186813 -0.00344013 -0.00471382 0.000139246 0.00264168 0.00194767 -0.000637926 0.00527912 0.00161583 0.00625782 -0.00225144 0.00193455 0.000502176 0.000677494 -0.00340634 0.00177863 0.00143505 -0.00122517 -0.00407967 -0.00418951 -0.00613044 -0.00692213 -0.00315867 -0.00946469 0.00440921 0.00253133
internal_weight=24903.3 11904.3 12999 5828.34 7116.34 1965.14 6075.94 5882.64 1889.76 4584.69 2542.66 2531.65 2042.03 1811.7 1026.91 843.548 1774.95 4388.67 1665.08 542.564 1493.97 315.072 1178.89 208.747 3134.77 3863.2 3775.38 756.699 126.852 1699.95 496.716 278.403 4186.19 718.667 657.861 265.314 392.547 1253.9 654.995
internal_count=99816 47331 52485 22994 28536 7655 24337 23949 7607 17877 9768 10659 8109 7315 4182 3338 7488 17995 6283 1990 5954 1179 4775 782 12805 15339 14994 3171 505 6776 1964 1221 16730 2836 2583 1084 1499 5190 2773
is_linear=0
shrinkage=0.0157368


Tree=6
num_leaves=40
num_cat=0
split_feature=108 29 9 74 117 55 13 184 105 188 14 39 121 20 153 158 184 157 165 169 170 128 57 107 2 164 165 157 50 207 197 195 99 76 118 106 32 104 210
split_gain=435.56 91.2189 81.0621 44.4522 35.6833 37.511 30.2586 29.4419 34.1332 27.5034 26.5981 28.5075 25.3242 24.7042 32.776 22.8632 23.1869 23.4171 23.9841 22.5392 25.1694 21.2064 23.1058 23.6 20.6315 20.338 37.685 21.3753 20.1559 20.1437 19.7819 19.6279 19.7989 23.5689 19.4717 34.199 21.8871 23.4869 21.0804
threshold=0.00057930976618081342 4.9727261739462855e-06 -0.00015947424981277433 -0.12984754145145413 0.58926120400428783 0.11595691740512849 -0.0052699304651468984 0.2698225229978562 -1.230803847312927 2.2017602920532231 -0.0032720717135816808 1.5412679910659792 7.380155511782506e-05 0.00047097906644921755 1.1247796294355795e-07 0.59474068880081188 -0.46065169572830195 -0.57574784755706776 0.00028013804694637662 -0.0004640357219614088 11.672797679901125 -0.14873503148555753 0.10875334218144418 -0.0022151283919811244 1.0706418379413664e-05 -0.11485023796558379 0.00048344951937906449 -0.6300043761730193 -0.0016211576876230536 -0.079939998686313615 1.0045011222814539e-07 2.0286580324172978 -0.064929381012916551 0.31629683077335363 -0.02055154554545879 0.0010943273664452138 0.0012708000722341242 -0.6742613911628722 -2.0398909327923317e-05
decision_type=2 2 2 2 2 2 2 2 2 2 2 2 2 2 2 2 2 2 2 2 2 2 2 2 2 2 2 2 2 2 2 2 2 2 2 2 2 2 2
left_child=2 13 3 9 7 -6 21 -3 -9 24 25 31 19 -2 -15 16 17 18 -8 20 -7 -4 -23 -24 -1 26 27 -5 -13 -29 -31 32 33 -12 35 -26 37 -36 -39
right_child=1 4 6 10 5 12 15 8 -10 -11 11 28 -14 14 -16 -17 -18 -19 -20 -21 -22 22 23 -25 34 -27 -28 29 -30 30 -32 -33 -34 -35 36 -37 -38 38 -40
leaf_value=0.0094568499726471311 -0.00069783710149392045 -0.0034069765412684276 0.0049761513515212989 -0.0018746221647659648 -0.0019019397369203815 -0.0034755657397133369 -0.00222448361575455 0.007494554501140103 -0.0012379504553689845 0.013770701984407507 0.0013809699117489505 0.0099799272629412759 -0.0069494796399565137 -0.00341637020518099 0.0084127217225755651 0.0050607526741749164 0.0002374806523139868 -0.0064670681454635764 0.0048557132951034983 -0.0019663504234283878 -0.010712915586112263 0.0029865078959501671 0.00061547854457003894 -0.0065765568496833297 0.005954112869786682 0.0046360518551000034 0.011656508625477577 0.0080226702218758363 0.0010784823274379298 -0.0064044497899827671 0.0044384849255682942 0.0062064210760287659 -0.0024567132944508683 -0.0055253554938564904 0.0068664927340391004 0.0020348067376499148 0.004259783607926693 0.0079212876018578127 -0.0019424046246618353
leaf_weight=156.44386397302151 3302.119999140501 2184.8596644327044 469.7374634668231 458.07753877341747 976.59756081923842 297.40211676433682 854.87057248875499 122.32998358458281 1180.52143041417 70.610925793647766 1439.3610282465816 132.25924934819341 1406.0821098349988 88.154305171221495 169.40117767080665 184.25679044425488 2595.7506369575858 270.49680965766311 137.52150073647499 683.12366276606917 198.65782967582345 715.88233767449856 446.15575189888477 151.27431809529662 1471.0925548970699 1044.0648604743183 79.590063836425543 135.6333228982985 120.5115555562079 71.615142937749624 99.640226181596518 126.51799868419766 658.3109136633575 133.72375229373574 111.89730754867196 882.48195834830403 627.98165226355195 59.458134479820728 549.08712739124894
leaf_count=737 12944 8533 1721 1824 3744 1285 3766 331 4917 307 6161 471 5739 286 580 762 11087 1147 477 2786 563 2739 1682 582 5659 4116 258 510 500 310 432 409 2759 566 452 3453 2509 283 2236
internal_value=2.90543e-05 -0.00238522 0.00182599 0.00281264 -0.00342213 -0.00453014 0.00039852 -0.00229044 -0.000417698 0.00403571 0.0017445 0.000715182 -0.0055228 -0.000331598 0.00436233 -0.00035456 -0.000613259 -0.00236221 -0.00124292 -0.00382124 -0.00637477 0.00210629 0.0010795 -0.00120491 0.00385744 0.00316714 0.00135073 0.000277923 0.00573771 0.00349227 -9.33644e-05 0.000176584 -0.000165117 0.000793615 0.0036207 0.00448473 0.00211229 0.000239832 -0.000977979
internal_weight=24863.6 10609.2 14254.3 8428.36 7049.57 3561.86 5825.95 3487.71 1302.85 3929.05 4499.31 2610.68 2585.27 3559.68 257.555 4042.9 3858.64 1262.89 992.392 1179.18 496.06 1783.05 1313.31 597.43 3858.44 1888.62 844.556 764.966 252.771 306.889 171.255 2357.91 2231.4 1573.08 3702 2353.57 1348.42 720.443 608.545
internal_count=99623 41708 57915 33952 27898 14117 23963 13781 5248 15636 18316 10866 10373 13810 866 17239 16477 5390 4243 4634 1848 6724 5003 2264 15329 7450 3334 3076 971 1252 742 9895 9486 6727 14592 9112 5480 2971 2519
is_linear=0
shrinkage=0.0157368


Tree=7
num_leaves=40
num_cat=0
split_feature=108 76 146 29 117 85 67 108 117 164 42 76 40 184 105 117 204 151 20 38 1 56 47 76 138 24 196 162 145 198 5 162 10 169 95 21 163 145 191
split_gain=350.933 70.2251 56.3099 52.9467 42.2686 36.1383 32.8038 31.7239 29.3284 28.8056 27.5156 26.9266 28.7743 26.9122 31.2761 26.5661 24.5674 24.0902 22.6124 22.592 22.7876 22.3051 21.8913 21.8771 21.3513 20.9835 20.8942 20.3465 20.1943 19.9531 22.3798 20.8101 19.933 20.294 19.6986 19.2555 19.7845 19.2373 20.2786
threshold=0.00052916078129783284 -0.18516175448894498 -2.3245069087352017e-06 4.9727261739462855e-06 0.66405338048934948 0.0012691062293015423 -1.2559065818786619 -0.0012518715811893342 -0.6820792257785796 1.0800367593765261 -1.0641669034957884 0.045206025242805488 0.34088587760925299 0.25808446109294897 -1.2148305177688596 0.36346769332885748 0.018887516111135486 -1.73894356692017e-07 0.00034011882962659007 1.5720470547676089 0.00083390754298307012 -0.13607882708311078 -0.0032727038487792011 -0.34778450429439539 -0.017262463457882401 -0.95992067456245411 1.8424148947815414e-05 -0.049513529986143105 -0.015961517579853531 1.150914741288034e-07 0.29616054892539984 0.034539667889475829 -0.0010725216125138102 -0.00045252025302033866 -0.12882865220308301 0.0011939017567783596 -7.0996899012243362e-05 -0.004457211820408701 0.32598806917667394
decision_type=2 2 2 2 2 2 2 2 2 2 2 2 2 2 2 2 2 2 2 2 2 2 2 2 2 2 2 2 2 2 2 2 2 2 2 2 2 2 2
left_child=1 6 17 9 13 -6 -1 11 10 -2 -8 12 -4 26 -15 -11 -7 19 21 -3 -21 25 -12 -24 -25 -14 -5 -26 -19 31 -31 -9 33 -23 -33 36 -16 38 -29
right_child=3 2 7 4 5 16 8 29 -10 15 22 -13 18 14 35 -17 -18 28 -20 20 -22 32 23 24 27 -27 -28 37 -30 30 -32 34 -34 -35 -36 -37 -38 -39 -40
leaf_value=0.0053992990188428489 -0.00024540872930347484 0.00085533064567483311 -0.0055426870262712527 -0.0033667625143814781 -0.0053234072033471816 0.00059807860431296083 0.0086166752607587053 -0.0014105575163418657 0.0011868970837282695 0.00097133163756266171 -0.004052227133006802 -0.001805787034350135 0.01254611931129917 0.0068404489402613686 0.005623088505287587 -0.0082841499902067024 -0.00492014008405787 0.0094253753984593677 -0.0024710465244702599 0.010419057628676908 0.00022374432632781368 -0.009579171428032756 0.0050480666333232987 -0.0021686542692412073 0.0097821677007319998 0.0045410834313742926 0.0023532527806812255 0.0017779260650153757 0.0032284052111208415 0.0058065115411495491 -0.0010482257947624903 0.002770417937626338 0.0037534165844041408 0.0018040714326434466 -0.0062203644199128579 -0.0062528177302081742 -0.0010111672847654112 0.0043031707407562344 -0.0087956313959786491
leaf_weight=1022.7667887508869 3279.1881152763963 2318.7924919351935 104.91431946307421 2218.4398679658771 2431.1994607374072 515.61075057834387 244.87460217624903 1823.7026526033878 2661.9295876547694 117.61371954157948 102.65467169508338 555.21657129377127 113.60381674766541 139.06238394230604 124.11225844547153 220.90659068524837 326.0900351293385 157.1747282743454 158.042316313833 128.34875547140837 94.238153476268053 64.062258720397949 967.14554162323475 259.70451271161437 98.056415602564812 284.45258066058159 170.19989935308695 128.85909210890532 762.72916758805513 173.84920055791736 366.65170990303159 69.781256638467312 445.46864479407668 98.185297135263681 443.67808628082275 153.07796350866556 1079.3940799199045 329.41180216893554 68.921619340777397
leaf_count=4046 12686 9492 350 8596 9524 1962 949 7938 10622 417 408 2277 422 392 476 865 1582 613 584 443 342 231 3710 934 350 1242 812 503 3185 898 1820 255 1756 412 1722 633 4434 1325 273
internal_value=-0.000111994 0.00152677 0.000582003 -0.00224848 -0.00303279 -0.00435036 0.00283729 -0.000539381 0.00229822 -0.000696719 0.00364292 0.00108416 0.00234918 -0.00192249 -0.00026681 -0.00506725 -0.00153929 0.00210535 0.00306097 0.00131524 0.00610448 0.00393066 0.00301963 0.00341183 0.00162314 0.00682675 -0.00295901 0.00319877 0.00428768 -0.00156857 0.0011558 -0.0021988 0.00203301 -0.00268797 -0.00499767 -0.000995679 -0.000326658 0.00197348 -0.00190461
internal_weight=24822.1 14047.2 8162.89 10774.9 7157.19 3272.9 5884.32 4701.61 4861.56 3617.71 2199.63 1823.95 1268.73 3884.29 1495.65 338.52 841.701 3461.28 1163.81 2541.38 222.587 1005.77 1954.75 1852.1 884.953 398.056 2388.64 625.249 919.904 2877.66 540.501 2337.16 607.716 162.248 513.459 1356.58 1203.51 527.193 197.781
internal_count=99481 57102 33982 42379 28411 13068 23120 19907 19074 13968 8452 7274 4997 15343 5935 1282 3544 14075 4647 10277 785 4063 7503 7095 3385 1664 9408 2451 3798 12633 2718 9915 2399 643 1977 5543 4910 2101 776
is_linear=0
shrinkage=0.0157368


Tree=8
num_leaves=40
num_cat=0
split_feature=108 55 9 96 95 163 117 60 86 207 161 118 150 101 70 154 37 153 194 0 141 208 119 143 152 30 84 162 172 152 180 141 29 212 143 95 36 111 144
split_gain=397.634 114.98 70.565 36.0222 34.7369 46.8986 33.2412 26.738 26.7186 28.8765 26.4367 27.3278 31.4048 26.7798 26.3545 26.2438 25.7082 24.372 24.3706 24.1956 24.1436 27.5222 25.5853 30.1801 25.3858 23.7343 23.5175 24.2062 23.398 23.3065 23.0595 22.7201 26.8779 26.577 24.4793 22.7238 23.663 22.6891 22.4741
threshold=0.0006793132342863829 0.037083121016621597 -0.00037152472941670561 0.91118592023849498 -0.082314204424619661 -0.00017780510097509247 0.58926120400428783 0.0005262659105937929 0.0025888119125738744 -0.1062185652554035 -0.539259374141693 -0.050023946911096566 8.5317049524746849e-05 -1.6002355217933653 0.0044169700704514989 -0.60562330484390248 0.11735723912715913 1.5132241770743351e-07 -1.1462903618812559 -0.00045271638373378659 -0.0044507961720228187 0.016106941737234596 0.42560121417045599 -0.091281153261661516 -1.1477173416096773e-06 -0.00069690973032265891 -1.0835628509521482 -0.072148595005273805 -2.0027276150358372e-05 -1.200598626382998e-05 -0.88820490241050709 0.0049265548586845407 -0.00015529445954598484 0.78656607866287243 0.098831020295619978 0.041747054085135467 -1.4846813082695005 -0.010933147743344305 -1.8734080185822673e-05
decision_type=2 2 2 2 2 2 2 2 2 2 2 2 2 2 2 2 2 2 2 2 2 2 2 2 2 2 2 2 2 2 2 2 2 2 2 2 2 2 2
left_child=2 3 4 20 5 -1 8 38 -3 -10 -4 12 19 -13 15 28 -17 30 -16 -12 22 -22 23 -2 25 -25 -21 -28 -9 -7 -6 32 37 -34 35 36 -33 -32 -8
right_child=1 6 10 -5 17 29 7 14 9 -11 11 13 -14 -15 18 16 -18 -19 -20 26 21 -23 -24 24 -26 -27 27 -29 -30 -31 31 34 33 -35 -36 -37 -38 -39 -40
leaf_value=0.012439628531893655 -0.010055714301259084 -0.0013095658611078408 -0.0036996301869687376 -0.0024705657793166699 -0.0024218710556246515 -0.0057435632090184589 0.002272820335401203 0.0045673743506294594 -0.011340326174665637 -0.0034537139651759359 -0.0015347955058868166 -0.0075460793886169466 -0.0051702656584367377 -8.2559744535076881e-05 0.0013072450773932833 0.0018393749782404103 -0.0094812600227887189 0.0031652117506230405 -0.0055233496524274735 0.0051513242417091211 0.0044472642762281864 -3.7210494708641969e-05 -0.0066029005126465182 0.00103588880664891 -0.00058660631722737624 0.011122810262487721 0.0087670168609398896 0.0013936077627401823 -0.0022517457279404491 0.0036702281371975617 8.5359497190771064e-05 0.0070135999181032685 0.0026647222382326554 -0.0039965515890680939 0.0087037661217227169 -0.0073769089002969426 -0.0017081140454536824 0.008441622775192217 -0.0074698212562165451
leaf_weight=151.37743593752384 66.805957697331905 1931.945591673255 349.11422554031014 1137.8890655264258 464.70671491324902 66.41098852455616 62.455740597099066 217.04715987667441 128.15082687884569 1123.4453603364527 429.87225020676851 124.49742969870567 159.93855747207999 2726.9545141160488 141.72945803031325 73.632808484137058 152.34330585598946 1750.8874301128089 1470.0107906684279 633.77480362355709 717.22470826283097 642.19362067431211 159.79749264195561 134.83961248397827 717.55771887302399 101.2026188261807 115.82055545970798 2308.4173838049173 292.52726874127984 3289.116248536855 111.62589655444026 93.751938052475452 663.78142584487796 190.97390753775835 62.031660087406635 135.66037131100893 432.01834387332201 289.22358962520957 942.74775871634483
leaf_count=553 248 7796 1389 4457 1932 284 257 839 485 4363 1606 515 608 11892 540 288 586 7051 5774 1904 2364 2733 492 556 2873 361 409 9946 1078 13051 446 389 2848 771 225 569 1718 1091 4087
internal_value=1.03213e-05 -0.00236975 0.00168108 -0.000143671 0.00271453 0.00387049 -0.0036222 -0.00471596 -0.00247026 -0.00426156 0.000518818 0.00074548 0.0016477 -0.000408572 -0.00379588 -0.00132678 -0.00579067 0.001748 -0.00492244 0.00196046 0.000898741 0.00232848 -0.000747751 0.000168772 0.000885506 0.00536241 0.00245193 0.00174605 0.000651963 0.00348379 0.000732435 0.00147331 0.00275327 0.00117594 -0.000747548 -0.00163457 -0.000152117 0.00611567 -0.00686407
internal_weight=24763.5 10213.5 14550 3677.51 7701.57 3506.9 6536.04 3352.49 3183.54 1251.6 6848.39 6499.28 3647.82 2851.45 2347.29 735.551 225.976 4194.66 1611.74 3487.88 2539.62 1359.42 1180.2 1020.41 953.6 236.042 3058.01 2424.24 509.574 3355.53 2443.77 1979.07 1255.6 854.755 723.462 661.431 525.77 400.849 1005.2
internal_count=99374 40177 59197 14084 30928 13888 26093 13449 12644 4848 28269 26880 14473 12407 9105 2791 874 17040 6314 13865 9627 5097 4530 4038 3790 917 12259 10355 1917 13335 9989 8057 5156 3619 2901 2676 2107 1537 4344
is_linear=0
shrinkage=0.0157368


Tree=9
num_leaves=40
num_cat=0
split_feature=108 56 66 132 97 116 108 180 71 196 167 146 163 74 14 175 213 91 131 183 57 202 89 158 134 145 133 86 151 50 146 47 106 105 133 181 27 74 100
split_gain=387.559 94.0581 90.3451 50.5158 46.8823 37.0395 30.2694 27.873 35.9225 27.3862 26.2204 26.1446 24.8885 24.1126 26.8178 25.309 23.6436 22.8384 24.8496 22.5057 22.3398 22.253 22.0715 22.0372 26.2054 21.6688 23.3964 22.6109 26.1502 20.2974 20.2091 20.0414 24.197 22.7013 21.4145 23.3506 21.1919 20.1862 20.0226
threshold=0.00060698535526171337 0.15144999325275424 -0.0010544286342337725 0.062287863343954093 0.048892160877585418 0.03697584010660649 -0.0013506875839084385 -0.49055899679660792 0.0046594890300184497 1.2662664175877582e-05 1.8604940237310077e-06 6.7973967361467666e-06 -2.9498805815819648e-05 0.044497424736619003 0.013735069427639248 3.2397632821812301e-05 -0.60785761475563038 0.00036116565752308821 -0.020823950879275795 -0.70910325646400441 -0.36794488131999964 3.4684672982621127e-06 2.1028929950261958e-05 -0.46640086174011225 -0.044666433706879609 -0.0068953647278249255 -0.00010256148379994555 -0.0017475173808634279 2.2182998691278048e-06 -0.0021910932846367355 -8.1213852354267129e-06 -0.00032288332295138383 0.0014367277035489681 -1.5475287437438963 -3.0474612685793542e-05 1.6027340888977053 0.00033429785980843013 0.0073610998224467048 0.47074167430400854
decision_type=2 2 2 2 2 2 2 2 2 2 2 2 2 2 2 2 2 2 2 2 2 2 2 2 2 2 2 2 2 2 2 2 2 2 2 2 2 2 2
left_child=2 -2 3 17 6 9 12 20 -9 19 11 -11 -4 14 15 -7 -5 30 -19 -3 -6 -17 -12 24 -15 29 -27 28 -28 -20 -1 32 -8 -33 36 -36 -35 -37 -25
right_child=1 5 4 16 7 13 31 8 -10 10 22 -13 -14 23 -16 21 -18 18 25 -21 -22 -23 -24 38 -26 26 27 -29 -30 -31 -32 33 -34 34 35 37 -38 -39 -40
leaf_value=0.011933320280426235 -0.00041643049673321941 -4.0539737137264463e-05 0.0059752940106783383 0.0088186945844251751 0.0040269925616200448 -0.0059879401665360833 0.0032189587352672148 -0.0012749339625605098 0.0066005527919251929 0.0083558300582433475 0.00088746130822487225 -0.0024357064507062216 0.0018120942997156162 -0.0031521130244823998 0.0026946345528570978 0.0042887137970971509 0.004351340616887152 0.0028130797934559342 0.0049293150879336457 -0.0038707675586570189 -0.0052542443709774934 -0.0055085061402037642 -0.0066124312180061004 -0.0078780790614510991 -0.014412814967674967 -0.0025648376663817783 0.011476614017194383 -0.0024657934760525268 0.00027123331453218091 -0.0016449919080739339 0.0037872354876662935 0.0078331482011353322 -0.0065822382264267626 -0.0014333866409570704 0.00059542092965223338 -0.011449876589669722 -0.0083989837429082788 0.00020355153713080525 -0.004217520822507803
leaf_weight=96.563944142311811 3835.4490254223347 492.87638989463449 451.51216293498874 385.11849620193243 72.009161368012428 436.14050622284412 825.84187169745564 1131.8210741169751 164.23978390917182 164.29293659329414 278.90585147589445 83.955949921160936 1677.1278450340033 84.196765661239624 211.03118700906634 143.90108001604676 1235.7799431458116 2413.7910688146949 371.61848854273558 1660.6963379345834 590.54132502153516 95.516567263752222 149.07471742853522 437.8178282417357 130.93795108795166 740.01725075393915 100.09220002219081 141.34719778224826 106.56781328096986 169.15448590740561 345.8818785622716 85.25912456586957 67.449400529265404 462.91298104077578 2440.3696857653558 76.643987528979778 141.23313852399588 70.696343336254358 2403.0960047915578
leaf_count=362 14679 2056 1718 1602 309 1712 3435 5058 668 637 1171 353 6697 314 813 553 4868 9041 1438 6148 2569 395 616 1338 488 2888 416 566 455 670 1436 234 244 2071 10415 298 549 313 10171
internal_value=-0.000104336 -0.00238564 0.00158044 0.00303186 0.000507167 -0.0035008 0.0011684 -0.00161919 -0.000276611 -0.00212682 0.000635387 0.00470454 0.00269536 -0.00448686 -0.00220115 -0.00373112 0.00541302 0.00217121 0.00179955 -0.00299436 -0.00424488 0.000378335 -0.00172394 -0.00514983 -0.0100077 0.000297289 -0.000982066 0.00238241 0.0057004 0.00287209 0.00556607 0.000388914 0.00247843 -0.00018053 -0.000394719 0.000227949 -0.00306245 -0.00585557 -0.0047818
internal_weight=24971.5 10607.9 14363.6 6105.93 8257.66 6772.44 6299.05 1958.61 1296.06 2829.8 676.229 248.249 2128.64 3942.64 886.589 675.558 1620.9 4485.03 4042.59 2153.57 662.55 239.418 427.981 3056.05 215.135 1628.8 1088.02 348.007 206.66 540.773 442.446 4170.41 893.291 3277.12 3191.86 2587.71 604.146 147.34 2840.91
internal_count=99764 41444 58320 23742 34578 26765 25974 8604 5726 10981 2777 990 8415 15784 3473 2660 6470 17272 15474 8204 2878 948 1787 12311 802 6433 4325 1437 871 2108 1798 17559 3679 13880 13646 11026 2620 611 11509
is_linear=0
shrinkage=0.0157368


Tree=10
num_leaves=40
num_cat=0
split_feature=108 57 96 125 117 117 54 167 146 149 57 149 107 149 169 162 204 134 179 162 14 192 100 73 28 167 192 94 111 59 110 13 78 170 185 42 107 183 150
split_gain=345.648 111.567 44.2069 38.8143 34.4454 34.1326 33.82 26.6829 29.4215 30.16 25.5677 37.4581 24.8609 24.3341 24.0622 23.8061 26.969 24.2279 23.0927 23.6623 22.756 23.6413 25.9953 23.5978 22.7303 26.185 22.1482 28.9339 22.4111 21.5767 21.0963 28.8575 21.2271 31.2587 33.2433 30.7666 28.0085 26.1723 23.873
threshold=-0.00021531309175770727 0.14854931086301806 -1.4314634799957273 0.31286431849002844 0.66405338048934948 0.6973438858985902 0.0018615769804455342 0.0003484845365164802 -1.6450599673589748e-06 0.0008647405484225602 0.23318980634212497 -0.0024486914044246073 0.0019412873662076893 -0.0029584453441202636 -0.00053792019025422622 -0.0035272914683446284 -0.024018066935241219 0.016940278932452205 -0.00012987267109565434 -0.062585297971963869 -0.0028172050369903441 0.2726143896579743 0.44701562821865087 0.0013795796548947694 -0.69417935609817494 0.0003484845365164802 0.50341725349426281 0.0038623830769211058 -0.012940435670316218 -0.064019624143838869 -0.0001565501879667863 -0.0090364934876561148 -0.52762728929519642 11.506174564361574 0.031530838459730155 -0.46256723999977106 0.00054018702940084051 -0.5324629247188567 -3.884436591761186e-05
decision_type=2 2 2 2 2 2 2 2 2 2 2 2 2 2 2 2 2 2 2 2 2 2 2 2 2 2 2 2 2 2 2 2 2 2 2 2 2 2 2
left_child=2 5 15 10 7 14 12 8 9 -3 30 -12 -7 -6 -2 16 -1 -17 -14 -20 29 23 -23 -22 25 -13 27 -18 -29 -15 -4 -32 36 -34 35 -35 38 -36 -33
right_child=1 4 3 -5 13 6 -8 -9 -10 -11 11 24 18 20 -16 17 26 -19 19 -21 21 22 -24 -25 -26 -27 -28 28 -30 -31 31 32 33 34 37 -37 -38 -39 -40
leaf_value=0.012603841343843849 -0.0019682973377322553 0.002462304668311805 -0.0028623623564779299 0.0041301954743641674 0.0042810640768336898 -0.00016781705770336101 0.0013477272002682841 -0.0052353855489527465 -0.0025411964540927269 -0.0048878278145121929 0.007651370837170708 -0.0054430710813284993 0.0012116341025158572 0.0050868972824714368 0.00096034272897728792 0.0045872843063845849 0.0068631402284197928 0.012798700538007569 0.0031775486087853113 -0.005617207134911005 -0.010483365601590805 -0.012947144721382036 -0.0026705342314942561 -0.0054760205058362304 0.00025428641795434295 0.0034074844951989245 0.0066107235961221401 0.00031607689623569247 -0.0094286342135446836 -0.0055156835959389071 0.004229666406673542 0.0056511608806569689 0.0010453662589819026 0.013327799457476013 -0.0037584634637045683 0.0036465731442468763 0.00885158800932314 0.0036146837469218664 -0.0010007374152079661
leaf_weight=71.981894325464964 847.86508496105671 651.28283508494496 242.63966796547174 1372.1240772120655 75.276524942368269 564.1723086386919 611.88467998057604 614.86046641692519 2394.411274779588 175.48575034365058 129.18452009931207 437.54716976732016 173.02479821816087 107.94191896915436 3846.1571436412632 198.74151404574513 138.07006536051631 161.46144920960069 81.735147442668676 1026.4194457344711 290.75489213317633 65.202352352440357 942.43713535740972 1180.2667050026357 978.2443678304553 102.03951245546341 226.54608972370625 303.09762160480022 72.387160807847977 84.923377059400082 1070.9562216252089 146.03084526211023 2548.8871931359172 159.51146657764912 138.0166454128921 166.09013862907887 84.393541801720858 873.48488893732429 1570.0168934687972
leaf_count=284 3663 2655 956 5390 267 2425 2295 2252 9830 725 467 1811 843 423 15085 771 633 602 222 3875 1236 172 3908 4625 4029 339 950 1176 258 342 4100 611 10994 412 424 435 382 2792 7060
internal_value=-4.33025e-05 -0.00171616 0.00200958 0.0016712 -0.00319448 -0.000355275 -0.00185796 -0.002231 -0.00165739 0.000901697 0.00128096 -0.000482969 -0.00292113 -0.00453988 0.000431264 0.00490122 0.0034068 0.00826923 -0.00413324 -0.00496815 -0.00478859 -0.00519374 -0.00333593 -0.00646603 -0.00117557 -0.0037686 0.00251173 0.000702715 -0.00156144 0.000416159 0.00169605 0.00185979 0.00141338 0.00206784 0.00401664 0.00839068 6.07705e-07 0.00260822 -0.000434435
internal_weight=24925.6 13734.1 11191.5 10019.2 6582.84 7151.26 2457.24 3836.04 3221.18 826.769 8647.04 1647.02 1845.35 2746.8 4694.02 1172.29 812.083 360.203 1281.18 1108.15 2671.53 2478.66 1007.64 1471.02 1517.83 539.587 740.101 513.555 375.485 192.865 7000.03 6757.39 5686.43 3885.99 1337.1 325.602 1800.44 1011.5 1716.05
internal_count=99719 54843 44876 40202 26435 28408 9660 15462 13210 3380 34812 6646 7365 10973 18748 4674 3301 1373 4940 4097 10706 9941 4080 5861 6179 2150 3017 2067 1434 765 28166 27210 23110 15057 4063 847 8053 3216 7671
is_linear=0
shrinkage=0.0157368


Tree=11
num_leaves=40
num_cat=0
split_feature=108 57 75 184 90 56 118 150 13 150 149 157 214 165 170 76 150 25 146 18 169 176 125 180 20 76 145 168 48 204 68 101 171 68 202 128 46 47 91
split_gain=409.6 116.011 45.3743 34.0535 33.5309 29.8266 29.301 29.7777 28.1263 31.6026 26.0991 25.0682 28.4997 25.0315 23.8736 23.3727 29.958 33.3614 23.0944 22.6449 22.5116 21.999 20.7624 20.6135 20.1514 20.3187 19.885 19.6066 22.276 19.6089 19.197 19.122 19.874 18.9881 22.1103 19.958 25.22 18.929 18.9175
threshold=-0.00031151995062828059 0.1185571849346161 -0.67417863011360157 0.51886856555938732 -0.0051324842497706405 0.14051698893308642 -0.017176347784698006 -6.4373551140306504e-05 0.0015073558897711339 -2.6322353733121414e-05 0.0023636850528419022 -0.70499762892723072 0.81174489855766307 0.00031846329511608934 4.8154611587524423 -0.34257277846336359 6.2397562032856521e-06 0.0011585002648644151 -6.6807726852857732e-06 0.00012853259977418932 -0.00046549786929972464 -6.6832359152613194e-05 -0.68322560191154469 1.6001815199851992 0.00014046977594261992 -0.40813918411731714 -0.034022632986307137 0.14528645575046542 -0.74080440402030934 0.01079963054507971 -1.971474648598814e-05 1.6224311590194704 0.37658977508544927 1.2852916825067952e-05 7.3209639595006601e-06 0.037225095555186279 0.00059721065917983662 0.0011951494961977007 0.00058743293629959236
decision_type=2 2 2 2 2 2 2 2 2 2 2 2 2 2 2 2 2 2 2 2 2 2 2 2 2 2 2 2 2 2 2 2 2 2 2 2 2 2 2
left_child=2 5 6 11 -5 21 26 -8 9 -7 15 12 -3 -10 -13 16 24 20 -17 -15 -18 -2 -23 31 25 -4 -1 28 29 -16 -12 32 -6 34 35 36 -30 -24 -28
right_child=1 3 10 4 23 8 7 -9 13 -11 30 14 -14 19 27 18 17 -19 -20 -21 -22 22 37 -25 -26 -27 38 -29 33 -31 -32 -33 -34 -35 -36 -37 -38 -39 -40
leaf_value=0.0092426573022338036 -0.0014511047520582661 -0.0030143775027703843 -0.00045571542243597822 0.0044772337970141142 -0.0024779758772268939 0.008866846905771341 0.0096869143586903461 0.001253597573740946 -0.0017689758407614317 -0.00042498352338813305 0.011316518177054957 -0.0017284759761366751 0.0034880034899709878 -0.0082938115574945799 0.0020201260583296529 0.0025865340255490899 0.01612507027693422 -0.00061634880942407059 4.5232450281158425e-05 0.00042248827269289468 0.0063583555136791656 -0.0063567791385086307 0.0017287020150299427 -0.0079714662370057379 -0.0046828266110884699 0.0078718763536758853 0.0062987762468504323 -0.0066695815058809534 -0.0014244882431894506 -0.0039448118524834548 0.0023811072076266961 0.0050287706833700247 0.0060409489262021384 -0.0067938139386713352 0.0030866215966575232 -0.00010992160609434787 -0.012285141030835263 -0.0054437203765464424 0.0033086959424503907
leaf_weight=185.76043353974819 994.78491781651974 1113.394583452493 174.95773136243224 208.03840536624193 1584.2063422724605 97.914556786417961 110.34101800993085 1725.1011725589633 1426.6022310629487 1220.6537048816681 108.07675643265247 608.19128568470478 196.31217142567039 307.73057360202074 230.80627251788974 1182.9981614686549 96.55042676627636 98.934132318943739 3523.7521193623543 96.988670125603676 148.65504122152925 86.026197381317616 2738.6545538268983 140.82204915955663 118.10428382828832 123.86753768473864 665.22414694353938 1239.8855072259903 91.290407933294773 333.74685369804502 132.92709397524595 98.324912041425705 70.824497882276773 774.25146528333426 118.62829535081983 139.82620503380895 126.38545202836394 94.232779286801815 2476.3655268289149
leaf_count=686 4441 4445 693 787 6515 391 477 7192 5620 5015 368 3462 776 1194 742 4627 285 390 14385 383 602 284 10334 582 445 503 2745 4416 342 1398 510 403 276 2844 465 500 433 322 9503
internal_value=-8.31856e-06 -0.0017743 0.00228831 -0.00319865 -0.00151916 -0.000347608 0.00335742 0.00176081 -0.0014875 0.0002647 0.00132137 -0.00390857 -0.00203942 -0.00274933 -0.00457678 0.00109789 0.00365667 0.00709339 0.000684054 -0.00620397 0.0102058 0.000569717 0.00125857 -0.00217797 0.000818955 0.00299481 0.00423803 -0.00514371 -0.00410108 -0.00150543 0.00638988 -0.00171242 -0.00211317 -0.00527269 -0.00279826 -0.00475218 -0.00773225 0.00148997 0.00394197
internal_weight=25010.1 14138.5 10871.6 7074.93 2102.22 7063.59 5162.79 1835.44 3149.89 1318.57 5708.82 4972.72 1309.71 1831.32 3663.01 5467.82 761.069 344.14 4706.75 404.719 245.205 3913.7 2918.91 1894.18 416.93 298.825 3327.35 3054.82 1814.93 564.553 241.004 1753.36 1655.03 1250.38 476.13 357.502 217.676 2832.89 3141.59
internal_count=99781 56370 43411 28386 8563 27984 20603 7669 12603 5406 22808 19823 5221 7197 14602 21930 2918 1277 19012 1577 887 15381 10940 7776 1641 1196 12934 11140 6724 2140 878 7194 6791 4584 1740 1275 775 10656 12248
is_linear=0
shrinkage=0.0157368


Tree=12
num_leaves=40
num_cat=0
split_feature=108 56 9 117 148 118 57 9 42 68 150 165 14 79 154 9 206 125 158 135 157 6 148 75 174 116 148 97 135 17 70 15 138 192 117 165 143 165 125
split_gain=349.598 99.6559 70.7776 53.2096 44.0475 36.8944 29.8699 30.2869 29.8155 27.4797 27.0014 26.6041 26.5641 25.4246 25.3304 25.3649 25.3248 24.4598 23.5522 22.2537 33.4543 21.9951 31.3976 22.7231 21.7844 22.1007 24.3325 21.5003 25.7735 21.2827 21.4002 21.2751 20.9433 20.8232 26.4902 20.4115 22.0612 20.9897 20.2904
threshold=0.00016886927915038544 -0.19162604957818982 -0.00015947424981277433 0.66405338048934948 -1.9384335701033702e-06 -0.050023946911096566 0.16843803972005847 -0.00023875168699305502 -0.31425432860851282 -1.971474648598814e-05 -1.708449690340785e-05 0.00083678131341002892 0.0018572221742942931 0.49762265384197241 -0.68255242705345143 0.0069536685477942237 -1.4955827282392418e-05 0.27078056335449224 -0.38522683084011072 -0.0039430111646652213 -0.71377986669540394 0.00013486573152476924 7.3183491622330631e-07 0.28382584452629095 2.2649952370557006e-05 -0.25242021679878229 -8.3410955085128063e-06 0.035545598715543754 -0.038170585408806794 7.50975709706836e-06 0.011895773001015188 0.43116645514965063 -0.0039219302125275126 0.2726143896579743 1.8034713268280032 8.6157393525354578e-05 -0.01776035130023956 0.00026405496464576578 0.017718525603413585
decision_type=2 2 2 2 2 2 2 2 2 2 2 2 2 2 2 2 2 2 2 2 2 2 2 2 2 2 2 2 2 2 2 2 2 2 2 2 2 2 2
left_child=2 13 12 6 -5 9 7 -3 11 -4 -10 -9 17 -2 19 16 -16 24 -15 20 -8 22 -6 -23 25 -1 -27 28 -20 33 -31 -28 -33 -25 -35 -24 37 -37 -12
right_child=1 3 5 4 21 -7 14 8 10 -11 38 -13 -14 18 15 -17 -18 -19 27 -21 -22 23 35 29 -26 26 31 -29 -30 30 -32 32 -34 34 -36 36 -38 -39 -40
leaf_value=0.0093755154984709113 0.0024100595629595622 -0.0098513668784003128 0.002791189533559084 0.00033681984584740831 -0.0058065650281612299 -0.0010392104407804337 0.0015082941505074089 0.0023229307277265352 0.0048236872818838636 -0.00044635926581828038 -0.0065029566141846951 -0.0083420079800408439 0.0015121352454528733 -0.0033840502201556606 0.0020118121946792072 -0.012704674984000684 -0.0041622010912689021 0.0057933503293753187 -0.0016941539253954609 0.0015309574983445196 -0.0058809253808631036 -0.002148922806045572 0.0015005335302501551 -0.0075057511624283457 0.0043476392053961232 -0.0044011765894164633 0.00071013338720393455 -0.00073282517606062625 0.0062310661562863029 -0.012367850375902299 -0.0027382304203867687 0.0016275604557750127 0.0056723924604017272 -0.0045964822118792579 0.0061529342002701846 -0.013471243121418066 0.0002729778238604332 -0.0036592581476207102 -0.0013044984058584435
leaf_weight=101.5793199762702 1339.8423368893564 77.354184899479151 1997.4846848249435 528.89307748153806 643.91074823960662 1972.9622636549175 258.91255951300263 1198.6261602267623 135.79951468110085 961.59530808776617 252.45009057968855 60.850836243480444 2072.0886602662504 492.37000637128949 187.64658974856138 76.216165322810411 1330.6171913854778 1026.434010207653 156.06281650066376 544.53236766904593 366.30205896124244 350.31488316878676 382.36351388320327 616.1053792051971 2007.0282317698002 143.67056007683277 1146.8196402639151 934.80172608047724 290.92737781628966 250.35737983137369 74.211898442357779 628.86570808663964 640.02512982115149 422.99139887839556 65.544378757476807 74.726416867226362 227.62815735861659 195.29214465245605 706.94852991402149
leaf_count=402 4770 296 7563 2103 2537 8417 1012 4758 520 4000 1022 199 8278 1929 851 326 5404 4157 622 2050 1401 1373 1431 2476 8333 549 4488 4034 1234 873 265 2559 2630 1799 285 318 873 750 2834
internal_value=0.000272548 -0.00162494 0.00210193 -0.00247207 -0.00387887 0.000627526 -0.00143444 -0.000162249 0.000155877 0.00173896 -0.00174291 0.00180733 0.00303819 0.000754639 -0.00255359 -0.00384395 -0.00339886 0.00359342 -0.000428604 -0.000794353 -0.00282025 -0.00455394 -0.00316573 -0.00574252 0.00310959 0.00217563 0.00188971 0.000624202 0.00346311 -0.00662306 -0.0101674 0.00226402 0.00366809 -0.00558128 -0.00315343 -0.00123293 -0.003334 -0.00637624 -0.00267282
internal_weight=24941.2 12242.6 12698.6 9028.6 3832.34 4932.04 5196.26 2432.03 2354.68 2959.08 1095.2 1259.48 7766.51 3214 2764.23 1594.48 1518.26 5694.42 1874.16 1169.75 625.215 3303.45 1523.92 1779.53 4667.99 2660.96 2559.38 1381.79 446.99 1429.21 324.569 2415.71 1268.89 1104.64 488.536 880.01 497.647 270.019 959.399
internal_count=99721 48345 51376 35756 15083 19980 20673 9629 9333 11563 4376 4957 31396 12589 11044 6581 6255 23118 7819 4463 2413 12980 5909 7071 18961 10628 10226 5890 1856 5698 1138 9677 5189 4560 2084 3372 1941 1068 3856
is_linear=0
shrinkage=0.0157368


Tree=13
num_leaves=40
num_cat=0
split_feature=108 56 11 117 121 164 55 108 180 153 95 109 1 201 148 213 40 21 152 112 144 201 67 121 159 49 178 111 33 168 57 171 140 25 11 212 74 49 132
split_gain=322.662 88.5772 71.7516 46.6455 35.6823 36.8471 34.5033 32.1927 33.5659 26.9176 29.3398 33.5682 26.547 27.2523 26.0874 25.7175 24.2856 24.2111 22.9541 29.632 31.5351 26.1621 22.537 23.3772 24.8105 22.3085 22.1423 21.9111 21.2027 20.7032 21.2951 20.3904 21.4722 20.1358 20.0848 21.7402 20.0796 24.9932 19.9758
threshold=0.00016886927915038544 -0.19162604957818982 -0.0022830100497230883 0.66405338048934948 -3.984306022175587e-05 0.39546515047550207 0.037083121016621597 0.0027872310020029549 0.68829289078712474 1.6522791668194261e-07 -0.062039121985435479 0.75220289826393139 0.0013239156687632205 1.5125705132845726e-09 -3.18601269100327e-06 0.6078576147556306 0.36713328957557684 0.00024846867017913615 1.0022521337305081e-06 0.0034333409275859599 1.6022992213038381e-06 -4.5910388823955364e-09 -0.76194229722022999 -0.00031712489726487542 0.028378515504300598 0.00021343673142837363 0.00013897267490392554 -0.0064516954589635125 0.0025097469333559279 -0.41799369454383845 -0.48798823356628412 -0.13118933886289594 -0.0098325642757117731 0.00021411322086350995 -0.0018779918318614362 -0.6035533845424651 -0.16033221781253812 -0.00014425464905798433 0.08644557744264604
decision_type=2 2 2 2 2 2 2 2 2 2 2 2 2 2 2 2 2 2 2 2 2 2 2 2 2 2 2 2 2 2 2 2 2 2 2 2 2 2 2
left_child=2 25 28 7 5 -5 9 8 -3 10 11 36 13 34 -6 -9 -16 33 19 29 27 -20 -10 -24 -25 -2 -18 -21 38 -11 -31 -26 -33 -15 -12 -36 37 -4 -1
right_child=1 3 6 4 14 -7 -8 15 22 18 12 -13 -14 17 16 -17 26 -19 21 20 -22 -23 23 24 31 -27 -28 -29 -30 30 -32 32 -34 -35 35 -37 -38 -39 -40
leaf_value=0.0029406297900934548 0.00062215138610014268 -0.0017672439521632603 -0.0050516199685794053 5.1361923430817379e-05 0.0010960833808099516 -0.0055810615987568315 -0.00062867849269265504 -0.0052011092765576793 -0.0070218171801759797 0.012359987472691557 -0.0066874748201365877 0.012483943728403729 0.0061263967494253543 -0.0037667278174072722 -0.013554772675090924 -0.00065782523822534604 -0.0057522701756686518 -0.0053403912067964653 0.012952222844487282 -0.0023197109082519042 -0.005149128690283806 0.0030571871251635616 0.010957767533166317 0.0045007698934877065 0.0042422055181892829 -0.0080946414944116692 -0.0011459296242005727 0.0066866549076370551 -0.00038788853506887855 0.012199666151300831 0.0016064481833941938 0.0025165602668532107 -0.0062702594841356624 0.0066412940267721945 0.0059413237414594885 -0.00015147346276908093 0.00086520097676823519 0.0062519365297183408 0.0054840543127947531
leaf_weight=3943.2290281616151 3115.557306624949 2840.5403384044766 55.6366444863379 861.04769909009337 160.22268681973219 431.81386110931635 2792.0377807617188 936.83011286333203 68.887864548712969 88.702147427946329 81.055807992815971 76.274916663765907 131.564856890589 93.943516418337822 88.48848232626915 460.40453815087676 1971.7787906639278 501.47588670626283 125.96804585680366 109.96566328778863 189.90478861704469 139.68935688957572 71.378663178533316 379.4421746134758 128.57188400998712 74.440972175449133 297.67757176980376 170.58385376259685 387.71508882194757 58.54925986379385 238.84720651060343 105.20285150036216 199.14089572429657 90.219227381050587 202.53344829380512 510.38750571757555 1331.2449796423316 372.73748472332954 949.37518606707454
leaf_count=15134 12181 11346 217 3342 688 1647 11636 3632 296 389 319 315 576 538 257 1722 7775 1995 480 449 737 519 239 1642 482 300 1529 713 1557 260 1017 430 836 397 855 2144 5613 1660 3728
internal_value=-7.89338e-06 -0.00183453 0.00175366 -0.00263307 -0.00395519 -0.00182954 0.000749476 -0.00166223 -0.00090989 0.00159168 0.000902358 0.0022625 -0.000647225 -0.00124981 -0.00504636 -0.00370434 -0.00546391 -0.00354817 0.00370869 0.00245457 -0.000196189 0.00775075 0.00164613 0.00232228 0.001563 0.000418607 -0.00514825 0.00315499 0.00315352 0.00568554 0.00369338 -0.00101095 -0.00323154 0.00132979 0.000734423 0.00157885 0.00181918 0.00478287 0.00343425
internal_weight=24833.1 12191.4 12641.6 9001.43 3811.03 1292.86 7361.32 5190.4 3793.16 4569.28 3447.07 1835.89 1611.18 1479.62 2518.17 1397.23 2357.94 685.639 1122.21 856.553 470.454 265.657 952.624 883.736 812.358 3190 2269.46 280.55 5280.32 386.099 297.396 432.916 304.344 184.163 793.977 712.921 1759.62 428.374 4892.6
internal_count=99592 48344 51248 35863 15238 4989 30829 20625 15271 19193 14629 7805 6824 6248 10249 5354 9561 2930 4564 3565 1899 999 3925 3629 3390 12481 9304 1162 20419 1666 1277 1748 1266 935 3318 2999 7490 1877 18862
is_linear=0
shrinkage=0.0157368


Tree=14
num_leaves=40
num_cat=0
split_feature=108 130 130 74 14 97 165 105 168 192 157 85 157 97 47 164 100 156 46 49 138 210 37 128 172 98 210 19 30 120 80 33 97 164 169 204 174 24 97
split_gain=332.51 90.4886 73.3966 54.9811 38.809 32.9292 32.7553 24.7776 32.0135 24.288 23.9961 25.083 23.9346 23.6753 21.5825 27.064 24.0083 23.3646 28.1193 23.2157 21.2997 22.6248 23.3999 25.792 21.2909 20.9294 20.6452 19.3388 24.0958 19.7424 19.2452 26.7439 23.1867 19.242 19.1529 21.6578 19.125 23.1541 21.0298
threshold=0.00063080285326577734 -6.5131749579450102e-05 -1.5947424799378492e-05 0.083203695714473738 0.0018572221742942931 0.11606400460004808 0.00042209324601572012 -1.0623227953910825 0.18662119656801227 1.2284846901893618 -0.77150574326515187 0.0011930502369068565 -0.70621690154075611 -0.1001046411693096 0.00048749084817245608 0.30525009334087377 0.43886871635913854 -0.029926906339824196 -0.00015391043416457248 6.4771898905746652e-05 -0.0075059845112264148 2.2469934265245687e-05 -0.62818098068237294 -0.1692758500576019 0.00010707908586482519 -0.34452603757381434 1.5837981663935356e-05 -0.00022321646974887696 -0.00082859423127956678 -0.21920439600944516 -1.3088238835334776 0.001760370272677392 -0.080674696713685976 0.3860353976488114 -0.00042832741746678943 0.0020386908436194067 9.6577939984854324e-05 -0.68113911151885975 -0.078342329710721956
decision_type=2 2 2 2 2 2 2 2 2 2 2 2 2 2 2 2 2 2 2 2 2 2 2 2 2 2 2 2 2 2 2 2 2 2 2 2 2 2 2
left_child=2 7 4 5 9 -3 36 8 12 20 25 -12 -2 -11 15 17 -16 34 -19 -17 27 22 -22 -24 -6 -7 -18 28 29 -1 32 -32 -25 -15 35 -5 38 -38 -4
right_child=1 3 6 14 24 10 -8 -9 -10 13 11 -13 -14 33 16 19 26 18 -20 -21 21 -23 23 30 -26 -27 -28 -29 -30 -31 31 -33 -34 -35 -36 -37 37 -39 -40
leaf_value=0.0066038450985040622 -0.0045149605102614678 -4.5741843899116855e-05 0.00028716522395347732 0.00058329064312163991 0.00024404926092046612 -0.0026820077819176861 0.0033792258432777064 0.0017942747222640582 -0.0074906231209788485 0.0081344143065367556 -0.0038912874061405841 0.0018380759215676651 0.0063124575277378513 0.00062451187360656752 -0.0097343906082413348 -0.0087679629116776871 -0.0047174932370575235 0.0071596993107897623 -0.00082683313509086928 -0.0022254766973416563 0.0051434556895133179 0.0076985632364916451 0.0061515380112722043 0.0023152280087132492 0.0051491895242472422 -0.013249144578463386 -0.0013767598239201031 0.0020336603876919849 -0.0076368814324997451 -0.0049448219197814301 0.0026740342529616794 -0.0046072547788548832 -0.0077168524589361909 0.0098460248457178413 -1.624069279564518e-05 -0.0087343493155069511 0.0055238990219067686 -0.00029050377243426624 -0.0018623264235747227
leaf_weight=87.220262460410595 89.720982365310192 2027.7097562104464 2563.2615607082844 88.084133293479681 2195.8533365689218 84.188542652875185 681.1422569938004 1523.4501714780927 181.10094552487135 432.51571569591761 714.75301100686193 257.26257376745343 115.77672971412539 266.0493573397398 206.39847894757986 248.002934563905 3032.9053451195359 150.99637175351381 393.92677646130323 293.48844201862812 936.17444465681911 286.8190456032753 335.5741904117167 110.29674005880952 243.4659102447331 103.77330880984664 540.05157255008817 1694.1590140201151 123.16040409728885 63.201846435666084 1401.18979967013 137.1108440309763 118.0904787927866 71.029585056006908 249.57568824663758 206.22216412425041 291.44226420670748 405.42870987951756 2011.5370440892875
leaf_count=358 227 7658 10117 280 8535 386 2273 6260 471 1749 2912 1093 322 1108 508 996 11902 680 1708 1148 3667 1429 1277 430 1134 395 2446 6775 500 266 5672 570 491 314 1036 765 1288 2191 8641
internal_value=-7.6645e-05 -0.00220693 0.00147187 -0.00289529 0.0024102 -0.00125569 0.000131668 0.000891213 -0.00266636 0.00308463 -0.00337038 -0.00237447 0.00158315 0.0056973 -0.00386136 -0.00234742 -0.00451432 -0.000917074 0.00138545 -0.00522271 0.00270468 0.0034727 0.00307365 0.00215173 0.000733798 -0.00851834 -0.00421266 0.0014066 -0.00247493 0.00174875 0.00139175 0.00202477 -0.00287017 0.00256893 -0.00322477 -0.00594423 -0.000287864 0.00214058 -0.000657875
internal_weight=24962.1 10507.4 14454.7 8597.34 8501.91 3187.69 5952.81 1910.05 386.599 6062.59 1159.98 972.016 205.498 769.595 5409.65 1630.3 3779.36 1088.81 544.923 541.491 5293 3325.26 3038.44 2102.26 2439.32 187.962 3572.96 1967.74 273.583 150.422 1766.69 1538.3 228.387 337.079 543.882 294.306 5271.67 696.871 4574.8
internal_count=99978 41193 58785 33913 34275 12444 24510 7280 1020 24606 4786 4005 549 3171 21469 6613 14856 4469 2388 2144 21435 13536 12107 8440 9669 781 14348 7899 1124 624 7163 6242 921 1422 2081 1045 22237 3479 18758
is_linear=0
shrinkage=0.0157368


Tree=15
num_leaves=40
num_cat=0
split_feature=108 55 55 97 25 34 14 8 204 59 212 155 141 46 165 33 183 61 141 74 202 165 82 4 9 39 34 139 175 21 117 60 120 19 31 151 36 170 84
split_gain=314.41 75.3776 73.4803 37.2025 34.1801 33.7998 26.2906 30.3417 28.2723 24.3805 23.589 23.324 23.0656 22.9946 22.6223 22.8599 21.7401 21.6343 21.3655 21.3709 24.1676 22.1333 21.3512 22.79 25.1148 21.31 23.4045 24.4065 20.2855 22.7198 21.5055 22.555 21.1683 21.0327 20.2455 20.7282 24.0449 21.9036 20.5728
threshold=0.00075676265987567614 0.037083121016621597 -0.030310668051242825 -0.092666890472173677 0.00060087937163189064 0.00089948027743957948 0.00066008628346025955 -0.0034775387030094858 -0.02888352237641811 -0.2089714631438255 0.60355338454246532 -0.71770411729812611 -0.01113869436085224 0.0020737996092066173 -1.4311323411675401e-05 0.00020761480118380862 1.5857365131378176 2.3171344995498662 0.036571061238646514 -0.1030248887836933 2.2014921341906305e-05 0.0023302831687033181 -0.9957885444164275 0.0001811052570701577 -0.00043884350452572102 1.4810071587562563 0.00038821001362521207 4.5317252443055629e-05 2.2656890905636832e-05 0.00048189976951107388 -0.23841223865747449 0.00058136272127740096 2.04930591583252 -0.0004522299714153632 0.0031784081365913157 3.5789469166047643e-06 -0.99999952316284169 4.5960955619812021 -1.0835628509521482
decision_type=2 2 2 2 2 2 2 2 2 2 2 2 2 2 2 2 2 2 2 2 2 2 2 2 2 2 2 2 2 2 2 2 2 2 2 2 2 2 2
left_child=2 -2 3 17 5 11 7 -5 -9 -10 13 -4 -12 14 15 -3 -17 18 19 20 21 22 -1 -24 -25 26 -14 -28 29 -6 31 -30 -31 -33 35 38 -37 -38 -16
right_child=1 10 4 6 28 -7 -8 8 9 -11 12 -13 25 -15 34 16 -18 -19 -20 -21 -22 -23 23 24 -26 -27 27 -29 30 32 -32 33 -34 -35 -36 36 37 -39 -40
leaf_value=-0.0048466202335810393 -0.00025867132609841122 0.0072743306533259193 0.0069265163566991292 0.010153323184873206 0.003905892132475346 -0.011323805930136838 5.104356581663317e-05 0.0071061001200351829 -0.00031552855251037754 0.0031511063727423581 0.0012760763450814408 -0.00098847116199002848 -0.006200574399311814 -0.0066394751583725604 -0.001708491971951646 -0.0026096493268880062 0.0062881690527250419 0.007954030349834643 -0.0019971643371616507 0.0019610620698541081 0.0095297649285070174 -0.0053023987069835401 0.0056336851826596949 0.0030871130331713921 -0.0073013067325143942 0.002567324226663649 0.0022790982244160147 -0.0036013278634458544 -0.0036029109809051166 -0.00087982199663244967 3.8176148179626326e-05 -0.0005593199045331892 0.0072235669272469561 0.0064883192216748558 0.0033232173770890629 0.0052299796255294807 0.0024567071348689032 -0.0042212108630789932 -0.0062752127057057365
leaf_weight=63.497457325458527 3575.311197809875 70.706123512238264 95.289406541734934 122.27855456620455 362.16497405618429 76.552240025252104 1943.9990174025297 249.05537766963243 967.13753343746066 1045.1119125336409 494.9899831302464 2834.7208730392158 459.29465264081955 586.09177600592375 300.44569384306669 954.33526933565736 73.195516783744097 250.94652814790606 187.34369638934731 1499.7177616991103 204.36209287494421 63.202935311943293 1355.9856415726244 695.51987041532993 62.817892968654633 170.15818866342306 254.77865233272314 556.31904617697001 78.448925662785769 1527.2418844886124 423.17965878173709 126.62660576030612 84.229472566395998 607.27779633179307 89.451119679957628 88.504486951977015 140.67609130591154 895.36609811708331 1313.4009902253747
leaf_count=242 13573 246 374 522 1387 292 8017 1025 4146 4221 1915 12376 1868 2408 920 3439 209 970 677 6075 982 205 5145 2763 245 632 985 2177 353 5780 1716 587 311 2351 398 349 807 3372 5853
internal_value=6.43416e-05 -0.00209147 0.00151196 0.00244464 0.00020479 -0.00100077 0.00140945 0.00251716 0.00210406 0.00148475 -0.0031077 -0.000730918 -0.001654 -0.00373119 -0.00329693 -0.00137952 -0.00197541 0.00346655 0.00319394 0.00344056 0.00434775 0.003875 0.00414154 0.00441167 0.00222602 -0.0026611 -0.00336173 -0.00175368 0.00133437 0.000344197 0.00291573 0.00441422 -0.000456008 0.00527177 -0.00404143 -0.00428216 -0.00264126 -0.00331407 -0.0054253
internal_weight=24949.7 10023 14926.7 8710.98 6215.73 3006.56 4327.58 2383.58 2261.3 2012.25 6447.71 2930.01 1935.54 4512.17 3926.08 1098.24 1027.53 4383.39 4132.45 3945.1 2445.39 2241.02 2177.82 2114.32 758.338 1440.55 1270.39 811.098 3209.17 1973.64 1235.53 812.353 1611.47 733.904 2827.84 2738.39 1124.55 1036.04 1613.85
internal_count=99913 39151 60762 35235 25527 13042 17931 9914 9392 8367 25578 12750 7577 18001 15593 3894 3648 17304 16334 15657 9582 8600 8395 8153 3008 5662 5030 3162 12485 7478 5007 3291 6091 2938 11699 11301 4528 4179 6773
is_linear=0
shrinkage=0.0157368


Tree=16
num_leaves=40
num_cat=0
split_feature=108 55 76 146 74 13 158 193 132 4 155 83 121 184 151 89 125 121 110 128 18 157 164 111 151 74 0 67 68 183 154 36 55 185 50 79 27 76 146
split_gain=291.675 69.9556 58.5364 44.2215 37.6668 34.7537 31.5517 26.5906 29.0335 28.9101 25.2762 25.0223 24.6735 23.9662 32.906 24.66 29.2052 23.6513 26.8701 28.8998 31.1416 23.4454 23.2143 22.8972 23.6214 22.8846 24.9615 25.1687 22.8007 29.1494 23.3754 26.0208 24.1578 29.5884 23.8646 22.3295 22.312 22.3041 22.025
threshold=0.00048120171413756912 0.22353464365005496 -0.18516175448894498 2.5640077865318749e-06 0.018782944418489936 0.0018655958119779827 0.25496265292167669 -1.5650560259819029 0.089994557201862349 0.00031054888677317655 -0.34571331739425654 2.2903832197189335 -0.00020827117259614167 0.16914103925228122 -4.1390617298020507e-06 1.9380508092581298e-05 -0.35825529694557184 0.00015021065337350595 -3.9735291466058689e-06 0.025866173207759861 6.9318208261393024e-05 -0.71253877878189076 0.83188387751579296 -0.0083878994919359667 1.8995214645656235e-06 -0.083848729729652391 -0.00034136718022637064 0.50269544124603283 4.8963397603074563e-06 0.88893467187881481 -0.86336335539817799 1.3094341754913332 0.20403726398944858 1.0019176006317141 -0.00068487445241771628 0.43514330685138708 0.00068191697937436413 0.34292881190776831 2.9616227266160426e-06
decision_type=2 2 2 2 2 2 2 2 2 2 2 2 2 2 2 2 2 2 2 2 2 2 2 2 2 2 2 2 2 2 2 2 2 2 2 2 2 2 2
left_child=2 4 7 11 -2 21 28 -1 17 10 -10 37 -7 14 -6 -15 -17 18 19 25 -21 -3 -20 -16 -25 26 27 -9 30 -30 -5 32 33 34 -32 -8 -34 -4 -14
right_child=1 5 3 6 13 12 35 8 9 -11 -12 -13 38 15 23 16 -18 -19 22 20 -22 -23 -24 24 -26 -27 -28 -29 29 -31 31 -33 36 -35 -36 -37 -38 -39 -40
leaf_value=-0.0048637840073190441 0.00066705511690992461 0.0016703336125176149 0.0012523545598238561 0.0076999024977457498 -3.7984322025818535e-05 -0.0012543744562004478 0.010532056351580998 -0.00012867030516583252 -0.0016374782260876026 0.0015996804707635631 0.0084803571399745953 0.0070229538948435779 -0.0077784782253166023 0.0016030319141705173 -0.010358504127000781 0.0042080277435364039 -0.0030517346098937114 0.0005725691530601727 0.0020114892085250614 0.0049932489806421114 -0.002332507873386121 -0.0028666021778165143 -0.0046217161976006994 -0.0047848815428078399 -0.001064509192689872 0.0024104386774644673 0.0088853177981332021 0.01052774661616265 -0.0094642570194733884 0.0029015662699015767 0.0026164307287214208 0.0032705014686730278 -0.0067707956334772754 -0.0085621120479008883 -0.0036542575412396635 0.00078871792423799221 -0.00063098967823084842 -0.0030141971404747787 -0.0043830533082637752
leaf_weight=118.32222166657448 2080.529887393117 382.72981921583414 5233.2174169495702 66.236655276268721 755.72678168118 446.38725427538157 79.039862912148237 184.94925988093019 69.113937959074974 349.35064938664436 525.94199474900961 176.56644443422556 643.47114315256476 788.13528757169843 127.27840016409755 159.8129801414907 969.49067305400968 1546.3889126032591 1328.781687643379 286.19877179712057 288.54224909096956 1071.5697782300413 144.87606443464756 1182.6916866339743 658.14394446089864 383.95986092463136 575.97445745393634 78.004493102431297 195.78956246376038 62.145572204142809 445.58548763394356 215.30927209928632 452.74939616397023 102.84796748310328 226.77499359846115 221.87728501856327 216.9772040694952 322.0564982816577 1792.3947976529598
leaf_count=457 7895 1542 22054 265 3001 1722 260 721 259 1406 2056 736 2567 3079 528 570 3724 5871 5338 1170 1132 4372 596 4750 2585 1505 2289 283 815 219 1830 896 1884 410 953 946 840 1375 7198
internal_value=-0.000190459 -0.0020977 0.00132711 0.000452361 -0.00109228 -0.00365605 -0.0013985 0.00251965 0.00267134 0.00519464 0.0073045 0.00119039 -0.00465683 -0.00188102 -0.00282983 -0.000532946 -0.002024 0.00217661 0.00293473 0.00422618 0.00131471 -0.00167232 0.00135909 -0.00390165 -0.00345498 0.00559419 0.00705083 0.00303096 -0.00211868 -0.00648329 -0.00146636 -0.00183231 -0.00259297 -0.00070104 0.000500821 0.00334933 -0.00478225 0.00100493 -0.00528018
internal_weight=24955.9 11058.4 13897.6 8017.17 6721.81 4336.55 2285.33 5880.4 5762.08 944.407 595.056 5731.84 2882.25 4641.28 2723.84 1917.44 1129.3 4817.68 3271.29 1797.63 574.741 1454.3 1473.66 1968.11 1840.84 1222.89 838.928 262.954 1984.42 257.935 1726.48 1660.24 1444.94 775.208 672.36 300.917 669.727 5555.27 2435.87
internal_count=100099 43533 56566 33483 26132 17401 9318 23083 22626 3721 2315 24165 11487 18237 10864 7373 4294 18905 13034 7100 2302 5914 5934 7863 7335 4798 3293 1004 8112 1034 7078 6813 5917 3193 2783 1206 2724 23429 9765
is_linear=0
shrinkage=0.0157368


Tree=17
num_leaves=40
num_cat=0
split_feature=108 108 55 154 116 71 57 57 180 20 112 100 78 102 8 67 20 179 97 162 159 183 96 40 57 171 11 11 141 27 189 162 187 200 152 46 97 168 75
split_gain=352.837 74.339 58.7361 38.9079 31.6483 30.8755 30.3174 28.7533 25.0111 24.4887 23.9433 23.8806 23.633 23.2289 24.1594 21.7428 21.5478 21.1242 20.3397 21.9324 20.0502 22.5746 22.9759 25.8069 19.9943 19.8091 20.3521 19.6048 26.9983 23.4587 24.069 19.9786 19.1069 30.1915 21.7911 19.028 19.0031 18.9469 21.5268
threshold=0.00060698535526171337 -0.0019176363712176678 0.21953079104423526 -0.62349221110343922 -0.0030491796787828203 0.0026482603279873733 -0.29756292700767512 0.10875334218144418 -0.10908705741167067 -7.1506023232359426e-05 0.0053338909056037673 0.56058076024055492 0.62789541482925426 0.00077209985465742658 0.0006595417216885836 -2.4803133010864253 0.00080128977424465131 3.2194504456128932e-05 -0.18545890599489209 -0.061182405799627297 0.11992324143648149 -0.5324629247188567 -1.3181836605072019 0.47916804254055029 0.075012218207120909 -0.036020450294017785 -0.00036154760164208705 0.0030928549822419886 -0.015501469839364289 0.00090884987730532895 0.15240318328142169 -0.0035272914683446284 -0.88985881209373463 0.026337971910834316 -2.4325380536538428e-06 0.00028213414771016693 -0.25186780095100397 -1.0188957452774046 -0.79616323113441456
decision_type=2 2 2 2 2 2 2 2 2 2 2 2 2 2 2 2 2 2 2 2 2 2 2 2 2 2 2 2 2 2 2 2 2 2 2 2 2 2 2
left_child=1 8 7 4 12 -6 9 11 -1 -3 -5 17 -4 -12 -15 -10 20 18 36 -20 21 22 23 -17 -19 26 -23 -7 -29 31 -31 -30 -24 34 -34 -33 -2 38 -8
right_child=2 6 3 10 5 27 37 -9 15 -11 13 -13 -14 14 -16 16 -18 24 19 -21 -22 25 32 -25 -26 -27 -28 28 29 30 -32 35 33 -35 -36 -37 -38 -39 -40
leaf_value=0.0018665744446960948 -0.0012117591521929329 -0.0035135421315793829 0.002651430675252408 -0.0016486382470690239 -0.0068124879731181519 0.00010211262521884467 0.011665358262874993 -0.0024294546271196142 0.012685317334615186 0.0026216040282067356 -0.0080844011378994919 -0.0037319415143028368 -0.0040369484791759865 0.0039761851295777402 -0.0051419625325489215 0.0023796424296898917 -0.0035045024199331833 0.001357745510344508 0.0054387276032713192 -0.0017020484502639588 -0.0038615874899230766 0.0082212601314400717 0.0033713033337533643 0.013231471581067399 0.010501950194018284 0.004006065683263599 -0.00060019278973716958 -0.011629751506739358 -0.0076931723244649964 -0.0097818735712334858 -0.00012523567147655 -0.00322501514934971 -0.012595224845782847 0.0039944420502535261 -0.0020148255960505184 0.0054686995137038933 0.0096084235263039913 -0.00014624607429141647 0.0018015172794910023
leaf_weight=2671.1547605767846 75.262199617922306 173.47331247106194 462.11856911331415 370.92314435169101 461.58370438963175 570.95084607601166 64.489577230066061 2630.9974350631237 68.651028856635094 2252.8671582266688 750.76726525649428 435.81608907878399 182.4691413603723 80.109023924916983 703.52589935809374 140.96705415099859 98.698388576507568 1158.1003151796758 113.44360880181193 1739.4512043632567 78.988738983869553 613.43817399814725 376.79019100219011 88.364397447556257 62.427600864320993 1353.7423449978232 72.316172551363707 95.008451003581285 63.448721315711737 164.81354545429349 104.55969711393118 100.92919680476189 68.963037833571434 144.07547928392887 160.5920680873096 162.93193634971976 86.124186981469393 5584.4156687445939 365.61113588139415
