tree
version=v4
num_class=1
num_tree_per_iteration=1
label_index=0
max_feature_idx=226
objective=binary sigmoid:1
feature_names=ETH_spot_log_ret_1m ETH_spot_high_low_range ETH_spot_body_size ETH_spot_upper_shadow ETH_spot_lower_shadow ETH_spot_close_position_in_bar ETH_spot_log_ret_2m ETH_spot_log_ret_3m ETH_spot_log_ret_5m ETH_spot_log_ret_10m ETH_spot_log_ret_15m ETH_spot_log_ret_30m ETH_spot_log_ret_60m ETH_spot_log_ret_120m ETH_spot_log_ret_240m ETH_spot_taker_buy_volume_ratio ETH_spot_taker_buy_quote_ratio ETH_spot_taker_buy_quote_volume_ratio_diff ETH_spot_vwap_dist ETH_spot_taker_buy_vwap_dist ETH_spot_ret_x_buy_imbalance_1m ETH_spot_close_position_5m ETH_spot_close_position_10m ETH_spot_close_position_15m ETH_spot_close_position_30m ETH_spot_close_position_60m ETH_spot_close_position_120m ETH_spot_close_position_240m ETH_spot_ret_std_5m ETH_spot_volume_z_5m ETH_spot_quote_volume_z_5m ETH_spot_count_z_5m ETH_spot_range_mean_5m ETH_spot_close_vs_sma_5m ETH_spot_close_vs_kama_5m ETH_spot_close_vs_kama_z_5m ETH_spot_kama_velocity_5m ETH_spot_rolling_high_dist_5m ETH_spot_rolling_low_dist_5m ETH_spot_realized_vol_5m ETH_spot_upside_realized_vol_5m ETH_spot_downside_realized_vol_5m ETH_spot_realized_vol_balance_5m ETH_spot_ret_vol_scaled_5m ETH_spot_volume_ret_corr_5m ETH_spot_quote_volume_per_trade_z_5m ETH_spot_taker_quote_volume_per_trade_z_5m ETH_spot_buy_ratio_mean_5m ETH_spot_ret_std_10m ETH_spot_volume_z_10m ETH_spot_quote_volume_z_10m ETH_spot_count_z_10m ETH_spot_range_mean_10m ETH_spot_close_vs_sma_10m ETH_spot_close_vs_kama_10m ETH_spot_close_vs_kama_z_10m ETH_spot_kama_velocity_10m ETH_spot_rolling_high_dist_10m ETH_spot_rolling_low_dist_10m ETH_spot_realized_vol_10m ETH_spot_upside_realized_vol_10m ETH_spot_downside_realized_vol_10m ETH_spot_realized_vol_balance_10m ETH_spot_ret_vol_scaled_10m ETH_spot_volume_ret_corr_10m ETH_spot_quote_volume_per_trade_z_10m ETH_spot_taker_quote_volume_per_trade_z_10m ETH_spot_ret_std_30m ETH_spot_volume_z_30m ETH_spot_quote_volume_z_30m ETH_spot_count_z_30m ETH_spot_range_mean_30m ETH_spot_close_vs_sma_30m ETH_spot_close_vs_kama_30m ETH_spot_close_vs_kama_z_30m ETH_spot_kama_velocity_30m ETH_spot_rolling_high_dist_30m ETH_spot_rolling_low_dist_30m ETH_spot_realized_vol_30m ETH_spot_upside_realized_vol_30m ETH_spot_downside_realized_vol_30m ETH_spot_realized_vol_balance_30m ETH_spot_ret_vol_scaled_30m ETH_spot_volume_ret_corr_30m ETH_spot_quote_volume_per_trade_z_30m ETH_spot_taker_quote_volume_per_trade_z_30m ETH_spot_buy_ratio_mean_30m ETH_spot_buy_ratio_z_30m ETH_spot_ret_std_60m ETH_spot_volume_z_60m ETH_spot_quote_volume_z_60m ETH_spot_count_z_60m ETH_spot_range_mean_60m ETH_spot_close_vs_sma_60m ETH_spot_close_vs_kama_60m ETH_spot_close_vs_kama_z_60m ETH_spot_kama_velocity_60m ETH_spot_rolling_high_dist_60m ETH_spot_rolling_low_dist_60m ETH_spot_realized_vol_60m ETH_spot_upside_realized_vol_60m ETH_spot_downside_realized_vol_60m ETH_spot_realized_vol_balance_60m ETH_spot_ret_vol_scaled_60m ETH_spot_volume_ret_corr_60m ETH_spot_quote_volume_per_trade_z_60m ETH_spot_taker_quote_volume_per_trade_z_60m ETH_spot_buy_ratio_mean_60m ETH_spot_buy_ratio_z_60m ETH_spot_ret_std_120m ETH_spot_volume_z_120m ETH_spot_quote_volume_z_120m ETH_spot_count_z_120m ETH_spot_range_mean_120m ETH_spot_close_vs_sma_120m ETH_spot_close_vs_kama_120m ETH_spot_close_vs_kama_z_120m ETH_spot_kama_velocity_120m ETH_spot_rolling_high_dist_120m ETH_spot_rolling_low_dist_120m ETH_spot_realized_vol_120m ETH_spot_upside_realized_vol_120m ETH_spot_downside_realized_vol_120m ETH_spot_realized_vol_balance_120m ETH_spot_ret_vol_scaled_120m ETH_spot_volume_ret_corr_120m ETH_spot_quote_volume_per_trade_z_120m ETH_spot_taker_quote_volume_per_trade_z_120m ETH_spot_ret_velocity_2m ETH_spot_volume_velocity_2m ETH_spot_quote_volume_velocity_2m ETH_spot_ret_velocity_3m ETH_spot_volume_velocity_3m ETH_spot_quote_volume_velocity_3m ETH_spot_ret_velocity_5m ETH_spot_volume_velocity_5m ETH_spot_quote_volume_velocity_5m ETH_spot_ret_velocity_10m ETH_spot_volume_velocity_10m ETH_spot_quote_volume_velocity_10m ETH_spot_ret_velocity_15m ETH_spot_volume_velocity_15m ETH_spot_quote_volume_velocity_15m ETH_spot_ret_velocity_30m ETH_spot_volume_velocity_30m ETH_spot_quote_volume_velocity_30m ETH_spot_ret_velocity_60m ETH_spot_volume_velocity_60m ETH_spot_quote_volume_velocity_60m ETH_spot_ret_accel_2_10m ETH_spot_volume_accel_2_10m ETH_spot_ret_accel_5_15m ETH_spot_volume_accel_5_15m ETH_spot_ret_accel_10_30m ETH_spot_volume_accel_10_30m ETH_spot_ret_accel_15_60m ETH_spot_volume_accel_15_60m ETH_spot_kama_accel_5_10m ETH_spot_kama_accel_10_30m ETH_spot_kama_accel_30_60m ETH_spot_kama_accel_60_120m ETH_spot_realized_vol_ratio_5_30m ETH_spot_quote_volume_mean_ratio_5_30m ETH_spot_buy_ratio_mean_diff_5_30m ETH_spot_realized_vol_ratio_10_60m ETH_spot_quote_volume_mean_ratio_10_60m ETH_spot_buy_ratio_mean_diff_10_60m ETH_spot_realized_vol_ratio_30_120m ETH_spot_quote_volume_mean_ratio_30_120m ETH_spot_buy_ratio_mean_diff_30_120m ETH_spot_buy_pressure_x_ret_5m ETH_spot_buy_pressure_x_quote_volume_z_5m ETH_spot_buy_pressure_x_ret_30m ETH_spot_buy_pressure_x_quote_volume_z_30m ETH_spot_buy_pressure_x_ret_60m ETH_spot_buy_pressure_x_quote_volume_z_60m ETH_futures_basis ETH_futures_spot_volume_ratio ETH_futures_spot_buy_ratio_diff ETH_basis_change_1m ETH_futures_spot_ret_spread_1m ETH_basis_change_5m ETH_futures_spot_ret_spread_5m ETH_basis_change_15m ETH_futures_spot_ret_spread_15m ETH_basis_change_60m ETH_futures_spot_ret_spread_60m ETH_basis_z_5m ETH_futures_spot_volume_ratio_z_5m ETH_futures_spot_quote_volume_ratio_z_5m ETH_futures_spot_count_ratio_z_5m ETH_basis_z_15m ETH_futures_spot_volume_ratio_z_15m ETH_futures_spot_quote_volume_ratio_z_15m ETH_futures_spot_count_ratio_z_15m ETH_basis_z_30m ETH_futures_spot_volume_ratio_z_30m ETH_futures_spot_quote_volume_ratio_z_30m ETH_futures_spot_count_ratio_z_30m ETH_basis_z_60m ETH_futures_spot_volume_ratio_z_60m ETH_futures_spot_quote_volume_ratio_z_60m ETH_futures_spot_count_ratio_z_60m ETH_basis_accel_1_5m ETH_basis_accel_5_15m ETH_basis_accel_15_60m ETH_basis_vol_scaled_5m ETH_futures_spot_realized_vol_ratio_5m ETH_basis_x_ret_spread_5m ETH_buy_diff_x_ret_spread_5m ETH_basis_vol_scaled_15m ETH_futures_spot_realized_vol_ratio_15m ETH_basis_x_ret_spread_15m ETH_buy_diff_x_ret_spread_15m ETH_basis_vol_scaled_60m ETH_futures_spot_realized_vol_ratio_60m ETH_basis_x_ret_spread_60m ETH_buy_diff_x_ret_spread_60m sin_hour cos_hour sin_dayofweek cos_dayofweek session_asia session_europe session_us session_asia_europe_overlap session_europe_us_overlap
feature_infos=[-0.032690674066543579:0.044521696865558624] [2.0869943000434432e-06:0.05418701097369194] [0:0.045527659356594086] [0:0.02745344303548336] [0:0.025225274264812469] [0:1] [-0.057063944637775421:0.039983231574296951] [-0.067752011120319366:0.050560463219881058] [-0.089900493621826172:0.05981895700097084] [-0.097455061972141266:0.088671401143074036] [-0.098435685038566589:0.092434942722320557] [-0.11822041869163513:0.10588365793228149] [-0.13738854229450226:0.10166438668966293] [-0.1636718213558197:0.12744592130184174] [-0.19132056832313538:0.14861714839935303] [0.0017362325452268124:0.99746465682983398] [0.0017364909872412682:0.99746441841125488] [-0.00060729112010449171:0.0013085034443065524] [-0.022463010624051094:0.01940043643116951] [-0.021931089460849762:0.018949678167700768] [-0.0035103599075227976:0.018775574862957001] [0:1] [0:1] [0:1] [0:1] [0:1] [0:1] [0:1] [1.3180457472117268e-06:0.051701247692108154] [-1.7881940603256226:1.7888317108154297] [-1.7882201671600342:1.7888317108154297] [-1.7879842519760132:1.7888450622558594] [2.9472444111888763e-06:0.05427112802863121] [-0.048772033303976059:0.03480973094701767] [-0.031442392617464066:0.025496305897831917] [-1.7888116836547852:1.7888486385345459] [-0.011864532716572285:0.0092449653893709183] [-0.098175801336765289:0] [0:0.097261957824230194] [2.9472398637153674e-06:0.10347894579172134] [0:0.054622665047645569] [0:0.087887749075889587] [-1:1] [-2.2298867702484131:2.2324728965759277] [-0.99966442584991455:0.99975919723510742] [-1.7861727476119995:1.7887974977493286] [-1.7871526479721069:1.7887595891952515] [0.063027016818523407:0.9603809118270874] [2.1550320070673479e-06:0.040094610303640366] [-2.4765617847442627:2.8456587791442871] [-2.4759554862976074:2.8456554412841797] [-2.5856716632843018:2.8453519344329834] [3.2325531265087193e-06:0.042179640382528305] [-0.068772085011005402:0.048772953450679779] [-0.032529771327972412:0.032493982464075089] [-2.8376944065093994:2.8127086162567139] [-0.010130028240382671:0.0065256068482995033] [-0.098175801336765289:0] [0:0.15421104431152344] [6.4650957938283682e-06:0.1203262060880661] [0:0.059914600104093552] [0:0.10434862226247787] [-1:1] [-2.984691858291626:2.8367767333984375] [-0.97995775938034058:0.98550689220428467] [-2.6398279666900635:2.8447623252868652] [-2.5851330757141113:2.8446524143218994] [6.5216854636673816e-06:0.028409523889422417] [-2.5709743499755859:5.2852120399475098] [-2.5698575973510742:5.285102367401123] [-3.0960061550140381:5.2875890731811523] [6.8507379182847217e-06:0.029873637482523918] [-0.085112214088439941:0.078020676970481873] [-0.044973153620958328:0.049562342464923859] [-5.1560535430908203:4.9146857261657715] [-0.0044233938679099083:0.0028768829070031643] [-0.12040707468986511:0] [0:0.1590157151222229] [3.5465687687974423e-05:0.15440723299980164] [9.3627149908570573e-06:0.080994598567485809] [9.375993613502942e-06:0.13145899772644043] [-0.98096722364425659:0.94917768239974976] [-3.5434036254882812:3.5439412593841553] [-0.87181246280670166:0.848949134349823] [-3.5585558414459229:5.2607769966125488] [-2.8512105941772461:5.2619752883911133] [0.16136299073696136:0.84426140785217285] [-3.8046622276306152:3.7211668491363525] [2.4581931938882917e-05:0.020496882498264313] [-2.2984554767608643:7.590703010559082] [-2.2978255748748779:7.5900425910949707] [-3.063739538192749:7.5811009407043457] [1.1088459359598346e-05:0.026229036971926689] [-0.098373480141162872:0.094806715846061707] [-0.057746376842260361:0.078564934432506561] [-6.8293018341064453:5.7117476463317871] [-0.0024248654954135418:0.0014757801545783877] [-0.14050887525081635:0] [0:0.17576858401298523] [0.00019355278345756233:0.15792475640773773] [2.705348379095085e-05:0.085142120718955994] [4.2205814679618925e-05:0.13300769031047821] [-0.8372809886932373:0.84343832731246948] [-3.6964340209960938:3.7008817195892334] [-0.79303151369094849:0.74663847684860229] [-3.3628180027008057:7.3359270095825195] [-2.7617263793945312:7.4735617637634277] [0.18601319193840027:0.81870609521865845] [-3.9662055969238281:3.9094347953796387] [3.5781282349489629e-05:0.01460430771112442] [-2.0551702976226807:10.796917915344238] [-2.0539302825927734:10.796005249023438] [-3.3989849090576172:10.687000274658203] [1.4921807633072603e-05:0.016749769449234009] [-0.12016457319259644:0.10746908932924271] [-0.07068982720375061:0.083747841417789459] [-7.9436383247375488:7.4670357704162598] [-0.0012906974880024791:0.00091034121578559279] [-0.15981505811214447:0] [0:0.18922734260559082] [0.0003928496444132179:0.15961429476737976] [0.00017427158309146762:0.086784511804580688] [0.00016905303345993161:0.13396401703357697] [-0.79313105344772339:0.8163444995880127] [-3.6786246299743652:3.9887542724609375] [-0.64858698844909668:0.60473877191543579] [-3.4077553749084473:10.151366233825684] [-2.7004499435424805:10.432126998901367] [-0.028531972318887711:0.019991615787148476] [-2.6925680637359619:2.8277537822723389] [-2.6924898624420166:2.8265390396118164] [-0.022584004327654839:0.016853487119078636] [-1.7156901359558105:1.9510846138000488] [-1.7158350944519043:1.9507749080657959] [-0.017980098724365234:0.011963791213929653] [-1.1059154272079468:1.3516067266464233] [-1.1060346364974976:1.3502316474914551] [-0.0097455065697431564:0.0088671399280428886] [-0.59236609935760498:0.56867915391921997] [-0.59210216999053955:0.56793802976608276] [-0.0065623787231743336:0.0061623295769095421] [-0.39590579271316528:0.44547587633132935] [-0.39591500163078308:0.44587862491607666] [-0.0039406805299222469:0.003529455279931426] [-0.20886935293674469:0.21833455562591553] [-0.20884132385253906:0.21799907088279724] [-0.0022898090537637472:0.0016944063827395439] [-0.10467105358839035:0.1167643666267395] [-0.10462263971567154:0.11671274155378342] [-0.0023483082186430693:0.0022942554205656052] [-0.31981924176216125:0.32114690542221069] [-0.0011537442915141582:0.0010617353254929185] [-0.10941892862319946:0.10404462367296219] [-0.00032972727785818279:0.0002668842498678714] [-0.025380181148648262:0.022426577284932137] [-0.00010474398004589602:0.00010874285362660885] [-0.0081638917326927185:0.0085216742008924484] [-0.0010796444257721305:0.0020065964199602604] [-0.00029616683605127037:0.00025673990603536367] [-7.1377238782588392e-05:0.00011159418500028551] [-2.3393376977765001e-05:2.1643118088832125e-05] [-0.99702125787734985:-0.0021221013739705086] [-0.96689510345458984:4.7146620750427246] [-0.46416142582893372:0.44722732901573181] [-0.99650114774703979:-0.0050645093433558941] [-0.94242697954177856:4.5621356964111328] [-0.36596760153770447:0.34543639421463013] [-0.93464565277099609:-0.0018660470377653837] [-0.89482742547988892:2.8170275688171387] [-0.25484630465507507:0.26012536883354187] [-0.0045169051736593246:0.034205067902803421] [-3.1733887195587158:3.1685535907745361] [-0.013572408817708492:0.020149553194642067] [-16.253499984741211:14.587065696716309] [-0.0097637111321091652:0.015449593774974346] [-21.706445693969727:19.830625534057617] [-0.038396138697862625:0.0076434542424976826] [0.078329510986804962:341.09640502929688] [-0.95488321781158447:0.88739198446273804] [-0.0064141242764890194:0.0060245804488658905] [-0.0066480878740549088:0.0060445577837526798] [-0.038050118833780289:0.021842800080776215] [-0.038806617259979248:0.022113095968961716] [-0.037790298461914062:0.03722357377409935] [-0.038546673953533173:0.037979450076818466] [-0.037898704409599304:0.037993893027305603] [-0.038655143231153488:0.03875037282705307] [-1.7888543605804443:1.7888543605804443] [-1.7871682643890381:1.7888543605804443] [-1.7871677875518799:1.7888543605804443] [-1.7878295183181763:1.7888543605804443] [-3.5832269191741943:3.6053187847137451] [-3.076347827911377:3.6147844791412354] [-3.0759255886077881:3.6147844791412354] [-3.1666955947875977:3.6147844791412354] [-5.2108445167541504:5.2566099166870117] [-2.8975050449371338:5.2946515083312988] [-2.8976542949676514:5.2946515083312988] [-3.7264707088470459:5.2946515083312988] [-7.3965163230895996:7.4343461990356445] [-2.9026577472686768:7.6168670654296875] [-2.9022829532623291:7.6168670654296875] [-4.004753589630127:7.6168670654296875] [-0.0011229906231164932:0.0012262212112545967] [-0.00050906703108921647:0.00045156484702602029] [-4.1949067963287234e-05:5.5360545957228169e-05] [-180.00032043457031:63.999820709228516] [-1:48.8843994140625] [-2.7899131964659318e-05:0.001490024384111166] [-0.0067315748892724514:0.0029265137854963541] [-50.088005065917969:1.8777085542678833] [-0.73806357383728027:15.846970558166504] [-4.4533349864650518e-05:0.0014800435164943337] [-0.0066864839754998684:0.00037002662429586053] [-2.36553955078125:0.61269611120223999] [-0.39204341173171997:1.3782805204391479] [-1.5587249436066486e-05:0.0014842082746326923] [-0.0083391880616545677:0.0027559674344956875] [-1:1] [-1:1] [-0.97492790222167969:0.97492790222167969] [-0.90096884965896606:1] [0:1] [0:1] [0:1] [0:1] [0:1]
tree_sizes=2754 2851 2843 2865 2848 2847 2840 2863 2850 2857 2846 2847 2858 2861 2861 2846 2849 2839 2846 2862 2843 2855 2854 2846 2859 2845 2851 2853 2846 2860 2840 2850 2850 2852 2850 2864 2851 2851 2838 2865 2849 2828 2843 2851 2849 2843 2842 2855 2852 2864 2840 2848 2842 2848 2850 2857 2850 2844 2867 2830 2855 2836 2835 2855 2859 2852 2846 2852 2865 2844 2846 2851 2851 2876 2828 2853 2854 2847 2847 2845 2849 2861 2865 2847 2868 2843 2846 2840 2824 2843 2859 2849 2843 2871 2855 2875 2853 2821 2869 2863 2837 2867 2830 2838 2839 2841 2845 2850 2869 2846 2867 2817 2860 2868 2864 2870 2848 2849 2845 2848 2858 2840 2856 2852 2867 2822 2842 2850 2854 2865 2847 2856 2859 2853 2842 2867 2840 2828 2859 2866 2862 2841 2855 2849 2839 2858 2842 2858 2838 2843 2856 2856 2831 2843 2833 2854 2855 2869 2832 2863 2856 2842 2842 2840 2849 2832 2859 2844 2845 2829 2834 2847 2839 2833 2837 2843 2853 2832 2863 2856 2845 2831 2814 2844 2841 2818 2854 2822 2830 2852 2841 2852 2857 2836 2823 2866 2845 2856 2828 2850 2850 2850 2853 2844 2849 2855 2834 2834 2832 2840 2857 2842 2847 2847 2847 2836 2847 2831 2853 2872 2846 2841 2872 2827 2836 2860 2838 2853 2832 2843 2844 2832 2839 2836 2808 2858 2835 2831 2837 2853 2843 2853 2861 2838 2856 2812 2854 2813 2837 2850 2833 2830 2834 2802 2835 2845 2862 2830 2850 2847 2849 2830 2834 2863 2825 2875 2844 2847 2830 2829 2858 2854 2830 2858 2816 2835 2839 2869 2863 2848 2850 2853 2822 2846 2824 2852 2839 2838 2826 2834 2849 2844 2846 2843 2835 2853 2852 2833 2837 2828 2865 2861 2844 2842 2853 2853 2820 2858 2830 2840 2822 2827 2842 2833 2830 2846 2845 2848 2836 2835 2840 2812 2856 2827 2835 2811 2850 2833 2828 2841 2836 2845 2835 2826 2819 2832 2816 2833 2857 2838 2844 2828 2827 2815 2833 2840 2843 2830 2828 2830 2813 2823 2819 2841 2828 2829 2838 2847 2836 2820 2855 2829 2832 2837 2829 2832 2817 2821 2820 2834 2837 2843 2807 2847 2832 2815 2863 2835 2832 2851 2850 2854 2851 2821 2838 2816 2815 2835 2847 2820 2843 2834 2837 2825 2862 2827 2842 2853 2835 2850 2848 2821 2842 2835 2820 2824 2823 2823 2836 2852 2832 2845 2839 2847 2855 2822 2840 2835 2846 2828 2830 2831 2864 2860 2852 2848 2852 2849 2820 2828 2843 2829 2842 2828 2839 2823 2842 2851 2826 2835 2849 2839 2821 2813 2827 2843 2818 2840 2854 2843 2830 2843 2841 2832 2845 2820 2832 2863 2833 2849 2847 2837 2864 2849 2846 2873 2830 2836 2838 2837 2850 2865 2826 2845 2834 2833 2836 2862 2814 2817 2839 2822 2829 2854 2842 2824 2837 2817 2818 2836 2828 2848 2853 2812 2825 2834 2849 2837 2828 2834 2829 2836 2836 2840 2821 2834 2824 2830 2831 2842 2837 2821 2824 2851 2836 2826 2828 2805 2817 2829 2806 2849 2834 2817 2831 2835 2840 2855 2824 2824 2825 2850 2849 2836 2830 2811 2831 2846 2840 2834 2830 2828 2838 2817 2812 2836 2837 2858 2834 2813 2843 2848 2835 2821 2824 2816 2824 2849 2804 2844 2831 2830 2846 2839 2840 2865 2855 2843 2837 2835 2835 2851 2839 2866 2824 2856 2840 2822 2827 2853 2822 2839 2853 2835 2848 2836 2841 2832 2821 2850 2820 2852 2818 2856 2831 2849 2856 2826 2849 2856 2821 2830 2849 2835 2840 2832 2814 2840 2835 2828 2839 2838 2862 2814 2857 2804 2876 2821 2830 2841 2850 2805 2845 2835 2817 2840 2828 2814 2833 2808 2842 2856 2839 2834 2839 2840 2858 2849 2832 2836 2818 2844 2817 2866 2814 2830 2813 2838 2830 2821 2834 2834 2850 2846 2820 2835 2834 2820 2841 2835 2843 2841 2827 2832 2856 2829 2835 2858 2824 2841 2832 2830 2819 2818 2821 2841 2830 2829 2822 2831 2828 2822 2871 2825 2842 2855 2849 2837 2851 2849 2842 2844 2839 2830 2835 2831 2851 2828 2837 2836 2819 2862 2849 2824 2835 2837 2853 2852 2852 2830 2801 2829 2848 2841 2835 2840 2848 2837 2857 2848 2859 2828 2830 2823 2842 2846 2846 2831 2833 2860 2822 2858 2845 2828 2842 2833 2840

Tree=0
num_leaves=24
num_cat=0
split_feature=25 81 63 124 125 62 117 103 187 155 185 101 74 178 139 70 219 168 73 200 12 215 142
split_gain=426.731 98.4593 80.5094 70.3489 43.0117 41.5762 46.8145 33.5135 32.2853 27.6233 26.3105 26.0593 25.4966 25.0237 25.0018 24.6754 24.1179 23.2151 22.9928 22.4501 22.3548 27.8201 25.5094
threshold=0.56155511736869823 -0.12756814062595365 0.14051698893308642 0.44861397147178655 0.027190200053155426 0.11942396312952043 -8.19350498204585e-06 0.9837014675140382 -0.63170883059501637 -3.3196008644154058e-06 1.7043768821167763e-05 0.0099714524112641829 -1.2734759449958799 -0.17138848453760144 0.091866593807935729 -1.2082032561302183 0.78656607866287243 -0.539259374141693 0.00027421873528510338 -1.5211766958236692 0.00025856589491013443 0.026114990003407005 0.046629942953586585
decision_type=2 2 2 2 2 2 2 2 2 2 2 2 2 2 2 2 2 2 2 2 2 2 2
left_child=1 4 7 8 14 6 -3 20 18 -5 12 15 -9 -14 -1 -10 -6 -7 -4 -11 -2 -22 -23
right_child=2 5 3 9 16 17 -8 10 11 19 -12 -13 13 -15 -16 -17 -18 -19 -20 -21 21 22 -24
leaf_value=0.01998928612933273 0.015168346172148364 0.019622847032158688 0.019459100938721861 0.017930460696617606 0.018803609470747409 0.010052537542120134 0.01711247194387441 0.016646196016314938 0.019269526278511095 0.020129385547863074 0.016776317890937264 0.0095345218374742122 0.016870849731253735 0.0086568775903886098 0.02267596219703364 0.015843886683790359 0.014903821293549967 0.016181953301760778 0.012965981651360087 0.012346472975502048 0.018999564982465897 0.016925445945732486 0.010092646964085406
leaf_weight=2993.9332462288439 611.61263328790665 1937.7955294623971 92.541826922446489 158.02184374630451 1136.6480647362769 99.577723152935505 3263.3111769855022 164.38525599986315 410.27707134187222 56.470933094620705 432.40381350368261 84.97817412763834 78.446742810308933 260.36237659305334 716.13764065876603 1955.4062135182321 329.50223213806748 1770.8900087065995 994.63418963551521 3077.20732678473 1309.7822727747262 476.79157378524542 102.15228963643312
leaf_count=11643 2460 7777 435 676 4640 381 13491 654 1260 210 1643 318 329 1030 2837 8294 1361 7196 3953 12249 4471 2440 510
internal_value=0.0168324 0.018446 0.0149075 0.0141039 0.0197866 0.0174623 0.0180507 0.0165074 0.0153625 0.012758 0.0144509 0.0161817 0.0124846 0.010516 0.0205196 0.0164444 0.0179216 0.015828 0.0135343 0.0124949 0.017282 0.0179705 0.015644
internal_weight=22513.3 12247.8 10265.5 6829.54 5176.22 7071.57 5201.11 3435.94 3537.84 3291.7 935.598 2450.66 503.194 338.809 3710.07 2365.68 1466.15 1870.47 1087.18 3133.68 2500.34 1888.73 578.944
internal_count=90258 49326 40932 27395 20481 28845 21268 13537 14260 13135 3656 9872 2013 1359 14480 9554 6001 7577 4388 12459 9881 7421 2950
is_linear=0
shrinkage=1


Tree=1
num_leaves=24
num_cat=0
split_feature=115 9 36 81 64 200 125 107 159 62 210 26 161 57 25 160 121 185 38 100 69 204 29
split_gain=450.659 97.3393 84.06 47.2973 44.7037 36.3756 27.1718 26.3629 27.61 26.9285 25.9282 25.6777 27.0026 23.2653 23.4227 23.2616 25.0455 22.9545 24.08 21.9571 25.8233 21.3983 20.6805
threshold=0.00060698535526171337 -0.00057642185129225243 4.2443102756806192e-06 -0.12048053368926047 0.10379330068826677 -1.4158007502555845 0.0017578861443325879 0.51892760396003734 -1.2074382880200572e-06 0.12622423470020297 -0.12602319568395612 0.84539166092872631 -0.67989635467529286 -0.0016722037689760325 0.62701934576034557 2.0089907337705884e-07 0.0049780355766415605 -3.4896338547696353e-05 0.0018787425360642376 0.0025369630893692379 -1.0528843402862547 -1.9590140709624389e-06 -1.0656120777130125
decision_type=2 2 2 2 2 2 2 2 2 2 2 2 2 2 2 2 2 2 2 2 2 2 2
left_child=1 6 -2 -3 7 -6 19 8 17 -9 -5 12 -7 14 15 -8 -17 -4 -19 21 -21 -1 -10
right_child=2 3 4 10 5 11 13 9 22 -11 -12 -13 -14 -15 -16 16 -18 18 -20 20 -22 -23 -24
leaf_value=-0.0011637779914640504 -0.00043306067654066884 0.0020370503402869183 0.0076885400844724791 -0.00092885487131533499 0.003203821440402114 -0.0013689229662460303 0.0015776946240179622 -0.00085708196576083793 0.0034714262359416951 -0.0051009148336846827 0.0011264093339108613 -0.0051117953907706785 -0.0042665396585294946 -0.00050414388526859191 -0.0063847715199341869 -4.4926107412727235e-05 0.0067446052786469448 0.0034902040355082567 -0.0065965287757980958 -0.0024778275910740501 0.0030001318836941604 0.0055115038001668278 -0.0019406448016350399
leaf_weight=83.324627473950386 3130.2362244427204 2081.780613720417 104.45898557826877 3187.5036261156201 112.80227999016643 933.86837593466043 1081.156646605581 459.58018143102527 123.9995528049767 527.16546531021595 1461.5459649413824 1843.2101879790425 1236.5649969540536 654.2495054230094 41.294455777853727 119.44559685885906 341.26015112921596 107.70856603235006 50.279943697154522 142.61359179019928 2833.6155886910856 912.03107871487737 960.43747097253799
leaf_count=453 12157 8453 391 12908 478 3530 4346 1764 464 2190 6701 7230 5068 2868 179 496 1337 365 209 533 10772 3796 3675
internal_value=-5.42062e-05 0.00150457 -0.0021569 0.000436917 -0.0029906 -0.00379148 0.00265989 -0.00156624 -0.000395976 -0.00314739 -0.000281896 -0.00399413 -0.00302951 0.00152295 0.00235896 0.00262526 0.00501393 0.00326929 0.000115042 0.00329598 0.00273163 0.00494781 -0.00130067
internal_weight=22530.1 12939.8 9590.31 6730.83 6460.08 4126.45 6208.99 2333.63 1346.88 986.746 4649.05 4013.64 2170.43 2237.41 1583.16 1541.86 460.706 262.447 157.989 3971.58 2976.23 995.356 1084.44
internal_count=90363 52842 37521 28062 25364 16306 24780 9058 5104 3954 19609 15828 8598 9226 6358 6179 1833 965 574 15554 11305 4249 4139
is_linear=0
shrinkage=0.0128054


Tree=2
num_leaves=24
num_cat=0
split_feature=115 62 81 26 115 125 159 51 191 32 24 133 123 187 125 156 115 86 124 157 0 157 8
split_gain=465.795 101.501 99.8209 53.4569 40.594 33.491 32.2356 30.4494 31.9677 30.2181 29.0382 28.7641 27.0092 26.7407 27.6988 26.1342 25.3954 28.4392 24.9779 22.0894 21.6887 21.6181 21.4332
threshold=0.00060698535526171337 -0.050781557336449616 -0.11599287763237952 0.93466120958328258 -0.00085870851762592782 -0.018927274271845814 -9.1029705799883215e-06 -1.1248353719711301 -0.6294727325439452 0.00079571761307306599 0.9271298646926881 0.30676092207431799 -0.10822542384266852 0.60405626893043529 0.14328898489475253 0.0010537597700022163 0.00026574647927191114 0.5051066279411317 -0.72905501723289479 3.7678962598874936e-06 -0.0010167033760808406 -5.5131651606643566e-05 -7.9841451224638136e-05
decision_type=2 2 2 2 2 2 2 2 2 2 2 2 2 2 2 2 2 2 2 2 2 2 2
left_child=2 -2 5 13 10 6 -1 8 9 -6 11 12 -4 -3 21 18 22 -18 19 -8 -20 -15 -10
right_child=1 3 4 -5 7 -7 15 -9 16 -11 -12 -13 -14 14 -16 -17 17 -19 20 -21 -22 -23 -24
leaf_value=-0.0021375802426937592 0.00012565320492799857 -0.0029133769288974395 0.0036108757387619808 -0.0054895173475237773 -0.0052841941833566414 0.0015782546540165057 0.0027544143675438384 -0.00081610900180713916 0.0049535506089815025 0.0048069178738160551 -0.0076371418814858184 0.0047408936158730994 0.00072502288444988873 0.0062315478378194228 -0.0037571043839146421 0.0057730834921434857 0.012771798107147323 0.0016096895498289862 -0.0059272517334328489 0.0061922125681898267 0.0022568966622672063 -0.00044467383387752592 -0.00075033917369649082
leaf_weight=144.57456731796265 2509.6915901117027 4356.607787206769 666.6238871961832 1080.0207600444555 148.17121139168739 1920.2621768191457 637.8509289957583 3070.9639710560441 191.6329213231802 63.352701805531979 46.777812160551548 459.36004393920302 2541.3883133754134 77.50628500431776 423.57625326141715 932.86152343079448 80.517897561192513 69.38884174823761 48.002924088388681 626.80454833805561 1160.5280455574393 1113.7439350299537 231.318084705621
leaf_count=608 9613 17016 2665 4415 564 7909 2580 13676 673 192 201 1834 10183 279 1757 3529 269 249 193 2419 4436 4441 831
internal_value=6.00474e-05 -0.00208586 0.00163374 -0.00287221 0.000680017 0.00295035 0.00368713 -0.000240448 0.00199866 -0.00219607 0.00163392 0.00176873 0.00133228 -0.00239204 -0.000978025 0.00393885 0.00355655 0.00795225 0.00323042 0.00448685 0.00189455 2.88284e-05 0.0018785
internal_weight=22601.5 9561.15 13040.4 7051.46 7569.5 5470.88 3550.62 3855.35 784.382 211.524 3714.15 3667.37 3208.01 5971.43 1614.83 3406.05 572.858 149.907 2473.19 1264.66 1208.53 1191.25 422.951
internal_count=90532 37521 53011 27908 31337 21674 13765 16454 2778 756 14883 14682 12848 23493 6477 13157 2022 518 9628 4999 4629 4720 1504
is_linear=0
shrinkage=0.0128054


Tree=3
num_leaves=24
num_cat=0
split_feature=115 62 63 124 124 177 10 172 12 76 160 25 148 31 62 87 31 65 189 212 220 53 38
split_gain=394.607 107.912 92.9111 52.2048 43.3397 31.364 30.9485 26.5687 26.433 24.7883 27.6535 24.4971 22.5062 21.9691 21.7028 24.3029 23.3471 24.9608 21.9393 21.8432 21.613 23.1391 23.1055
threshold=0.00060698535526171337 0.20403726398944858 -0.54550185799598683 -0.84397754073142994 0.58926120400428783 24.532855987548832 0.00094641876057721685 0.00073856840026564907 0.0060930214822292337 -0.00050032720901072014 2.6127786156848748e-07 0.57724758982658397 -0.0075816242024302474 -0.60553753376007069 0.37809784710407263 -0.79066422581672657 -0.30144371092319483 -0.23624436557292935 0.8658297359943391 -2.5806200731892656e-08 -0.60785761475563038 -0.00028592567832674826 0.0020431600278243427
decision_type=2 2 2 2 2 2 2 2 2 2 2 2 2 2 2 2 2 2 2 2 2 2 2
left_child=2 6 11 9 8 7 -2 14 12 10 -4 20 -3 -7 16 -16 19 -18 -19 -5 21 22 -1
right_child=1 4 3 5 -6 13 -8 -9 -10 -11 -12 -13 -14 -15 15 -17 17 18 -20 -21 -22 -23 -24
leaf_value=0.0056196167504581731 -0.00015848282039901477 0.00045339269686158628 0.0034827870339816909 0.0023138965090010221 -0.0049708070063040214 -0.0014785666766288785 -0.0021354978635910972 0.0040368888043694207 -0.0056886649931356158 -0.0034371646655405935 -0.00059011954233754863 -0.00055876450262203504 -0.0026944313662887309 -0.0083788145591586084 -0.0032986226854340352 0.003329496046207127 -0.0033401984511289224 -0.00088138170316550649 0.0053818679716877522 -0.00034115346870882714 0.0023069185088135441 0.0015001423120974756 -0.0023140878494267701
leaf_weight=995.91356760263443 3390.5978401601315 555.84681753441691 1379.5712933726609 663.27423677220941 2065.5590049140155 217.57224554941058 2097.5142750367522 253.95735616236925 310.77888530492783 109.0203810967505 337.75642684102058 369.34341119974852 1108.0924279913306 111.73886762559414 104.02029474452138 490.89171998202801 750.07379185035825 990.88753980398178 92.907309606671333 2083.2052175365388 3623.7189273573458 398.83808703348041 59.791202053427696
leaf_count=4055 13274 2157 5392 2791 8391 635 7985 768 1255 529 1227 1563 4427 325 452 2126 3046 4674 476 8227 14644 1628 262
internal_value=-0.000107983 -0.00208763 0.00133979 0.000422587 -0.00367395 -0.000176467 -0.000916115 5.88728e-05 -0.00230267 0.00230386 0.00268274 0.00261431 -0.00164578 -0.00396474 -0.000142334 0.00214185 -0.000442266 -0.00155776 -0.000308552 0.000304956 0.00284561 0.00416747 0.00515609
internal_weight=22560.9 9528.39 13032.5 7584.88 4040.28 5758.53 5488.11 5429.22 1974.72 1826.35 1717.33 5447.61 1663.94 329.311 5175.26 594.912 4580.35 1833.87 1083.79 2746.48 5078.26 1454.54 1055.7
internal_count=90309 37489 52820 30668 16230 23520 21259 22560 7839 7148 6619 22152 6584 960 21792 2578 19214 8196 5150 11018 20589 5945 4317
is_linear=0
shrinkage=0.0128054


Tree=4
num_leaves=24
num_cat=0
split_feature=115 27 9 62 13 187 103 118 103 54 104 6 80 190 108 44 113 85 110 187 172 165 122
split_gain=358.22 94.2695 65.2443 63.745 44.582 43.4949 31.6797 29.621 29.0168 33.4664 26.22 25.1754 24.9345 23.5965 27.1312 27.8022 22.9297 27.3904 24.7204 22.7706 22.5497 22.1903 22.1179
threshold=0.0001456450700061396 0.84783172607421886 -0.00015947424981277433 -0.14192707091569898 -0.0085520283319056017 0.61660540103912365 -1.2699465155601499 -0.0024475074606016274 0.66839811205863964 -8.8621254690224288e-06 0.24655732512474063 -0.00012210848944960159 0.0022795151453465228 1.1453990936279299 0.99216687679290783 0.68587279319763195 0.0019446128862909975 -0.49544815719127649 3.11702573299408 1.4111205339431765 0.0023302831687033181 -0.063998725265264497 0.0057810384314507255
decision_type=2 2 2 2 2 2 2 2 2 2 2 2 2 2 2 2 2 2 2 2 2 2 2
left_child=2 3 6 -2 12 8 20 -3 -5 -10 22 -7 -4 14 -13 -16 17 19 -19 -8 -1 -11 -9
right_child=1 7 4 5 -6 11 16 10 9 21 -12 13 -14 -15 15 -17 -18 18 -20 -21 -22 -23 -24
leaf_value=0.0046776709702751294 0.001155070962157748 -0.0012742723538847773 -0.00496089019790125 -0.0014287795371852451 -0.00027548985828918497 0.0022841956875065037 0.0005101463011883882 -0.0041629974706987186 -3.9987727140386614e-05 -0.0029112274263489702 -0.0064428320936607223 -0.0032204585350664016 0.0035302544081011662 0.0026483749951941049 0.0034302139793216096 -0.0065384028139290392 -0.00079945485136235454 0.002634931489315471 0.0085520709240519584 0.0063197142290249272 -0.002217745163256556 -0.0063284240965712571 -0.00050322451795202744
leaf_weight=1145.9048012904823 1850.4874744452536 704.37404250353575 53.969589546322823 2896.9017539843917 3539.3495924212039 596.06701433286071 1681.8905859291553 1271.9707784168422 348.94570571556687 701.93867967277765 664.85854436084628 665.77449463680387 808.93324395641685 234.15086410194635 226.40688364207745 49.221463836729527 453.85317921638489 3379.9018443152308 113.78288495540619 110.50383742153645 78.770869515836239 593.26700450479984 346.50484038889408
leaf_count=4691 7296 2760 201 11395 14627 2179 7239 4994 1396 2832 2590 2933 3077 929 939 221 1861 13124 402 481 264 2505 1196
internal_value=-1.52902e-05 -0.00164538 0.00158386 -0.000931286 0.000362588 -0.00154357 0.00235449 -0.00358867 -0.00220648 -0.00356304 -0.00429561 0.000157917 0.00295801 -0.000928465 -0.00183311 0.00151427 0.00195055 0.00218752 0.00284697 0.000895118 0.00422251 -0.00450605 -0.00338587
internal_weight=22517.7 11150.9 11366.9 8163.16 4402.25 6312.67 6964.61 2987.71 4541.05 1644.15 2283.33 1771.62 862.903 1175.55 941.403 275.628 5739.93 5286.08 3493.68 1792.39 1224.68 1295.21 1618.48
internal_count=90132 44165 45967 32625 17905 25329 28062 11540 18128 6733 8780 7201 3278 5022 4093 1160 23107 21246 13526 7720 4955 5337 6190
is_linear=0
shrinkage=0.0128054


Tree=5
num_leaves=24
num_cat=0
split_feature=93 26 25 125 44 95 13 137 121 29 61 6 174 204 193 0 199 34 102 105 113 177 12
split_gain=400.655 82.6924 59.7057 55.6282 40.1544 30.108 36.0897 29.3799 28.1764 31.8062 29.3841 23.1484 30.4369 22.8282 22.3371 22.2277 27.2379 29.1721 26.4756 21.3572 21.2237 21.1776 21.7821
threshold=0.00018402255227556455 0.85606333613395702 0.14821685850620273 -0.03753273002803325 -0.5919695496559142 1.5580185055732729 0.0035097338259220128 -0.00015948984218994153 0.0076967619825154552 0.1069219969213009 0.0017092007910832765 -0.0010656992089934645 8.6253992776619284e-05 2.06800280011521e-06 0.44299307465553289 -0.00043313662172295148 0.65060350298881542 9.1912137577310218e-05 0.044556055217981345 -0.036045277491211884 0.0026051157619804148 19.401691436767582 -0.0046457496937364331
decision_type=2 2 2 2 2 2 2 2 2 2 2 2 2 2 2 2 2 2 2 2 2 2 2
left_child=2 4 -1 8 11 6 13 -5 -4 10 -10 -2 -13 -6 21 18 -17 -18 -3 -12 -11 22 -9
right_child=1 15 3 7 5 -7 -8 14 9 20 19 12 -14 -15 -16 16 17 -19 -20 -21 -22 -23 -24
leaf_value=0.00339035940837738 0.0066959030595746347 0.0076285360398255881 0.0026966361565278142 0.0021368764121821667 -0.00047353666916677173 -0.0031597569634875182 -0.0022817992498004708 0.0032455344245606761 -0.003385505987212642 -0.0015350497392547812 0.001452889336993735 0.0024585675741377435 -0.0021612864721880626 0.0031060324002811389 -0.0022415079624280923 -0.0047654213171557259 0.0048777542857332077 -0.0027567346772851145 -0.0019195660318097718 0.0069485471092658457 -0.010356020904816046 0.0077030971110909237 -0.0004433768973635192
leaf_weight=2757.6609182320535 108.62831696122885 48.141859222203493 3741.956387899816 952.07979509979486 3120.4907603524625 1227.5089635178447 2057.8583423942327 291.29284805059433 139.31901281699538 249.46752192825079 414.41911771148443 587.908322352916 377.17730325460434 314.15453274548054 811.18456950411201 1821.5018592141569 85.616855885833502 685.04984717816114 303.56267967820168 156.38151342794299 47.54450960829854 52.068254455924034 2120.8501430414617
leaf_count=11196 401 170 14868 3726 12375 5051 7918 1148 511 965 1590 2270 1498 1570 3318 7255 343 2749 1170 592 184 135 9117
internal_value=0.000109236 -0.00167755 0.00174429 0.00123601 -0.000984986 -0.00135237 -0.000944383 0.000166812 0.00218588 0.000281803 0.0017511 0.00130725 0.000650065 -0.000139593 -0.000409695 -0.00350334 -0.00391211 -0.0018667 -0.000470383 0.00303464 -0.00318437 0.000198677 1.1465e-05
internal_weight=22471.8 10737.6 11734.2 8976.56 7793.73 6720.01 5492.5 4227.48 4749.09 1007.13 710.12 1073.71 965.086 3434.65 3275.4 2943.87 2592.17 770.667 351.705 570.801 297.012 2464.21 2412.14
internal_count=90120 42770 47350 36154 31083 26914 21863 17444 18710 3842 2693 4169 3768 13945 13718 11687 10347 3092 1340 2182 1149 10400 10265
is_linear=0
shrinkage=0.0128054


Tree=6
num_leaves=24
num_cat=0
split_feature=115 36 9 81 64 104 99 191 124 83 191 34 113 183 112 112 191 130 177 196 81 178 136
split_gain=401.544 87.6953 78.7703 44.3746 38.9696 32.1453 34.6737 32.0904 29.0487 27.1876 26.8689 24.67 29.1859 25.9181 24.2581 25.1795 24.3779 23.8573 30.7924 24.0414 23.8009 23.1372 22.3669
threshold=0.00057930976618081342 1.3645715739585287e-06 -0.00015947424981277433 -0.12984754145145413 0.4053803831338883 0.12134779244661333 0.0076965782791376123 -0.48422966897487635 0.56895107030868541 0.34851238131523138 0.2698225229978562 0.0011922408593818548 0.00096205942099913966 9.995934306061828e-05 -1.230803847312927 -0.47011166810989374 1.5099972486495974 -0.44919121265411371 7.6159276962280282 -0.912816822528839 0.018782944418489936 0.024575434625148777 -0.16928168386220929
decision_type=2 2 2 2 2 2 2 2 2 2 2 2 2 2 2 2 2 2 2 2 2 2 2
left_child=2 17 3 -1 8 7 -7 -4 10 22 -3 12 -6 21 -12 -16 -17 -2 -19 -20 -10 -14 -5
right_child=1 4 5 9 11 6 -8 -9 20 -11 14 -13 13 -15 15 16 -18 18 19 -21 -22 -23 -24
leaf_value=0.0033890797091410663 -0.0026497775064567085 -0.0020914025790758762 -0.00089462212796767766 0.0035407171806096102 -0.004596574596284036 -0.0039481094124785409 0.0048992554985926289 0.0013728227805972644 -0.00064720017072661688 -0.0030885423878961316 0.0073967146440505147 -0.006409411471313884 -0.00019095551781859923 0.0045947995735224874 -0.0021251419417461486 0.0042479657447586066 -0.0042024375702809785 -0.0011321710359017514 0.0096263333083767329 0.0013145080117129802 -0.003846419065809464 -0.005529722468286394 0.0011556670915540757
leaf_weight=3551.0584494508803 510.19767343625426 1308.4973287582397 1499.9782514311373 815.60500722751021 1096.6900330372155 466.27062056213617 78.651890523731709 3183.5887659788132 502.62237180769444 200.53258106857538 75.871999431401491 578.20974978804588 344.97714227065444 100.1187508739531 379.22329425811768 276.53661738336086 62.77461451292038 1185.8702050112188 51.968454517424107 1284.8338833041489 1621.8266616426408 209.27065287157893 3045.2541002295911
leaf_count=14154 1917 5126 6072 3120 4338 2111 312 13051 1971 819 212 2300 1327 449 1445 1272 302 5504 150 4216 6481 735 12599
internal_value=3.33283e-05 -0.00194839 0.00151355 0.00234406 -0.00278039 0.000302603 -0.0026181 0.000646351 -0.00204091 0.00142543 -0.000968391 -0.00411073 -0.00332569 -0.00116561 0.000883803 0.000121347 0.0026231 -0.000147117 0.00036589 0.00169363 -0.00309485 -0.00225733 0.00166586
internal_weight=22430.4 9589.49 12840.9 7612.45 6556.62 5228.49 544.923 4683.57 4227.35 4061.39 2102.9 2329.27 1751.06 654.367 794.407 718.535 339.311 3032.87 2522.67 1336.8 2124.45 554.248 3860.86
internal_count=89983 37745 52238 30692 25958 21546 2423 19123 16809 16538 8357 9149 6849 2511 3231 3019 1574 11787 9870 4366 8452 2062 15719
is_linear=0
shrinkage=0.0128054


Tree=7
num_leaves=24
num_cat=0
split_feature=115 104 62 76 9 127 51 81 157 112 27 151 220 19 34 116 72 158 213 191 108 131 34
split_gain=335.715 69.8612 57.8942 52.5452 40.1586 29.0778 35.5642 27.6813 29.7902 31.0031 27.6845 27.4776 24.0663 22.9486 22.3049 22.1561 26.384 21.2315 20.7993 25.2766 20.795 20.1135 19.7848
threshold=0.00052916078129783284 0.035545598715543754 0.037083121016621597 -0.0013028170797042546 -0.001594898465555161 -0.57619714736938465 0.16260674595832827 0.083203695714473738 -3.0512578632624351e-05 -1.171178340911865 0.74188685417175304 -4.6601235226262354e-05 -0.87837970256805409 0.00037542896461673086 -8.1797064922284321e-05 -0.49806307256221766 -0.00029603172151837493 -9.5143591352098139e-06 7.4102547387155946e-06 -0.90670034289360035 0.29378445446491247 -0.00012341511319391427 4.7909190470818437e-05
decision_type=2 2 2 2 2 2 2 2 2 2 2 2 2 2 2 2 2 2 2 2 2 2 2
left_child=1 3 -2 5 13 6 15 8 -4 22 -9 -12 -7 -3 -8 16 -1 -13 21 -20 -17 -5 -10
right_child=2 4 7 18 -6 12 14 10 9 -11 11 17 -14 -15 -16 20 -18 -19 19 -21 -22 -23 -24
leaf_value=-0.00015081417724174251 -0.00056837413987301634 0.0028464211876438011 0.0043447580845627455 -0.0051081102318467544 -0.00130431628525181 0.0049546017590271531 0.0057395214610649605 -0.0019544299589865071 -0.0033927600416731518 -0.0024848806670078661 0.00090204032232082552 0.00097692637856212211 0.002432265074511874 -0.002759535515951048 -0.0025588085380574967 0.0027943868872347378 -0.0058415306243630675 -0.0047568726900811551 -0.0030639064437909202 0.0037100129166836165 -0.0042894346349810833 -0.00035706976551765958 0.0039474880205725002
leaf_weight=860.87684447690845 3589.9888078123331 726.05764856189489 130.86737408861518 158.84269360080361 2204.6528861001134 710.99164817109704 323.53607802465558 1692.6843741089106 75.380530424416065 1641.5774331018329 164.68600870668888 108.7618823684752 5069.6695349477232 136.35946325212717 58.398399565368891 575.24779160693288 150.14339127391577 2134.4310213588178 111.6084007024765 373.38985940814018 69.623967994004488 1184.2149348780513 215.76865066587925
leaf_count=3661 13700 2828 478 650 9618 2734 1483 6892 198 6811 662 445 18887 615 243 2288 625 8560 583 1837 306 5330 586
internal_value=-7.66579e-05 0.00129408 -0.00186287 0.00182896 -0.000388611 0.00228552 0.000965124 -0.00261505 -0.00139741 -0.00180272 -0.00322387 -0.00410671 0.00274899 0.00194263 0.00444392 0.000145018 -0.00103561 -0.00447635 -0.000125218 0.00212648 0.00198588 -0.000946209 0.00200668
internal_weight=22467.8 12713.6 9754.15 9646.54 3067.07 7818.49 2037.83 6164.16 2063.59 1932.73 4100.56 2407.88 5780.66 862.417 381.934 1655.89 1011.02 2243.19 1828.06 484.998 644.872 1343.06 291.149
internal_count=90020 51688 38332 38627 13061 30227 8606 24632 8073 7595 16559 9667 21621 3443 1726 6880 4286 9005 8400 2420 2594 5980 784
is_linear=0
shrinkage=0.0128054


Tree=8
num_leaves=24
num_cat=0
split_feature=115 63 9 187 102 170 103 196 215 169 35 57 27 2 83 200 160 15 41 220 124 159 123
split_gain=367.473 119.56 71.4549 38.1374 34.3959 42.5095 32.287 26.8236 26.7507 24.9785 24.4609 28.2918 24.4297 24.2923 24.8177 34.1125 23.9869 23.328 23.2435 32.705 22.7139 22.2836 26.6644
threshold=0.00063080285326577734 0.14051698893308642 -0.00037152472941670561 0.60405626893043529 -0.082314204424619661 -0.00017780510097509247 1.0466040968894961 -1.7115812897682188 0.023526959121227268 -0.063943024724721895 1.020029664039612 -0.0017234536353498695 0.54663118720054638 0.0016109041171148422 -0.18516175448894498 -1.5650560259819029 -4.4828017564668693e-07 0.39106658101081854 0.00063854872132651519 -0.60785761475563038 0.6973438858985902 -1.713617734822037e-06 0.028573125600814823
decision_type=2 2 2 2 2 2 2 2 2 2 2 2 2 2 2 2 2 2 2 2 2 2 2
left_child=2 6 4 7 5 -1 8 -3 -2 -5 16 -12 13 14 15 -4 -6 -8 -18 -20 -11 -9 -23
right_child=1 3 12 9 10 -7 17 21 -10 20 11 -13 -14 -15 -16 -17 18 -19 19 -21 -22 22 -24
leaf_value=0.0099683040694820597 0.0015594738540540315 0.0055823780393821796 -0.0086183593433495839 0.0067309960930982708 -0.0012971722203278956 0.0028866940790561956 -0.005599860414377906 -0.0013348177894278316 -0.0011848334013656919 -0.00033064194133699182 0.0053692436611134115 0.00036240193494863125 -0.0011245434509144251 -0.0044606382318715752 0.00016861000990149881 0.0023801764875505667 -0.00039587523587412764 -0.00078753102912576317 0.0056676136696355451 0.0013242897345020677 -0.0033573605619591101 -0.0027949195022877538 -0.0050241194963744958
leaf_weight=139.42293036729097 1732.4729217290878 43.861721064895391 39.687616758048534 51.900894921272993 646.61164928600192 3022.8403091542423 238.23309531062841 541.58525862917304 868.27842536941171 903.52092253416777 469.07720970734954 304.33780400082469 1427.0570513308048 132.47576727718115 2702.2596790865064 1775.6065174266696 738.52294139191508 511.4881758466363 365.57404748722911 1222.6304416731 734.06281320378184 1508.3348436504602 2253.160424798727
leaf_count=509 5897 172 136 159 2568 12030 873 2083 4118 3705 1698 1311 6155 542 11247 7036 3223 2065 1526 4903 2964 5839 9121
internal_value=-4.45416e-05 -0.00197389 0.00135043 -0.00304939 0.00224053 0.00322357 -3.35191e-05 -0.00368373 0.000642435 -0.00140746 0.00140567 0.00342322 0.000336849 0.000786513 0.000948087 0.00210252 0.000873007 -0.00236019 0.00147852 0.00234771 -0.00169724 -0.00378849 -0.00413815
internal_weight=22373 9386.9 12986.1 6036.43 6909.02 3162.26 3350.47 4346.94 2600.75 1689.48 3746.75 773.415 6077.09 4650.03 4517.55 1815.29 2973.34 749.721 2326.73 1588.2 1637.58 4303.08 3761.5
internal_count=89880 36996 52884 24043 27768 12539 12953 17215 10015 6828 15229 3009 25116 18961 18419 7172 12220 2938 9652 6429 6669 17043 14960
is_linear=0
shrinkage=0.0128054


Tree=9
num_leaves=24
num_cat=0
split_feature=25 27 64 53 27 63 125 54 118 105 156 137 83 220 125 145 75 151 64 7 48 164 184
split_gain=342.144 97.7954 82.713 47.3622 39.7946 38.8185 32.4024 30.452 27.6756 26.929 26.3616 34.8698 24.7043 24.3921 24.9538 24.2762 25.9826 24.1115 24.743 31.1995 23.8057 22.7124 22.5518
threshold=0.56155511736869823 0.42462202906608587 0.23318980634212497 -0.00050824013305827964 0.56800770759582531 -0.59097620844840992 -0.057120120152831071 -0.00075982298585586239 -0.00086311821360141028 -0.84146741032600392 0.0005682910850737245 -7.2827122494345517e-05 -0.2812225073575973 -0.60785761475563038 0.20577279478311541 0.046242954209446914 -1.971474648598814e-05 -3.7728332245023914e-05 -0.25647382438182825 -0.00090566399740055193 0.00058393791550770413 -0.50809809565544117 -6.0369289712980383e-05
decision_type=2 2 2 2 2 2 2 2 2 2 2 2 2 2 2 2 2 2 2 2 2 2 2
left_child=1 5 4 13 8 9 -5 -6 -2 -1 11 20 21 14 -3 16 22 -15 19 -19 -4 -7 -13
right_child=2 3 10 6 7 12 -8 -9 -10 -11 -12 15 -14 17 -16 -17 -18 18 -20 -21 -22 -23 -24
leaf_value=-0.00031704998398005902 0.0010135041024188155 0.0058451451802076166 0.0076301268497998504 0.0014345903189963329 0.0022289899133838536 0.0037428575689607709 -0.0014907656026468021 -0.0019148897783111318 -0.0050996868684152962 0.0038344529175316443 -0.0042296965673171306 -0.004719957249120119 0.00076675728400709808 0.0045535819718253538 -0.0022692509186450212 0.0019231630322194648 -0.003503947226753843 -0.0014608318306882379 -0.0015131991089291585 0.0046446509322991868 -0.00076733839851185904 -0.00050539612270011848 0.002964562404139648
leaf_weight=280.48519707843661 1996.4333737418056 342.83348159864545 83.508642416447401 803.85178433731198 311.67454794794321 1069.7346188761294 2641.4671881720424 3346.0234530307353 121.2743568085134 2814.6019005514681 1861.8409402556717 82.084084931761026 2487.5064619891346 241.10018029436469 70.960040658712387 170.50894463062286 2063.1388541795313 227.78274751827121 648.64322093874216 325.82353536784649 136.60059006512165 253.02165191620588 197.42901461571455
leaf_count=1394 8260 1444 303 3111 1206 4070 11072 13057 588 11147 7203 355 9878 954 296 663 8344 887 2589 1218 524 945 739
internal_value=-6.23409e-05 0.00139014 -0.0017719 8.17387e-05 -0.000750091 0.00239356 -0.000806467 -0.00155765 0.000645335 0.00345839 -0.00305259 -0.00224065 0.00152309 0.00172586 0.00443679 -0.00266945 -0.00300919 0.000928255 0.000175637 0.00214768 0.00257627 0.0029321 0.000638534
internal_weight=22578.3 12207.8 10370.5 5302.46 5775.41 6905.35 3445.32 3657.7 2117.71 3095.09 4595.11 2733.27 3810.26 1857.14 413.794 2513.16 2342.65 1443.35 1202.25 553.606 220.109 1322.76 279.513
internal_count=90247 49005 41242 21571 23111 27434 14183 14263 8848 12541 18131 10928 14893 7388 1740 10101 9438 5648 4694 2105 827 5015 1094
is_linear=0
shrinkage=0.0128054


Tree=10
num_leaves=24
num_cat=0
split_feature=115 64 27 73 125 118 10 160 141 62 124 123 151 220 172 132 170 190 10 35 51 104 44
split_gain=354.652 115.721 49.5783 46.8604 35.6364 31.0022 40.369 27.5713 26.5598 26.3719 27.9219 24.7353 25.6635 24.4422 24.331 23.898 29.105 24.8897 23.2446 23.0259 23.0026 22.9568 22.5641
threshold=-0.00021531309175770727 0.10875334218144418 0.6134568750858308 -0.00075765565270557989 -0.04810629412531852 -0.0061446491163223973 0.0028001291211694483 2.8558433484704443e-07 -0.10576780512928961 -0.04364300332963466 0.44861397147178655 0.076489076018333449 -5.3162109907134429e-05 -0.60785761475563038 0.00010053655205410907 0.28820811212062841 3.8930267692194327e-05 0.88893467187881481 0.00056400400353595625 -0.24060637503862378 -0.40189528465270991 -0.1339175999164581 -0.54023537039756764
decision_type=2 2 2 2 2 2 2 2 2 2 2 2 2 2 2 2 2 2 2 2 2 2 2
left_child=3 9 -3 13 8 6 -4 -6 -5 11 -11 -2 -13 -1 18 17 -17 -10 -12 -20 -19 -14 -16
right_child=1 2 5 4 7 -7 -8 -9 15 10 14 12 21 -15 22 16 -18 20 19 -21 -22 -23 -24
leaf_value=0.0039030334355691721 0.0016415842901187215 -0.0010197779462191154 0.0036564922174542381 0.0054108789979766076 -0.0014057339478037491 -0.0037694032107760279 -0.0049141006890314346 0.004256489117898085 -0.00024833659703339206 0.000181945265704106 -0.0030187880625830292 0.0077293270177420121 0.0062064112305503238 0.0020031892955354852 0.00023410837417180865 0.0080679869072152067 0.00032831506510184181 0.0042349869729673521 0.0039373391879415848 -0.0014165110037122049 -0.0039394604180527405 -0.0018273306853236716 -0.0053715664973406404
leaf_weight=1472.741047732532 1751.0724717751145 2041.8692547865212 212.96547908335924 264.72869012504816 1395.4578292518854 3971.1497808881104 144.05402747169137 148.89135802909732 1403.8336111679673 1679.2947216928005 434.45505629107356 46.095620319247246 54.40610633790493 4656.9590063281357 152.57809426635504 160.08705211430788 152.74984504282475 405.37316835671663 228.47102005779743 290.46044947952032 58.866645582020283 917.10019433125854 498.13878531381488
leaf_count=5862 6884 8335 876 991 6114 15794 605 611 5958 6761 1707 181 205 18063 595 652 576 1352 845 1133 312 3604 2003
internal_value=-1.70704e-05 -0.00146638 -0.00266994 0.00176173 0.000679752 -0.00344507 0.000166059 -0.000840489 0.00163935 -0.000197705 -0.000972832 0.000721683 -0.000861731 0.0024642 -0.00217658 0.00116322 0.00439251 0.000605812 -0.00086058 0.00096491 0.0031487 -0.00132986 -0.00407044
internal_weight=22541.8 12422.1 6370.04 10119.7 3989.99 4328.17 357.02 1544.35 2445.64 6052.07 3283.4 2768.67 1017.6 6129.7 1604.1 2180.91 312.837 1868.07 953.387 518.931 464.24 971.506 650.717
internal_count=90019 49528 25610 40491 16566 17275 1481 6725 9841 23918 13044 10874 3990 23925 6283 8850 1228 7622 3685 1978 1664 3809 2598
is_linear=0
shrinkage=0.0128054


Tree=11
num_leaves=24
num_cat=0
split_feature=115 64 94 191 27 151 139 139 164 221 68 177 9 26 11 77 172 194 41 125 172 152 171
split_gain=377.553 110.255 46.8261 39.078 33.7423 33.717 28.6797 29.0476 28.5942 33.126 26.0988 25.8317 25.3391 24.3008 23.6669 23.1732 20.6547 20.3262 20.3162 20.2594 19.9938 19.6386 19.5473
threshold=-0.00031151995062828059 0.12349817901849748 -0.0010132489260286091 0.51886856555938732 0.85479542613029491 -3.8904179746168659e-05 0.093815941363573088 -0.052274193614721291 -0.70499762892723072 0.81174489855766307 -0.5013487935066222 5.2202062606811532 -0.00027082728047389532 0.27587991952896124 -0.0014865918783470986 0.0027517325943335895 -0.00020645790209528056 -0.48878554999828333 0.00032938348886091268 0.15342086553573611 0.00089719795505516242 -0.03512363322079181 0.27980948984622961
decision_type=2 2 2 2 2 2 2 2 2 2 2 2 2 2 2 2 2 2 2 2 2 2 2
left_child=2 4 6 8 20 -5 7 13 9 19 12 -10 -6 18 -7 -11 -8 -12 -1 -3 -2 -9 -4
right_child=1 3 22 5 10 14 16 21 11 15 17 -13 -14 -15 -16 -17 -18 -19 -20 -21 -22 -23 -24
leaf_value=0.0085310146688166513 0.00029173911733671327 -0.0013697589256730929 0.0012987765019729389 0.0048074227626864066 0.0042838675548073938 0.0042656893783731683 0.010308530680529717 0.0063549229920555079 -0.0015723258718009785 -0.0027700780345123947 -0.00055836597199066266 -0.0044709122311126686 -0.0020082817997910908 0.0014539745820241021 -0.0019553109131113253 0.0067609418909875705 0.0038148158134559086 -0.0054951108193504157 0.0036691963980320422 -0.0055345008807004313 -0.0045021206307366505 0.0011492215010551106 -0.00085343698546563938
leaf_weight=158.47010940685868 5179.8542942628264 748.96698039770126 2166.2765317298472 139.17521779984236 146.67344867438078 99.31487201154232 83.058441415429115 115.94868640974164 637.30717067420483 58.433520022779703 200.6227146871388 2638.4980919137597 317.94431047514081 804.26036639139056 1629.4630346931517 112.6265141479671 1052.8763979189098 435.31265784054995 1252.2462777495384 253.34039922431111 138.6119679287076 3163.9984518736601 1008.3552207611501
leaf_count=594 20876 2914 9172 486 517 403 285 414 3547 260 864 9540 1189 3132 6728 416 4139 1552 4612 1068 469 12604 4185
internal_value=7.84038e-06 -0.00144592 0.00189573 -0.0026458 -0.000263236 -0.00108514 0.00250753 0.00211889 -0.00329787 -0.00156755 -0.00229549 -0.00391226 1.74066e-05 0.00325071 -0.00157971 0.00352712 0.00435921 -0.00396428 0.0042609 -0.00245833 0.000160148 0.00134844 0.000614739
internal_weight=22541.6 12736.1 9805.49 6317.13 6419.02 1867.95 6630.86 5494.92 4449.17 1173.37 1100.55 3275.81 464.618 2214.98 1728.78 171.06 1135.93 635.935 1410.72 1002.31 5318.47 3279.95 3174.63
internal_count=89966 50829 39137 25362 25467 7617 25780 21356 17745 4658 4122 13087 1706 8338 7131 676 4424 2416 5206 3982 21345 13018 13357
is_linear=0
shrinkage=0.0128054


Tree=12
num_leaves=24
num_cat=0
split_feature=72 123 102 75 62 63 76 77 56 18 125 39 117 148 177 57 56 35 157 143 95 107 77
split_gain=338.757 94.093 72.6327 50.956 47.3145 31.7616 29.2564 26.6906 24.8798 23.7442 22.9841 23.2544 22.3451 23.0846 23.7923 22.1187 21.8754 23.6166 21.5726 28.2393 21.3435 21.2993 28.4035
threshold=0.00023225355835165831 0.053892495110630996 -0.080750338733196245 5.3066773944010501e-06 -0.13461171835660932 1.2292982339859011 -0.0011563733569346366 0.00036551782977767294 -3.6172823456581675e-05 0.00089127608225680899 -0.046306855976581567 0.0024425149895250802 -3.091086909989826e-06 -0.01628265809267759 8.4108266830444354 -0.00069500145036727179 -0.00012431717914296311 0.91217958927154552 -1.1292512226646066e-05 5.4770172937423929e-05 1.0145272612571719 0.50625914335250866 0.0025237892987206583
decision_type=2 2 2 2 2 2 2 2 2 2 2 2 2 2 2 2 2 2 2 2 2 2 2
left_child=2 3 7 12 9 8 -3 -1 -5 -4 11 -9 -2 -14 -15 -12 17 -13 -8 -20 -16 22 -6
right_child=1 6 4 5 21 -7 18 10 -10 -11 15 16 13 14 20 -17 -18 -19 19 -21 -22 -23 -24
leaf_value=0.0052416843023193683 0.0013585876226306136 -0.0020076723070074931 0.0019499639414740735 0.004979110739003088 -0.00021616102551012689 -0.0043942942978760797 -0.0014106878947997825 0.0038511699197685992 -0.0013633225213134524 -0.0052645184793398041 0.0019021620660190908 0.0042092443634110972 0.002434807211077774 0.00015770028103637157 -0.0064328887672538944 -0.0022055294107618086 -0.002414973610795625 -0.0017483654556120405 -0.0026342138837493582 -0.0062725156450192466 -0.00055754253859567648 -0.0013065104022879667 0.0031490920959555738
leaf_weight=667.75944577902555 2072.8209196291864 2044.5960508584976 3951.252698212862 98.194159340113401 1603.0453918464482 589.11272927001119 368.48774894699454 1993.545384183526 2325.2355039268732 68.683271173387766 1038.542875431478 372.31843249872327 258.87472211942077 456.90298154950142 243.32998760044575 263.27363518998027 197.43185739219189 147.70437275245786 583.6653695628047 940.53122904524207 172.68537557125092 1585.6014459617436 544.67146143689752
leaf_count=2887 8272 8081 15922 376 6581 2439 1488 7583 8974 320 4157 1476 994 2113 773 1126 726 587 2489 3666 606 6630 2040
internal_value=0.000199034 -0.00153558 0.00161573 -0.000553213 0.000853801 -0.00174671 -0.00308246 0.00287419 -0.00109061 0.00181637 0.00247047 0.00314118 0.000570321 -0.000872744 -0.001867 0.00106294 0.00114743 0.00251622 -0.00423002 -0.00490057 -0.00405126 -0.000184351 0.000645903
internal_weight=22588.3 10154.4 12433.8 6217.16 7753.25 3012.54 3937.28 4680.58 2423.43 4019.94 4012.82 2711 3204.61 1131.79 872.918 1301.82 717.455 520.023 1892.68 1524.2 416.015 3733.32 2147.72
internal_count=90306 40271 50035 24547 31493 11789 15724 18542 9350 16242 15655 10372 12758 4486 3492 5283 2789 2063 7643 6155 1379 15251 8621
is_linear=0
shrinkage=0.0128054


Tree=13
num_leaves=24
num_cat=0
split_feature=115 63 115 124 76 93 62 199 207 220 104 173 86 172 19 48 89 18 160 160 220 160 107
split_gain=302.252 85.1732 63.7282 51.3719 40.8327 35.0693 32.2801 29.8905 26.7718 25.4914 24.1125 32.333 22.5747 22.4392 22.3819 22.141 21.8626 21.849 21.7719 26.4766 21.7397 21.8225 23.5435
threshold=0.00016886927915038544 -0.19162604957818982 -0.0020028809085488315 0.66405338048934948 -0.0011563733569346366 0.0027048174524679784 -0.10571779683232306 -0.32351575791835779 -0.054335160180926316 0.6078576147556306 0.24655732512474063 0.94688713550567638 0.51398813724517833 -9.7239219030598165e-05 0.00020669958757935095 0.00072287098737433564 3.2708517313003544 -0.00012467283522710201 1.6522791668194261e-07 2.3040224306214443e-07 -1.0000000180025095e-35 2.839117652086998e-08 0.57043775916099559
decision_type=2 2 2 2 2 2 2 2 2 2 2 2 2 2 2 2 2 2 2 2 2 2 2
left_child=2 12 16 5 8 7 18 -3 15 -7 11 -10 -2 17 -15 -5 -1 -9 -4 -20 21 22 -8
right_child=1 3 6 4 -6 9 20 13 10 -11 -12 -13 -14 14 -16 -17 -18 -19 19 -21 -22 -23 -24
leaf_value=0.0023477845472370243 0.0014084104412933861 -0.002118600677212481 0.00080790146085121567 -0.0090156509287980819 -0.0048192900380762205 -0.0043153542671330782 0.00028178845018840516 -0.0013441960094468643 0.00062204194276173504 -0.00055851360294138785 -0.0034038135865878654 -0.0069311480677810679 -0.00085709341353920772 0.00035870277808231946 -0.0040516306032919126 3.2025103622439845e-05 0.0070589700251401846 0.0062890215545900333 0.0086179304653057742 0.0023256888656728297 -0.0011496047774051949 0.0030484012655899399 -0.0082596491348394981
leaf_weight=4971.5798898898065 1559.2486247718334 1307.0838770568371 1814.7585955411196 140.0646587125957 1662.8351627551019 885.21880435571074 1116.5536227710545 88.533849325031042 873.93758026510477 447.0581479370594 615.93838286027312 95.78888625651598 1328.6683151461184 1572.0064868070185 206.19417643919587 63.219111248850822 161.28590428829193 176.36627316847444 121.54821015894413 802.14813751354814 1904.1579020507634 504.9029686562717 47.436738040298223
leaf_count=19285 5924 5246 7789 518 6731 3433 4695 330 3405 1684 2497 344 5355 6587 796 280 603 593 520 3221 7991 2096 129
internal_value=-8.97692e-06 -0.00152187 0.00144815 -0.00219205 -0.00337631 -0.00131472 0.00058517 -0.000612689 -0.00201939 -0.0030657 -0.00144028 -0.000175259 0.000366619 0.000355285 -0.000168748 -0.00630845 0.0025067 0.00377367 0.00162907 0.00322135 -0.000216766 0.000847987 -0.000120945
internal_weight=22466.5 11022.2 11444.4 8134.25 3451.78 4682.46 6311.51 3350.18 1788.95 1332.28 1585.66 969.726 2887.92 2043.1 1778.2 203.284 5132.87 264.9 2738.45 923.696 3573.05 1668.89 1163.99
internal_count=90052 43723 46329 32444 13775 18669 26441 13552 7044 5117 6246 3749 11279 8306 7383 798 19888 923 11530 3741 14911 6920 4824
is_linear=0
shrinkage=0.0128054


Tree=14
num_leaves=24
num_cat=0
split_feature=115 62 26 153 81 11 199 159 76 112 181 23 31 125 159 4 43 204 221 117 208 54 103
split_gain=343.359 85.2889 71.2627 42.1515 40.0403 32.0847 24.5129 24.4939 24.3675 28.1524 24.695 23.2485 23.0927 23.0891 23.4566 23.5899 24.8292 23.0696 23.8475 29.8175 22.293 21.9136 21.6364
threshold=0.00063080285326577734 0.064020968973636641 0.29735042154788976 -5.5210191476362516e-06 0.081185992807149901 0.00043503295455593621 1.067761301994324 2.0410054730746201e-06 -0.00092800782294943918 -1.0623227953910825 3.5663651942741133e-05 0.091242950409650816 -0.7937311828136443 -0.041029544547200196 -2.7212189479541843e-07 0.00055677493219263862 -0.20247505605220792 -1.3764397976956386e-06 0.81174489855766307 8.6641807683918176e-06 -1.4614517596100994e-08 -0.00038654029776807869 -0.55117425322532643
decision_type=2 2 2 2 2 2 2 2 2 2 2 2 2 2 2 2 2 2 2 2 2 2 2
left_child=2 8 5 -4 20 13 11 -7 9 12 -10 -5 -2 17 -15 16 -16 22 -19 -20 -3 -14 -1
right_child=1 4 3 6 -6 7 -8 -9 10 -11 -12 -13 21 14 15 -17 -18 18 19 -21 -22 -23 -24
leaf_value=0.002313731834073358 -0.0037734806968642231 0.00075417590446811135 0.0022411202503785969 0.002690931611195508 -0.0036203035623440121 -0.0035041702206364978 0.0018141094452215124 0.0024802819768456811 -0.004859749134196201 0.00063236085231830827 0.0010821382669166596 -0.00073792772525725192 -0.0039042156151048966 0.0024543228769417116 -0.003158150965001218 0.0082105619507693295 0.0021456756499058306 0.0041958646178686413 -0.00072074839646633676 0.00825194957882543 -0.0022801729590445304 0.0049015173094943106 -0.0029883290801625928
leaf_weight=530.80051356554031 480.10832588374615 576.38069455698133 1595.3311620540917 342.32869933545589 3984.7208050563931 256.67224033176899 899.3777481354773 187.1112376563251 350.30163399130106 2509.0563054233789 164.92574601247907 4362.5266139023006 68.138233475387096 1250.100307893008 383.19962704926729 38.89247102662921 222.64355025440454 2412.1470529958606 345.23683078587055 65.342988524585962 1244.8667336590588 111.64596553146839 157.27564840763807
leaf_count=2297 1301 2247 6195 1660 15919 1096 3951 707 1407 10316 679 17938 174 5251 1625 193 920 9078 1351 211 4914 297 658
internal_value=-8.34263e-05 -0.00193584 0.00126414 0.000410326 -0.00290182 0.00231302 -0.000113319 -0.000981731 -0.000410501 1.22138e-05 -0.00297042 -0.000484248 -0.00232481 0.00258457 0.00143628 -0.00054361 -0.00120644 0.00319959 0.00371141 0.000839177 -0.00132079 0.00153972 0.00108117
internal_weight=22539.1 9490.14 13049 7199.56 5805.97 5849.42 5604.23 443.783 3684.18 3168.95 515.227 4704.86 659.893 5405.64 1894.84 644.736 605.843 3510.8 2822.73 410.58 1821.25 179.784 688.076
internal_count=90385 37254 53131 29744 23080 23387 23549 1803 14174 12088 2086 19598 1772 21584 7989 2738 2545 13595 10640 1562 7161 471 2955
is_linear=0
shrinkage=0.0128054


Tree=15
num_leaves=24
num_cat=0
split_feature=115 62 62 124 104 107 168 76 32 27 112 33 76 20 150 64 44 75 175 156 146 162 20
split_gain=320.383 111.392 49.805 42.2216 39.1908 30.931 29.7364 29.1131 28.2927 26.3902 24.5786 26.4129 24.3947 23.5004 24.4659 23.5231 23.193 22.5584 22.3283 23.7731 22.1997 21.942 20.5589
threshold=-0.00021531309175770727 0.030448812991380695 -0.26457522809505457 0.66405338048934948 0.086673438549041762 0.56058076024055492 -0.59259888529777516 -0.0011563733569346366 0.0033414745703339581 0.30358651280403143 -1.171178340911865 -9.8250075097894282e-05 -0.00050032720901072014 0.00037387567863333976 0.049964224919676788 0.4053803831338883 0.72485905885696422 1.4996535355749076e-05 0.18662119656801227 -0.0011908949236385522 -1.372830956825055e-05 0.8885629177093507 0.00034810947545338427
decision_type=2 2 2 2 2 2 2 2 2 2 2 2 2 2 2 2 2 2 2 2 2 2 2
left_child=2 5 9 8 6 -2 -4 13 10 -1 11 -3 21 14 15 18 -13 20 -5 -20 -12 -8 -6
right_child=1 3 4 7 22 -7 12 -9 -10 -11 17 16 -14 -15 -16 -17 -18 -19 19 -21 -22 -23 -24
leaf_value=0.0040102188349577187 0.00053328839754495305 -0.0032304131445514282 -0.0046220836479370954 0.0011648008038972401 -0.00071263640140381405 -0.002571542480787785 0.0016283121780833354 -0.00475650597744423 -0.010767374633059382 0.001702397045452978 -0.0031993259970706203 0.0040343764819205184 -0.0021665101982981461 0.0020136516175164876 -0.007856960767406964 -0.0042753790656952393 -0.003845245200100511 -0.0027975995019000723 0.002320348079758706 -0.0064196230261302544 -8.5410965653295279e-05 0.0061976208739775943 -0.0067413684275473189
leaf_weight=1880.1044648960233 4338.5990120731294 164.12225711718202 121.22686071693897 425.02505796402693 749.44625406339765 590.5336557328701 5399.3690587729216 1506.3582286648452 45.922733493149281 1460.9245268069208 489.01169576868415 350.53039449453354 262.94545300677419 183.86880711466074 133.60677273571491 487.06414853781462 67.155997045338154 1881.5562556758523 69.035753671079874 156.06051408499479 1535.6000378169119 171.21378925070167 98.219313520938158
leaf_count=7453 17315 433 491 1764 3235 2016 21434 6076 233 5957 2029 1041 1199 674 558 1954 170 7829 263 613 6609 652 394
internal_value=4.07317e-05 -0.00133752 0.00172858 -0.00231998 0.00109754 0.000157708 0.0014643 -0.00350867 -0.0015388 0.00300764 -0.00142516 0.00101905 0.00159701 -0.00219732 -0.00281548 -0.00217182 0.00271846 -0.00179056 -0.000562653 -0.00375163 -0.000847272 0.00177754 -0.00146835
internal_weight=22567.5 12424.1 10143.4 7494.92 6802.42 4929.13 5954.76 2961.02 4533.9 3341.03 4487.98 581.809 5833.53 1454.66 1270.79 1137.19 417.686 3906.17 650.121 225.096 2024.61 5570.58 847.666
internal_count=90392 49577 40815 30246 27405 19331 23776 11902 18344 13410 18111 1644 23285 5826 5152 4594 1211 16467 2640 876 8638 22086 3629
is_linear=0
shrinkage=0.0128054


Tree=16
num_leaves=24
num_cat=0
split_feature=115 26 63 158 81 191 104 102 125 175 19 195 124 162 62 18 104 207 207 161 161 71 160
split_gain=282.201 61.3973 52.1787 37.4762 34.2666 37.4828 34.0765 29.7013 28.7429 26.2049 26.1266 25.76 25.116 27.0241 23.4561 27.7688 24.588 25.2072 22.9241 22.782 20.5826 21.4254 20.5253
threshold=0.00021710457804147157 0.93466120958328258 -0.54550185799598683 -9.8159680419485068e-06 -0.014924451243132351 0.20247788727283481 0.035545598715543754 -0.089030608534812913 0.16403973847627643 -0.88208311796188343 -0.00036640070902649308 1.7805815339088442 -0.84397754073142994 0.92716696858406078 0.11257754638791086 -0.00024563247279729689 -0.038444206118583672 -0.04195140674710273 0.080041490495204939 -0.69874078035354603 -0.83186182379722584 0.0025151493027806286 1.6522791668194261e-07
decision_type=2 2 2 2 2 2 2 2 2 2 2 2 2 2 2 2 2 2 2 2 2 2 2
left_child=2 3 7 19 10 -6 12 -1 -7 -9 -5 -8 18 20 15 -12 -16 -18 -4 -2 -14 -22 -11
right_child=1 -3 6 4 5 8 11 9 -10 22 14 -13 13 -15 16 -17 17 -19 -20 -21 21 -23 -24
leaf_value=0.0032811087068520162 -0.00039455083849632605 -0.004421014764903323 0.0015473840755323024 0.0041592998729549592 -0.0026862222449255415 -9.6174671779645032e-05 -0.0017649749974200631 0.0047681678083212132 -0.003233757939903902 -6.9981877141201218e-05 -0.0064383350284763245 0.006662145695318763 0.0031628663355146489 0.0074289606890021644 0.00084316300904967048 0.0011244689124196769 0.0015524559185353397 -0.0058407603386691131 0.0055067426026119866 0.00417615892229774 7.0719450273827716e-05 -0.0057449948718289023 0.0023479867012588056
leaf_weight=2344.7102092429996 427.90513522550464 1135.5925388820469 1316.9244222342968 209.13523883745074 4245.7239945344627 2206.5484689027071 1231.0425505302846 310.43265609443188 603.53043461963534 1502.2439226843417 77.9023766964674 54.61847997829318 338.24087775871158 78.642809748649597 239.31717103719711 1072.4950639121234 93.145835656672716 336.14132531359792 288.68000547587872 297.55985779315233 3158.0113619416952 99.307033699005842 924.78705444931984
leaf_count=9480 1655 4593 4832 790 16904 8658 5188 1261 2478 6231 290 253 1351 306 890 4200 357 1315 1387 1218 12737 388 3780
internal_value=-0.000135568 -0.00161135 0.00125134 -0.00128271 -0.00150653 -0.00192777 0.00049623 0.0022245 -0.000777397 0.00131248 -3.92316e-05 -0.00136752 0.000951463 0.000365714 -0.000538236 0.000570924 -0.00243065 -0.00423755 0.00228331 0.00150559 0.000194884 -0.000120388 0.000856095
internal_weight=22592.6 10945 11647.6 9809.4 9083.94 7055.8 6565.47 5082.17 2810.08 2737.46 2028.14 1285.66 5279.81 3674.2 1819 1150.4 668.604 429.287 1605.6 725.465 3595.56 3257.32 2427.03
internal_count=90542 43348 47194 38755 35882 28040 26442 20752 11136 11272 7842 5441 21001 14782 7052 4490 2562 1672 6219 2873 14476 13125 10011
is_linear=0
shrinkage=0.0128054


Tree=17
num_leaves=24
num_cat=0
split_feature=93 27 26 44 9 185 104 177 27 213 81 162 161 212 3 147 177 51 154 150 54 110 76
split_gain=344.924 79.1893 61.7041 37.75 33.9247 33.2952 26.4847 24.9681 24.9187 25.45 24.4516 23.4341 23.3829 23.8185 22.3085 23.3264 21.8849 23.2319 25.0947 21.9569 21.6064 21.4451 28.7021
threshold=0.00024331636086571964 0.29298555850982672 0.85281062126159679 0.67097300291061412 -0.00037152472941670561 2.0957219931005969e-05 0.15419326722621921 10.133227348327638 0.60303807258605968 2.0489526377787119e-06 0.059592347592115409 -0.4299530535936355 -0.55375483632087696 2.9547331692469928e-08 0.00023433453316101807 -0.035020936280488961 13.596855640411379 0.54085275530815136 0.0011920195538550617 0.042107850313186652 -0.00028098413895349944 2.5423041582107548 -0.020245338790118691
decision_type=2 2 2 2 2 2 2 2 2 2 2 2 2 2 2 2 2 2 2 2 2 2 2
left_child=1 6 3 8 12 10 16 -5 9 -2 -4 20 13 -3 15 -6 21 19 -19 -18 -11 22 -1
right_child=2 4 5 7 14 -7 -8 -9 -10 11 -12 -13 -14 -15 -16 -17 17 18 -20 -21 -22 -23 -24
leaf_value=-0.0050951944459014719 0.0011870717416498479 0.0014489255058003933 -0.0013027227455049608 -0.0014290479122016763 0.0034071094119475336 -0.0016666078125599664 -0.0017350836653630508 -0.0050621851463793213 -0.0014110226945676695 -0.0051632777468557361 -0.0051553043354384343 -0.0023370831448762115 0.0030697754652341965 -0.0012684885087756125 0.0019423032635346353 -0.0012274648652540092 0.0043655382933374979 -0.00601493185581957 0.0035920722801458193 0.010766021282385694 0.0036054350967146776 0.0065212785087119009 0.0022973212345184556
leaf_weight=81.081246357411146 1729.2166492752731 2217.3887754455209 342.99613359570503 690.37275319173932 184.45725485309958 1280.1076614893973 206.44255826249719 569.00011373311281 3363.1124851703644 49.865198720246553 1391.0766407772899 844.28984408825636 1002.4449416473508 686.93750968202949 545.2606541775167 2414.9461701065302 1050.6593523919582 63.920870006084442 108.9632578343153 93.521117612719536 225.93489618226886 185.03863612934947 3216.4178636930883
leaf_count=417 6708 8565 1270 3232 705 5198 857 1886 13274 202 5519 3634 4131 2996 2231 10217 3121 211 346 261 851 743 13906
internal_value=-5.91727e-06 0.00147077 -0.00170373 -0.00107777 0.000595179 -0.00324837 0.00270115 -0.00309239 -0.00066588 0.000215138 -0.00440287 -0.0012831 0.00139086 0.000804458 -0.000394374 -0.000889033 0.00289457 0.00430389 -7.01099e-05 0.00496065 0.00191802 0.00235283 0.00210352
internal_weight=22543.5 12057.5 10486 7471.79 7051.44 3014.18 5006.04 1259.37 6212.42 2849.31 1734.07 1120.09 3906.77 2904.33 3144.66 2599.4 4799.6 1317.06 172.884 1144.18 275.8 3482.54 3297.5
internal_count=90481 48707 41774 29787 28845 11987 19862 5118 24669 11395 6789 4687 15692 11561 13153 10922 19005 3939 557 3382 1053 15066 14323
is_linear=0
shrinkage=0.0128054


Tree=18
num_leaves=24
num_cat=0
split_feature=115 64 63 123 104 107 164 117 160 63 83 6 161 177 156 157 198 85 5 162 176 109 202
split_gain=269.843 65.3251 53.0274 33.8537 33.707 31.9308 29.8674 29.3756 27.2428 27.2085 26.2912 25.1814 25.0012 24.6342 24.4528 27.6361 23.5289 22.6379 22.4609 22.2515 24.2952 24.9113 22.1828
threshold=0.00060698535526171337 0.09885768219828607 -0.19162604957818982 0.04474270902574063 -0.095141522586345659 0.51937460899353038 -0.69896021485328663 1.772815267031547e-05 1.5810880427125087e-07 -0.64958050847053517 -0.2342378348112106 0.00025525207456666982 -0.62828537821769703 7.7714102268219003 -0.0001783343177521601 -1.708449690340785e-05 0.83534893393516552 0.80759930610656749 0.9412515163421632 -0.68959003686904896 -0.00041179452091455454 0.0002232104088761844 -0.72439414262771595
decision_type=2 2 2 2 2 2 2 2 2 2 2 2 2 2 2 2 2 2 2 2 2 2 2
left_child=2 5 4 10 14 13 -3 8 -6 -7 12 -8 -4 -2 15 -1 -5 -14 -18 -12 21 -21 -10
right_child=1 6 3 16 7 9 11 -9 22 -11 19 -13 17 -15 -16 -17 18 -19 -20 20 -22 -23 -24
leaf_value=-0.0012665250252621087 -0.0010341746357086759 -0.00098321998800091396 0.0028795757862567248 -0.0030090955477101271 0.00061582847736425079 0.001414265396996258 -0.0022529668638456369 -0.00062546449422848133 -0.00016321491430247939 -0.0025790789790655819 0.0057144626046367756 -0.0043267671683769977 -0.0025026152863815649 0.0015517833978194982 0.0035852615398973423 0.0026418160782324496 0.0053885208342837592 0.0045173121131220689 -0.004523874292040337 0.005942216448259062 0.0010281341911266421 -0.0015536838180734509 0.0042784393395111364
leaf_weight=431.02359292283654 1040.9434158653021 1369.5693390518427 1230.6348552927375 732.11625912040472 1381.4585778862238 342.58603007346392 2185.9504231847823 1196.5313712991774 234.03963870182633 1416.659066464752 99.663874287158251 1760.3461341969669 302.00684306025505 1417.3923821486533 2242.3185844235122 916.23138338699937 110.96998190134764 91.587596919387579 47.535599809139967 68.187601048499346 1426.110938180238 1644.5262462794781 850.81441910937428
leaf_count=1663 4757 5451 4747 3210 5950 1375 8558 4816 1142 5694 357 7113 1244 4541 8883 3646 389 347 179 409 6530 5953 3319
internal_value=-4.12174e-05 -0.00167695 0.0011581 0.000239485 0.00188576 -0.00048547 -0.0026201 0.00101814 0.00181498 -0.00179852 0.00066051 -0.003185 0.00198566 0.000457 0.00276681 0.00139133 -0.00204452 -0.000810996 0.00234044 -7.39994e-06 -0.000203312 -0.0012287 0.00332611
internal_weight=22539.2 9533.45 13005.8 5753.34 7252.42 4217.58 5315.87 3662.84 2466.31 1759.25 4862.72 3946.3 1624.23 2458.34 3589.57 1347.25 890.622 393.594 158.506 3238.49 3138.82 1712.71 1084.85
internal_count=90273 37489 52784 23365 29419 16367 21122 15227 10411 7069 19587 15671 6338 9298 14192 5309 3778 1591 568 13249 12892 6362 4461
is_linear=0
shrinkage=0.0128054


Tree=19
num_leaves=24
num_cat=0
split_feature=115 64 9 9 103 115 156 181 25 191 110 151 34 5 83 25 119 162 194 213 31 200 160
split_gain=262.808 66.1504 65.0495 40.752 38.5455 31.3953 30.6362 28.764 26.5419 26.0715 24.9583 24.801 22.2621 21.0313 26.644 29.7651 24.0455 22.5978 27.3778 22.2735 21.2674 20.844 20.7234
threshold=0.00073050841456279169 0.11361880972981454 -0.00012738258374156428 -0.00089613458840176452 -1.2933756709098814 -0.0013832963886670766 0.0014082710258662703 -2.1581266992143352e-05 0.87410926818847667 0.51886856555938732 2.3284779787063603 -1.1607816759351406e-05 0.00080068383249454211 0.40340469777584081 -0.13631277531385419 0.050658237189054496 0.012796521186828615 -0.049160791561007493 -0.59601178765296925 1.9885656911355912e-05 0.99330949783325206 -1.5211766958236692 1.7112242289840653e-06
decision_type=2 2 2 2 2 2 2 2 2 2 2 2 2 2 2 2 2 2 2 2 2 2 2
left_child=2 8 4 11 -1 7 9 -4 -2 21 13 -3 -8 14 15 -6 -16 -15 -19 20 -20 -5 -23
right_child=1 3 5 6 10 -7 12 -9 -10 -11 -12 -13 -14 17 16 -17 -18 18 19 -21 -22 22 -24
leaf_value=0.0040326653077245797 9.1494490320898685e-05 -0.0015912817248452875 -0.00043777280702606502 0.0051654946665178328 0.0062613008698785963 -0.00059872112859558153 -0.003072928105980025 0.0027319845771369535 -0.0024668779295444702 -0.00067815568415865079 0.0058205514503607454 0.0049557374304049859 -0.0070143329093715207 0.0030683028154814039 6.8492011878929583e-05 0.0011932619136091123 -0.0058959317129593167 0.0039943769547159495 -0.00014382861673127112 0.005334795101443972 -0.006880475258960848 -0.0028099467909387171 -0.0065304329104684151
leaf_weight=1204.3270876854658 3303.6261782720685 197.99765187501907 794.86179505288601 42.480607468634844 220.08478907868266 3552.9044048786163 523.28054105117917 1131.6604797840118 824.26185974851251 1047.8747699558735 209.74963932111859 169.09719741344452 455.73644290491939 1839.3885657228529 1806.271990891546 1175.8898591510952 109.97616189718246 346.75320384651423 892.08760721608996 102.63107224181294 76.033328868448734 2286.3967144042253 274.45705228671432
leaf_count=4824 12539 763 3147 176 919 15110 1999 4319 3306 4279 816 674 1791 7220 7533 4639 458 1565 3391 481 327 9044 1126
internal_value=5.27358e-05 -0.00162416 0.00118966 -0.00261389 0.00192651 0.000114849 -0.00293938 0.00142782 -0.000423193 -0.00239047 0.00154797 0.00146637 -0.00495014 0.00140456 0.00068356 0.00202376 -0.000297176 0.00213429 0.000911745 -0.000109018 -0.000725571 -0.00307546 -0.00322801
internal_weight=22587.8 9125.21 13462.6 4997.32 7983.19 5479.43 4630.23 1926.52 4127.89 3651.21 6778.87 367.095 979.017 6569.12 3312.22 1395.97 1916.25 3256.89 1417.51 1070.75 968.121 2603.33 2560.85
internal_count=90446 35697 54749 19852 32173 22576 18415 7466 15845 14625 27349 1437 3790 26533 13549 5558 7991 12984 5764 4199 3718 10346 10170
is_linear=0
shrinkage=0.0128054


Tree=20
num_leaves=24
num_cat=0
split_feature=115 64 143 62 14 174 136 9 134 76 173 169 76 38 9 27 40 70 157 65 123 162 2
split_gain=279.838 81.739 50.72 36.0918 28.5803 28.9897 28.1003 25.2837 29.6045 24.9883 24.455 23.9769 23.3228 22.6233 21.7166 20.5318 20.6307 21.0881 20.4055 20.34 19.9924 19.7809 22.9759
threshold=0.00060698535526171337 0.12349817901849748 -7.4472256528679268e-05 0.20403726398944858 0.0026885042898356919 -0.00044656137470155949 -0.07442408055067061 -0.00063288173987530161 -8.1248464994132505e-05 -0.0019866597140207882 1.5396895408630373 -0.091899722814559923 -0.0035654833773151036 0.00081235883408226084 -0.00076906298636458803 0.78209611773490917 0.0025097469333559279 -0.83740356564521778 4.5635923015652231e-05 1.7662061452865603 0.025500198826193813 -0.3043521642684936 0.00027812898042611783
decision_type=2 2 2 2 2 2 2 2 2 2 2 2 2 2 2 2 2 2 2 2 2 2 2
left_child=2 3 15 18 5 -4 10 8 -8 19 -7 -6 -9 20 -11 16 -1 -18 -2 -3 -5 -22 -23
right_child=1 9 4 13 11 6 7 12 -10 14 -12 -13 -14 -15 -16 -17 17 -19 -20 -21 21 22 -24
leaf_value=0.0025831800257205078 5.878390271371767e-05 -0.0018387915749058282 -0.0048189485282114026 0.003742377779192257 0.0067535212614686048 0.0024471918263506138 0.0032681191892716139 -0.0049532848055123769 -0.00109039361792706 0.0035684727614492119 -0.0053606934270052703 -0.0010132030820100156 1.699671648829981e-05 -0.0036747513194712853 -0.0035095643086040223 -0.0042062034301075064 0.00403403805486651 -0.0026255527611657721 0.0047066357400373741 0.0035262337744739265 -0.0069712554700353735 -0.0027253500030796213 0.0077735417692363232
leaf_weight=4546.6948386356235 3178.3305267803371 1505.804860483855 127.81402985006571 147.57613581418991 59.493922837078571 2342.1769560985267 832.48523147031665 158.55808089673519 362.39816576614976 66.397991213947535 60.277539078146219 1880.1834617219865 2178.2164603844285 730.686193972826 3419.2505620345473 72.43633196875453 103.95297603309155 249.01282001286745 154.74466940760612 118.06041606143117 79.898189585655928 96.553131226450205 42.749593287706375
leaf_count=17504 12133 6071 342 544 172 9658 3551 598 1526 259 228 7710 9639 2971 13540 279 300 1123 594 418 313 387 146
internal_value=1.10461e-05 -0.00165304 0.00123498 -0.000378924 0.000602791 0.0010354 0.00116789 0.000439243 0.00194778 -0.0027555 0.00223395 -0.000747904 -0.000336189 -0.00238399 -0.00336678 0.00224973 0.00235195 -0.000617748 0.00028545 -0.00143318 0.000211263 -0.00221466 0.000746545
internal_weight=22513.8 9540.05 12973.7 4430.54 8001.6 6061.93 5934.11 3531.66 1194.88 5109.51 2402.45 1939.68 2336.77 1097.46 3485.65 4972.1 4899.66 352.966 3333.08 1623.87 366.777 219.201 139.303
internal_count=90006 37376 52630 17088 33424 25542 25200 15314 5077 20288 9886 7882 10237 4361 13799 19206 18927 1423 12727 6489 1390 846 533
is_linear=0
shrinkage=0.0128054


Tree=21
num_leaves=24
num_cat=0
split_feature=115 62 63 124 125 27 164 195 187 80 163 54 159 64 213 191 56 55 145 26 206 223 215
split_gain=274.881 77.782 60.7173 39.6011 33.5271 32.3576 30.3804 29.4204 27.5895 28.3489 24.2022 23.989 27.002 23.4575 27.3279 22.9848 25.3456 26.6135 24.4472 22.7727 22.6977 22.223 22.6048
threshold=0.00060698535526171337 -0.050781557336449616 -0.28101937472820276 0.57842910289764415 -0.095382165163755403 0.34579677879810339 -0.69896021485328663 0.64106491208076488 0.78413978219032299 0.0014300413895398381 -0.14228226989507672 0.0012193768052384259 1.8048880292553806e-06 0.16843803972005847 -7.7817262535972969e-06 -0.70523399114608754 0.00015566388901788744 -0.96744319796562184 0.072250671684741988 0.84539166092872631 -1.0228298902511594 1.0000000180025095e-35 0.014380346052348615
decision_type=2 2 2 2 2 2 2 2 2 2 2 2 2 2 2 2 2 2 2 2 2 2 2
left_child=2 7 5 6 15 10 11 19 9 -5 -1 21 -13 -8 -15 -4 17 -17 -19 -2 -6 -3 -23
right_child=1 3 4 8 20 -7 13 -9 -10 -11 -12 12 -14 14 -16 16 -18 18 -20 -21 -22 22 -24
leaf_value=-0.00051672167676775137 7.8383270049044865e-05 0.00082115924943609495 -0.0006436884266535338 -0.0063323701924503945 0.0023839634354600034 0.0011390130938930924 -0.00049827434134197123 0.0026046239845457964 -0.0011770953147228393 -0.0031557041084558533 0.003229692975743955 0.0084170235298862764 0.0001986855202567984 0.00011598710277734408 -0.0040940142566955762 -0.0027348497215245919 0.0068667199596311899 0.0023608386982283801 -0.006829349312655086 -0.0039115661915412074 -0.00091225341061138172 0.0003666541774625374 -0.0068782766351713313
leaf_weight=307.02898400649428 1568.4122920520604 572.16908194124699 704.30642412230372 593.31969325989485 378.82882334291935 3225.4619000442326 887.60970297083259 668.29913616552949 832.16969834268093 2196.2425739169121 3288.0326895192266 108.11521576344967 151.32310421764851 325.70179581642151 1115.1784562505782 200.50074959918857 155.99370093271136 1709.4742069356143 41.169493597000837 267.66157904267311 2996.0466922186315 129.23119385167956 145.56314985081553
leaf_count=1112 6145 2144 2685 2599 1896 13196 3531 2411 3339 8478 13446 438 605 1362 4343 811 562 6766 127 1001 12351 408 639
internal_value=3.05732e-05 -0.00161703 0.00124194 -0.00230444 0.000322555 0.00207446 -0.00131471 0.000321072 -0.00323808 -0.00384773 0.0029093 0.000430468 0.00377455 -0.00214257 -0.00314704 0.00135347 0.00202093 0.00160674 0.00211428 -0.000517885 -0.000537435 -0.000619913 -0.00355811
internal_weight=22567.8 9561 13006.8 7056.62 6186.32 6820.52 3434.89 2504.37 3621.73 2789.56 3595.06 1106.4 259.438 2328.49 1440.88 2811.44 2107.14 1951.14 1750.64 1836.07 3374.88 846.963 274.794
internal_count=90395 37443 52952 27886 25198 27754 13470 9557 14416 11077 14558 4234 1043 9236 5705 10951 8266 7704 6893 7146 14247 3191 1047
is_linear=0
shrinkage=0.0128054


Tree=22
num_leaves=24
num_cat=0
split_feature=115 9 81 112 153 161 124 219 23 166 115 173 103 216 216 192 168 66 33 133 188 175 167
split_gain=273.311 54.3415 53.4128 41.8552 28.1264 24.0737 22.9923 23.7101 25.9525 23.4516 22.9062 25.8858 22.0515 26.485 25.821 21.998 20.7724 27.7464 22.3098 23.743 20.6919 20.4764 20.2396
threshold=0.00065460297628305863 0.00012248985876794907 -0.11599287763237952 0.35963591933250433 -2.3245069087352017e-06 -0.89665272831916798 -0.84397754073142994 0.91597560048103344 0.56644025444984447 -0.030230921693146225 -0.0013832963886670766 0.42163804173469549 0.99915972352027904 -1.085350564977716e-08 6.0344426344727267e-08 1.1797378659248354 -0.075852010399103151 -0.021948823705315586 -0.0010041548521257935 0.24928337335586551 -1.5127110481262205 0.24657057970762256 -0.72812852263450611
decision_type=2 2 2 2 2 2 2 2 2 2 2 2 2 2 2 2 2 2 2 2 2 2 2
left_child=2 12 6 5 -4 -3 16 8 22 -10 -6 -12 21 -14 -15 -11 17 -1 19 -18 -7 -2 -8
right_child=1 3 4 -5 10 20 7 -9 9 15 11 -13 13 14 -16 -17 18 -19 -20 -21 -22 -23 -24
leaf_value=-0.0020308267863839301 0.0012081942041809336 0.0054125037611347663 0.0014336382058792591 -0.0045016483735834598 0.0011835375992790629 0.0038806346391808601 -0.0040800103886989448 -0.0011515069918773865 0.0050643261093428447 -0.00023380411412372983 -0.00010595934256011108 -0.0028235025711993433 0.00079519546297099222 -0.0059238474424531786 0.00083276321867070994 -0.0071659930453180391 -0.0022705953488296187 0.0042166171466335089 0.0049097559399886191 0.0048711309383138255 -0.002063720689067761 -0.0013536844477141463 0.0027396938147965485
leaf_weight=241.74344843253493 1524.8997694179416 66.32010031491518 3094.001167036593 1204.3931612111628 1450.5590119361877 90.738623593002558 66.60215736925602 460.4134110212326 106.5599438175559 510.24158503487706 2401.7446366660297 747.78650711104274 298.17477548867464 329.49830383062363 125.36570263653994 80.040015794336796 164.77519153803587 211.02745214477181 1100.8467021808028 129.01033841818571 4927.8258173726499 760.08447541669011 2439.8252011500299
leaf_count=955 5980 244 12600 5199 5741 364 327 1833 427 2028 10553 3078 1158 1240 631 290 690 823 4297 508 19092 2849 9631
internal_value=-3.56347e-06 -0.00168082 0.00118145 -0.00235944 0.000491299 -0.00184569 0.00214284 0.00154971 0.00193988 -0.000244155 -0.000143919 -0.000756764 -0.000273424 -0.00216147 -0.00407965 -0.00125801 0.00330722 0.0009039 0.00407775 0.000912081 -0.00195017 0.000354232 0.00254593
internal_weight=22532.5 9327.3 13205.2 6289.28 7694.09 5084.88 5511.09 3663.68 3203.27 696.842 4600.09 3149.53 3038.02 753.039 454.864 590.282 1847.4 452.771 1394.63 293.786 5018.56 2284.98 2506.43
internal_count=90538 36757 53781 24899 31972 19700 21809 14536 12703 2745 19372 13631 11858 3029 1871 2318 7273 1778 5495 1198 19456 8829 9958
is_linear=0
shrinkage=0.0128054


Tree=23
num_leaves=24
num_cat=0
split_feature=94 27 54 102 215 0 162 91 133 127 212 75 195 191 9 142 154 47 74 84 116 144 51
split_gain=247.994 58.8097 47.6552 40.6019 26.2071 38.2025 26.1075 26.6961 36.2606 28.8032 25.7137 24.6171 23.3172 22.248 24.0544 29.7043 22.0697 22.1242 21.8495 23.399 22.3094 21.8088 22.3825
threshold=9.6553732873871936e-05 0.28555215895175939 0.00015699670620961117 0.024098102003335956 0.023028543218970302 1.0000000180025095e-35 0.14626698195934298 -1.0734543800354002 0.36860859394073492 0.67822331190109264 4.0167643433619566e-08 5.3066773944010501e-06 0.60354965925216686 -0.71897956728935231 0.00038785330252721911 0.0032673805253580217 0.0052754217758774766 0.59652552008628856 1.8727066516876223 1.6385700702667239 1.9676175117492678 -0.048234216868877404 -0.73236814141273487
decision_type=2 2 2 2 2 2 2 2 2 2 2 2 2 2 2 2 2 2 2 2 2 2 2
left_child=1 -1 4 13 5 10 7 -3 -9 -10 21 -5 18 14 15 -4 17 -7 19 -13 -21 -2 -23
right_child=2 6 3 11 -6 16 -8 8 9 -11 -12 12 -14 -15 -16 -17 -18 -19 -20 20 -22 22 -24
leaf_value=0.0024069717325914974 0.0054497001524457687 0.0017791517748787825 0.0073226510992906273 -0.00068016637335622198 -0.0014834071099314599 0.0042294180516069075 0.002119814996619996 -0.0008288246242021002 0.0053533150339795691 -0.0018263133274776116 -0.0039634432655744527 -0.0036762893793361525 -0.001458914434949691 0.00014461282689644505 -0.0037869805821627595 -0.0043452260103381199 -0.0049734111329088442 -0.0025241384429306292 -0.0078503618261556475 0.0016774043761926926 -0.0069821160218847276 -0.0025028987123063011 0.0014854477362447715
leaf_weight=4855.3204421661794 114.1840974278748 1202.346780449152 72.880086146295071 952.28520372882485 1360.2715106643736 687.52620730176568 1345.9947869889438 3465.2716559804976 286.63892585411668 128.09743120893836 278.66862879693508 2546.1568139977753 1224.0856442414224 1872.9666241705418 527.20571247115731 56.925946079194546 47.283643439412117 84.42462433129549 179.53961975872517 254.23165202885866 51.836172390729189 410.27385979890823 506.60026106238365
leaf_count=19240 358 3760 282 3873 6725 2307 5557 15450 1189 511 1073 10253 4890 7219 2073 194 155 281 707 908 199 1245 1834
internal_value=4.15982e-06 0.00134437 -0.00134277 -0.0019025 -9.99315e-05 0.000786292 0.000539776 0.000118618 -0.000398585 0.00314327 -0.000571222 -0.00254829 -0.00296421 -0.000569222 -0.00258117 0.00225105 0.00294093 0.00347228 -0.00356648 -0.00327536 6.86977e-05 0.000369341 -0.000305504
internal_weight=22511 11283.7 11227.3 7738.11 3489.23 2128.96 6428.35 5082.35 3880.01 414.736 1309.73 5208.14 4255.85 2529.98 657.012 129.806 819.234 771.951 3031.76 2852.22 306.068 1031.06 916.874
internal_count=90283 45707 44576 30598 13978 7253 26467 20910 17150 1700 4510 20830 16957 9768 2549 476 2743 2588 12067 11360 1107 3437 3079
is_linear=0
shrinkage=0.0128054


Tree=24
num_leaves=24
num_cat=0
split_feature=115 23 125 26 54 217 26 77 96 32 121 56 34 219 204 204 86 149 107 149 91 154 15
split_gain=203.769 62.6918 61.7266 48.8551 34.6732 30.2087 30.0334 28.8927 25.2371 28.9218 25.0554 25.0303 23.8031 22.8044 22.4596 22.4376 28.7207 21.9562 21.8971 22.2631 25.9988 24.1361 21.7132
threshold=0.00060698535526171337 0.59634390473365795 -0.03753273002803325 0.29735042154788976 -0.00026110783801414067 -7.1860782213661865e-08 0.85606333613395702 0.013125912752002479 3.0945186153985567e-05 0.0013729439815506341 0.012158789206296207 0.00014302321505965668 0.00033429785980843013 0.91597560048103344 1.4071632108425549e-06 -1.667590254328388e-06 0.4765405952930451 6.7126711655873819e-05 0.49885709583759313 -3.0684419471072026e-05 -0.72803753614425648 -0.0086507271043956262 0.30077813565731054
decision_type=2 2 2 2 2 2 2 2 2 2 2 2 2 2 2 2 2 2 2 2 2 2 2
left_child=2 -2 3 10 13 22 15 12 11 -10 -1 18 -8 17 -12 16 -3 -4 -5 20 -20 -21 -6
right_child=1 6 4 8 5 -7 7 -9 9 -11 14 -13 -14 -15 -16 -17 -18 -19 19 21 -22 -23 -24
leaf_value=0.0029907732082279782 -0.00019239246961900937 -0.0092702179170148814 0.00093974007237544645 -0.00090832809763795449 -0.0063084884238901696 0.0001367524383650293 -0.0016490463993070238 0.00087491239940800433 0.007546428972742953 -0.0030752411947715412 -0.0040570932192652755 0.0039051784357907256 -0.004589717945726937 -0.0019325476483166818 0.0052710784305805116 -0.0010260605791220377 -0.0022152866753586031 0.0053670003348777248 -0.0069497706056100639 -0.0053189865519089391 0.0013908479703948103 0.002604727465313773 -0.0018237728843961015
leaf_weight=3629.9968674704432 3743.860878597945 117.59266835823655 2565.9954669214785 1736.975775886327 217.01309721171856 1286.3316208198667 633.371337428689 236.91700576618314 156.20150454714894 51.43325574696064 150.16085838899016 291.65124200284481 1679.3691526986659 415.52772345021367 50.115010224282742 2747.5188465602696 417.58031102642417 190.46400570124388 98.577750954777002 59.914880070835352 138.9402850754559 974.07826053351164 890.95302489027381
leaf_count=14134 14707 440 10714 6969 910 5690 2584 975 575 204 560 1078 6527 1683 238 10359 2001 714 312 236 627 4218 3892
internal_value=-7.18218e-05 -0.00148637 0.00097818 0.00174887 -3.88857e-05 -0.00119994 -0.00231558 -0.0033578 0.000654734 0.00489867 0.00274739 0.000376385 -0.00379294 0.000838334 -0.00160881 -0.00149981 -0.00388049 0.00126047 2.47323e-05 0.00129704 -0.00218574 0.00210784 -0.00274156
internal_weight=22480.5 9576.21 12904.3 7338.05 5566.28 2394.3 5832.35 2549.66 3507.77 207.635 3830.27 3300.14 2312.74 3171.99 200.276 3282.69 535.173 2756.46 3008.49 1271.51 237.518 1033.99 1107.97
internal_count=90347 37593 52754 29151 23603 10492 22886 10086 14219 779 14932 13440 9111 13111 798 12800 2441 11428 12362 5393 939 4454 4802
is_linear=0
shrinkage=0.0128054


Tree=25
num_leaves=24
num_cat=0
split_feature=81 26 27 53 62 100 64 5 162 70 7 96 170 27 14 46 76 72 205 31 177 173 28
split_gain=206.463 59.8065 58.7246 45.6533 41.1229 32.3061 24.1303 23.132 22.8513 24.4404 21.2252 20.9901 20.8784 20.3653 25.5415 25.4718 25.1822 29.577 23.3487 25.2869 21.0588 20.494 20.2086
threshold=0.038945091888308532 0.29029703140258795 0.91690775752067577 -0.00090419373009353865 -0.14192707091569898 0.0038993571652099495 0.57348954677581798 0.52835547924041759 -0.63183799386024464 -1.185899496078491 -0.0012299647787585852 -1.7216306332556993e-05 1.0406405635876583e-05 0.68209573626518261 -0.020457894541323181 0.7958870828151704 -0.00078585927258245636 -0.00032470947189722205 -2.0435142467079001e-08 -0.88460013270378102 12.612427711486818 1.6277092099189761 0.00035675411345437174
decision_type=2 2 2 2 2 2 2 2 2 2 2 2 2 2 2 2 2 2 2 2 2 2 2
left_child=1 -1 4 5 -2 22 7 8 9 -5 -9 -7 -11 14 15 -6 17 -16 -18 -20 -15 -19 -3
right_child=2 3 -4 6 13 11 -8 10 -10 12 -12 -13 -14 20 16 -17 18 21 19 -21 -22 -23 -24
leaf_value=0.0019680258808105668 0.00060197673660508373 -0.00034087041147537033 -0.0042195953510866628 0.010621555224434514 -0.006932328582027668 0.0061403057366742394 -0.0032680824610923122 0.0081420218704183808 -0.0011545133527603466 0.0049255125524028526 0.00056631708739828489 9.3834293505819078e-05 -0.0038400462715436042 -0.0017394738113126215 -0.0036429296940786158 0.0018759559267218064 -0.0037661614145321418 0.0011193554553636761 0.0035096920589744729 -0.0018318522517200033 -0.0041571032978633508 -0.0056709903076121821 0.0068844712793193806
leaf_weight=5198.2986414209008 1664.3556997515261 77.947717674076557 1200.2715742774308 46.073256939649582 203.92602620646358 102.0893327370286 387.88721519336104 53.728621959686279 2739.3705414682627 82.730763491243124 3376.0810465477407 648.56433388590813 79.538395434617996 2028.5652796328068 273.63039369508624 68.204118717461824 656.99874356389046 1672.1877197995782 187.91248871386051 554.85025988891721 840.76552408188581 68.2246471978724 317.13559485971928
leaf_count=20587 6706 324 4647 124 862 416 1538 205 11039 290 13463 2502 300 8872 1073 266 2845 6584 749 2585 2669 262 1236
internal_value=-0.00013677 0.000902166 -0.00158217 0.00020051 -0.00119326 0.00255487 -0.000200783 -1.03207e-05 -0.000840985 0.00317042 0.000703884 0.000972894 0.000650648 -0.00164925 -0.00101599 -0.00473428 -0.00070909 0.000208552 -0.00202304 -0.00045722 -0.00245758 0.00082815 0.00548073
internal_weight=22529.3 13109.4 9419.89 7911.15 8219.62 1145.74 6765.41 6377.52 2947.71 208.342 3429.81 750.654 162.269 6555.27 3685.93 272.13 3413.8 2014.04 1399.76 742.763 2869.33 1740.41 395.083
internal_count=90144 52024 38120 31437 33473 4478 26959 25421 11753 714 13668 2918 590 26767 15226 1128 14098 7919 6179 3334 11541 6846 1560
is_linear=0
shrinkage=0.0128054


Tree=26
num_leaves=24
num_cat=0
split_feature=115 26 62 125 195 62 160 104 152 98 125 196 177 118 13 192 142 159 162 167 92 4 165
split_gain=252.512 95.9647 47.4313 33.7554 32.0068 29.792 28.8598 27.2674 25.6884 24.7552 25.869 25.0754 39.1699 24.4463 28.0804 38.523 29.9507 23.9434 21.6328 30.4428 26.6339 21.6211 21.5725
threshold=-0.0012518715811893342 0.85606333613395702 -0.14192707091569898 -0.04269879683852195 -0.9455217421054839 0.15871967375278476 -3.4898965850516101e-07 -0.45535270869731898 0.0011499563115648927 0.00026548049936536705 -0.0085796364583075029 0.5770716965198518 11.939044475555422 -0.010238635353744028 -0.0050323957111686459 0.3386437743902207 0.0019308566697873177 -1.0151061928809211e-06 -0.54604080319404591 -0.64103254675865162 0.0012292442261241379 4.9608019253355458e-05 -0.53775939345359791
decision_type=2 2 2 2 2 2 2 2 2 2 2 2 2 2 2 2 2 2 2 2 2 2 2
left_child=7 2 -2 4 6 17 -4 -1 -8 10 -9 12 22 -14 16 -16 -15 -3 19 -6 -21 -19 -11
right_child=1 5 3 -5 18 -7 8 9 -10 11 -12 -13 13 14 15 -17 -18 21 -20 20 -22 -23 -24
leaf_value=0.0057395074010905918 0.00089695307709776841 0.0028693800693137296 -0.0070705137757077919 -0.0014667737483002531 -0.0043908712703888192 -0.0038078598734704928 -0.0034072150983179973 0.0071276452031274785 0.0023824053731939252 0.0050727081174490743 0.0009366249475926421 0.00025738120825784472 0.0067880013153034987 0.0031794704268333501 0.007015438848402205 -0.0026557557933540644 -0.0074006363207462095 -0.0040729832394896604 0.00028396049877835617 0.0070374679700462494 -0.0017112004397407271 0.00017414746040210041 0.0013083561874357602
leaf_weight=320.71614782512188 3651.6255453377962 195.43748561292887 155.77579438313842 5425.7257525138557 60.035348068922758 1959.9579980783165 275.37018307298422 284.78116679936647 218.20791881531477 262.75159361213446 182.32588117197156 1459.8906368166208 421.88090815022588 87.457472871989012 257.94164899364114 85.665141701698303 73.784134142100811 406.9855586104095 2512.9518690705299 247.45915641263127 69.907657261937857 372.11833533272147 3430.6088992990553
leaf_count=1177 14790 711 601 22496 213 7925 1131 1173 884 1096 809 5656 1054 233 705 274 199 1607 10107 892 244 1382 14749
internal_value=8.52569e-05 -0.000817864 -0.000331974 -0.000832874 0.000139909 -0.00290032 -0.00241134 0.00212885 -0.000850517 0.00194511 0.00476822 0.00172217 0.00218376 0.00452907 0.00256404 0.00459867 -0.00178432 -0.00105878 0.000718212 0.00354302 0.00511573 -0.00206352 0.00158667
internal_weight=22419.4 15551.6 12617.1 8965.43 3539.71 2934.5 649.354 6867.8 493.578 6547.09 467.107 6079.98 4620.09 926.729 504.848 343.607 161.242 974.541 2890.35 377.402 317.367 779.104 3693.36
internal_count=90108 62983 51358 36568 14072 11625 2616 27125 2015 25948 1982 23966 18310 2465 1411 979 432 3700 11456 1349 1136 2989 15845
is_linear=0
shrinkage=0.0128054


Tree=27
num_leaves=24
num_cat=0
split_feature=115 62 9 220 38 7 64 42 117 171 123 152 55 13 14 172 204 111 55 172 213 178 139
split_gain=247.137 60.9942 52.7767 28.8974 29.3522 28.5313 28.3304 34.9092 32.4589 27.2622 29.0577 29.4132 31.7844 26.2766 25.3328 25.224 24.4999 22.6466 29.9033 21.901 21.2935 21.1851 21.1702
threshold=0.00065460297628305863 0.20403726398944858 -0.00059473424335010339 -0.60785761475563038 0.0020431600278243427 -0.0017726894584484396 0.25307604670524603 0.52924826741218578 -1.1403883036109617e-05 -0.84102237224578846 0.028573125600814823 0.021411588415503505 -0.5777272880077361 -0.01819691993296146 0.0023348057875409727 0.00053166141151450585 9.6881598210529795e-07 -0.59875285625457753 -1.2349598407745359 0.00028013804694637662 2.1670732166967358e-05 -0.21901095658540723 -0.090991146862506853
decision_type=2 2 2 2 2 2 2 2 2 2 2 2 2 2 2 2 2 2 2 2 2 2 2
left_child=2 -2 3 4 14 -5 7 8 13 -3 -11 12 -12 -4 -1 17 -14 18 -8 -13 -15 -7 -20
right_child=1 9 6 5 -6 21 15 -9 -10 10 11 19 16 20 -16 -17 -18 -19 22 -21 -22 -23 -24
leaf_value=0.0050567531011062559 -0.0006085816582503407 0.000558347416920183 -0.0031726444775839894 0.0038152715502118638 -0.001970455117747235 0.0039462210066834036 0.0047134753422586814 0.0033526905719941345 -0.00051345826006908611 -0.0014865404031110376 -0.0019168869064744465 0.0027693963648900374 -0.006443652268604866 0.0027332592337276375 0.001200228156462445 0.0043402139861232385 -0.0025513958974496568 -0.00029425507969311338 -0.001519375995197384 -0.0045741851762282305 -0.0020348338303050697 0.00078227307999013734 -0.0068382519986939488
leaf_weight=1100.4401998259127 5376.3955808021128 378.24787486344576 153.92615607380867 757.59132366254926 139.66955322399735 378.79100374877453 59.948029961436987 829.01259137690067 2331.5208841003478 1283.5293663144112 600.79100960865617 172.80184732377529 1066.9115034453571 1481.0817019939423 381.53375439345837 134.72598757222295 372.3613763935864 1261.2988982126117 233.46127204224467 97.299057431519032 165.37568793445826 3454.6427415236831 265.03945344686508
leaf_count=4421 20836 1589 605 3024 551 1481 270 3563 10008 5070 2334 707 4178 5792 1522 438 1688 5285 949 381 775 13759 1113
internal_value=9.12884e-05 -0.0014992 0.00122408 0.00207996 0.00354785 0.00155613 0.000453651 0.000967708 0.000483573 -0.00270105 -0.0030446 -0.00390204 -0.00442584 0.00177126 0.00407581 -0.000849759 -0.00545657 -0.00125152 -0.00337848 6.7878e-05 0.00224672 0.00110257 -0.00441136
internal_weight=22476.4 9348.34 13128.1 6212.67 1621.64 4591.03 6915.39 4960.92 4131.9 3971.94 3593.69 2310.16 2040.06 1800.38 1481.97 1954.47 1439.27 1819.75 558.449 270.101 1646.46 3833.43 498.501
internal_count=90339 36783 53556 24758 6494 18264 28798 20743 17180 15947 14358 9288 8200 7172 5943 8055 5866 7617 2332 1088 6567 15240 2062
is_linear=0
shrinkage=0.0128054


Tree=28
num_leaves=24
num_cat=0
split_feature=115 64 63 164 125 75 107 177 27 125 95 177 215 127 47 118 142 219 183 126 2 112 171
split_gain=217.959 62.8861 46.2147 35.4468 33.1307 31.7307 30.258 30.8976 29.1689 30.8497 27.1948 24.9958 30.3203 22.0578 21.9751 21.955 22.4495 21.5516 25.9749 24.8481 21.2308 21.2143 21.1287
threshold=0.00052916078129783284 0.14854931086301806 -0.25906743109226221 -0.60765373706817616 0.048158116638660438 -1.971474648598814e-05 0.57043775916099559 11.101258277893068 0.84438693523406994 0.25525006651878362 1.5580185055732729 5.6714944839477548 -0.01605719048529863 -0.65904411673545826 0.20928338170051577 -0.011577913537621496 -0.046476829797029488 0.78656607866287243 -5.1551760407164686e-05 0.23055738210678103 0.00018808388267643752 -0.78599920868873585 -0.26500059664249415
decision_type=2 2 2 2 2 2 2 2 2 2 2 2 2 2 2 2 2 2 2 2 2 2 2
left_child=2 6 3 14 -5 15 8 -8 11 21 22 -2 -13 -14 -1 16 -4 -16 -19 -20 -17 -10 -3
right_child=1 10 5 4 -6 -7 7 -9 9 -11 -12 12 13 -15 17 20 -18 18 19 -21 -22 -23 -24
