tree
version=v4
num_class=1
num_tree_per_iteration=1
label_index=0
max_feature_idx=226
objective=binary sigmoid:1
feature_names=BTC_spot_log_ret_1m BTC_spot_high_low_range BTC_spot_body_size BTC_spot_upper_shadow BTC_spot_lower_shadow BTC_spot_close_position_in_bar BTC_spot_log_ret_2m BTC_spot_log_ret_3m BTC_spot_log_ret_5m BTC_spot_log_ret_10m BTC_spot_log_ret_15m BTC_spot_log_ret_30m BTC_spot_log_ret_60m BTC_spot_log_ret_120m BTC_spot_log_ret_240m BTC_spot_taker_buy_volume_ratio BTC_spot_taker_buy_quote_ratio BTC_spot_taker_buy_quote_volume_ratio_diff BTC_spot_vwap_dist BTC_spot_taker_buy_vwap_dist BTC_spot_ret_x_buy_imbalance_1m BTC_spot_close_position_5m BTC_spot_close_position_10m BTC_spot_close_position_15m BTC_spot_close_position_30m BTC_spot_close_position_60m BTC_spot_close_position_120m BTC_spot_close_position_240m BTC_spot_ret_std_5m BTC_spot_volume_z_5m BTC_spot_quote_volume_z_5m BTC_spot_count_z_5m BTC_spot_range_mean_5m BTC_spot_close_vs_sma_5m BTC_spot_close_vs_kama_5m BTC_spot_close_vs_kama_z_5m BTC_spot_kama_velocity_5m BTC_spot_rolling_high_dist_5m BTC_spot_rolling_low_dist_5m BTC_spot_realized_vol_5m BTC_spot_upside_realized_vol_5m BTC_spot_downside_realized_vol_5m BTC_spot_realized_vol_balance_5m BTC_spot_ret_vol_scaled_5m BTC_spot_volume_ret_corr_5m BTC_spot_quote_volume_per_trade_z_5m BTC_spot_taker_quote_volume_per_trade_z_5m BTC_spot_buy_ratio_mean_5m BTC_spot_ret_std_10m BTC_spot_volume_z_10m BTC_spot_quote_volume_z_10m BTC_spot_count_z_10m BTC_spot_range_mean_10m BTC_spot_close_vs_sma_10m BTC_spot_close_vs_kama_10m BTC_spot_close_vs_kama_z_10m BTC_spot_kama_velocity_10m BTC_spot_rolling_high_dist_10m BTC_spot_rolling_low_dist_10m BTC_spot_realized_vol_10m BTC_spot_upside_realized_vol_10m BTC_spot_downside_realized_vol_10m BTC_spot_realized_vol_balance_10m BTC_spot_ret_vol_scaled_10m BTC_spot_volume_ret_corr_10m BTC_spot_quote_volume_per_trade_z_10m BTC_spot_taker_quote_volume_per_trade_z_10m BTC_spot_ret_std_30m BTC_spot_volume_z_30m BTC_spot_quote_volume_z_30m BTC_spot_count_z_30m BTC_spot_range_mean_30m BTC_spot_close_vs_sma_30m BTC_spot_close_vs_kama_30m BTC_spot_close_vs_kama_z_30m BTC_spot_kama_velocity_30m BTC_spot_rolling_high_dist_30m BTC_spot_rolling_low_dist_30m BTC_spot_realized_vol_30m BTC_spot_upside_realized_vol_30m BTC_spot_downside_realized_vol_30m BTC_spot_realized_vol_balance_30m BTC_spot_ret_vol_scaled_30m BTC_spot_volume_ret_corr_30m BTC_spot_quote_volume_per_trade_z_30m BTC_spot_taker_quote_volume_per_trade_z_30m BTC_spot_buy_ratio_mean_30m BTC_spot_buy_ratio_z_30m BTC_spot_ret_std_60m BTC_spot_volume_z_60m BTC_spot_quote_volume_z_60m BTC_spot_count_z_60m BTC_spot_range_mean_60m BTC_spot_close_vs_sma_60m BTC_spot_close_vs_kama_60m BTC_spot_close_vs_kama_z_60m BTC_spot_kama_velocity_60m BTC_spot_rolling_high_dist_60m BTC_spot_rolling_low_dist_60m BTC_spot_realized_vol_60m BTC_spot_upside_realized_vol_60m BTC_spot_downside_realized_vol_60m BTC_spot_realized_vol_balance_60m BTC_spot_ret_vol_scaled_60m BTC_spot_volume_ret_corr_60m BTC_spot_quote_volume_per_trade_z_60m BTC_spot_taker_quote_volume_per_trade_z_60m BTC_spot_buy_ratio_mean_60m BTC_spot_buy_ratio_z_60m BTC_spot_ret_std_120m BTC_spot_volume_z_120m BTC_spot_quote_volume_z_120m BTC_spot_count_z_120m BTC_spot_range_mean_120m BTC_spot_close_vs_sma_120m BTC_spot_close_vs_kama_120m BTC_spot_close_vs_kama_z_120m BTC_spot_kama_velocity_120m BTC_spot_rolling_high_dist_120m BTC_spot_rolling_low_dist_120m BTC_spot_realized_vol_120m BTC_spot_upside_realized_vol_120m BTC_spot_downside_realized_vol_120m BTC_spot_realized_vol_balance_120m BTC_spot_ret_vol_scaled_120m BTC_spot_volume_ret_corr_120m BTC_spot_quote_volume_per_trade_z_120m BTC_spot_taker_quote_volume_per_trade_z_120m BTC_spot_ret_velocity_2m BTC_spot_volume_velocity_2m BTC_spot_quote_volume_velocity_2m BTC_spot_ret_velocity_3m BTC_spot_volume_velocity_3m BTC_spot_quote_volume_velocity_3m BTC_spot_ret_velocity_5m BTC_spot_volume_velocity_5m BTC_spot_quote_volume_velocity_5m BTC_spot_ret_velocity_10m BTC_spot_volume_velocity_10m BTC_spot_quote_volume_velocity_10m BTC_spot_ret_velocity_15m BTC_spot_volume_velocity_15m BTC_spot_quote_volume_velocity_15m BTC_spot_ret_velocity_30m BTC_spot_volume_velocity_30m BTC_spot_quote_volume_velocity_30m BTC_spot_ret_velocity_60m BTC_spot_volume_velocity_60m BTC_spot_quote_volume_velocity_60m BTC_spot_ret_accel_2_10m BTC_spot_volume_accel_2_10m BTC_spot_ret_accel_5_15m BTC_spot_volume_accel_5_15m BTC_spot_ret_accel_10_30m BTC_spot_volume_accel_10_30m BTC_spot_ret_accel_15_60m BTC_spot_volume_accel_15_60m BTC_spot_kama_accel_5_10m BTC_spot_kama_accel_10_30m BTC_spot_kama_accel_30_60m BTC_spot_kama_accel_60_120m BTC_spot_realized_vol_ratio_5_30m BTC_spot_quote_volume_mean_ratio_5_30m BTC_spot_buy_ratio_mean_diff_5_30m BTC_spot_realized_vol_ratio_10_60m BTC_spot_quote_volume_mean_ratio_10_60m BTC_spot_buy_ratio_mean_diff_10_60m BTC_spot_realized_vol_ratio_30_120m BTC_spot_quote_volume_mean_ratio_30_120m BTC_spot_buy_ratio_mean_diff_30_120m BTC_spot_buy_pressure_x_ret_5m BTC_spot_buy_pressure_x_quote_volume_z_5m BTC_spot_buy_pressure_x_ret_30m BTC_spot_buy_pressure_x_quote_volume_z_30m BTC_spot_buy_pressure_x_ret_60m BTC_spot_buy_pressure_x_quote_volume_z_60m BTC_futures_basis BTC_futures_spot_volume_ratio BTC_futures_spot_buy_ratio_diff BTC_basis_change_1m BTC_futures_spot_ret_spread_1m BTC_basis_change_5m BTC_futures_spot_ret_spread_5m BTC_basis_change_15m BTC_futures_spot_ret_spread_15m BTC_basis_change_60m BTC_futures_spot_ret_spread_60m BTC_basis_z_5m BTC_futures_spot_volume_ratio_z_5m BTC_futures_spot_quote_volume_ratio_z_5m BTC_futures_spot_count_ratio_z_5m BTC_basis_z_15m BTC_futures_spot_volume_ratio_z_15m BTC_futures_spot_quote_volume_ratio_z_15m BTC_futures_spot_count_ratio_z_15m BTC_basis_z_30m BTC_futures_spot_volume_ratio_z_30m BTC_futures_spot_quote_volume_ratio_z_30m BTC_futures_spot_count_ratio_z_30m BTC_basis_z_60m BTC_futures_spot_volume_ratio_z_60m BTC_futures_spot_quote_volume_ratio_z_60m BTC_futures_spot_count_ratio_z_60m BTC_basis_accel_1_5m BTC_basis_accel_5_15m BTC_basis_accel_15_60m BTC_basis_vol_scaled_5m BTC_futures_spot_realized_vol_ratio_5m BTC_basis_x_ret_spread_5m BTC_buy_diff_x_ret_spread_5m BTC_basis_vol_scaled_15m BTC_futures_spot_realized_vol_ratio_15m BTC_basis_x_ret_spread_15m BTC_buy_diff_x_ret_spread_15m BTC_basis_vol_scaled_60m BTC_futures_spot_realized_vol_ratio_60m BTC_basis_x_ret_spread_60m BTC_buy_diff_x_ret_spread_60m sin_hour cos_hour sin_dayofweek cos_dayofweek session_asia session_europe session_us session_asia_europe_overlap session_europe_us_overlap
feature_infos=[-0.033815503120422363:0.022992566227912903] [7.9872201297348511e-08:0.034792758524417877] [0:0.033250149339437485] [0:0.011957907117903233] [0:0.018914543092250824] [0:1] [-0.069468781352043152:0.029261501505970955] [-0.082408405840396881:0.036032553762197495] [-0.09067709743976593:0.048931006342172623] [-0.095501415431499481:0.062175236642360687] [-0.094087317585945129:0.056498140096664429] [-0.091375216841697693:0.068486854434013367] [-0.096309758722782135:0.074636563658714294] [-0.11317683756351471:0.087582550942897797] [-0.11725582182407379:0.10138313472270966] [0.0027877814136445522:0.99582391977310181] [0.0027883052825927734:0.99582469463348389] [-0.0006764479330740869:0.00055171427084133029] [-0.011934725567698479:0.017722355201840401] [-0.011447999626398087:0.016463307663798332] [-0.002642748411744833:0.012492573820054531] [0:1] [0:1] [0:1] [0:1] [0:1] [0:1] [0:1] [3.6567517014418627e-08:0.019187748432159424] [-1.7883790731430054:1.7888447046279907] [-1.7884083986282349:1.7888447046279907] [-1.7882835865020752:1.7888408899307251] [8.1747558056122216e-08:0.021776488050818443] [-0.054282397031784058:0.024869173765182495] [-0.0331406369805336:0.016325326636433601] [-1.7888543605804443:1.788853645324707] [-0.011619736440479755:0.0097744222730398178] [-0.087584666907787323:0] [0:0.051230840384960175] [8.1745440638769651e-08:0.051459960639476776] [0:0.036469493061304092] [0:0.051459960639476776] [-1:1] [-2.2248635292053223:2.2280235290527344] [-0.99985051155090332:0.99985420703887939] [-1.7879692316055298:1.7887340784072876] [-1.7871670722961426:1.7888312339782715] [0.040961034595966339:0.92873960733413696] [4.9158828119288955e-08:0.013960751704871655] [-2.7130887508392334:2.8459765911102295] [-2.712742805480957:2.8459765911102295] [-2.6901595592498779:2.8459241390228271] [8.4901209618237772e-08:0.028086233884096146] [-0.071560919284820557:0.0367877297103405] [-0.03373631089925766:0.02666497603058815] [-2.8460476398468018:2.8452715873718262] [-0.0060179857537150383:0.0052166134119033813] [-0.091082923114299774:0] [0:0.06428961455821991] [1.4998742869920534e-07:0.051539149135351181] [0:0.03683183342218399] [0:0.051538825035095215] [-1:1] [-2.8532984256744385:2.9525213241577148] [-0.99101835489273071:0.9816555380821228] [-2.620593786239624:2.8447556495666504] [-2.5165185928344727:2.8453984260559082] [1.0155748668694287e-06:0.012214272283017635] [-3.1932899951934814:5.2862906455993652] [-3.1968529224395752:5.2862038612365723] [-2.9605541229248047:5.291837215423584] [5.2056964250368765e-07:0.021582076326012611] [-0.084047660231590271:0.053119838237762451] [-0.046170145273208618:0.035709645599126816] [-5.1074662208557129:5.0432376861572266] [-0.0022729011252522469:0.0017579309642314911] [-0.091251149773597717:0] [0:0.086363233625888824] [5.5475074987043627e-06:0.066046096384525299] [1.4990573049544764e-07:0.051109783351421356] [1.2021587281196844e-07:0.058262746781110764] [-0.999225914478302:0.99983894824981689] [-3.7375926971435547:3.507194995880127] [-0.85380363464355469:0.87670242786407471] [-3.5841763019561768:5.2612862586975098] [-3.1975247859954834:5.278174877166748] [0.099549196660518646:0.82920628786087036] [-3.7199404239654541:4.2375478744506836] [1.5586332665407099e-05:0.0088699888437986374] [-2.6755650043487549:7.5943436622619629] [-2.676260232925415:7.594141960144043] [-3.3104205131530762:7.6056690216064453] [4.0370568967773579e-06:0.014673667028546333] [-0.086818397045135498:0.062321893870830536] [-0.060614727437496185:0.051195334643125534] [-7.3258185386657715:6.1470851898193359] [-0.0013095258036628366:0.0011716892477124929] [-0.092637538909912109:0] [0:0.11459039151668549] [0.00012301835522521287:0.068162225186824799] [2.2894082007951511e-07:0.053005624562501907] [1.2709862176052411e-06:0.058982368558645248] [-0.99896365404129028:0.99351805448532104] [-3.6978802680969238:3.8180932998657227] [-0.75613492727279663:0.79133927822113037] [-4.1431565284729004:7.5033888816833496] [-3.3112139701843262:7.5476861000061035] [0.13765160739421844:0.79560405015945435] [-4.4885754585266113:4.5972790718078613] [1.8316273781238124e-05:0.0069199660792946815] [-2.4188807010650635:10.727057456970215] [-2.4148194789886475:10.725970268249512] [-2.8554182052612305:10.736239433288574] [5.8381465350976214e-06:0.0094536794349551201] [-0.091447137296199799:0.069220900535583496] [-0.064173683524131775:0.05558544397354126] [-8.1165046691894531:8.8982467651367188] [-0.00085251766722649336:0.00067439040867611766] [-0.11315643787384033:0] [0:0.1147058829665184] [0.00019986597180832177:0.075595937669277191] [0.00013985155965201557:0.057320758700370789] [0.00014278637536335737:0.060809627175331116] [-0.80138349533081055:0.78400701284408569] [-3.8748643398284912:3.8007616996765137] [-0.59193915128707886:0.62513291835784912] [-4.5367579460144043:10.20899772644043] [-3.4187524318695068:10.573946952819824] [-0.034734390676021576:0.014630750752985477] [-2.3463339805603027:3.0706164836883545] [-2.3462953567504883:3.0707666873931885] [-0.027469467371702194:0.012010851874947548] [-2.1546485424041748:1.9864870309829712] [-2.1544711589813232:1.9874503612518311] [-0.018135419115424156:0.0097862007096409798] [-1.2009681463241577:1.1846534013748169] [-1.200870156288147:1.1845837831497192] [-0.0095501411706209183:0.0062175239436328411] [-0.55233287811279297:0.599945068359375] [-0.55241626501083374:0.59974509477615356] [-0.0062724878080189228:0.0037665427662432194] [-0.40801620483398438:0.38676914572715759] [-0.40802314877510071:0.38705432415008545] [-0.0030458406545221806:0.0022828951478004456] [-0.18759520351886749:0.19456830620765686] [-0.18763788044452667:0.19494827091693878] [-0.0016051626298576593:0.0012439426500350237] [-0.092839509248733521:0.096772193908691406] [-0.092829763889312744:0.09752732515335083] [-0.0031480309553444386:0.001412802841514349] [-0.27479380369186401:0.34447750449180603] [-0.0011862932005897164:0.00076098140561953187] [-0.093206949532032013:0.1220320388674736] [-0.00032521504908800125:0.00029720907332375646] [-0.026503529399633408:0.02518031932413578] [-0.00010371833195677027:8.0988211266230792e-05] [-0.0083975046873092651:0.0076190726831555367] [-0.0011203500907868147:0.00091156183043494821] [-0.00022231416369322687:0.00020747279631905258] [-4.6290304453577846e-05:7.1308299084194005e-05] [-1.7243202819372527e-05:1.8453747543389909e-05] [-0.99995529651641846:-9.2357940957299434e-06] [-0.96651679277420044:4.5457634925842285] [-0.50917345285415649:0.49908584356307983] [-0.99988049268722534:-0.0047944998368620872] [-0.91605716943740845:4.5141983032226562] [-0.43740132451057434:0.47394946217536926] [-0.98499655723571777:-0.002099866745993495] [-0.84993702173233032:2.6387135982513428] [-0.30560204386711121:0.27395203709602356] [-0.0020908771548420191:0.04313119500875473] [-3.1642463207244873:3.174260139465332] [-0.0039935898967087269:0.016211662441492081] [-16.408613204956055:13.173359870910645] [-0.0047950590960681438:0.012945976108312607] [-20.5164794921875:20.947275161743164] [-0.015241775661706924:0.0069251637905836105] [0.073204688727855682:257.69570922851562] [-0.90968555212020874:0.9172932505607605] [-0.0048581096343696117:0.0068244305439293385] [-0.0048385788686573505:0.0069541814737021923] [-0.014779825694859028:0.012857949361205101] [-0.014897068962454796:0.012917623855173588] [-0.014773809351027012:0.015088655985891819] [-0.014891049824655056:0.015205994248390198] [-0.014739873819053173:0.014977539889514446] [-0.014857097528874874:0.015094853937625885] [-1.7888543605804443:1.7888543605804443] [-1.7878448963165283:1.7888543605804443] [-1.7878303527832031:1.7888543605804443] [-1.7880738973617554:1.7888543605804443] [-3.608004093170166:3.6027793884277344] [-3.0278909206390381:3.6147844791412354] [-3.0279719829559326:3.6147844791412354] [-3.1665167808532715:3.6147844791412354] [-5.2686448097229004:5.2625250816345215] [-2.7619524002075195:5.2946515083312988] [-2.7618143558502197:5.2946515083312988] [-3.6187562942504883:5.2946515083312988] [-7.5341229438781738:7.5000238418579102] [-2.7937276363372803:7.6168670654296875] [-2.7942018508911133:7.6168670654296875] [-3.5331432819366455:7.6168670654296875] [-0.0013061444042250514:0.0024450989440083504] [-0.0001971044548554346:0.00024897375260479748] [-1.6427913578809239e-05:2.2195248675416224e-05] [-6591.14794921875:3954.010498046875] [-1:1930.4915771484375] [-2.1138561351108365e-05:0.00022705778246745467] [-0.0012682875385507941:0.00057922292035073042] [-2661.496826171875:23.359376907348633] [-0.91128283739089966:1340.378662109375] [-1.1719364920281805e-05:0.00022696604719385505] [-0.0013694955268874764:0.0016864646458998322] [-3.4293866157531738:1.1128551959991455] [-0.63087153434753418:1.8203266859054565] [-4.9384984777134378e-06:0.00022644855198450387] [-0.0014597467379644513:0.00075840170029550791] [-1:1] [-1:1] [-0.97492790222167969:0.97492790222167969] [-0.90096884965896606:1] [0:1] [0:1] [0:1] [0:1] [0:1]
tree_sizes=2804 2841 2858 2863 2857 2827 2854 2839 2853 2858 2852 2860 2859 2847 2854 2860 2859 2853 2840 2855 2859 2836 2863 2858 2846 2840 2855 2851 2833 2847 2841 2848 2859 2858 2842 2853 2844 2846 2854 2850 2860 2859 2873 2842 2846 2857 2851 2862 2864 2845 2833 2867 2874 2833 2837 2854 2857 2858 2861 2869 2844 2850 2855 2856 2850 2848 2838 2843 2848 2857 2853 2870 2867 2847 2847 2862 2862 2852 2832 2853 2841 2847 2843 2865 2844 2849 2842 2849 2836 2853 2839 2858 2852 2851 2858 2852 2850 2858 2851 2855 2848 2844 2843 2875 2884 2864 2830 2829 2861 2861 2855 2848 2851 2846 2854 2854 2863 2851 2838 2873 2851 2834 2862 2839 2842 2862 2843 2842 2852 2850 2848 2846 2880 2856 2855 2830 2865 2837 2827 2844 2850 2866 2841 2863 2863 2843 2842 2854 2864 2859 2848 2851 2845 2861 2831 2838 2833 2830 2842 2862 2855 2863 2839 2840 2843 2848 2867 2860 2852 2850 2852 2843 2851 2836 2846 2836 2857 2833 2870 2851 2870 2834 2854 2832 2850 2839 2850 2842 2849 2860 2849 2847 2849 2846 2857 2855 2840 2854 2868 2855 2856 2820 2828 2848 2853 2856 2829 2863 2844 2881 2851 2856 2837 2867 2830 2841 2847 2835 2805 2863 2849 2817 2835 2850 2839 2848 2828 2875 2852 2826 2851 2850 2852 2829 2834 2822 2842 2864 2830 2852 2863 2847 2860 2830 2835 2851 2847 2828 2850 2856 2856 2849 2853 2838 2827 2838 2838 2845 2824 2865 2850 2825 2837 2857 2831 2845 2853 2826 2829 2841 2835 2843 2834 2841 2853 2821 2855 2857 2867 2828 2838 2837 2837 2820 2840 2853 2840 2832 2831 2858 2831 2840 2816 2830 2848 2847 2856 2853 2832 2846 2848 2845 2840 2831 2838 2842 2831 2860 2852 2851 2855 2853 2820 2860 2832 2844 2805 2821 2865 2831 2833 2852 2838 2837

Tree=0
num_leaves=24
num_cat=0
split_feature=73 25 25 117 104 62 195 70 44 47 168 44 115 104 81 62 105 9 175 195 95 9 80
split_gain=313.507 87.7726 56.512 53.1248 50.676 37.5169 35.6536 35.2934 32.4616 31.0494 29.6009 28.7243 26.2445 25.6154 25.1981 24.0581 25.8564 23.7313 32.5954 30.2159 25.0582 23.4851 23.0363
threshold=-0.00025504732911940659 0.85864531993865978 0.27325280010700231 -6.2514362753063313e-07 -0.044963840395212167 -0.31004106998443598 -1.8034028410911558 -1.143525958061218 0.41260960698127752 0.57226118445396434 0.18495775014162066 -0.36962307989597315 0.0035516123753041033 0.07577091827988626 0.079951968044042601 -0.16339272260665891 4.2082200050354013 -0.00063777680043131102 0.46650059521198278 0.3314503431320191 0.10313653945922853 -0.00086191206355579187 0.004704119637608529
decision_type=2 2 2 2 2 2 2 2 2 2 2 2 2 2 2 2 2 2 2 2 2 2 2
left_child=2 3 4 12 5 11 -3 -5 9 14 -7 -1 21 -10 -8 -9 22 18 -4 -20 -19 -2 -17
right_child=1 6 17 7 -6 10 8 15 13 -11 -12 -13 -14 -15 -16 16 -18 20 19 -21 -22 -23 -24
leaf_value=0.010359635075927838 0.0075609956628595789 -0.0046554860683305794 0.0063774604522492187 0.0046592537124556617 0.0049188077534747356 0.0051626850263130067 0.0073960394397688829 0.003881476888223003 0.0017732093930126155 0.00039439287579502453 0.0084489746915527575 0.0066286941155792121 -0.00073791369220239543 -0.001642736700578283 0.0027132287048561412 0.00111575630694179 0.010530685113594507 0.0023544881984777638 -9.6340504654557606e-05 0.0069507119299779584 0.005767136836066989 0.0041433273312707396 0.0073005562216256689
leaf_weight=927.42927552759647 350.20630317926407 174.48960519209504 1394.7328919060528 895.67462515458465 2110.5809299498796 1337.8376317247748 234.81906110420823 797.63323955610394 641.27830759435892 767.12695715203881 676.51371502876282 560.02891416847706 160.05152424424887 859.57366571947932 832.0212086699903 3388.6221794709563 42.882860448211432 1215.5951295867562 277.53598292917013 146.11329659819603 488.05195681378245 4154.8509985618293 95.102709773927927
leaf_count=3638 1499 648 6007 3043 8339 5307 888 3201 2340 2496 2531 2071 744 3448 3329 14406 109 5104 1076 618 2060 16824 532
internal_value=0.00386632 0.00261913 0.00569464 0.00323788 0.00649171 0.00743511 0.000881695 0.0023514 0.00119136 0.00234473 0.00628029 0.00897747 0.00423068 -0.000202257 0.00376275 0.0018728 0.0014195 0.00442139 0.0054357 0.00234634 0.00333648 0.00441515 0.00129216
internal_weight=22528.8 13394.3 9134.42 9885.02 5612.39 3501.81 3509.31 5219.92 3334.82 1833.97 2014.35 1487.46 4665.11 1500.85 1066.84 4324.24 3526.61 3522.03 1818.38 423.649 1703.65 4505.06 3483.72
internal_count=90258 53507 36751 40358 21886 13547 13149 21291 12501 6713 7838 5709 19067 5788 4217 18248 15047 14865 7701 1694 7164 18323 14938
is_linear=0
shrinkage=1


Tree=1
num_leaves=24
num_cat=0
split_feature=9 81 27 103 125 14 44 17 23 16 31 164 19 155 205 47 26 73 0 177 217 82 31
split_gain=306.355 144.581 90.1426 74.4291 49.2105 31.1047 25.6959 27.5404 25.0282 28.6611 24.1053 31.3391 25.5862 23.8846 23.3954 23.0987 23.0795 25.7738 22.9152 22.5337 21.3235 21.1647 21.7097
threshold=-0.00029501561948563898 0.090346578508615508 0.40231689810752874 0.6806677281856538 -0.16281080245971677 -0.0040188555140048257 -0.029634979553520676 -2.5355020625283938e-05 0.29724887013435369 0.70189592242240917 -1.0080120563507078 -0.53374010324478138 6.6046424763044356e-05 9.9345310644594078e-08 -4.6377563123201064e-08 0.53405049443244945 0.28190453350543981 0.00025562595692463225 -0.00052213741582818318 14.736282348632814 1.7266012946492996e-05 -1.3840188980102537 -1.3019566535949705
decision_type=2 2 2 2 2 2 2 2 2 2 2 2 2 2 2 2 2 2 2 2 2 2 2
left_child=2 4 6 5 19 20 7 -1 9 14 -7 12 -12 -10 -4 -5 17 18 -6 -2 -3 -8 -23
right_child=1 3 8 15 16 10 21 -9 13 -11 11 -13 -14 -15 -16 -17 -18 -19 -20 -21 -22 22 -24
leaf_value=0.0013503335846594456 0.0012969074791547796 0.0022078033297112418 -0.00087692462817849919 -0.002996955835779175 0.0071605827262687912 0.00065238543831038268 0.0048696526272798968 0.0044119437696582874 -0.002073332262919554 0.0046407937932533023 -0.002627249670006878 -0.0057162978129109325 0.0014810615799811693 0.0013511829770670068 0.0015981338928040671 -0.0053427964279617679 -0.00099946556544301549 -0.0048970993843845435 0.00087698506442744064 0.0056207191107989192 -0.0043815635351743994 0.0059853764070524271 0.00032194008861844185
leaf_weight=617.10425316914916 1195.1354426518083 520.79025892168283 956.19202657788992 1335.2596871629357 95.97539896145463 443.76481033861637 268.49873518198729 2348.1417440697551 934.10102674737573 339.69783665984869 1152.2709827944636 418.231595531106 310.62928545102477 510.47838127613068 1784.1246969364583 1519.9838776774704 5035.2144748866558 108.5019042417407 1161.6036169528961 230.92818801105022 87.278634432703257 116.10264616459608 1054.6151736937463
leaf_count=2368 5173 2090 4092 5832 343 1676 976 9570 3865 1068 4668 1684 1346 2134 7087 5464 20273 386 4476 724 349 421 4298
internal_value=-4.62787e-05 -0.00125486 0.0017961 -0.00278784 -0.000119537 -0.0013495 0.00309848 0.0037802 0.000525039 0.00117633 -0.00202261 -0.00265375 -0.00175155 -0.000862408 0.000734461 -0.00425733 -0.000599213 0.00087327 0.00139926 0.00202485 0.00121687 0.00168064 0.00092084
internal_weight=22544.6 13615.6 8929.06 5788.21 7827.36 2932.97 4404.46 2965.25 4524.59 3080.01 2324.9 1881.13 1462.9 1444.58 2740.32 2855.24 6401.3 1366.08 1257.58 1426.06 608.069 1439.22 1170.72
internal_count=90363 54484 35879 23109 31375 11813 17633 11938 18246 12247 9374 7698 6014 5999 11179 11296 25478 5205 4819 5897 2439 5695 4719
is_linear=0
shrinkage=0.0128054


Tree=2
num_leaves=24
num_cat=0
split_feature=63 102 11 81 76 75 162 181 123 178 21 220 125 159 182 23 151 44 125 219 44 194 155
split_gain=308.838 149.866 60.5183 55.8743 38.3948 37.2302 35.3637 45.6365 32.1264 36.4097 28.09 27.9965 28.7571 27.2399 26.1443 25.5865 32.4704 24.6475 23.8114 23.4938 22.641 22.3743 22.2014
threshold=-0.27009180188179011 0.028012068010866645 -0.00058985472423955787 0.086117196828126921 -0.00092331078485585738 2.4812945412122648e-05 -0.24053053557872769 7.4431391112739234e-05 -0.066463541239500032 -0.20375861227512357 0.95626232028007518 -0.60785761475563038 0.016213970258831981 1.4297769439508559e-06 -5.2670635341200971e-05 0.73471480607986461 -1.4198621101968454e-05 -0.35470308363437647 -0.1844854727387428 1.0000000180025095e-35 0.47939090430736547 2.0432491302490239 1.1845364156215511e-07
decision_type=2 2 2 2 2 2 2 2 2 2 2 2 2 2 2 2 2 2 2 2 2 2 2
left_child=2 6 11 13 -5 10 8 -8 9 19 -6 -1 17 18 -4 -7 -17 -13 -3 -2 -9 -10 -16
right_child=1 3 14 4 5 15 7 20 21 -11 -12 12 -14 -15 22 16 -18 -19 -20 -21 -22 -23 -24
leaf_value=0.0042867560481451234 -0.0071768565113268902 0.0038968197909126047 -0.0013601671844925517 -0.0017661219093705743 -0.0038877909209721561 -0.0021873788660108019 -0.0014731278305841963 0.003790789012793084 0.00039600010914292726 0.003408488888695839 0.00031769677469488183 0.0041265406818534961 0.00067587193596097158 0.0031218361895179502 0.00056497895430143838 -0.00046888615760396271 -0.0070903308115673105 0.0016244236440381154 -0.0017839236564389613 0.0017799519470363175 -0.0016876077417839613 -0.0048749755510915605 0.0032923447464205309
leaf_weight=1369.7582966014743 87.13477274030447 121.32321652024984 866.84761190414429 1486.1831468045712 851.65857147425413 303.12302966415882 2866.9993839934468 455.4243210926652 1930.7697530649602 1159.2691075652838 371.95675611123443 1378.2822738662362 1405.3263956233859 231.0216155461967 2208.1460411511362 136.91690529882908 1156.0540292561054 1239.9588298052549 1981.2701337374747 91.69983621686697 163.3644597530365 133.61209485679865 622.49493864923716
leaf_count=5480 270 506 3811 6698 3488 1080 11805 2130 7323 4512 1342 5374 5688 895 8674 456 4253 4725 7967 297 878 353 2527
internal_value=1.63025e-05 -0.00121008 0.00184069 -0.00258167 -0.0034455 -0.00432305 0.000113461 -0.000792137 0.00104091 0.00257995 -0.00261571 0.00270487 0.00215881 -0.000981366 0.000577016 -0.00561215 -0.00639644 0.00295024 -0.00144245 -0.00270594 0.00234134 3.71404e-05 0.00117244
internal_weight=22618.6 13527.8 9090.81 6639.51 4305.89 2819.71 6888.27 3485.79 3402.49 1338.1 1223.62 5393.33 4023.57 2333.61 3697.49 1596.09 1292.97 2618.24 2102.59 178.835 618.789 2064.38 2830.64
internal_count=90532 54253 36279 26685 17317 10619 27568 14813 12755 5079 4830 21267 15787 9368 15012 5789 4709 10099 8473 567 3008 7676 11201
is_linear=0
shrinkage=0.0128054


Tree=3
num_leaves=24
num_cat=0
split_feature=63 81 81 125 14 97 20 173 118 166 27 112 196 185 81 220 84 177 81 213 218 198 178
split_gain=300.039 115.885 69.2768 58.5293 43.334 40.3628 31.0166 28.8617 30.0954 34.4825 28.5075 29.7676 27.3022 26.4295 27.9196 24.8483 25.5961 24.6499 28.0625 22.5611 32.1255 22.4918 22.1353
threshold=-0.29348362982273096 0.12446122244000436 -0.10401278734207152 -0.13921678066253659 0.0025415195850655441 -0.0020777492318302389 -1.9340892265518048e-07 0.30808857083320623 -0.0072876508347690097 0.067643977701663985 0.17112416774034503 0.2965321689844132 1.5144858956336977 3.1748608307680122e-05 -0.2528125643730163 -0.87837970256805409 -0.78861787915229786 14.736282348632814 -0.11520918086171149 4.7135583827184755e-06 -0.37940952181816096 -0.79140776395797718 0.23781146854162219
decision_type=2 2 2 2 2 2 2 2 2 2 2 2 2 2 2 2 2 2 2 2 2 2 2
left_child=2 3 6 17 12 -6 13 8 -4 -10 -5 19 -3 14 -1 -7 -17 18 -2 20 -12 -13 -16
right_child=1 4 7 10 5 15 -8 -9 9 -11 11 21 -14 -15 22 16 -18 -19 -20 -21 -22 -23 -24
leaf_value=0.0027785135240347781 0.0031820281375708162 -0.001212556062969555 0.0039951095553788785 0.0020199931133409285 -0.00051875152157733961 -0.009419716834389193 0.0036281381928317024 -0.00069544021602928709 0.0011967815840620256 -0.0051187888708391248 0.0012341136024055337 -0.00060523911393164443 -0.0054599233134162003 0.0034405309386755694 -0.0017069150104925554 0.00016352152281685323 -0.0050122443389575321 0.0046671093907469877 -0.00024163580238851208 -0.0019894074775825762 -0.0011918838755344892 -0.0048386060159001333 -0.010562787733396584
leaf_weight=190.80942671746016 578.68392923101783 2228.3640700653195 606.38557445630431 490.04529178142548 406.48568744212389 185.34713399037719 3168.6511882320046 1513.0625269860029 2585.3466586694121 142.02925610169768 1463.3421050049365 323.91041361168027 272.66824636980891 374.37350881099701 264.10844980180264 175.59985322877765 1408.4104702882469 331.53963558375835 1183.1306621395051 1786.6348286159337 2277.4813628681004 568.85337088257074 49.297701939940453
leaf_count=710 2421 9097 2743 1680 2037 766 12333 6031 10453 382 5860 1192 1050 1555 1061 746 5285 1004 4956 7335 9086 2375 151
internal_value=-2.64221e-05 -0.00121652 0.00180358 -0.000366255 -0.00284993 -0.00417002 0.00303881 0.000768782 0.00143341 0.000853721 -0.000934469 -0.00116224 -0.00169173 0.000899643 -0.00101149 -0.00500267 -0.00444056 0.00150583 0.000892308 -0.000809074 -0.000242262 -0.00332191 -0.00333079
internal_weight=22574.6 13680.5 8894.06 9003.62 4676.88 2175.84 4047.24 4846.82 3333.76 2727.38 6910.27 6420.22 2501.03 878.589 504.216 1769.36 1584.01 2093.35 1761.81 5527.46 3740.82 892.764 313.406
internal_count=90309 54890 35419 35909 18981 8834 15810 19609 13578 10835 27528 25848 10147 3477 1922 6797 6031 8381 7377 22281 14946 3567 1212
is_linear=0
shrinkage=0.0128054


Tree=4
num_leaves=24
num_cat=0
split_feature=9 26 27 125 104 27 216 83 91 187 75 215 102 107 25 31 79 6 126 152 142 81 44
split_gain=320.129 160.086 56.2556 53.6196 37.6904 34.8939 31.2262 30.2006 28.8774 27.0004 25.6471 26.8949 24.9723 25.9626 24.4504 24.1444 26.3255 25.8486 23.2905 23.0292 21.9607 22.729 21.9234
threshold=-0.00054434390040114511 0.74349305033683788 0.37682156264781957 -0.12224688008427619 -0.051507756114006036 0.1622804328799248 2.4540128817918121e-09 0.081769250333309187 -0.64408826828002919 0.34198220074176794 -2.1388350432971489e-05 0.0030366994906216864 0.022555124945938591 0.50747504830360424 0.87001928687095653 -0.72016736865043629 0.0016237478121183815 0.00041571618930902337 3.2176002264022832 0.0056617609225213536 -0.0054600920993834725 -0.06917249038815497 0.68804940581321727
decision_type=2 2 2 2 2 2 2 2 2 2 2 2 2 2 2 2 2 2 2 2 2 2 2
left_child=2 3 7 10 -3 -5 -4 -1 14 12 11 19 13 -7 -6 -16 -17 -18 -11 -2 21 -14 -10
right_child=1 4 6 5 8 9 -8 -9 22 18 -12 -13 20 -15 15 16 17 -19 -20 -21 -22 -23 -24
leaf_value=0.0038917857327012205 0.0017818064911752135 -0.00057967671923105297 0.0022357884272449953 0.0023667647049017706 -0.00064279867784986183 -6.1623315405327103e-05 -0.00011072167490959941 0.00064720400568464434 -0.0034359147085271384 -0.00012094255745173208 0.0002425143678848028 0.0036468136954321204 -0.0056344412664043929 -0.0031886582782024251 -0.0056803859117759434 -0.005651707305031747 0.0070748960093233162 -0.0037327158376338682 0.0071541313522475005 -0.0053671538343446155 -0.0044185827796248403 -0.00021628010733578114 -0.0060912936372290874
leaf_weight=2978.6564038172364 216.68895126506686 1005.1155277267098 1950.0326616615057 560.51088907197118 956.60170613229275 1868.4867430888116 1769.681843098253 562.65181509777904 2053.778949983418 2458.0389222539961 1509.5087668262422 1047.2785932868719 152.00016552954912 559.68842776119709 414.06979969888926 88.537880945950747 85.290979720652103 52.815016824752092 66.240766808390617 102.09259819984436 758.08392885699868 616.82952595874667 704.13584963977337
leaf_count=11796 872 3550 7851 1909 3433 7921 7273 2264 8637 10189 6177 4158 622 1989 1280 273 263 165 189 388 3212 2654 3067
internal_value=1.28481e-05 -0.00103931 0.00222507 -7.49244e-05 -0.0028204 -0.00067671 0.0011216 0.00337893 -0.00333548 -0.000942617 0.00139611 0.00266191 -0.00160193 -0.000790597 -0.00195026 -0.00386996 -0.000480552 0.00296398 9.22242e-05 -0.000583926 -0.00288118 -0.00133501 -0.00412971
internal_weight=22536.8 15275.8 7261.02 9915.45 5360.35 7039.88 3719.71 3541.31 4355.23 6479.37 2875.57 1366.06 3955.09 2428.18 1597.32 640.714 226.644 138.106 2524.28 318.782 1526.91 768.83 2757.91
internal_count=90132 60948 29184 40280 20668 28685 15124 14060 17118 26776 11595 5418 16398 9910 5414 1981 701 428 10378 1260 6488 3276 11704
is_linear=0
shrinkage=0.0128054


Tree=5
num_leaves=24
num_cat=0
split_feature=63 103 82 24 125 54 199 195 173 70 157 53 75 13 104 209 219 86 175 63 208 86 162
split_gain=293.278 130.324 102.638 43.8022 35.6542 33.9845 32.6747 30.9269 28.9254 32.3454 26.8536 26.8427 27.2362 26.1364 26.1271 27.9186 25.362 33.9155 25.9553 24.6908 26.1664 24.6322 24.5949
threshold=1.0000000180025095e-35 0.69138765335083019 -0.7748100459575652 0.7181779444217683 -0.12224688008427619 4.5420541937346577e-05 0.055174184963107116 0.83823332190513622 0.31559292972087866 0.5280108153820039 -3.6525098039419383e-05 0.00038701812445651745 -4.2604304326232516e-05 -0.0021784821292385455 -0.069154128432273851 7.3174928161279251e-07 0.37940952181816107 0.51858848333358776 -0.62666612863540638 -1.1827740073204038 -3.7530218932602102e-09 0.46004921197891241 0.11866772547364236
decision_type=2 2 2 2 2 2 2 2 2 2 2 2 2 2 2 2 2 2 2 2 2 2 2
left_child=2 4 6 -3 11 22 -1 10 -4 -10 -7 12 -2 21 15 -12 17 18 -13 20 -15 -8 -5
right_child=1 3 8 5 -6 7 13 -9 9 -11 14 16 -14 19 -16 -17 -18 -19 -20 -21 -22 -23 -24
leaf_value=0.0020089903314575923 0.0056443659610856184 -0.00081213986529136105 0.0012415478909821253 0.0053555448456357692 -0.0009222516581662161 0.00033148435848136449 0.0072305074265904034 -0.001792447996866821 -2.1260530147999932e-05 -0.0054069794357141949 -0.005690919423309378 0.0058836633285573765 0.0011415652265455429 0.0081140225651852669 -0.0061597682457541847 0.0030438800863462779 0.0019692970640587154 -0.006799170307564998 -0.0017040715176710008 0.0013475764397146313 0.0005861143060304243 0.0030910737387590372 -0.0051898446378600971
leaf_weight=1772.0374366790056 300.936079736799 861.11713954806328 5105.8717667125165 97.672933883965015 5619.1622616276145 132.8347237855196 688.4367450363934 565.58879550173879 2034.9738682843745 192.82291258499026 114.43461649119854 84.153820272535086 787.74138105288148 221.71996267512441 1656.9158381074667 110.31754260510206 416.0820574387908 170.82147641852498 364.2053302153945 644.21060676500201 114.90912533178926 385.26318370178342 47.621108192950487
leaf_count=6922 1181 3756 20781 340 22561 597 2220 2184 8151 791 391 331 3077 825 6495 363 1672 669 1631 2606 454 1943 179
internal_value=0.000126713 -0.00132416 0.0015995 -0.00333922 -0.000388299 -0.00413292 0.00329736 -0.00447206 0.000710924 -0.0005053 -0.0052142 0.00102248 0.00241872 0.00439633 -0.00560544 -0.00144675 -0.00045317 -0.00208545 -0.000200822 0.00284736 0.00561846 0.00577945 0.00180774
internal_weight=22489.9 11329.6 11160.2 3586.5 7743.1 2725.39 3826.58 2580.09 7333.67 2227.8 2014.5 2123.94 1088.68 2054.54 1881.67 224.752 1035.26 619.181 448.359 980.84 336.629 1073.7 145.294
internal_count=90120 45427 44693 14305 31122 10549 14970 10030 29723 8942 7846 8561 4258 8048 7249 754 4303 2631 1962 3885 1279 4163 519
is_linear=0
shrinkage=0.0128054


Tree=6
num_leaves=24
num_cat=0
split_feature=63 102 81 24 104 157 104 209 12 64 172 136 45 64 43 147 196 27 41 40 176 141 218
split_gain=308.197 123.982 56.6321 48.5907 40.4571 35.6464 32.5149 32.1513 31.2651 26.4489 26.5968 26.4361 25.9839 24.9942 24.0073 23.5545 22.7792 22.5586 25.2563 23.4336 22.5211 22.3106 22.0681
threshold=-0.37656250596046442 0.019794988445937637 -0.17749035358428952 0.80450674891471874 -0.034043950960040086 -2.2861860088596583e-05 -0.023149132728576657 1.0890983048739146e-05 0.0045682613272219905 0.33401812613010412 9.5109116955427466e-05 -0.21931320428848264 -0.35900147259235377 -0.0093125319108366949 -1.275895833969116 -0.0080835241824388487 -0.83626499772071827 0.1581177040934563 0.00012702713866019624 2.400555558779161e-07 -0.00041804606735240663 -0.044359231367707246 1.0000000180025095e-35
decision_type=2 2 2 2 2 2 2 2 2 2 2 2 2 2 2 2 2 2 2 2 2 2 2
left_child=2 17 6 5 12 8 -1 14 13 10 -4 -11 -5 -3 -7 -10 -8 -2 19 -19 -9 -14 -13
right_child=1 3 9 4 -6 7 16 20 15 11 -12 22 21 -15 -16 -17 -18 18 -20 -21 -22 -23 -24
leaf_value=0.0045743838867148539 0.0021687935890787251 0.010679464212566089 0.00092652090317453561 -0.0038414886082348684 -0.0041424776986243184 -0.006403632417378729 0.0063462975372471538 -0.0066303505970154624 -0.0085329323649083015 0.0056469945341354397 0.0028395695071567681 -0.0052427528915029728 0.0072894924905349155 0.0022069862760071279 -0.00088679145976639407 0.0007844231033296541 0.00037372749973506379 -0.0065490899819639218 -0.0005206716133467871 0.0019157311894701917 -0.0016339332223566933 -0.00013601529460195708 0.00032920610221103089
leaf_weight=1777.2812007814646 790.15101046487689 73.133152261376381 3367.6207388117909 265.09747071564198 2577.1954363323748 128.23843965679407 117.80724827572703 329.18926289305091 53.349943172186613 67.80186352878809 1847.5103462785482 229.89987291395664 71.884552225470543 213.26533767208457 2657.9136370159686 157.07821739837527 629.36459033563733 48.401383824646473 4992.841436330229 1161.3356130048633 275.77169972658157 387.72942200675607 226.66324372217059
leaf_count=6909 2828 289 14508 980 9965 517 463 1333 252 208 6538 948 213 865 11166 731 2422 120 20322 4699 1403 1400 904
internal_value=7.35251e-05 -0.0010717 0.00203809 -0.00225146 -0.00339269 -0.00127722 0.00363438 -0.00174669 0.0019038 0.00133185 0.00160759 -0.0013933 -0.000710002 0.00460455 -0.00115853 -0.00180639 0.00137335 0.000142512 -0.000118108 0.00153577 -0.00440438 0.00113141 -0.00251898
internal_weight=22446.5 14182.6 8263.95 7189.85 3301.91 3887.94 2524.45 3391.11 496.827 5739.5 5215.13 524.365 724.711 286.398 2786.15 210.428 747.172 6992.73 6202.58 1209.74 604.961 459.614 456.563
internal_count=89983 57083 32900 29114 12558 16556 9794 14419 2137 23106 21046 2060 2593 1154 11683 983 2885 27969 25141 4819 2736 1613 1852
is_linear=0
shrinkage=0.0128054


Tree=7
num_leaves=24
num_cat=0
split_feature=63 114 25 27 195 83 83 214 80 168 176 91 32 148 162 68 128 173 20 164 70 82 49
split_gain=297.994 127.604 79.1549 44.849 36.4784 35.7191 29.7226 33.5369 27.5281 27.2312 25.3595 25.2131 23.7378 22.2329 22.3562 21.2928 21.1187 23.9259 20.5846 26.8116 20.7412 20.3583 28.8778
threshold=-0.27009180188179011 0.0013709662598557772 0.24630684405565265 0.21877290308475497 -0.96992594003677357 -0.26331827044486994 -0.064916864037513719 -0.25054720044136042 0.0018992121331393721 1.0565953254699709 -0.00040766387246549124 0.5769290328025819 0.00052005131146870564 0.028678508475422863 0.24616949260234836 -0.95115783810615528 0.00025721185375005012 -0.51954719424247731 -4.0273413105751381e-05 -0.55311977863311756 -0.82526960968971241 0.3676885217428208 0.95855125784873974
decision_type=2 2 2 2 2 2 2 2 2 2 2 2 2 2 2 2 2 2 2 2 2 2 2
left_child=2 3 5 13 16 12 -3 -8 10 -6 11 -5 -1 14 -2 -14 17 -4 19 20 -7 22 -9
right_child=1 6 4 8 9 18 7 21 -10 -11 -12 -13 15 -15 -16 -17 -18 -19 -20 -21 -22 -23 -24
leaf_value=0.0065949023881554181 0.0015628741238670966 -0.00075890688973488359 0.0026151206896476323 -0.0025680865173208947 0.00097514947111836028 0.0022687728278567697 -0.0090365039611832489 -0.0022125378174513342 0.00040631491470404749 0.0077402768381234785 -0.00019491819785784348 0.001465105987294373 -0.0054372149146147304 -0.0039797572380425479 0.0068338075758456757 0.0036734497078357081 0.0041739406592780854 -0.0033687067174621834 0.002484663878333146 0.0043482569951332779 -0.0075348675733539032 -0.0035092207417784689 0.0046928715587131742
leaf_weight=599.45630964636803 1272.5712800323963 912.96560583263636 124.8729203119874 2313.5894323699176 3850.0759966447949 47.033564202487469 155.75248485803604 613.76366048678756 2337.5164196155965 92.248314544558525 1943.2035809755325 280.15375534445047 37.25350646674633 97.749721650034189 140.63755514845252 854.81918478757143 81.821784358471632 658.61149971932173 2522.9965114481747 77.89299326390028 104.76142958924174 3255.9514563046396 110.38053750246763
leaf_count=2017 4702 3430 540 8370 15790 125 574 2625 9999 373 8786 1030 188 276 477 3739 346 2730 9633 265 393 13166 446
internal_value=-4.18191e-05 -0.00125159 0.00175317 -0.000282428 0.000626297 0.00302602 -0.00285822 -0.00331924 -0.000721717 0.00114899 -0.00130259 -0.00212925 0.00462119 0.00170942 0.00212335 0.00324751 -0.00174365 -0.00239801 0.00215067 -0.00147776 -0.00453614 -0.00307762 -0.00111971
internal_weight=22486.1 13434.2 9051.84 8385.42 4807.63 4244.21 5048.81 4135.85 6874.46 3942.32 4536.95 2593.74 1491.53 1510.96 1413.21 892.073 865.306 783.484 2752.68 229.688 151.795 3980.1 724.144
internal_count=90020 53881 36139 33640 19779 16360 20241 16811 28185 16163 18186 9400 5944 5455 5179 3927 3616 3270 10416 783 518 16237 3071
is_linear=0
shrinkage=0.0128054


Tree=8
num_leaves=24
num_cat=0
split_feature=94 25 9 104 27 63 104 116 119 27 9 161 194 97 172 116 151 207 51 211 128 128 189
split_gain=313.985 77.2692 72.8337 39.0984 34.8876 34.4169 32.8993 33.5798 29.7533 28.8469 28.7438 25.5429 26.0168 24.1993 24.155 24.0679 23.5519 25.0641 20.8443 27.5646 26.51 23.7101 22.0503
threshold=9.8825454188045128e-05 0.8623500168323518 -0.000529619283042848 -0.07340382412075995 0.15379147976636889 -0.010096443817019461 -0.075700066983699785 -1.4923605918884275 0.0015725517878308894 0.62241744995117199 -0.0028320018900558348 -0.73793992400169361 0.13778743147850039 -0.0016115181497298179 0.00012653687008423733 -0.75737035274505604 4.8616600452078282e-06 0.092525847256183638 -0.053008260205388062 0.013539279811084272 -0.00013191641482990232 0.0001705814138404094 -1.0840427875518797
decision_type=2 2 2 2 2 2 2 2 2 2 2 2 2 2 2 2 2 2 2 2 2 2 2
left_child=2 5 6 -3 14 15 7 -1 -5 -7 -9 12 13 -6 -4 -2 -8 -18 20 21 22 -20 -17
right_child=1 3 4 8 11 9 16 10 -10 -11 -12 -13 -14 -15 -16 18 17 -19 19 -21 -22 -23 -24
leaf_value=0.0050137040469419043 -0.0031511437641341075 -0.00047428317333214495 0.00071302995336712581 0.0041274492935233671 0.0011584885936065706 -0.00038141195787381787 0.0021961952160894816 0.0060516347275419062 -0.0040851161736866577 -0.0024035256068804869 0.0015084131994397394 -0.00073306574295138778 0.0032181664590004893 -0.003112218348256967 0.0048738327216207196 0.0060180917005142201 -0.0016162760893098905 0.0034553068442229238 0.0040842429084648217 -0.0035619155583265717 0.002447905243111676 -0.0048601585496031215 -0.0018025157824404451
leaf_weight=1226.3345533460379 286.87339848279953 701.84124855324626 486.75888315588236 68.152443036437035 784.26837894693017 2073.9137271493673 2089.7283373661339 264.8439598120749 2659.1009408086538 2618.2878513820469 1465.704489801079 3053.6047998219728 649.78515315800905 291.82169846817851 429.17335064709187 58.980038952082396 628.04935774952173 205.36352694779634 189.93779453635216 357.43572602048516 1244.1472738496959 56.95212546736002 497.87983928248286
leaf_count=4939 1056 2535 1837 247 3668 8563 8315 1107 10069 10940 5816 12787 2134 1299 1351 234 2490 881 815 1567 5064 222 1944
internal_value=-2.1632e-05 -0.00159 0.00144358 -0.00317638 0.000410501 -0.000850656 0.00244229 0.00339425 -0.00386828 -0.00151196 0.00222865 -2.98109e-05 0.00121208 -1.42614e-05 0.00268825 0.000303005 0.00147262 -0.000345357 0.000724153 -0.0013215 0.00141341 0.00193217 -0.000899832
internal_weight=22388.9 10813.5 11575.4 3429.09 5695.41 7384.41 5880.02 2956.88 2727.25 4692.2 1730.55 4779.48 1725.88 1076.09 915.932 2692.21 2923.14 833.413 2405.33 604.326 1801.01 246.89 556.86
internal_count=89880 43256 46624 12851 23076 30405 23548 11862 10316 19503 6923 19888 7101 4967 3188 10902 11686 3371 9846 2604 7242 1037 2178
is_linear=0
shrinkage=0.0128054


Tree=9
num_leaves=24
num_cat=0
split_feature=25 26 83 125 36 181 182 172 105 125 199 54 89 24 170 55 188 211 130 105 94 118 27
split_gain=266.44 106.819 71.5796 54.0411 57.9887 41.9954 29.4984 29.4257 27.0753 26.3209 31.7609 26.297 25.8533 25.7698 24.324 23.4505 23.0427 22.8092 22.2755 21.4457 21.1949 21.1835 20.6648
threshold=0.27696114778518682 0.8552803397178651 -0.26331827044486994 -0.12416937947273253 -7.5465588452061625e-05 2.5570220714143946e-05 -2.2323923985823054e-05 -0.00015297038044081998 0.11348185315728189 -0.10615912824869154 -0.58172065019607533 0.00032364265643991535 -0.82344257831573475 0.040441531687974937 -0.00022222219558898357 1.6892267465591433 1.0802921652793886 0.013980755582451822 0.71021303534507763 0.040237417444586761 -0.0013888349058106539 -0.00066070468164980401 0.85893261432647716
decision_type=2 2 2 2 2 2 2 2 2 2 2 2 2 2 2 2 2 2 2 2 2 2 2
left_child=2 3 8 -2 20 7 16 -4 -1 21 19 22 17 -8 -15 -16 -6 -9 -7 -11 -5 -3 -12
right_child=1 9 5 4 6 18 13 12 -10 10 11 -13 -14 14 15 -17 -18 -19 -20 -21 -22 -23 -24
leaf_value=0.0027827263151560416 0.0010428302726099652 0.0039030600640133448 -0.0056889795102136242 -0.0025406153088275629 -0.002735887476353162 0.0022738037580233013 0.0074698761671258039 0.0012161368390392966 0.0057339633851873377 -0.0031807008133274035 0.0037367392665424307 -0.0032355188261308926 0.00097385004969614006 0.0059157355319310436 -0.00066481733364453718 -0.0043448168656388259 3.920744986437054e-05 -0.0058087194049433327 0.0076263416540469356 -0.0069148303147286141 0.0018440347687399513 -0.0021433390080366314 -0.0016875625204079657
leaf_weight=1203.6715648621321 3175.2093644402921 146.67169108614326 127.69083714857697 199.16103852912784 2752.0930577814579 1550.8424844667315 54.841147322207689 123.10112808644772 918.66305008158088 509.95087553560734 167.10119979083538 1462.5729757398367 2004.7639496251941 79.32192961871624 4353.2215025685728 296.19177547097206 596.43600275740027 179.63269854709506 133.2491678185761 544.87010506540537 1451.9993174597621 238.06421682238579 328.09781240299344
leaf_count=4809 13234 541 344 889 11733 6172 202 499 3689 1862 649 5557 7514 224 17771 1238 2468 722 385 2024 5846 825 1050
internal_value=-7.86136e-05 -0.000937588 0.00217058 -0.000406939 -0.000877942 0.00118223 -0.0013221 0.000105119 0.00407712 -0.00295587 -0.00335767 -0.00237608 0.000444516 -0.000674982 -0.000782045 -0.000906396 -0.00224269 -0.00299491 0.00273176 -0.00514755 0.00130535 0.00019464 0.000173489
internal_weight=22597.4 16355.8 6241.61 12958.5 9783.27 4119.28 8132.11 2435.19 2122.33 3397.33 3012.59 1957.77 2307.5 4783.58 4728.74 4649.41 3348.53 302.734 1684.09 1054.82 1651.16 384.736 495.199
internal_count=90247 66113 24134 53605 40371 15636 33636 9079 8498 12508 11142 7256 8735 19435 19233 19009 14201 1221 6557 3886 6735 1366 1699
is_linear=0
shrinkage=0.0128054


Tree=10
num_leaves=24
num_cat=0
split_feature=73 125 73 9 27 44 104 210 160 85 171 81 117 59 206 15 214 154 81 95 17 196 47
split_gain=286.559 97.7948 67.4719 57.5284 39.4832 34.4248 32.8139 39.8613 32.4835 33.5758 34.4566 30.4607 29.8607 32.4676 26.632 26.3838 26.1858 25.6644 25.6336 25.3853 27.2956 25.9464 25.1776
threshold=-0.00025504732911940659 -0.11820971965789794 0.00082871437189169239 -0.00060444281552918244 0.39149475097656256 -0.28062598407268519 0.11205087974667551 -0.244669035077095 -1.2059145859666384e-07 -0.64943003654479969 -0.82759413123130787 -0.12648992985486981 -7.3438900471955995e-06 0.00051149926730431627 -0.32497344911098475 0.64953660964965831 -0.10465385764837264 -0.00065119145438075055 -0.24413650482892987 -1.8422221541404722 -7.4411873356439165e-06 -0.23526833951473233 0.67932400107383739
decision_type=2 2 2 2 2 2 2 2 2 2 2 2 2 2 2 2 2 2 2 2 2 2 2
left_child=3 11 16 4 5 -1 -4 -8 -6 -10 -11 -2 -5 -14 17 -16 18 -9 -3 21 -21 -12 -13
right_child=1 2 6 12 8 -7 7 14 9 10 19 22 13 -15 15 -17 -18 -19 -20 20 -22 -23 -24
leaf_value=0.0045736003495352225 0.0043035267736831967 0.0037095923343477329 -0.0019346078408046541 0.0018634667459067839 -0.00050879271580862731 0.0018770656630563718 -0.0066726113006638933 0.0020600058103150192 -0.00053622327578677564 0.0086513348762285187 0.0010609611928945044 0.0007279279451088761 0.0032264688406887137 -0.0011918468946432068 -0.0027349836382659586 -0.0071907382679916457 0.00033945845264088327 -0.0037062400250424915 -0.0016860214711311057 -0.0022224342825245794 0.0035464661655721427 0.0092076851973794394 -0.003943597313821632
leaf_weight=1801.2837100103498 357.0726912394166 142.29124895110726 2361.8989046961069 1366.5962425656617 1016.8255721591413 1391.6612027287483 686.49372542649508 278.83986229076982 417.26141399145126 185.67954796925187 113.79930021986365 2247.576984282583 311.50704640895128 1857.0432432852685 748.73694422468543 311.44053504616022 1827.9384334385395 218.55847908556461 4043.3739030584693 240.33468254283071 286.11017890647054 146.01047037169337 198.45849552005529
leaf_count=7227 1408 492 8951 5293 3971 5467 2614 1076 1855 695 425 9305 1237 7651 3915 1209 8323 882 14811 896 1182 558 576
internal_value=-8.18967e-05 -0.00127224 -0.00183352 0.0016669 0.00247353 0.00340602 -0.00299872 -0.00410773 0.00122877 0.00249617 0.00379168 0.00085334 0.000386628 -0.000547528 -0.00294862 -0.00408849 -0.000938229 -0.000492478 -0.00149579 0.00256757 0.000919052 0.00577921 0.000337147
internal_weight=22556.8 13422.7 10619.6 9134.11 5598.97 3192.94 4605.97 2244.07 2406.02 1389.2 971.934 2803.11 3535.15 2168.55 1557.58 1060.18 6013.6 497.398 4185.67 786.255 526.445 259.81 2446.04
internal_count=90019 53562 42273 36457 22276 12694 18647 9696 9582 5611 3756 11289 14181 8888 7082 5124 23626 1958 15303 3061 2078 983 9881
is_linear=0
shrinkage=0.0128054


Tree=11
num_leaves=24
num_cat=0
split_feature=93 25 104 123 220 33 27 62 47 157 171 216 2 194 160 51 171 162 181 192 53 168 221
split_gain=245.265 122.686 63.8384 42.803 39.3437 35.2222 34.6693 34.5077 33.064 27.6484 25.6462 26.3751 28.2534 23.6763 23.0385 22.9268 22.5466 22.3726 22.6626 28.7031 22.1483 22.064 24.5617
threshold=-0.0011259707389399407 0.78203904628753673 -0.066994104534387575 0.0029618939151987438 -0.60785761475563038 0.00044374140270520007 0.29364766180515295 -0.16339272260665891 0.57064053416252147 -5.4564665674661217e-07 -0.52295055985450734 2.4540128817918121e-09 0.0001524149993201718 -0.099283285439014421 9.5945750899772996e-07 -1.1410707831382749 -2.1008173227310176 -0.48002928495407099 -5.2653633247246028e-05 0.40988194942474371 -0.00066164293093606819 0.25100103020668035 1.0000000180025095e-35
decision_type=2 2 2 2 2 2 2 2 2 2 2 2 2 2 2 2 2 2 2 2 2 2 2
left_child=4 3 17 16 5 -1 14 13 -4 -8 -10 12 -12 -5 -6 -13 -2 -3 19 -19 -16 -18 -23
right_child=1 2 8 7 6 -7 9 -9 10 -11 11 15 -14 -15 20 -17 21 18 -20 -21 -22 22 -24
leaf_value=0.0051921957632752591 0.0062512333761737381 0.004891488140009146 -0.0020991614050027423 0.0020726211360813269 0.0030785169464009649 -0.0030255110181658246 0.0020696333610430982 -0.0013816199113346798 -0.00063067824101150076 -0.001021364679947187 0.00031939558027836164 -0.00085054982968842737 -0.0050757700384678897 -0.00080452866506064956 0.0026120123622277113 -0.0075326335075964939 0.0010385184076008519 -0.0058905467395101033 0.00084385414316753989 0.0031274891042357388 -0.006464886489363407 0.00074162679255480846 -0.0037636550170009799
leaf_weight=1018.9437697939575 114.92097378149629 146.26249273866415 2491.8849737681448 983.01027000695467 2474.3014729246497 88.102938443422318 923.35537273809314 4136.3746125586331 252.7131472080946 960.09855913743377 243.52836830914021 98.590228792279959 446.43757511675358 883.99981446936727 84.210786323994398 673.52037551999092 4671.1378123685718 199.79236048087478 726.3257259465754 74.306502424180508 77.447515361011028 441.55609540641308 349.08987306803465
leaf_count=4253 365 451 10699 4214 9438 395 3757 17216 851 3944 797 251 1444 3278 356 2277 18971 840 2711 312 299 1599 1248
internal_value=4.79596e-05 -0.000721791 -0.0023233 1.96762e-05 0.00236232 0.00452098 0.0018264 -0.000730205 -0.00305217 0.000496356 -0.00442068 -0.00506868 -0.00318989 0.000712744 0.00277233 -0.00669708 0.00082682 0.000353245 -0.000344184 -0.00342623 -0.00183748 0.000703603 -0.00126555
internal_weight=22559.9 16933.5 5353.36 11580.1 5626.46 1107.05 4519.41 6003.38 4206.67 1883.45 1714.79 1462.08 689.966 1867.01 2635.96 772.111 5576.7 1146.69 1000.42 274.099 161.658 5461.78 790.646
internal_count=89966 67524 20633 46891 22442 4648 17794 24708 16319 7701 5620 4769 2241 7492 10093 2528 22183 4314 3863 1152 655 21818 2847
is_linear=0
shrinkage=0.0128054


Tree=12
num_leaves=24
num_cat=0
split_feature=9 82 27 123 64 199 62 195 130 215 125 51 194 26 104 34 125 76 132 205 126 218 125
split_gain=298.917 103.593 66.4544 48.5444 38.5991 31.7656 31.6927 28.7116 30.1942 27.158 26.0168 24.9046 27.2123 24.4446 24.2802 23.0811 28.2506 22.9128 24.2485 22.5726 31.5567 29.8984 27.492
threshold=-0.0002201513707404956 0.63810011744499218 0.27850784361362463 -0.0039124274626374236 1.0000000180025095e-35 -0.45957842469215388 -0.33227224647998804 -0.6279652714729308 0.87922674417495739 -0.013383439742028711 -0.13061583042144773 -1.3914809823036192 -0.076389063149690614 0.83376136422157299 0.32795529067516332 0.0006112846895121039 -0.19041360169649121 -0.0010030097328126428 0.067439101636409773 2.2004591038182756e-08 3.2176002264022832 1.0000000180025095e-35 -0.056435903534293168
decision_type=2 2 2 2 2 2 2 2 2 2 2 2 2 2 2 2 2 2 2 2 2 2 2
left_child=2 3 -1 9 17 -6 7 -4 -9 -2 -8 -12 13 -13 -7 16 -11 18 -3 21 22 -5 -21
right_child=1 4 6 19 5 14 10 8 -10 15 11 12 -14 -15 -16 -17 -18 -19 -20 20 -22 -23 -24
leaf_value=0.0032804149653635297 -0.0028625507269836562 -0.00026753091150055302 -0.00016638155456610038 -0.00054086848482083497 -0.0047636851641056051 -0.0017853409396660505 0.0029439956130010675 0.0027293820003235188 0.010309607446700333 0.0036878048158196261 0.0031851337962668096 0.0011145562138637167 -0.0018233432321633329 -0.0040602768743786344 -0.0058787779443584161 -0.0011949166844559271 0.00082759319678039575 -0.0015523801519059062 0.0075541821568796842 0.0032421704666286458 0.0097327787693947988 -0.0034437917006462141 -0.0011235534411849228
leaf_weight=3460.1586865633726 305.90020479634404 177.31039049476385 567.33834972977638 1132.5246350392699 1403.4709217473865 1967.4808958657086 543.55474808439612 1490.5199541300535 84.935827251523733 734.4735111631453 340.51977602019906 1566.0085589922965 1298.4220521263778 157.46321044489741 265.26931268721819 616.69145295396447 2416.9207142218947 1023.8032820485532 94.027636878192425 274.62927990034223 43.682765282690525 1196.0705854818225 1442.1400642357767
leaf_count=13355 1412 798 2325 4572 5703 7627 2285 5965 228 2934 1174 7035 5056 630 1296 2613 9125 3697 373 1083 126 4788 6106
internal_value=0.0001395 -0.00111514 0.0018667 -0.000229182 -0.00257891 -0.00325394 0.00105469 0.00230308 0.00318866 0.000759412 0.00036648 -5.62613e-05 -0.000429049 0.000624992 -0.00229116 0.00105896 0.00150194 -0.000675279 0.00258327 -0.00121369 -0.000118084 -0.0020387 -0.000413236
internal_weight=22603.3 13094.4 9508.92 8163.03 4931.36 3636.22 6048.76 2142.79 1575.46 4073.99 3905.97 3362.41 3021.89 1723.47 2232.75 3768.09 3151.39 1295.14 271.338 4089.05 1760.45 2328.6 1716.77
internal_count=90306 52253 38053 32759 19494 14626 24698 8518 6193 16084 16180 13895 12721 7665 8923 14672 12059 4868 1171 16675 7315 9360 7189
is_linear=0
shrinkage=0.0128054


Tree=13
num_leaves=24
num_cat=0
split_feature=9 104 26 83 105 173 48 75 199 54 129 62 105 161 176 97 104 84 58 63 198 151 124
split_gain=235.338 131.829 68.1189 57.0612 30.6562 30.542 29.3529 27.8216 26.0775 26.5091 26.0107 23.804 26.7938 23.2098 23.7404 22.0521 21.8627 24.5134 26.5656 27.2126 21.6889 22.586 21.5911
threshold=-0.00062058147159405042 -0.051507756114006036 0.8552803397178651 -0.22153546661138532 0.11348185315728189 0.3242164552211762 0.0014166368055157366 -2.2025781618140169e-05 -0.58172065019607533 0.00033165156492032116 -0.83503839373588551 -0.12958865612745282 -0.084705270826816545 -0.76391038298606861 -0.00036737479967996473 -0.0073833721689879886 0.047250267118215568 2.1985154151916508 0.00019883754430338743 -1.487192630767822 0.077868409454822554 -1.6114761820062992e-05 1.0536904931068423
decision_type=2 2 2 2 2 2 2 2 2 2 2 2 2 2 2 2 2 2 2 2 2 2 2
left_child=3 7 11 4 15 10 -6 13 20 -10 -5 12 -3 14 -2 -1 17 18 -7 -20 -4 -22 -13
right_child=1 2 8 5 6 16 -8 -9 9 -11 -12 22 -14 -15 -16 -17 -18 -19 19 -21 21 -23 -24
leaf_value=0.0048448352036184359 0.0049726469434678627 -0.0012373418277759282 -0.0033115829312298866 0.0073252576018536077 0.0061545558294915379 -0.0014306310215776575 -0.0012811657601185947 -0.00022969172508768989 8.724164401314842e-05 -0.0035620766931072634 0.001552903113963756 -0.0012594954626449564 0.0028913643256275757 0.00074703424210635389 -2.4130688934192859e-06 0.0010034709320730952 -0.0020850024318598438 -0.0072728394207822516 -0.004896536622535314 0.0050718634476264396 0.00039333474452863011 -0.0083673264737148569 -0.0038433986363220953
leaf_weight=354.85227381438017 499.47436245530844 579.32293755933642 457.89403161779046 126.02371656894684 837.78929283469915 250.34065308049321 94.232509911060333 3630.5661866217852 427.96379909291863 1362.2358625344932 3227.5707922801375 5117.3913594447076 451.6694893874228 1899.7474919073284 227.89091004431248 772.83051351830363 684.91561501100659 44.842437542974949 44.878842070698738 346.69961914047599 53.869639720767736 403.12222711741924 586.91581751406193
leaf_count=1589 1738 2411 1796 373 3372 851 493 14051 1457 5234 13260 21430 1694 7436 1149 2960 2755 155 173 1454 196 1513 2512
internal_value=-8.29323e-05 -0.000944202 -0.001899 0.0019085 0.00368363 0.00112976 0.00539821 0.000496802 -0.00361301 -0.00269321 0.00178694 -0.00120709 0.000579845 0.00149841 0.00343104 0.00223816 -0.000478034 0.00113024 0.00180051 0.00385335 -0.00537343 -0.00734576 -0.00153042
internal_weight=22483 15698.1 9440.39 6784.98 2059.7 4725.27 932.022 6257.68 2705.09 1790.2 3353.59 6735.3 1030.99 2627.11 727.365 1127.68 1371.68 686.762 641.919 391.578 914.886 456.992 5704.31
internal_count=90052 62617 38243 27435 8414 19021 3865 24374 10196 6691 13633 28047 4105 10323 2887 4549 5388 2633 2478 1627 3505 1709 23942
is_linear=0
shrinkage=0.0128054


Tree=14
num_leaves=24
num_cat=0
split_feature=63 103 83 27 173 199 81 163 77 118 174 68 166 26 125 172 8 64 123 34 17 177 182
split_gain=260.012 107.369 55.9549 53.2787 38.3394 37.7489 36.8823 30.8736 35.7094 28.0812 29.6006 26.4904 25.3003 24.7825 23.8848 22.6267 22.5892 22.4714 22.3662 21.9392 21.8127 21.034 20.9895
threshold=-0.30523186922073359 0.69138765335083019 -0.33154578506946558 0.1581177040934563 -0.38863593339920038 -0.14796816557645795 0.086117196828126921 -0.093568287789821611 5.4247329899226322e-05 -0.00066070468164980401 -0.00032146307057701046 -0.37449809908866877 0.046834463253617294 0.25964386761188513 -0.16281080245971677 0.00039959519926924264 -0.0030759578803554173 -0.14245329797267911 -0.10399407893419264 -0.0007950945000629871 -2.3284729650185906e-05 6.7708811759948739 8.5562365711666657e-05
decision_type=2 2 2 2 2 2 2 2 2 2 2 2 2 2 2 2 2 2 2 2 2 2 2
left_child=2 3 11 19 21 12 -3 20 -9 10 -8 13 18 -1 15 -5 -13 -14 -6 -2 -7 -4 -16
right_child=1 6 4 14 5 7 9 8 -10 -11 -12 16 17 -15 22 -17 -18 -19 -20 -21 -22 -23 -24
leaf_value=0.0038988604664388902 -0.0038761624254763142 -0.0010188466251171719 0.0012154386592017204 0.0013611654396693952 0.0030184865727193601 -0.0049132945921681785 0.0024216095862441868 0.0086045354494117196 0.0020100584177698572 -0.0051124278925325697 -0.0031373704580809881 0.00028501627857074766 -9.0795340617347709e-05 -0.0017802091989946793 -0.0012997509638191724 -0.0031869466467457567 0.00619034884924819 -0.0088311487486405649 -0.00063574740182651681 0.0033944335193521235 0.00050365103471210952 0.0039362884934668095 0.00064485574659516054
leaf_weight=309.00834095478058 68.329157568514347 1217.8066511824727 834.63148330524564 1309.8991749621928 310.29550032690167 136.57679122686386 169.71088572219014 137.86462873220444 1940.925244320184 1269.4998916126788 1475.1678900904953 124.56608277931809 87.310893803834915 202.85845674946904 6300.5692713595927 199.8197617419064 746.05494187027216 100.14950190111995 1991.9281163103878 722.74225111305714 767.52013770490885 1076.2280644290149 1058.5721495002508
leaf_count=1263 265 4812 3674 5756 1258 422 561 492 8750 4517 6504 608 268 831 24853 653 2996 279 8063 2513 2416 3571 5060
internal_value=-7.80636e-05 -0.00117386 0.00164553 -0.000433998 0.00120014 0.000652904 -0.00289922 0.00162267 0.00247908 -0.00367996 -0.00255477 0.0040034 -0.000510468 0.00165551 -0.000718766 0.000745411 0.00535584 -0.00493254 -0.000134376 0.00273353 -0.000350995 0.00275801 -0.00101963
internal_weight=22558 13792.1 8765.92 9659.93 7383.43 5472.57 4132.19 2982.89 2078.79 2914.38 1644.88 1382.49 2489.68 511.867 8868.86 1509.72 870.621 187.46 2302.22 791.071 904.097 1910.86 7359.14
internal_count=90385 55494 34891 39100 29193 21948 16394 12080 9242 11582 7065 5698 9868 2094 36322 6409 3604 547 9321 2778 2838 7245 29913
is_linear=0
shrinkage=0.0128054


Tree=15
num_leaves=24
num_cat=0
split_feature=9 102 83 83 27 38 176 94 123 28 178 126 76 117 221 60 166 22 203 92 98 153 190
split_gain=234.137 118.599 66.9049 40.9657 38.2261 29.5347 28.4851 27.1929 26.4774 30.2612 33.2684 32.9175 27.6863 26.4663 24.947 29.3123 24.2427 26.0613 33.8832 23.9898 23.1284 22.7371 22.5755
threshold=-0.000529619283042848 0.025214532390236858 -0.011195617727935312 0.15274541079998019 0.39149475097656256 0.00049123138887807738 -0.0005068041500635444 -0.004030415788292884 -0.0080227837897837145 0.00021510427905013787 -0.28084275126457209 -0.10152922943234442 -0.00017128898616647345 -8.1574153227847984e-06 0.81174489855766307 0.00083777550025843095 0.090495314449071898 0.83626917004585277 -9.5830632744764427e-06 0.0015379328397102656 0.00018357949738856408 9.8845853244711196e-06 0.37804377079010015
decision_type=2 2 2 2 2 2 2 2 2 2 2 2 2 2 2 2 2 2 2 2 2 2 2
left_child=2 8 4 -3 21 14 19 -6 9 11 13 -2 -12 -11 -5 -16 20 -18 -19 -4 -10 -1 -7
right_child=1 3 6 5 7 22 -8 -9 16 10 12 -13 -14 -15 15 -17 17 18 -20 -21 -22 -23 -24
leaf_value=0.0040177606625540875 0.00058466841249005155 -0.0011495590898295395 -0.0024102759639536612 -0.0021743291772478913 0.0084484671726016754 -0.005018827528159569 0.0011747572239485548 0.0010377606700155302 0.0060616797108911146 -0.00065793069731622498 0.00078105957910458196 0.0044805987741684062 -0.0042996777626562637 -0.0094477127187826918 -0.0030779579304395046 0.0077333696067842439 -0.0060745179709752375 0.006034069982477951 -0.0035985345628862879 0.0045585319851252698 -0.00044867437006002861 -0.0049787752107330044 -0.0022706850440376855
leaf_weight=2625.3816434442997 781.81576109677553 4023.72971714288 712.38742551207542 1140.6978377737105 77.621837489306927 1318.2957207635045 2210.1515871174634 1642.6830155290663 85.0458496324718 129.02403770759702 3047.0100981928408 648.63369503617287 178.60478077828884 93.223488587886095 65.637345768511295 88.418498042970896 255.43698346614838 83.294786848127842 165.64035252481699 83.730703338980675 2272.75400435552 40.335808955132961 812.90069844946265
leaf_count=10529 3178 15424 2626 4513 386 5949 9085 6409 340 371 12300 2279 693 300 307 328 756 270 565 440 9751 222 3371
internal_value=3.26437e-05 -0.000876898 0.00190055 -0.00202934 0.00290771 -0.00305749 0.000427264 0.00141014 0.000233212 0.000806401 0.000155103 0.00236654 0.000489676 -0.00454732 -0.00151854 0.00320337 -0.000743255 -0.00326766 -0.000286895 -0.00163883 -0.000193909 0.00386697 -0.00398316
internal_weight=22582.5 15190.2 7392.29 7449.68 4386.02 3425.95 3006.27 1720.3 7740.48 4878.31 3447.86 1430.45 3225.61 222.248 1294.75 154.056 2862.17 504.372 248.935 796.118 2357.8 2665.72 2131.2
internal_count=90392 60695 29697 29892 17546 14468 12151 6795 30803 19121 13664 5457 12993 671 5148 635 11682 1591 835 3066 10091 10751 9320
is_linear=0
shrinkage=0.0128054


Tree=16
num_leaves=24
num_cat=0
split_feature=73 26 81 64 112 103 54 125 208 179 157 123 81 35 215 163 125 157 178 64 208 154 11
split_gain=231.89 80.5557 45.3459 45.2621 33.682 30.3111 28.8144 28.218 26.936 25.7604 24.745 25.4634 25.3399 27.4622 29.9996 26.2383 22.1003 34.5654 21.4519 20.7094 21.118 20.6359 25.4017
threshold=-0.00025504732911940659 0.8552803397178651 -0.29888546466827387 0.095571123063564314 -0.011253966484218834 -2.2328948974609371 0.00015691430598963055 0.02100497949868441 1.4309519347222023e-08 3.5529275919543586e-05 -1.881698790384689e-05 -0.042627118527889245 0.25902126729488378 -0.68681868910789479 0.018746466375887397 -0.051615349948406213 0.10511287301778795 -2.6304093125872892e-06 -0.40080013871192927 -0.54707145690917958 2.0491613961226565e-10 -0.0039757643826305858 -0.0044308991637080899
decision_type=2 2 2 2 2 2 2 2 2 2 2 2 2 2 2 2 2 2 2 2 2 2 2
left_child=2 3 5 10 7 -1 -3 -4 -7 -9 -2 12 13 -12 -15 -16 18 -18 -5 -6 -21 -22 -23
right_child=1 6 4 16 19 8 -8 9 -10 -11 11 -13 -14 14 15 -17 17 -19 -20 20 21 22 -24
leaf_value=-0.0050255667673612748 0.002735435039855863 2.8920666169607644e-05 0.0014628236403279465 -0.0062384695195079427 0.0050792946728876456 0.0061189445823431454 -0.0032521280664798684 -0.0013061477271922794 0.0015891422520831222 0.0016564777964385539 0.0044981112422843384 -0.00062245696972957872 -0.0064295504591838654 -0.0019229438408081446 -0.0025023025127455601 0.0040840051922592345 -0.0002290006192172043 -0.0043939879544326755 -0.00062411672192879352 0.0033135162149654594 -0.0042117204043671903 0.0065934657062637686 0.00027191747597972947
leaf_weight=49.901614725589752 639.07873082906008 518.74651586636901 3666.9878431819379 107.24812234193087 444.97400175035 655.07448951900005 2838.5323975458741 1509.8752066753805 329.34518342465162 696.85772458091378 420.58358428627253 2977.7575742267072 56.373927149921656 426.28378171101213 123.04203712567687 420.35201419889927 549.13656568154693 802.07056920230389 3590.9961368739605 934.34043107181787 120.61272464320064 117.5181094147265 616.99195181205869
leaf_count=178 2572 1736 14105 314 1937 2523 10720 6061 1309 3131 1528 12046 222 1659 430 1847 2534 3714 14637 3797 429 511 2602
internal_value=3.80208e-05 -0.00103009 0.00161125 -0.000458596 0.00128646 0.00412759 -0.00274631 0.000775448 0.00462879 -0.000367954 0.000396687 5.44892e-05 0.00144363 0.00179825 0.000599679 0.00257781 -0.00131552 -0.00271276 -0.000800201 0.00262211 0.00199097 0.000528391 0.00134418
internal_weight=22612.7 13470.2 9142.48 10112.9 8108.16 1034.32 3357.28 5873.72 984.42 2206.73 5063.47 4424.39 1446.64 1390.26 969.678 543.394 5049.45 1351.21 3698.24 2234.44 1789.46 855.123 734.51
internal_count=90542 53959 36583 41503 32573 4010 12456 23297 3832 9192 20304 17732 5686 5464 3936 2277 21199 6248 14951 9276 7339 3542 3113
is_linear=0
shrinkage=0.0128054


Tree=17
num_leaves=24
num_cat=0
split_feature=9 114 27 83 187 80 125 175 81 9 210 163 83 161 101 172 129 73 81 196 210 41 77
split_gain=221.889 111.265 65.1928 46.1146 39.51 32.6993 30.4248 30.1092 30.0316 28.3263 25.2481 24.1131 24.1056 23.7328 22.9399 23.5639 23.7621 25.2203 21.6498 25.7416 21.6477 21.4278 24.844
threshold=-0.00054434390040114511 0.0013407857040874662 0.39149475097656256 0.13029576092958453 0.64221888780593883 0.0030506106559187178 -0.12224688008427619 0.71651875972747814 -0.13111074268817899 -1.0179783203057012e-05 -0.44960701465606684 -0.095509786158800111 0.07871707528829576 -0.53315871953964222 0.0074849019292742023 0.00017410918371751907 0.71019247174263012 0.00015810006152605641 -0.099862799048423753 2.2705779075622563 -0.11333855614066123 0.0007996188069228084 0.0048824776895344266
decision_type=2 2 2 2 2 2 2 2 2 2 2 2 2 2 2 2 2 2 2 2 2 2 2
left_child=2 4 7 5 6 13 8 14 -2 -5 -11 -8 -9 -3 15 16 17 -1 19 -4 21 -7 -23
right_child=1 3 18 9 -6 20 11 12 -10 10 -12 -13 -14 -15 -16 -17 -18 -19 -20 -21 -22 22 -24
leaf_value=0.0016442285074704779 0.0032361484334993496 -0.0010358698934640879 0.0023992544448200813 -0.00019086452349706862 0.0011525206845404833 0.0088678796834640375 -0.0034813137114912849 0.0013913574036260106 -0.00024464800542885092 -0.0082404168985424058 -0.0035753746891214765 -0.00082344473560314936 -0.0060449326501579971 -0.0044269356294595469 -0.00016795371382630997 0.0048667351186787843 0.0078771015243919908 0.0087566382557176178 -0.00013754251591689757 -0.0049913406620224511 -0.00075774019320087188 -0.0055740882261619135 0.0065157092801391928
leaf_weight=1342.7480730451643 543.62220323830843 1600.8249190337956 1191.2052002437413 371.37716526910663 2878.2022775486112 105.14829505607486 636.17008332535625 280.23246778547764 1539.9422446750104 206.17040728032589 2308.2211302742362 4349.6004722565413 87.003699813038111 423.97094842791557 271.60354464128613 1484.4961358308792 120.45458789542317 79.712652761489153 2369.1845468617976 75.135219868272543 201.60629451274872 47.093716021627188 48.286323510110378
leaf_count=5903 2110 5821 4696 1515 11469 378 2095 1127 6276 754 9939 17884 350 1585 1381 5103 384 352 9819 265 931 178 166
internal_value=-3.15042e-05 -0.000909859 0.00180318 -0.00240454 -0.000110287 -0.00109826 -0.000625156 0.00300624 0.000672535 -0.00349697 -0.00398311 -0.00116767 -0.000462786 -0.00176072 0.00339259 0.00371162 0.00258063 0.00209009 0.000585961 0.00193183 0.00220624 0.00509993 0.000577313
internal_weight=22562 15260.2 7301.78 5312.7 9947.54 2426.93 7069.34 3666.25 2083.56 2885.77 2514.39 4985.77 367.236 2024.8 3299.01 3027.41 1542.92 1422.46 3635.52 1266.34 402.135 200.528 95.38
internal_count=90481 61101 29380 21267 39834 9059 28365 14600 8386 12208 10693 19979 1477 7406 13123 11742 6639 6255 14780 4961 1653 722 344
is_linear=0
shrinkage=0.0128054


Tree=18
num_leaves=24
num_cat=0
split_feature=63 104 81 27 64 195 30 124 110 176 123 20 206 69 195 62 154 20 176 139 171 151 177
split_gain=200.218 93.7323 57.5775 53.1543 27.9653 27.1627 32.2107 26.8038 26.0516 30.3027 24.866 24.3126 24.0098 22.6521 22.642 22.3378 23.6625 21.964 25.6839 22.0628 22.7556 21.9578 25.7553
threshold=-0.35259374976158137 -0.1223972514271736 0.084030941128730788 0.27850784361362463 1.0000000180025095e-35 -0.44417454302310938 1.0458788871765139 -0.026164054870605465 2.4637060165405278 -0.00037629604048561299 -0.16087632626295087 2.1228780497040137e-05 -0.19788507372140882 -1.191883862018585 -0.35216696560382837 -0.4690971821546554 0.0053748714271932849 0.00038778843008913105 -0.00039561385347042227 0.011567952111363413 1.0274201035499575 -2.1687654225388538e-05 9.7795443534851092
decision_type=2 2 2 2 2 2 2 2 2 2 2 2 2 2 2 2 2 2 2 2 2 2 2
left_child=3 10 7 11 -4 12 15 13 14 -10 -2 -1 -5 -3 -6 16 -7 19 -19 -9 -21 22 -13
right_child=1 2 4 5 8 6 -8 17 9 -11 -12 21 -14 -15 -16 -17 -18 18 -20 20 -22 -23 -24
leaf_value=0.0014445819451458259 0.0035383246542706149 -0.0052338681321296432 -0.00084324773317911701 -0.0012449173213699913 -0.0040206338800584281 0.003777953333841449 0.0040372647355445034 -0.00090192791522222707 -0.010781286518460656 -0.00083176480537586531 0.00032883076108440433 0.0040329301169496588 0.002742702415845389 0.00074372520728852704 -0.0019905089833383745 0.00024285464759645793 -0.005057867874023199 0.0050588284033261707 -0.0032932186904602112 -0.0040041240279592768 0.0015258202709894932 0.0044703336724238058 -0.0025845540403064316
leaf_weight=1264.2765323072672 440.15010228008032 101.60884219408035 1160.9436237178743 1477.076222922653 1569.5924751497805 544.75545599684119 602.10275835543871 1788.8509229235351 139.5670068114996 78.232399217784405 3406.3031880892813 198.7573087438941 289.28740171715617 1991.0776921659708 2180.20589062199 2370.4589568264782 47.634252864867449 162.85514723882079 86.494863349944353 887.59511250630021 136.92263941839337 1459.6798098832369 173.17799652740359
leaf_count=5144 1869 473 4533 5718 6484 2135 2373 7375 473 374 13441 868 1487 7793 8881 9711 162 489 346 3714 520 5347 563
internal_value=-7.00176e-05 -0.00100151 -0.001639 0.00149133 -0.00259873 0.000714435 0.00135681 -0.000681696 -0.00310963 -0.00736534 0.000702753 0.00282385 -0.00058231 0.000434439 -0.00284711 0.000802578 0.00300886 -0.00144346 0.00214921 -0.00176713 -0.0032589 0.00376535 0.00096232
internal_weight=22557.6 14130.4 10283.9 8427.21 5128.54 5331.32 3564.95 5155.41 3967.6 217.799 3846.45 3095.89 1766.36 2092.69 3749.8 2962.85 592.39 3062.72 249.35 2813.37 1024.52 1831.62 371.935
internal_count=90273 56765 41455 33508 20745 21586 14381 20710 16212 847 15310 11922 7205 8266 15365 12008 2297 12444 835 11609 4234 6778 1431
is_linear=0
shrinkage=0.0128054


Tree=19
num_leaves=24
num_cat=0
split_feature=115 64 93 81 25 187 11 1 60 14 127 162 34 27 8 191 53 147 181 83 34 44 116
split_gain=216.715 68.2717 58.4016 44.9273 42.7151 40.0087 32.4967 26.8549 25.4142 24.0329 27.3581 23.9228 24.1236 24.3594 22.8836 21.1869 29.5203 20.7995 20.5031 20.1416 26.2605 19.9839 19.5064
threshold=0.00034690812753979122 1.0000000180025095e-35 -0.001349000143818557 -0.29888546466827387 0.83289992809295665 0.14823652058839801 0.0009847156470641496 0.00010983456377289259 0.00031077193852979695 -0.0061571903061121694 1.0817186236381533 -0.44874133169651026 -0.00016631100152153519 0.77155092358589183 -0.00046205679245758796 -0.699611335992813 -0.00038568167656194413 0.00032122513221111154 -4.2958065023412921e-05 -0.29293714463710779 0.00011293689021840693 -0.46484255790710444 0.85722842812538158
decision_type=2 2 2 2 2 2 2 2 2 2 2 2 2 2 2 2 2 2 2 2 2 2 2
left_child=2 11 8 -4 -3 9 -6 -7 -1 10 22 21 13 15 -8 16 -13 -15 -9 20 -10 -2 -5
right_child=1 4 3 5 6 7 14 18 19 -11 -12 12 -14 17 -16 -17 -18 -19 -20 -21 -22 -23 -24
leaf_value=0.0053787211609367721 0.004643799110654716 -0.0012014014164404127 0.0053881189140412211 0.0011525966618505616 -7.2022627238038875e-05 0.0031316395843957426 0.0016896641217175629 -0.002976666976444903 0.0039193815496659495 -0.0009856164777369079 -0.0047611352461785755 -0.0053192350413462331 -0.0012803053051438794 -0.0049138339461037035 -0.0041546393765725855 0.0045254114693094724 0.0061366140599186641 0.0016841208576685192 0.00096736346610653179 0.0012981500111777879 -1.4630076978755268e-05 0.00041686429224629121 0.0063927808917010071
leaf_weight=387.52266757935286 285.25616014003754 3359.5073243454099 285.08535858243704 387.90330265834928 429.63764774054289 938.00356429815292 111.0350758060813 230.39026924222708 1307.803057782352 3510.1010790280998 84.842962421476841 92.850598480552435 2011.9818180799484 145.63248410820961 2363.5398878343403 379.09343714267015 50.232917401939631 153.55519361793995 2319.8882462494075 2761.1245536245406 352.77075716853142 494.1923964433372 161.42258551716805
leaf_count=1380 906 14126 1056 1539 1575 3344 425 1099 5512 14143 299 417 7969 554 9177 1625 223 576 9724 10941 1567 1641 628
internal_value=4.13801e-05 -0.00138134 0.00114564 0.000468686 -0.00218906 0.000279425 -0.00332503 0.00128846 0.00225748 -0.000570751 0.00170899 2.08099e-05 -0.000526598 0.00131413 -0.00388775 0.00296672 -0.00118415 -0.00157234 0.000602772 0.0019746 0.00308763 0.00199563 0.00276293
internal_weight=22603.4 9876.51 12726.9 7917.64 6263.72 7632.55 2904.21 3488.28 4809.22 4144.27 634.169 3612.8 2833.35 821.365 2474.57 522.177 143.084 299.188 2550.28 4421.7 1660.57 779.449 549.326
internal_count=90446 39214 51232 31832 25303 30776 11177 14167 19400 16609 2466 13911 11364 3395 9602 2265 640 1130 10823 18020 7079 2547 2167
is_linear=0
shrinkage=0.0128054


Tree=20
num_leaves=24
num_cat=0
split_feature=93 26 125 120 64 27 205 62 173 182 214 9 27 126 172 161 77 44 58 216 172 83 97
split_gain=207.032 80.1406 44.5114 35.7369 34.8892 31.9788 31.3147 38.6959 30.7887 27.6706 27.2986 25.214 36.6375 25.0762 30.5849 24.5362 24.0025 22.5331 24.6977 30.2504 23.5085 22.4372 26.6509
threshold=-0.00086726952577009786 0.8552803397178651 -0.16538783907890317 0.0040743348654359588 0.26492644846439367 0.39149475097656256 -4.3496706680912205e-08 -0.14431887865066526 -0.38863593339920038 3.8342030165949843e-05 -0.40773719549179072 -0.0012815499794669447 0.28978799283504492 1.4563322067260744 1.8102390640706293e-05 -0.45971776545047754 0.0065094488672912129 0.31635512411594396 0.00049469980876892816 1.513538272490678e-08 0.00011524168439791539 0.18212382495403293 -0.0059833533596247426
decision_type=2 2 2 2 2 2 2 2 2 2 2 2 2 2 2 2 2 2 2 2 2 2 2
left_child=3 2 5 -1 16 -2 9 8 -8 13 -9 -5 17 -4 -15 21 -3 18 19 20 -13 22 -12
right_child=1 4 6 11 -6 -7 7 10 -10 -11 15 12 -14 14 -16 -17 -18 -19 -20 -21 -22 -23 -24
leaf_value=0.0037577653025402495 0.0029993198181234911 -0.0019012709181389976 -0.0017089002467120021 0.0023448900347923995 -0.003925418519279098 -0.00043814393727004261 0.0039677347861010268 0.0046641529142806481 0.00036662517855389523 0.00072816004097733551 0.006098651423468297 -0.0082722024648532143 -0.00093788290353211243 -0.0012914957612052173 -0.0093407637446138413 -0.0037894150779997243 0.0025102291655936708 -0.000671587105306828 0.0040229841101268853 0.0052944418492981461 0.00061350405628474061 -0.0020678235582124956 -0.00027224813184358179
leaf_weight=1294.382311232388 1002.7333748117089 1500.3044624812901 2959.2574486136436 2414.7859837114811 1646.097258169204 787.84588303789496 533.21509639546275 139.61155331507325 1393.4933062754571 693.09772672131658 103.60971631854773 78.736892219632864 1373.0507690832019 151.62207898497581 156.72942584380507 437.90078448876739 226.41517091542482 390.72755400836468 809.96484240144491 94.189703222364187 109.19237880036235 1257.6970893926919 2973.7936050780118
leaf_count=4637 4233 5196 12357 10072 6379 3240 1926 601 5549 3245 475 295 5932 596 573 1861 868 1537 3210 317 340 5253 11314
internal_value=-5.69913e-05 -0.000844205 -0.000373898 0.00185587 -0.00259474 0.00149169 -0.000684087 -0.00015882 0.00137566 -0.00158894 -0.00076191 0.00138375 0.000566716 -0.00208101 -0.00551708 -0.000928252 -0.0013138 0.00195747 0.00289612 -0.000361092 -0.00329721 -0.000632714 -4.23161e-05
internal_weight=22528.5 15963.4 12590.6 6565.03 3372.82 1790.58 10800 6839.32 1926.71 3960.71 4912.61 5270.65 2855.86 3267.61 308.352 4773 1726.72 1482.81 1092.08 282.119 187.929 4335.1 3077.4
internal_count=90006 63666 51223 26340 12443 7473 43750 26979 7475 16771 19504 21703 11631 13526 1169 18903 6064 5699 4162 952 635 17042 11789
is_linear=0
shrinkage=0.0128054


Tree=21
num_leaves=24
num_cat=0
split_feature=9 27 125 25 173 27 183 114 220 0 108 199 20 43 47 27 81 81 40 25 161 94 64
split_gain=225.427 115.087 54.4547 43.2386 42.6544 33.5819 32.4674 29.8571 37.6768 26.7753 27.0491 24.6366 23.6711 30.4075 26.928 23.0113 22.4765 21.505 32.3296 21.1072 25.3102 29.6147 21.8153
threshold=-0.00060444281552918244 0.75717037916183483 -0.16538783907890317 0.85485029220581066 0.35044841468334204 0.40580973029136663 6.6365108068566783e-05 0.0013407857040874662 -0.60785761475563038 0.00048477516975253826 1.0015655159950259 -0.27311152219772333 -3.1327726901508861e-05 -1.0286914706230161 0.39415286481380468 0.17112416774034503 -0.24413650482892987 -0.16345044970512387 0.00043905130587518221 0.51989975571632396 -0.60989505052566517 7.1114674938144176e-05 0.17924042791128161
decision_type=2 2 2 2 2 2 2 2 2 2 2 2 2 2 2 2 2 2 2 2 2 2 2
left_child=4 2 17 15 5 12 16 -3 -9 10 11 -5 14 -14 -1 -4 -6 18 -2 20 -17 -22 -21
right_child=1 7 3 9 6 -7 -8 8 -10 -11 -12 -13 13 -15 -16 19 -18 -19 -20 22 21 -23 -24
leaf_value=0.004759542409029793 0.0083060501142341141 -0.0007563987924561784 0.0018227336266526397 -0.005410912914005383 0.0035284094887025759 0.0013804951808303822 0.0034636990421997283 -0.0055256216053844523 -0.0023599469942927566 -0.0072904464402850826 0.0017596823649597899 -0.00087159724151600608 0.0021554228541350957 0.0050670727022825435 -0.0022476212567809953 -0.00040810428596849428 -0.0013618843997197428 0.0011042475948598441 0.00097764680407143073 0.0013763472010970305 -0.00172572743468706 -0.0072784767288534471 -0.00081253288747439067
leaf_weight=136.216537412256 178.4813299998641 1228.0427495315671 820.09119876474142 381.326101526618 169.0046061091125 2389.643077082932 379.1578127592802 796.29351571202278 2776.8529715389013 177.65398816019297 238.64505271241069 402.34885748103261 1008.7539384327829 1470.9701984077692 230.73633325845003 2611.887601993978 1190.3209783993661 1732.5473950393498 214.8671013340354 1596.8851156644523 876.59863192215562 186.43436995148659 1388.7412506118417
leaf_count=389 661 4487 2792 1498 619 9739 1781 3160 10533 796 870 1550 4007 6139 908 10818 4457 7223 975 6512 3643 776 6062
internal_value=1.79311e-05 -0.00083732 -0.000103871 -0.000553951 0.0019305 0.00250674 0.00019129 -0.00248521 -0.00307633 -0.00280189 -0.00197074 -0.00311311 0.00344557 0.00389348 0.000400093 -0.000190719 -0.000736587 0.00172906 0.00440333 -0.000440541 -0.00108928 -0.00274721 0.000358762
internal_weight=22582.5 15607.7 10806.5 8680.61 6974.8 5236.32 1738.48 4801.19 3573.15 1199.97 1022.32 783.675 2846.68 2479.72 366.953 7480.64 1359.33 2125.9 393.348 6660.55 3674.92 1063.03 2985.63
internal_count=90395 62356 44176 35317 28039 21182 6857 18180 13693 4714 3918 3048 11443 10146 1297 30603 5076 8859 1636 27811 15237 4419 12574
is_linear=0
shrinkage=0.0128054


Tree=22
num_leaves=24
num_cat=0
split_feature=72 115 82 82 13 36 54 162 44 20 97 220 9 25 216 200 164 45 116 116 70 89 164
split_gain=223.376 73.8612 51.7674 38.2225 35.9597 33.5472 32.5868 32.1811 28.6993 28.5064 40.2511 27.3426 32.0231 28.9859 27.7517 25.8574 25.3708 23.1637 23.1273 22.8289 24.8814 22.6889 22.5495
threshold=-0.00036582836764864618 0.00097657478181645296 -0.24343036115169522 0.3676885217428208 -0.0025285552255809303 -0.00011946311860810964 -0.0004454317240742966 -0.69043955206871022 -0.0072374409064650527 0.00044403209176380193 -0.00029050771263428027 -0.60785761475563038 -0.00062058147159405042 0.24247939139604571 2.7593777929268984e-08 -0.33773681521415705 -0.66125005483627308 0.37094035744667059 -0.54948529601097096 0.58467647433280956 -0.86691477894783009 -0.80403259396553028 -0.39588318765163416
decision_type=2 2 2 2 2 2 2 2 2 2 2 2 2 2 2 2 2 2 2 2 2 2 2
left_child=2 4 11 -3 -2 17 15 -8 16 -7 -11 13 14 -1 -13 -6 -4 -5 22 20 21 -10 -9
right_child=1 3 8 5 6 9 7 18 19 10 -12 12 -14 -15 -16 -17 -18 -19 -20 -21 -22 -23 -24
leaf_value=0.0047350421669318824 0.0012301448830231709 -8.6357982514414012e-05 -0.0013748995526011547 -0.00036248449366767525 -0.00021912925843572411 -0.0023909762244542923 -0.0063634214908240916 -0.0023867141507944271 -0.0013738513708448038 -0.0088689438454110821 -0.00020563176933595888 0.0031064199594129966 0.00022065635440173117 0.0010483131899490395 0.00044265807870072651 0.0077511778766429073 0.0025289463472863614 0.0094582105170042449 -0.00018670309822945677 0.0029324929029943135 -0.0015096874092255708 -0.010986917488642648 0.0065474965216521554
leaf_weight=1134.3521921150386 2233.9247140362859 1370.5343954786658 470.29642243310809 110.15530288219452 135.71548027172685 4587.5214339345694 163.81233631446958 1394.6861689835787 65.893641516566277 256.84673891589046 132.22165532410145 2451.7572299316525 1633.582742318511 511.96104357019067 871.56746428459883 122.42504718899727 629.80609308183193 52.718463562428951 3671.2430294826627 94.069919232279062 307.19079902023077 107.00805436074734 40.287890668958426
leaf_count=4396 9070 5515 1992 451 535 18446 446 5639 286 899 411 9503 6472 2280 3581 506 2522 221 15160 369 1330 345 163
internal_value=-1.18266e-05 -0.00098229 0.00166078 -0.00198729 -0.000138212 -0.00249328 -0.000692153 -0.000911709 -0.000349024 -0.00268154 -0.00598899 0.00217017 0.00169043 0.0035993 0.0024106 0.00368159 0.000862191 0.00311356 -0.000727018 -0.00264945 -0.00377367 -0.00754863 -0.00210056
internal_weight=22549.6 14272.1 8277.49 6510 7762.09 5139.46 5528.17 5270.03 1674.26 4976.59 389.068 6603.22 4956.91 1646.31 3323.32 258.141 1100.1 162.874 5106.22 574.162 480.092 172.902 1434.97
internal_count=90538 57462 33076 25943 31519 20428 22449 21408 6844 19756 1310 26232 19556 6676 13084 1041 4514 672 20962 2330 1961 631 5802
is_linear=0
shrinkage=0.0128054


Tree=23
num_leaves=24
num_cat=0
split_feature=94 64 9 97 199 125 124 75 112 20 64 160 75 195 84 55 105 142 60 181 27 165 187
split_gain=200.239 64.9994 52.1029 42.6706 35.7782 32.4364 29.1406 27.6639 27.0352 24.0784 29.1136 23.903 35.7865 26.6042 25.8199 23.8308 23.3071 23.0317 24.4838 22.9729 22.5153 22.0684 22.0548
threshold=9.8825454188045128e-05 0.0095341098494827765 -0.00062058147159405042 -0.0010745231993496416 -0.73690763115882862 -0.12851709127426145 -0.061051920056343072 3.4573748052935123e-05 -1.2280383110046384 -6.8756423843296935e-06 0.30186881124973303 -1.3057584169473555e-07 -1.1592898317758225e-05 0.011432834900915624 0.8443925976753236 1.7779586911201479 4.2082200050354013 1.0000000180025095e-35 0.0016580134397372606 -9.3438378826249377e-05 0.15379147976636889 -0.12626368552446363 1.6030251979827883
decision_type=2 2 2 2 2 2 2 2 2 2 2 2 2 2 2 2 2 2 2 2 2 2 2
left_child=2 6 9 -3 -5 17 8 22 -2 -1 11 12 -11 -13 -14 19 20 18 -4 -8 -7 -16 -6
right_child=1 3 5 4 7 16 15 -9 -10 10 -12 13 14 -15 21 -17 -18 -19 -20 -21 -22 -23 -24
leaf_value=0.00032668010786331104 0.0073457129966934031 -0.00094290003583344677 0.0041136944889129416 -0.0049812822812922231 -0.0014010583321668964 0.0020677996966224359 -0.003278910487157356 -0.0038868026744925442 0.0011036007072596594 0.0027791652034585041 -0.0013485649445342199 0.0022041465594453053 -0.0025209994534421843 0.0050625655702826837 0.0099807797995480826 -0.0061124315476922316 0.0082294533994071162 8.9954666754221089e-05 -0.0007130131319207589 0.00010934568612454462 -0.00067767008997642703 -0.00064578881020922816 0.0065809415298991869
leaf_weight=1052.3063993565738 121.98214137926698 3323.6159443594515 793.53065164014697 1022.1304901950061 1571.6593620255589 553.97970444709063 372.19783222675323 933.58669057115912 947.63801702857018 1464.4484958909452 299.0378048196435 1056.2347382940352 426.55101463198662 1118.7815138921142 48.752181388437748 115.15796909108758 44.758007984608412 722.17940497398376 216.76576570421457 2389.0763754881918 3808.8163538612425 71.361982528120279 50.954322557896376
leaf_count=4127 353 14501 3128 3902 6157 1860 1685 3433 3813 5975 1172 4219 1750 4532 197 459 117 2798 961 8998 15680 267 199
internal_value=9.90974e-06 -0.00124226 0.00117319 -0.00199104 -0.00296025 0.000360046 6.88027e-05 -0.00213893 0.00186529 0.00207297 0.00248136 0.00275703 0.00173967 0.00368778 -0.00104491 -0.000602594 -0.000224066 0.0018402 0.00308066 -0.000355614 -0.000325872 0.00402519 -0.00111898
internal_weight=22525.5 10848 11677.5 6901.95 3578.33 6140.03 3946.05 2556.2 1069.62 5537.47 4485.17 4186.13 2011.11 2175.02 546.665 2876.43 4407.55 1732.48 1010.3 2761.27 4362.8 120.114 1622.61
internal_count=90283 43500 46783 28192 13691 24544 15308 9789 4166 22239 18112 16940 8189 8751 2214 11142 17657 6887 4089 10683 17540 464 6356
is_linear=0
shrinkage=0.0128054


Tree=24
num_leaves=24
num_cat=0
split_feature=76 27 103 22 82 62 191 209 113 175 205 174 218 172 132 105 162 216 119 3 66 95 60
split_gain=191.449 76.6502 53.3385 38.6271 30.948 27.5808 26.1785 25.7718 24.8601 23.3661 26.5793 25.0446 24.7816 23.1957 24.2615 23.0663 25.9669 22.3041 27.0869 23.4349 22.0584 21.2806 27.4346
threshold=-0.0010030097328126428 0.43518939614295965 0.72545894980430614 0.53367891907691967 -1.0058988928794859 -0.27569772303104395 -2.2610850334167476 -1.1755744708352721e-05 0.00038553377089556312 -0.072838816791772829 -7.0089329895495203e-09 0.0002874474303098396 -0.7865660786628722 -1.8738660401140802e-05 -0.26375275850296015 -0.37201194465160364 1.6713730692863467 -4.4308985369667645e-09 0.01390188839286566 1.0055756760607438e-07 1.3488688468933108 -1.9404012560844419 0.00060458006919361662
decision_type=2 2 2 2 2 2 2 2 2 2 2 2 2 2 2 2 2 2 2 2 2 2 2
left_child=1 4 6 -4 7 17 -2 -1 20 -8 12 -12 13 -11 -15 -7 -17 18 19 -3 -9 -21 -23
right_child=2 5 3 -5 -6 15 9 8 -10 10 11 -13 -14 14 -16 16 -18 -19 -20 21 -22 22 -24
leaf_value=0.0065750851305566597 -0.009613112661607021 0.00075924159523137462 0.00059173108141189769 -0.0037386249102767787 0.0011928823201019156 -0.0014894488315488335 0.00012898803567336519 0.0057055003340131067 0.0015391384376106101 0.006044931757425845 0.00012564206624580366 -0.0063731780612016533 -0.00354538889661129 0.0062152392121803271 -0.0042305115950682674 0.0003405778486313277 -0.0075817535376520194 -2.5013324461412066e-05 -0.0047050762221409461 0.010189571303964575 -0.0011659152060169585 0.00049504822195270025 0.0076915820550922222
leaf_weight=285.41736077144742 47.892433445900679 308.46849504858255 393.49471344426274 2293.3983938768506 4724.4876579195261 2344.884948335588 2414.7693050354719 498.53943805769086 1408.0961895920336 82.946769274771214 1360.9703073836863 96.601472973823547 1214.5922729186714 40.163017604500055 144.98642634227872 3201.4516181312501 61.21658244356513 968.94432105496526 64.923134937882423 106.87798060104251 87.344262987375259 200.1458739079535 147.02340583875775
leaf_count=1136 174 954 1403 8504 19249 10375 9270 1702 5708 276 5480 286 4877 143 646 13394 219 3953 317 451 278 893 659
internal_value=-5.699e-05 0.000828067 -0.00163251 -0.00310457 0.00178756 -8.05411e-05 -0.000896905 0.00301156 0.00247695 -0.00080456 -0.00156951 -0.000337891 -0.00277186 0.000733776 -0.00179916 -0.000523011 0.000173537 0.00129681 0.00282994 0.00351418 0.00467917 0.00533974 0.00364854
internal_weight=22497.6 14407.8 8089.82 2686.89 7003.88 7403.94 5402.92 2279.4 1993.98 5355.03 2940.26 1457.57 1482.69 268.096 185.149 5607.55 3262.67 1796.38 827.439 762.516 585.884 454.047 347.169
internal_count=90347 59288 31059 9907 28073 31215 21152 8824 7688 20978 11708 5766 5942 1065 789 23988 13613 7227 3274 2957 1980 2003 1552
is_linear=0
shrinkage=0.0128054


Tree=25
num_leaves=24
num_cat=0
split_feature=81 25 220 62 123 205 83 64 55 175 102 9 20 132 20 91 86 91 99 162 188 58 62
split_gain=166.607 76.9734 51.5084 48.4088 45.5077 30.0144 28.7958 27.6406 26.6403 25.7862 25.6244 25.2872 25.03 24.6911 24.3497 23.6618 22.997 23.5012 24.3178 22.9574 29.2019 22.0332 24.7292
threshold=0.090346578508615508 0.19154453277587893 -0.60785761475563038 0.18220996111631396 -0.033888390287756913 3.4630261325219187e-08 -0.27565835416316981 0.5744304656982423 0.12530276924371722 1.2673922181129458 0.017153670080006126 0.0025234848726540808 1.8962450667459055e-05 -0.27675162255764002 -5.6773072287796811e-07 -0.19103372097015378 0.51429337263107311 0.34553143382072454 0.0041944652330130347 -0.41137598454952234 0.14350423961877826 0.0052663113456219443 -0.10813054442405699
decision_type=2 2 2 2 2 2 2 2 2 2 2 2 2 2 2 2 2 2 2 2 2 2 2
left_child=1 2 -1 9 16 21 -4 -7 10 15 14 -12 -8 -13 -5 -2 -3 -18 -19 20 -14 22 -6
right_child=3 4 6 8 5 7 12 -9 -10 -11 11 13 19 -15 -16 -17 17 18 -20 -21 -22 -23 -24
leaf_value=0.0044313618397768158 0.00035824353640994896 0.0017371743679240063 0.003005023357561564 -0.0047003372935316761 7.3768907878213108e-05 0.00091622275142766245 -0.0013045829040291147 -0.0045516190749064862 -0.0037721300792955955 -0.0054806681035257784 -0.0033350073201926789 -0.0046448873225103391 -0.0068851089651084654 0.0023218832628222599 0.0030249556257764187 -0.0020789808795457555 -0.001177684296874734 0.0077099698421132451 -0.002875366952117606 0.0022626491435648235 0.0034906269157158687 0.0056632887621219635 -0.0020202299462438182
leaf_weight=1202.1175289973617 2433.1343764364719 3243.0865112841129 1075.517919447273 77.679800406098366 1421.1286681331694 2482.6377151831985 819.53372874483466 153.43659482523799 1782.5309557728469 157.02866099774837 1089.3033617585897 107.06193339824677 100.91418015211821 294.94382094219327 301.27335339039564 883.94411981478333 930.09934807568789 97.273103281855583 48.483215130865574 1069.8687212392688 68.574347347021103 68.306601278483868 2636.8351206667721
leaf_count=4510 9722 13871 4139 332 5704 10420 3066 685 7340 623 4097 427 312 1330 1173 3786 3330 318 188 3925 213 302 10331
internal_value=-7.45036e-06 0.000740952 0.0021856 -0.00162549 0.000174424 -0.000481271 0.0013151 0.000584999 -0.00265316 -0.000541314 -0.00157502 -0.00232833 0.000424012 0.000411436 0.0013762 -0.000294715 0.00120005 -0.000419941 0.00422292 0.00156811 -0.00271937 -0.00116227 -0.00128821
internal_weight=22544.7 15417.8 4336.53 7126.9 11081.3 6762.34 3134.41 2636.07 3652.79 3474.11 1870.26 1491.31 2058.89 402.006 378.953 3317.08 4318.94 1075.86 145.756 1239.36 169.489 4126.27 4057.96
internal_count=90144 61314 16165 28830 45149 27442 11655 11105 14699 14131 7359 5854 7516 1757 1505 13508 17707 3836 506 4450 525 16337 16035
is_linear=0
shrinkage=0.0128054


Tree=26
num_leaves=24
num_cat=0
split_feature=24 114 104 95 97 68 220 95 54 81 86 108 205 44 55 215 27 160 37 211 173 160 150
split_gain=189.089 71.8753 62.6375 36.4813 30.9242 36.467 29.9306 29.2623 29.1279 28.9372 26.523 26.5374 25.0807 24.9013 28.0227 30.9875 22.9052 28.8098 27.7751 22.8494 20.9715 24.3263 20.8465
threshold=0.7181779444217683 -0.0012965265777893362 -0.038604121655225747 -1.5164065361022947 -0.00086959655163809646 0.03525540046393872 -0.60785761475563038 0.16023723036050799 3.1963127185008495e-05 -0.0053679633419960729 0.48877908289432531 -0.53884175419807423 -8.4304875969110058e-08 0.014683952089399101 -0.78222152590751637 0.002720451215282083 0.28601549565792089 5.1734028261307696e-07 -0.00096831057453528036 -0.0080189858563244325 1.2657675147056582 -7.9532244967595023e-07 0.034763822332024581
decision_type=2 2 2 2 2 2 2 2 2 2 2 2 2 2 2 2 2 2 2 2 2 2 2
left_child=1 6 9 -3 5 -4 -1 20 -6 12 11 -10 -2 14 15 -8 17 -16 -19 -13 21 -5 -15
right_child=2 3 4 7 8 -7 13 -9 10 -11 -12 19 -14 22 16 -17 -18 18 -20 -21 -22 -23 -24
leaf_value=0.0038338738518526204 -0.0023093776284481278 0.002148426559790213 1.9507399869367474e-05 -0.0047936396228830426 0.0020324340299520218 -0.0041584758864060371 0.0001434708867932367 0.0010746402016292159 -0.0055279525580042288 -0.00074393666403244855 -0.0044649204550406803 0.0045400327909648416 0.0039568301970546466 0.0010066551282229223 0.0030146254266856958 0.0055326563336919867 -0.00058728343597376064 0.0019448202013216359 -0.0082087270927675374 -0.0015510873946117227 -0.0037903397754586649 -0.00023569838609784424 -0.0026192464341947322
leaf_weight=1208.0069044157863 130.98182335495949 1390.9580996893346 1219.4473543316126 191.35411031544209 150.36324302107096 468.27299246191978 236.33797551319003 2461.0835762992501 191.49888459220529 2046.4129276014864 1901.6865305751562 126.14836228266358 437.8385626450181 1362.9386722669005 1233.6489712633193 670.37608373165131 631.64079414308071 94.80620389059186 70.863615341484547 399.5661133043468 309.91548117995262 5186.8253324143589 312.85926699265838
leaf_count=4985 614 5503 5063 874 555 2204 977 10368 639 7994 7183 432 1702 5531 4714 2674 2566 380 257 1452 1257 21092 1092
internal_value=0.00012523 0.000922835 -0.00160633 0.000238092 -0.0025281 -0.00115403 0.00204309 -8.97861e-05 -0.00335973 -3.24479e-05 -0.00367462 -0.00155271 0.00250176 0.00156829 0.00227733 0.00414165 0.00143187 0.00234144 -0.00257834 -4.2804e-05 -0.000594413 -0.000404829 0.000320389
internal_weight=22433.8 15361.6 7072.22 9540.14 4456.98 1687.72 5821.48 8149.18 2769.26 2615.23 2618.9 717.213 568.82 4613.47 2937.67 906.714 2030.96 1399.32 165.67 525.714 5688.09 5378.18 1675.8
internal_count=90108 62270 27838 39094 17528 7267 23176 33591 10261 10310 9706 2523 2316 18191 11568 3651 7917 5351 637 1884 23223 21966 6623
is_linear=0
shrinkage=0.0128054


Tree=27
num_leaves=24
num_cat=0
split_feature=9 114 124 25 125 203 104 81 76 47 199 123 70 4 86 142 13 203 170 187 135 58 90
split_gain=201.655 89.003 64.4976 28.6231 28.3976 27.8469 26.321 26.8983 25.0059 24.5322 23.1137 30.5095 26.0962 23.7003 23.8787 22.8284 24.1741 28.1605 27.032 25.2188 22.7119 23.7825 22.686
threshold=-2.1783048396173396e-05 0.0013407857040874662 -0.4162155389785766 0.12087067589163782 -0.19993551820516584 1.0607170679577395e-05 -0.051507756114006036 0.086117196828126921 -0.00087263705790974189 0.59750965237617504 0.10064583644270898 -0.1119423285126686 -1.5150230526924131 1.4703694972695305e-07 0.4179531484842301 0.12482596561312677 0.00095000106375664483 8.2351125456625613e-06 -5.8825291489483782e-05 0.27077354490756994 0.21366407722234729 0.0015198681503534319 -0.85122388601303089
decision_type=2 2 2 2 2 2 2 2 2 2 2 2 2 2 2 2 2 2 2 2 2 2 2
left_child=2 4 10 -4 -2 15 7 -3 9 -8 11 20 -12 -13 -15 16 17 19 -18 -6 21 22 -1
right_child=1 6 3 -5 5 -7 8 -9 -10 -11 12 13 -14 14 -16 -17 18 -19 -20 -21 -22 -23 -24
leaf_value=-0.0016238861650279041 0.0016642554860179057 0.0024774008638120413 0.0023786315421122197 9.8074641912008191e-05 -0.00072825692910457663 0.00092748352550481447 -0.0010638006084105593 -0.0023330918823098365 -0.0039116363042137258 -0.0050339287814290395 -0.0031917661949983685 -0.0015109788819083867 0.0037410256106846554 0.006913895385496774 0.00076950444438483704 -0.0051548422802253479 0.0035899468808072784 -0.0050550817348317192 -0.0031134922381900226 0.0019403415028929876 -0.0012226444646656249 -0.00030667719019387513 0.0064787764617151317
leaf_weight=60.736554503440857 1047.8437138609588 309.83238884434104 1065.3296036235988 5670.7353171855211 2136.4872479662299 1442.19623343274 1369.3396674655378 468.21247832849622 2156.1417812816799 307.70309223607183 87.250500500202179 616.64678769931197 1996.8402417488396 120.66021155938506 547.18605557084084 210.47675588354468 102.15907771885395 184.97539714351296 1039.481081251055 788.21202277764678 139.32496248930693 140.680583845824 487.13900477811694
leaf_count=244 4372 1175 4031 23142 8436 6267 6673 1691 8000 991 259 1796 8089 431 2802 571 337 732 4197 2992 514 690 1907
internal_value=-7.83343e-06 -0.00118632 0.00123858 0.000461174 -0.00027051 -0.000615702 -0.00256409 -0.000411677 -0.00299919 -0.00181292 0.00248316 0.00153003 0.00343956 0.00028897 0.00194912 -0.00111529 -0.000905877 -0.000318396 -0.00249259 -5.69404e-06 0.00343415 0.00437968 0.00556996
internal_weight=22495.6 11563.1 10932.5 6736.06 6951.83 5903.99 4611.23 778.045 3833.18 1677.04 4196.46 2112.37 2084.09 1284.49 667.846 4461.79 4251.31 3109.67 1141.64 2924.7 827.881 688.556 547.876
internal_count=90339 46434 43905 27173 27904 23532 18530 2866 15664 7664 16732 8384 8348 5029 3233 17265 16694 12160 4534 11428 3355 2841 2151
is_linear=0
shrinkage=0.0128054


Tree=28
num_leaves=24
num_cat=0
split_feature=63 27 172 27 19 17 168 60 64 146 70 177 212 220 192 178 166 178 130 113 191 45 204
split_gain=203.584 87.7997 41.4971 41.4107 33.9707 26.0439 24.2731 23.8917 24.032 22.8086 22.6919 22.441 22.3447 21.7003 21.027 20.7331 20.327 21.9036 23.2462 20.2847 20.1634 19.8945 19.8039
threshold=-0.39985254406929011 0.86669906973838817 7.994713087100537e-05 0.32246421277523046 -0.00019941280334023756 -1.8861795183511274e-06 -0.56843963265418995 0.00021136342547833922 0.071377854794263854 0.0001078412424249109 -1.0269911289215086 4.258815050125123 -3.5148729482514791e-09 -0.87837970256805409 2.520784974098206 -0.10802306234836577 0.042069429531693465 0.12180165573954584 -0.13385105133056638 0.0015059432480484249 1.064129710197449 1.750735402107239 -2.1191360843886284e-07
decision_type=2 2 2 2 2 2 2 2 2 2 2 2 2 2 2 2 2 2 2 2 2 2 2
left_child=2 3 4 -2 13 -6 15 12 21 19 -3 -11 -4 -1 -12 -5 17 18 -7 -8 -21 -9 -10
right_child=1 10 7 6 5 16 9 8 22 11 14 -13 -14 -15 -16 -17 -18 -19 -20 20 -22 -23 -24
leaf_value=-0.0046974397900614211 0.00067349996130467663 -0.00051478483195335572 0.0081575294873139914 -0.0026766021751775384 -0.00095749574721491662 0.0047148050648491355 -0.0011042782287158073 0.0027483420172111262 -0.0027028536276565277 0.0019907981176521426 -0.0039121455516761099 -0.0051319245794725146 0.0023608967799495294 0.0044776424481164914 0.00419274462826426 0.0050475707026833832 -0.0031138060950492608 -0.00054331188287597891 0.00099769579221302331 0.0036087044993413026 -0.0053385040903438912 -0.0044971551379643301 0.001662972900700121
leaf_weight=39.907992105931044 3243.0539285801351 441.1978021338582 212.32000802457333 75.141691405326128 1750.5034283436835 492.41739266365767 7642.0511420629919 2816.4845798239112 272.68393514677882 84.17858299612999 2076.9239771403372 388.61587372422218 234.44920365139842 462.03340334072709 47.534796569496393 183.28219914808869 153.15406025573611 506.62877265363932 627.35533909872174 257.26766887679696 41.526762180030346 56.526403926312923 425.20869466289878
leaf_count=181 12559 1272 740 221 6515 2495 31354 10549 1002 585 8050 1590 846 1985 172 649 477 2060 3631 1483 219 159 1485
internal_value=-0.000116115 -0.00102351 0.00151561 -0.000559792 0.00059597 0.000149287 -0.0010212 0.00243547 0.00207711 -0.00114078 -0.00316851 -0.0038516 0.0052118 0.00368518 -0.00371557 0.00278854 0.00123741 0.00166054 0.00265439 -0.000975624 0.0022572 0.00259355 -5.42954e-05
internal_weight=22530.4 14480.8 8049.67 11915.1 4032 3530.06 8672.06 4017.67 3570.9 8413.64 2565.66 472.794 446.769 501.941 2124.46 258.424 1779.56 1626.4 1119.77 7940.85 298.794 2873.01 697.893
internal_count=90279 58154 32125 48660 17344 15178 36101 14781 13195 35231 9494 2175 1586 2166 8222 870 8663 8186 6126 33056 1702 10708 2487
is_linear=0
shrinkage=0.0128054


Tree=29
num_leaves=24
num_cat=0
split_feature=25 27 104 95 10 23 166 216 87 89 166 145 175 125 215 50 102 218 110 164 83 102 107
