tree
version=v4
num_class=1
num_tree_per_iteration=1
label_index=0
max_feature_idx=214
objective=binary sigmoid:1
feature_names=ETH_spot_log_ret_1m ETH_spot_high_low_range ETH_spot_body_size ETH_spot_upper_shadow ETH_spot_lower_shadow ETH_spot_close_position_in_bar ETH_spot_log_ret_2m ETH_spot_log_ret_3m ETH_spot_log_ret_5m ETH_spot_log_ret_10m ETH_spot_log_ret_15m ETH_spot_log_ret_30m ETH_spot_log_ret_60m ETH_spot_log_ret_120m ETH_spot_log_ret_240m ETH_spot_taker_buy_volume_ratio ETH_spot_taker_buy_quote_ratio ETH_spot_taker_buy_quote_volume_ratio_diff ETH_spot_vwap_dist ETH_spot_taker_buy_vwap_dist ETH_spot_ret_x_buy_imbalance_1m ETH_spot_ret_std_5m ETH_spot_volume_z_5m ETH_spot_quote_volume_z_5m ETH_spot_count_z_5m ETH_spot_range_mean_5m ETH_spot_close_vs_sma_5m ETH_spot_close_vs_kama_5m ETH_spot_close_vs_kama_z_5m ETH_spot_kama_velocity_5m ETH_spot_rolling_high_dist_5m ETH_spot_rolling_low_dist_5m ETH_spot_realized_vol_5m ETH_spot_upside_realized_vol_5m ETH_spot_downside_realized_vol_5m ETH_spot_realized_vol_balance_5m ETH_spot_ret_vol_scaled_5m ETH_spot_volume_ret_corr_5m ETH_spot_quote_volume_per_trade_z_5m ETH_spot_taker_quote_volume_per_trade_z_5m ETH_spot_buy_ratio_mean_5m ETH_spot_ret_std_10m ETH_spot_volume_z_10m ETH_spot_quote_volume_z_10m ETH_spot_count_z_10m ETH_spot_range_mean_10m ETH_spot_close_vs_sma_10m ETH_spot_close_vs_kama_10m ETH_spot_close_vs_kama_z_10m ETH_spot_kama_velocity_10m ETH_spot_rolling_high_dist_10m ETH_spot_rolling_low_dist_10m ETH_spot_realized_vol_10m ETH_spot_upside_realized_vol_10m ETH_spot_downside_realized_vol_10m ETH_spot_realized_vol_balance_10m ETH_spot_ret_vol_scaled_10m ETH_spot_volume_ret_corr_10m ETH_spot_quote_volume_per_trade_z_10m ETH_spot_taker_quote_volume_per_trade_z_10m ETH_spot_ret_std_30m ETH_spot_volume_z_30m ETH_spot_quote_volume_z_30m ETH_spot_count_z_30m ETH_spot_range_mean_30m ETH_spot_close_vs_sma_30m ETH_spot_close_vs_kama_30m ETH_spot_close_vs_kama_z_30m ETH_spot_kama_velocity_30m ETH_spot_rolling_high_dist_30m ETH_spot_rolling_low_dist_30m ETH_spot_realized_vol_30m ETH_spot_upside_realized_vol_30m ETH_spot_downside_realized_vol_30m ETH_spot_realized_vol_balance_30m ETH_spot_ret_vol_scaled_30m ETH_spot_volume_ret_corr_30m ETH_spot_quote_volume_per_trade_z_30m ETH_spot_taker_quote_volume_per_trade_z_30m ETH_spot_buy_ratio_mean_30m ETH_spot_buy_ratio_z_30m ETH_spot_ret_std_60m ETH_spot_volume_z_60m ETH_spot_quote_volume_z_60m ETH_spot_count_z_60m ETH_spot_range_mean_60m ETH_spot_close_vs_sma_60m ETH_spot_close_vs_kama_60m ETH_spot_close_vs_kama_z_60m ETH_spot_kama_velocity_60m ETH_spot_rolling_high_dist_60m ETH_spot_rolling_low_dist_60m ETH_spot_realized_vol_60m ETH_spot_upside_realized_vol_60m ETH_spot_downside_realized_vol_60m ETH_spot_realized_vol_balance_60m ETH_spot_ret_vol_scaled_60m ETH_spot_volume_ret_corr_60m ETH_spot_quote_volume_per_trade_z_60m ETH_spot_taker_quote_volume_per_trade_z_60m ETH_spot_buy_ratio_mean_60m ETH_spot_buy_ratio_z_60m ETH_spot_ret_std_120m ETH_spot_volume_z_120m ETH_spot_quote_volume_z_120m ETH_spot_count_z_120m ETH_spot_range_mean_120m ETH_spot_close_vs_sma_120m ETH_spot_close_vs_kama_120m ETH_spot_close_vs_kama_z_120m ETH_spot_kama_velocity_120m ETH_spot_rolling_high_dist_120m ETH_spot_rolling_low_dist_120m ETH_spot_realized_vol_120m ETH_spot_upside_realized_vol_120m ETH_spot_downside_realized_vol_120m ETH_spot_realized_vol_balance_120m ETH_spot_ret_vol_scaled_120m ETH_spot_volume_ret_corr_120m ETH_spot_quote_volume_per_trade_z_120m ETH_spot_taker_quote_volume_per_trade_z_120m ETH_spot_ret_velocity_2m ETH_spot_volume_velocity_2m ETH_spot_quote_volume_velocity_2m ETH_spot_ret_velocity_3m ETH_spot_volume_velocity_3m ETH_spot_quote_volume_velocity_3m ETH_spot_ret_velocity_5m ETH_spot_volume_velocity_5m ETH_spot_quote_volume_velocity_5m ETH_spot_ret_velocity_10m ETH_spot_volume_velocity_10m ETH_spot_quote_volume_velocity_10m ETH_spot_ret_velocity_15m ETH_spot_volume_velocity_15m ETH_spot_quote_volume_velocity_15m ETH_spot_ret_velocity_30m ETH_spot_volume_velocity_30m ETH_spot_quote_volume_velocity_30m ETH_spot_ret_velocity_60m ETH_spot_volume_velocity_60m ETH_spot_quote_volume_velocity_60m ETH_spot_ret_accel_2_10m ETH_spot_volume_accel_2_10m ETH_spot_ret_accel_5_15m ETH_spot_volume_accel_5_15m ETH_spot_ret_accel_10_30m ETH_spot_volume_accel_10_30m ETH_spot_ret_accel_15_60m ETH_spot_volume_accel_15_60m ETH_spot_kama_accel_5_10m ETH_spot_kama_accel_10_30m ETH_spot_kama_accel_30_60m ETH_spot_kama_accel_60_120m ETH_spot_realized_vol_ratio_5_30m ETH_spot_quote_volume_mean_ratio_5_30m ETH_spot_buy_ratio_mean_diff_5_30m ETH_spot_realized_vol_ratio_10_60m ETH_spot_quote_volume_mean_ratio_10_60m ETH_spot_buy_ratio_mean_diff_10_60m ETH_spot_realized_vol_ratio_30_120m ETH_spot_quote_volume_mean_ratio_30_120m ETH_spot_buy_ratio_mean_diff_30_120m ETH_spot_buy_pressure_x_ret_5m ETH_spot_buy_pressure_x_quote_volume_z_5m ETH_spot_buy_pressure_x_ret_30m ETH_spot_buy_pressure_x_quote_volume_z_30m ETH_spot_buy_pressure_x_ret_60m ETH_spot_buy_pressure_x_quote_volume_z_60m ETH_futures_basis ETH_futures_spot_volume_ratio ETH_futures_spot_buy_ratio_diff ETH_basis_change_1m ETH_futures_spot_ret_spread_1m ETH_basis_change_5m ETH_futures_spot_ret_spread_5m ETH_basis_change_15m ETH_futures_spot_ret_spread_15m ETH_basis_change_60m ETH_futures_spot_ret_spread_60m ETH_basis_z_5m ETH_futures_spot_volume_ratio_z_5m ETH_futures_spot_quote_volume_ratio_z_5m ETH_futures_spot_count_ratio_z_5m ETH_basis_z_15m ETH_futures_spot_volume_ratio_z_15m ETH_futures_spot_quote_volume_ratio_z_15m ETH_futures_spot_count_ratio_z_15m ETH_basis_z_30m ETH_futures_spot_volume_ratio_z_30m ETH_futures_spot_quote_volume_ratio_z_30m ETH_futures_spot_count_ratio_z_30m ETH_basis_z_60m ETH_futures_spot_volume_ratio_z_60m ETH_futures_spot_quote_volume_ratio_z_60m ETH_futures_spot_count_ratio_z_60m ETH_basis_accel_1_5m ETH_basis_accel_5_15m ETH_basis_accel_15_60m ETH_basis_vol_scaled_5m ETH_futures_spot_realized_vol_ratio_5m ETH_basis_x_ret_spread_5m ETH_buy_diff_x_ret_spread_5m ETH_basis_vol_scaled_15m ETH_futures_spot_realized_vol_ratio_15m ETH_basis_x_ret_spread_15m ETH_buy_diff_x_ret_spread_15m ETH_basis_vol_scaled_60m ETH_futures_spot_realized_vol_ratio_60m ETH_basis_x_ret_spread_60m ETH_buy_diff_x_ret_spread_60m sin_hour cos_hour sin_dayofweek cos_dayofweek
feature_infos=[-0.02843906357884407:0.03621765598654747] [2.0927550394844729e-06:0.051097195595502853] [0:0.036881502717733383] [0:0.025724418461322784] [0:0.016325946897268295] [0:1] [-0.034406669437885284:0.070298120379447937] [-0.035605687648057938:0.049136664718389511] [-0.06396166980266571:0.059809014201164246] [-0.10776521265506744:0.074303612112998962] [-0.11085615307092667:0.080493606626987457] [-0.17263439297676086:0.092408567667007446] [-0.18755747377872467:0.11178536713123322] [-0.20220524072647095:0.1181725412607193] [-0.2245103120803833:0.15136204659938812] [0.0017362325452268124:0.99848675727844238] [0.0017364909872412682:0.99848675727844238] [-0.0006963590276427567:0.00097546668257564306] [-0.016191728413105011:0.013903086073696613] [-0.01488390751183033:0.012965686619281769] [-0.0030023530125617981:0.014748922549188137] [1.3482289205057896e-06:0.057011540979146957] [-1.7881940603256226:1.7888376712799072] [-1.7882201671600342:1.7888375520706177] [-1.7881166934967041:1.7888450622558594] [2.7116143428429496e-06:0.058374568819999695] [-0.027457665652036667:0.038329366594552994] [-0.030947254970669746:0.031699914485216141] [-1.7885458469390869:1.7888158559799194] [-0.014419034123420715:0.007687591016292572] [-0.076234534382820129:0] [0:0.10034776479005814] [3.014731191797182e-06:0.11692500859498978] [0:0.052763018757104874] [0:0.10434328764677048] [-1:1] [-2.2298867702484131:2.2284049987792969] [-0.99974566698074341:0.9996153712272644] [-1.7868080139160156:1.7887974977493286] [-1.7871526479721069:1.7888096570968628] [0.028081992641091347:0.9544185996055603] [2.5483598165010335e-06:0.04021880030632019] [-2.5352799892425537:2.8459525108337402] [-2.534867525100708:2.8459532260894775] [-2.5876696109771729:2.8458607196807861] [4.7271264520531986e-06:0.042179640382528305] [-0.054528422653675079:0.053548716008663177] [-0.041185177862644196:0.03186759352684021] [-2.831925630569458:2.8258857727050781] [-0.0084363427013158798:0.0054998742416501045] [-0.10349985212087631:0] [0:0.15421104431152344] [7.6450796768767759e-06:0.12232524156570435] [0:0.065646126866340637] [0:0.1072719618678093] [-1:1] [-2.9276716709136963:2.9018759727478027] [-0.97465145587921143:0.98395359516143799] [-2.7043476104736328:2.8447623252868652] [-2.5851330757141113:2.8450155258178711] [6.3014599618327338e-06:0.028409523889422417] [-2.5478150844573975:5.2917046546936035] [-2.5473678112030029:5.2916722297668457] [-3.1916031837463379:5.2926788330078125] [6.8507674768625293e-06:0.029873637482523918] [-0.089302316308021545:0.073848746716976166] [-0.04395216703414917:0.043975967913866043] [-5.1840419769287109:4.770939826965332] [-0.0044605913572013378:0.0028696213848888874] [-0.1602531224489212:0] [0:0.17806033790111542] [3.4631204471224919e-05:0.15440723299980164] [9.3648413894698024e-06:0.082350365817546844] [7.642892342119012e-06:0.13174727559089661] [-0.95095843076705933:0.95783829689025879] [-3.4459500312805176:3.5990266799926758] [-0.87181246280670166:0.84987485408782959] [-3.0581233501434326:5.2541694641113281] [-2.9155244827270508:5.2705941200256348] [0.14533346891403198:0.84426140785217285] [-3.7655878067016602:4.0246114730834961] [2.9029921279288828e-05:0.02048172615468502] [-2.44563889503479:7.6047244071960449] [-2.4464244842529297:7.6045403480529785] [-2.8036022186279297:7.6071896553039551] [1.1989626727881841e-05:0.020570900291204453] [-0.1281784325838089:0.082571148872375488] [-0.053341995924711227:0.0743422731757164] [-6.7259297370910645:6.1532340049743652] [-0.0024248654954135418:0.0015228106640279293] [-0.17594712972640991:0] [0:0.17806033790111542] [0.00022314043599180877:0.15799848735332489] [2.6509023882681504e-05:0.084995351731777191] [1.8730621377471834e-05:0.13322740793228149] [-0.84445387125015259:0.89098727703094482] [-3.9654796123504639:3.7008817195892334] [-0.79303151369094849:0.74663847684860229] [-3.5142021179199219:7.4452481269836426] [-2.8559629917144775:7.5482006072998047] [0.17522764205932617:0.82360208034515381] [-4.0482044219970703:4.022918701171875] [3.5466448025545105e-05:0.014597173780202866] [-2.3680472373962402:10.804784774780273] [-2.3677370548248291:10.803496360778809] [-3.3989849090576172:10.828454971313477] [1.4515871043840889e-05:0.01683802530169487] [-0.1512753963470459:0.09294862300157547] [-0.082481160759925842:0.074102535843849182] [-8.1152286529541016:8.1875505447387695] [-0.0013009753311052918:0.00092719134408980608] [-0.18330958485603333:0] [0:0.18922734260559082] [0.00038996976218186319:0.15968386828899384] [0.00012432025687303394:0.086573988199234009] [0.00016810736269690096:0.13418348133563995] [-0.79723739624023438:0.8163444995880127] [-3.6817924976348877:3.9887542724609375] [-0.64771360158920288:0.59620815515518188] [-3.3833270072937012:10.371330261230469] [-2.6663656234741211:10.596468925476074] [-0.017203334718942642:0.035149060189723969] [-2.771143913269043:3.0190589427947998] [-2.770578145980835:3.0154852867126465] [-0.011868562549352646:0.016378888860344887] [-1.7156901359558105:2.0926992893218994] [-1.7158350944519043:2.0903162956237793] [-0.012792333960533142:0.011961802840232849] [-1.1768175363540649:1.3516067266464233] [-1.1770074367523193:1.3502316474914551] [-0.0107765207067132:0.0074303611181676388] [-0.58274924755096436:0.67975425720214844] [-0.58252221345901489:0.67868602275848389] [-0.0073904106393456459:0.0053662406280636787] [-0.36692911386489868:0.44547587633132935] [-0.36699303984642029:0.44587862491607666] [-0.0057544796727597713:0.0030802853871136904] [-0.20857159793376923:0.22668744623661041] [-0.20850898325443268:0.22623282670974731] [-0.0031259579118341208:0.0018630895065143704] [-0.099167272448539734:0.1167643666267395] [-0.099124550819396973:0.11671274155378342] [-0.0017377816839143634:0.0051896171644330025] [-0.32695853710174561:0.32114690542221069] [-0.00079676642781123519:0.0011792510049417615] [-0.10941892862319946:0.10404462367296219] [-0.00031097710598260164:0.00043600233038887382] [-0.025714490562677383:0.023571526631712914] [-0.0001146489885286428:9.2335532826837152e-05] [-0.0077357920818030834:0.0086639039218425751] [-0.001942591043189168:0.0020065964199602604] [-0.00026922285906039178:0.0002696657320484519] [-7.0817382948007435e-05:8.0647369031794369e-05] [-2.4332855900865979e-05:2.1643118088832125e-05] [-0.9971081018447876:-0.00083587924018502235] [-0.96689510345458984:4.7146620750427246] [-0.48308685421943665:0.42919051647186279] [-0.99264365434646606:-0.00079031358473002911] [-0.93451738357543945:4.5683908462524414] [-0.36596760153770447:0.34543639421463013] [-0.94302964210510254:-0.0018866183236241341] [-0.89923352003097534:2.7992784976959229] [-0.25204157829284668:0.27292704582214355] [-0.0043172789737582207:0.013680223375558853] [-3.1821103096008301:3.1745250225067139] [-0.006016820203512907:0.022268025204539299] [-13.600271224975586:14.587065696716309] [-0.0085029825568199158:0.010718826204538345] [-20.709007263183594:17.967950820922852] [-0.0085895564407110214:0.011047236621379852] [0.17067427933216095:321.698486328125] [-0.95488321781158447:0.90314853191375732] [-0.012559461407363415:0.0060245804488658905] [-0.012345707044005394:0.0060445577837526798] [-0.015414837747812271:0.021842800080776215] [-0.015300482511520386:0.022113095968961716] [-0.015623941086232662:0.010816505178809166] [-0.015509651973843575:0.010755956172943115] [-0.015882465988397598:0.011344003491103649] [-0.015767239034175873:0.011283472180366516] [-1.7888543605804443:1.7888543605804443] [-1.7873915433883667:1.7888543605804443] [-1.7873885631561279:1.7888543605804443] [-1.7887282371520996:1.7888543605804443] [-3.6117510795593262:3.5884132385253906] [-3.076347827911377:3.6147844791412354] [-3.0759255886077881:3.6147844791412354] [-3.1666955947875977:3.6147844791412354] [-5.2864084243774414:5.2477335929870605] [-2.8885252475738525:5.2946515083312988] [-2.8889720439910889:5.2946515083312988] [-3.7264707088470459:5.2946515083312988] [-7.5761013031005859:7.4880638122558594] [-2.8665215969085693:7.6168670654296875] [-2.8664920330047607:7.6168670654296875] [-4.1233372688293457:7.6168670654296875] [-0.0036901996936649084:0.0012262212112545967] [-0.00020507151202764362:0.00045156484702602029] [-2.3239479560288601e-05:1.1822969099739566e-05] [-140.000244140625:222.73896789550781] [-1:54.236763000488281] [-2.7899131964659318e-05:0.0001209243418998085] [-0.00045612378744408488:0.003060139948502183] [-41.000278472900391:3.5907795429229736] [-0.73806357383728027:11.25279426574707] [-1.0270716302329674e-05:0.000118823598313611] [-0.0021045438479632139:0.0030737230554223061] [-2.36553955078125:0.61269611120223999] [-0.43123483657836914:1.3782805204391479] [-1.0832926818693522e-05:0.00012465119652915746] [-0.00091214751591905951:0.0027559674344956875] [-1:1] [-1:1] [-0.97492790222167969:0.97492790222167969] [-0.90096884965896606:1]
tree_sizes=2819 2894 2885 2871 2887 2879 2868 2805 2887 2852 2875 2858 2831 2880 2893 2890 2869 2890 2862 2877 2857 2889 2880 2877 2871 2893 2838 2889 2875 2876 2855 2878 2842 2888 2872 2852 2882 2856 2897 2870 2893 2867 2895 2873 2869 2870 2901 2862 2841 2884 2893 2809 2873 2873 2851 2874 2880 2895 2896 2847 2877 2849 2866 2851 2871 2882 2890 2860 2860 2884 2881 2828 2884 2855 2864 2867 2831 2889 2873 2872 2833 2829 2886 2852 2840 2859 2900 2872 2860 2840 2899 2844 2877 2823 2888 2890 2855 2851 2895 2836 2804 2852 2868 2844 2885 2888 2854 2861 2895 2872 2838 2904 2815 2837 2903 2868 2821 2865 2816 2906 2851 2889 2883 2873 2837 2900 2913 2884 2874 2881 2880 2833 2837 2849 2846 2848 2836 2879 2868 2862 2825 2837 2870 2853 2860 2872 2851 2840 2855 2852 2840 2850 2828 2900 2901 2848 2883 2907 2818 2855 2791 2832 2871 2881 2746 2877 2838 2850 2875 2847 2853 2826 2883 2847 2892 2855 2892 2862 2812 2819 2867 2818 2839 2802 2794 2866 2779 2832 2865 2824 2882 2876 2841 2874 2873 2892 2856 2882 2867 2871 2867 2886 2867 2844 2870 2887 2825 2870 2884 2846 2850 2820 2861 2844 2834 2832 2843 2809 2834 2837 2849 2839 2848 2811 2874 2900 2807 2865 2803 2814 2875 2854 2823 2877 2818 2841 2843 2769 2871 2840 2869 2890 2770 2836 2811 2836 2828 2820 2891 2826 2851 2791 2842 2872 2893 2888 2869 2849 2841 2805 2869 2848 2873 2848 2842 2866 2875 2797 2850 2742 2815 2838 2839 2835 2839 2826 2850 2844 2849 2801 2886 2764 2851 2854 2800 2826 2844 2797 2886 2838 2877 2791 2844 2761 2884 2804 2744 2870 2821 2788 2745 2833 2863 2804 2869 2846 2775 2843 2826 2849 2794 2859 2822 2808 2865 2842 2807 2856 2833 2765 2863 2828 2867 2835 2898 2775 2797 2818 2730 2813 2822 2838 2813 2809 2796 2814 2766 2807 2780 2872 2815 2811 2901 2842 2876 2763 2809 2814 2812 2829 2855 2790 2839 2739 2830 2856 2774 2787 2823 2853 2882 2831 2821 2808 2814 2764 2859 2782 2845 2755 2829 2823 2754 2798 2859 2769 2871 2814 2774 2786 2814 2834 2759 2837 2820 2728 2841 2768 2780 2821 2819 2871 2863 2774 2835 2860 2816 2852 2761 2802 2793 2795 2770 2877 2784 2860 2813 2875 2858 2880 2847 2819 2824 2813 2795 2841 2874 2796 2850 2780 2870 2778 2817 2844 2785 2863 2812 2762 2862 2759 2753 2778 2839 2842 2829 2841 2876 2855 2828 2786 2767 2797 2795 2798 2833 2822 2818 2775 2833 2856 2762 2725 2831 2818 2803 2843 2802 2792 2849 2827 2809 2827 2862 2815 2854 2842 2825 2816 2792 2903 2743 2845 2825 2802 2843 2730 2759 2852 2815 2857 2864 2808 2871 2757 2787 2824 2823 2881 2827 2770 2855 2791 2865 2843 2742 2772 2850 2801 2713 2776 2738 2805 2688 2786 2838 2889 2872 2839 2811 2818 2753 2833 2854 2803 2754 2830 2868 2799 2827 2808 2758 2833 2845 2892 2654 2804 2746 2788 2758 2796 2785 2823 2714 2868 2738 2864 2895 2819 2818 2813 2705 2827 2719 2835 2842 2793 2826 2765 2832 2785 2830 2819 2800 2720 2884 2784 2836 2814 2775 2726 2759 2805 2810 2728 2666 2786 2787 2831 2805 2833 2711 2861 2755 2668 2847 2798 2749 2708 2788 2752 2839 2840 2759 2813 2796 2791 2858 2681 2858 2801 2829 2851 2772 2746 2856 2769 2807 2781 2710 2878 2832 2850 2881 2817 2780 2772 2828 2773 2815 2793 2743 2814 2784 2819 2772 2763 2862

Tree=0
num_leaves=24
num_cat=0
split_feature=108 66 184 86 180 75 55 118 55 134 184 144 205 55 180 214 174 41 46 96 65 118 154
split_gain=684.694 128.62 112.206 96.9354 48.7441 46.3492 45.8187 44.401 35.9448 35.5023 35.6857 33.5307 30.1243 29.9339 38.3567 28.8468 28.5305 28.0843 26.5339 25.2498 24.8492 22.7445 22.4505
threshold=0.00033192135742865508 0.0015837577520869674 -0.31290438771247858 -0.0015845852904021738 0.65342232584953319 0.58332020044326793 -0.089174639433622346 -0.017213967628777024 -0.27976913750171656 0.07632704079151155 -0.41540236771106714 1.1118096608697671e-05 -5.8650504897173044e-08 -0.41590294241905207 -1.0579864978790281 0.81174489855766307 1.6481399143231105e-05 0.0019746524048969154 -0.0010843742638826368 0.44536288082599645 0.0010758426506072285 -0.16190962493419644 -0.73541477322578419
decision_type=2 2 2 2 2 2 2 2 2 2 2 2 2 2 2 2 2 2 2 2 2 2 2
left_child=2 4 3 13 6 22 21 -5 16 10 -7 -8 -11 14 -1 17 -4 -10 -18 -12 -21 -2 -3
right_child=1 5 8 7 -6 9 11 -9 15 12 19 -13 -14 -15 -16 -17 18 -19 -20 20 -22 -23 -24
leaf_value=0.014844927617242456 0.012151568789970094 0.0099062561995972957 0.010408232375792957 0.0091330417173976289 0.0093351557157593697 0.0054168536743190478 0.0069664417895582594 0.0071592900839907983 0.010777124768143659 0.0093251992133575358 0.0090683352680780739 0.0087271568260655873 0.0042000758827910141 0.0099690681729889697 0.010460701943179869 0.0090683352680780739 0.013330352030013546 0.0076686826537626131 0.011174407956898209 0.011130402991026928 0.006534821650574665 0.0087206701890373828 0.0074384114453778282
leaf_weight=587.32807445153594 358.6149819418788 777.65187016874552 2561.0405164584517 4934.1778352595866 5901.8330711536109 2718.6070125028491 7423.7268622592092 3185.2262307554483 14325.662437222898 175.0529384277761 1249.1486047580838 2724.0102066285908 2027.4554075486958 4933.333948072046 1079.9992255680263 2372.5232757329941 2207.9274213425815 482.58150256425142 2362.8057168275118 190.32565150782466 3321.552698854357 4703.1539742052555 2636.9032806716859
leaf_count=2290 1308 2872 9793 20512 23750 10794 30321 14215 58786 910 4587 10903 7469 19157 4126 10018 8384 1992 9957 699 12718 18411 9888
internal_value=0.00905256 0.00769117 0.0102428 0.00932661 0.0083347 0.00666235 0.00793916 0.00837249 0.010793 0.00619044 0.00665659 0.00742808 0.00465808 0.0105172 0.012072 0.0104523 0.011598 0.0106683 0.0122403 0.00738794 0.00681565 0.00898579 0.00803313
internal_weight=73240.6 34208 39032.6 14720.1 21111.3 13096.7 15209.5 8119.4 24312.5 9682.14 7479.63 10147.7 2202.51 6600.66 1667.33 17180.8 7131.77 14808.2 4570.73 4761.03 3511.88 5061.77 3414.56
internal_count=293860 134630 159230 60300 84693 49937 60943 34727 98930 37177 28798 41224 8379 25573 6416 70796 28134 60778 18341 18004 13417 19719 12760
is_linear=0
shrinkage=1


Tree=1
num_leaves=24
num_cat=0
split_feature=86 107 184 184 66 93 114 74 66 37 117 153 90 47 6 197 143 169 74 160 55 176 198
split_gain=623.136 143.344 129.494 112.31 98.5607 58.805 55.8482 49.8159 45.8691 41.8205 36.608 35.7705 31.5791 30.0203 29.1496 27.9984 28.7959 27.5645 27.7458 27.5279 27.0267 25.2457 24.468
threshold=0.00038710198714397853 -0.0024000162957236166 -0.51026341319084156 0.57459098100662243 0.0017441577510908248 0.0019040521583519878 0.0030712272273376588 0.1747141778469086 0.00032405320962425327 0.57194450497627269 0.80525594949722301 1.8668116297249074e-07 -0.0013600651291199026 -0.0011443806579336522 0.0003270696615800262 9.5000075361895153e-07 0.017915192991495136 -0.00040901964530348772 0.049802148714661605 -0.72237089276313771 -0.12723493576049802 -1.9363365936442275e-05 -7.3254671661970847e-08
decision_type=2 2 2 2 2 2 2 2 2 2 2 2 2 2 2 2 2 2 2 2 2 2 2
left_child=1 5 9 11 10 -1 -5 17 15 20 22 13 -12 -3 -9 16 19 18 -6 -7 -2 -15 -4
right_child=2 3 4 6 7 8 -8 14 -10 -11 12 -13 -14 21 -16 -17 -18 -19 -20 -21 -22 -23 -24
leaf_value=0.0055359353272167516 -0.000336353306557569 0.0013236063858700923 -0.0011138414710293002 0.0037017588562591164 3.9319335602448915e-05 -0.0042988705601993259 0.0010573523906316114 -0.0013919379168693309 -0.00030767055731828209 -0.0040116037468714222 -0.0003045057733147099 0.00063151312553685792 -0.0029465928394453228 -0.00150107530525339 -0.0038225667602152179 0.0030112823699316562 0.0027105474146062575 0.00015799256497158745 -0.0030636294234400578 0.0012838298218555806 -0.0024228531561950942 -0.00011684717666823314 0.00064160766560140818
leaf_weight=813.05412085354328 1443.7168627940118 1162.6420152746141 1625.1201975308359 1934.8835073821247 686.71319491788745 148.06263269856572 5632.0237894579768 1532.5968537740409 1490.6671409830451 2761.5451510995626 2517.3001861870289 5934.187493044883 1220.7121695801616 5264.8720556460321 2615.550868589431 4085.4854576289654 3226.4049169309437 2084.1759389154613 1336.4680257923901 6687.4390987306833 6501.7303892821074 4365.575821775943 8039.6127848923206
leaf_count=3492 5716 4534 7070 9820 2317 579 22428 5835 5787 11129 9694 24003 5195 23282 10144 16826 12105 8380 4672 24783 26047 18514 31427
internal_value=-1.75476e-05 0.00106429 -0.00138295 0.000415837 -0.000789909 0.00201511 0.00174828 -0.0019223 0.00182492 -0.00257213 -8.40805e-05 -0.00018025 -0.00119718 -0.000636907 -0.00295143 0.00205752 0.00165916 -0.000855781 -0.00195527 0.00114658 -0.00205777 -0.000885178 0.000334884
internal_weight=73110.5 40745.3 32365.2 24294.2 21658.3 16451.1 7566.91 8255.5 15638.1 10707 13402.7 16727.3 3738.01 10793.1 4148.15 14147.4 10061.9 4107.36 2023.18 6835.5 7945.45 9630.45 9664.73
internal_count=293779 166153 127626 102581 84734 63572 32248 31348 60080 42892 53386 70333 14889 46330 15979 54293 37467 15369 6989 25362 31763 41796 38497
is_linear=0
shrinkage=0.0131668


Tree=2
num_leaves=24
num_cat=0
split_feature=108 86 75 146 188 169 188 95 212 97 188 178 174 53 27 181 90 22 67 28 116 84 149
split_gain=673.826 151.346 124.775 79.9149 75.2651 54.9459 46.056 40.0365 37.8988 31.7872 30.0094 28.9299 28.2748 28.159 28.0365 27.6661 26.9039 26.2602 25.5097 23.9498 22.9702 21.553 25.0501
threshold=0.00021295264014042917 -0.0016992148593999443 0.70580396056175243 -1.5171856944107274e-06 0.06773205474019052 -0.00041830923873931164 -0.29137319326400751 -0.14265379309654233 -0.12940952181816107 0.12959592044353488 0.3366601318120957 0.00011123737203888596 1.7383075828547593e-05 0.0029068104922771458 0.0015024915337562563 1.0239420533180239 -0.0012296717613935468 0.90337544679641735 2.5624177455902104 -1.0254490971565244 0.099393859505653395 -1.0358058810234068 0.00041895275353454059
decision_type=2 2 2 2 2 2 2 2 2 2 2 2 2 2 2 2 2 2 2 2 2 2 2
left_child=1 7 6 10 -3 9 8 19 -2 15 -4 -7 17 -14 20 -5 -11 -9 -13 -1 -8 22 -10
right_child=2 4 3 5 -6 11 14 12 21 16 -12 18 13 -15 -16 -17 -18 -19 -20 -21 -22 -23 -24
leaf_value=0.0044763420859240486 -0.0024939197470693138 -0.00037238830572597142 -0.0017608121523317449 -0.0037217062400566269 0.0012053173303894294 -0.0026710720521246969 0.00034893195125327919 0.00034231494096551989 0.0026059223652642968 -0.0034581116186957763 0.00012370869801841489 0.0002703332452462339 0.0027347722284167533 -0.00028310584715705015 -0.0027555317301449934 -0.0002270432024316508 -0.006900732670193436 0.0026697126458103291 -0.0060068004432655923 0.0024143297124616051 -0.00096425256778412036 -0.0010559549996732125 -0.0034016872207565511
leaf_weight=1388.638344284147 3565.4546021036804 10768.324252363294 4145.2118071615696 2263.0829133465886 10083.404483851045 2923.0519176088274 8251.2237051092088 4359.1015567593277 608.27378727868199 898.67390443757176 2101.8865208253264 1199.0684001222253 3661.0106115564704 551.10945005342364 688.12944413721561 559.27382870018482 1101.4424736909568 1093.5218962691724 121.99009665846825 5904.7691748328507 3203.4035055823624 3646.5778819359839 136.50515684112906
leaf_count=5312 14295 45600 16713 8179 42534 12592 32172 16662 2031 3390 7779 5768 14608 2192 2707 1944 4091 4249 571 22589 12488 15005 403
internal_value=-7.77399e-05 0.00114304 -0.00138429 -0.0022829 0.000385202 -0.00307951 -0.000694091 0.00206829 -0.00147464 -0.0040628 -0.00110889 -0.00193593 0.0014878 0.00231343 -0.000173432 -0.00306874 -0.00540972 0.000829538 -0.000224857 0.00282223 -8.57245e-06 -0.000621643 0.00135501
internal_weight=73223.1 37809.9 35413.2 15313.7 20851.7 9066.58 20099.6 16958.2 7956.81 4822.47 6247.1 4244.11 9664.74 4212.12 12142.8 2822.36 2000.12 5452.62 1321.06 7293.41 11454.6 4391.36 744.779
internal_count=293874 153746 140128 61027 88134 36535 79101 65612 31734 17604 24492 18931 37711 16800 47367 10123 7481 20911 6339 27901 44660 17439 2434
is_linear=0
shrinkage=0.0131668


Tree=3
num_leaves=24
num_cat=0
split_feature=108 65 180 86 55 180 174 55 26 62 88 115 86 188 111 198 52 108 212 115 72 37 188
split_gain=582.976 119.091 108.926 61.7529 54.5381 54.2414 53.5586 50.3234 50.0111 40.2517 36.1427 35.6096 37.5901 38.1696 35.306 31.2564 30.8721 34.7359 29.9543 27.493 26.6022 26.4684 25.0469
threshold=0.00033192135742865508 0.0018381146946921947 -0.26299519836902613 -0.0021766049321740861 -0.28433969616889948 0.51041042804718029 3.1758614568389028e-05 -0.12016024813055991 -0.0002861747052520513 0.58808702230453502 -1.2524337768554685 0.0037248716689646248 0.00055676439660601329 -0.81297805905342091 -0.0026490639429539438 -7.9999857405255157e-08 0.0040139306802302608 -0.0021705587860196825 0.37940952181816107 0.013200350105762483 0.0016993782483041289 0.64761149883270275 1.1811299324035647
decision_type=2 2 2 2 2 2 2 2 2 2 2 2 2 2 2 2 2 2 2 2 2 2 2
left_child=2 5 3 9 -4 7 8 -2 -3 -1 -9 12 -12 -14 -8 -5 17 -6 -13 -10 22 -22 -19
right_child=1 6 4 15 16 -7 14 10 19 -11 11 18 13 -15 -16 -17 -18 20 -20 -21 21 -23 -24
leaf_value=0.00073760555168879134 4.2379710717888169e-05 -0.00041101880540241655 0.0026751274865143677 -0.0012236992922585628 0.0024297213670070607 0.00017142766120596735 0.00017307770740986343 -0.0049195327478768185 -0.0039026141460776686 0.0034910746517587635 -0.00012078470076756331 -0.0015441935172596955 -0.0052875081316486171 -0.0019964228064915978 -0.002288648143423026 0.0002463938995878528 -0.00032565220542291116 0.0011798833612557784 0.00015825385475865794 0 2.5436542788963388e-05 0.0025854298316028471 0.0036424735677541291
leaf_weight=4310.6216898784041 4231.5610759668052 1062.4172878451645 6878.7563069947064 4213.8088640794158 4524.5687179155648 7682.8991112075746 1760.6801549233496 571.03942792490125 5190.2432147189975 1235.8581075966358 1000.9048541672528 4343.449774172157 1043.5545256212354 1921.9277357049286 2145.7929224222898 5971.7510384172201 1800.3712176680565 3197.3551570698619 2862.8001196347177 379.8589136749506 5043.1261176913977 831.36633395031095 1035.3617522828281
leaf_count=16333 16466 4045 27417 18656 17423 30642 7066 2203 19604 4956 4442 16456 4599 8327 8525 24173 7292 14898 10579 1574 19765 3263 4970
internal_value=3.21705e-06 -0.00125044 0.00110414 0.000249209 0.00167632 -0.000725087 -0.00241918 -0.00116323 -0.00314955 0.00137125 -0.00160714 -0.00142786 -0.00244526 -0.00319219 -0.00115056 -0.000350835 0.00125141 0.00145309 -0.000852385 -0.00365186 0.00100485 0.000406725 0.00180862
internal_weight=73240.1 34197.1 39042.9 15732 23310.9 23658.1 10539 15975.2 6632.52 5546.48 11743.7 11172.6 3966.39 2965.48 3906.47 10185.6 16432.1 14631.8 7206.25 5570.1 10107.2 5874.49 4232.72
internal_count=293674 134528 159146 64118 95028 93714 40814 63072 25223 21289 46606 44403 17368 12926 15591 42829 67611 60319 27035 21178 42896 23028 19868
is_linear=0
shrinkage=0.0131668


Tree=4
num_leaves=24
num_cat=0
split_feature=87 86 188 86 56 166 203 118 91 57 207 175 171 6 95 53 69 110 118 152 87 150 73
split_gain=633.646 206.832 104.891 67.9985 59.029 53.6999 49.0679 44.7761 40.6211 39.804 35.6756 35.0244 33.9995 31.4583 30.5147 29.7414 29.1755 28.9512 27.198 24.2331 30.6698 23.5118 23.3961
threshold=0.0011506823357194664 -0.0014072656049393115 -0.26800711452960962 0.0026149806799367075 1.0909348130226137 -1.1295245289802549 -0.29688958823680872 0.02083544991910458 0.0046199406497180471 -0.41799372434616083 -0.10367958992719649 8.125129534164445e-05 0.058131907135248191 0.00026062698452733463 -0.15849261730909345 0.001143048517405987 -0.0010613802005536852 -2.7926855182158757e-05 -0.0086184763349592668 -4.1753032746782984e-06 -0.0026000611251220103 -4.300090949982404e-05 0.0019131563603878023
decision_type=2 2 2 2 2 2 2 2 2 2 2 2 2 2 2 2 2 2 2 2 2 2 2
left_child=1 5 9 6 15 8 -2 -4 -1 -3 22 13 -9 14 -7 17 18 -5 -11 20 -15 -8 -6
right_child=3 2 7 4 10 11 21 12 -10 16 -12 -13 -14 19 -16 -17 -18 -19 -20 -21 -22 -23 -24
leaf_value=0.0046174469451359546 -0.0029592921557978612 0.00083600019469432039 0.0012564130989261733 0.0054765373850483769 -0.0082464661816349528 0.0027258829298648585 0.0016027579873352895 -0.00077576461631226866 -0.001334534548593164 0.00012576295500361224 -0.0032940201261521013 0.0027761606215552506 0.0010354146884610695 0.0035966606873793412 0.0011343445324519974 -0.0021259861827636565 -0.0022845822197009899 -0.00069227937696546163 -0.0014520568329262188 -0.00031443088857581258 -0.0010946895762729263 -0.00090783772246070865 -0.00072619486263583027
leaf_weight=1722.6527075916529 2139.7747549638152 1976.2668610885739 11025.301701791584 166.78580801934004 498.1578937843442 3337.7577508166432 668.64049850404263 4554.7523755393922 193.13443685323 3408.63058738783 3651.9861111231148 3591.3871744275093 2957.2908574193716 703.48861114308238 6767.0949109978974 6382.6757027208805 3007.3239329122007 550.33644536882639 3951.5710856355727 2971.1002590246499 321.35054695233703 8731.1387133672833 123.13905645906925
leaf_count=6625 8203 8247 45504 626 1820 12353 2450 19476 786 13650 14147 15815 12557 2580 25891 24592 14041 2025 16667 10769 1210 33586 582
internal_value=-5.48199e-05 0.000767733 9.23992e-05 -0.00187222 -0.00260255 0.00182564 -0.00114277 0.000721837 0.00395917 -0.000843822 -0.00384958 0.00158831 -4.7898e-05 0.00127786 0.00167109 -0.00183626 -0.00117479 0.000586856 -0.000706183 0.000255526 0.00201676 -0.000717379 -0.00693557
internal_weight=73401.7 50489.1 30881.1 22912.6 11373.1 19608 11539.6 18537.3 1915.79 12343.8 4273.28 17692.2 7512.04 14100.8 10104.9 7099.8 10367.5 717.122 7360.2 3995.94 1024.84 9399.78 621.297
internal_count=294202 206171 130142 88031 43792 76029 44239 77537 7411 52605 16549 68618 32033 52803 38244 27243 44358 2651 30317 14559 3790 36036 2402
is_linear=0
shrinkage=0.0131668


Tree=5
num_leaves=24
num_cat=0
split_feature=86 86 184 111 93 65 74 168 97 178 118 78 86 154 212 6 56 76 180 159 7 179 40
split_gain=564.082 182.51 128.031 77.479 69.1245 56.8871 47.558 44.0432 41.7239 36.6857 31.0737 27.5169 27.4248 27.3823 25.6702 25.4087 25.3426 25.0578 25.0116 24.0446 23.4547 23.053 21.9132
threshold=0.001360936963465065 -0.0016590187442488966 -0.35897026956081385 -0.0012850117636844514 0.0019040521583519878 0.0022026349324733023 0.18651457130908969 -0.5281773805618285 0.12689424306154254 9.9528997452580387e-06 -0.03415925242006778 1.2975333333015444 -0.0027559191221371289 -0.58025303483009327 -0.37940952181816096 0.00016353432147298011 -0.74180591106414784 0.06986983492970468 0.65342232584953319 -0.099529508501291261 0.0020341792842373256 -6.2294686358654858e-05 0.6035820245742799
decision_type=2 2 2 2 2 2 2 2 2 2 2 2 2 2 2 2 2 2 2 2 2 2 2
left_child=1 4 10 5 12 15 -5 22 11 14 16 18 -1 -11 -7 21 -3 20 -4 -17 -9 -2 -6
right_child=3 2 8 6 7 9 -8 17 -10 13 -12 -13 -14 -15 -16 19 -18 -19 -20 -21 -22 -23 -24
leaf_value=0.0086265976974908964 -0.0013542678841640438 0.00165088582368598 0.00076149928272844223 -0.0017529033459133994 0.0033408909511710451 -0.0049147226522398904 -0.0042363184062258613 0.0016022966127402544 -0.00028021635940768353 -4.3160683192729542e-05 -0.001480218616836688 -0.00040406160054232186 0.0034615922737935992 -0.0027010570584099767 -0.0022467181648171035 -0.0062000735927527873 -0.00058657596091835052 -0.00030679172750071434 0.0018745132684451827 -0.0012106648802083864 -0.00072922899469983515 0.00050657593333139502 -0.00050471620104672104
leaf_weight=317.76395777612925 1677.7377877309918 1069.6584497541189 8326.7372821755707 2622.682150259614 2888.1789604313672 1247.7388866655529 3244.5521647185087 11160.215697932988 4922.3658055849373 1644.3693035729229 7017.0701916888356 1816.6875397153199 723.71662671491504 1250.1765876784921 1764.3295100070536 190.09796258062124 4674.4939405955374 1482.8612434007227 6749.7872474975884 3636.2274368368089 733.57885885611176 3653.464412715286 227.60545311123133
leaf_count=1275 7042 4633 34064 10018 11204 4949 12906 42762 20789 6466 30121 7260 3191 5074 6852 543 18859 6092 28141 14237 2888 13430 732
internal_value=-2.02582e-05 0.00071153 0.000153108 -0.00184745 0.00180637 -0.00133457 -0.00314524 0.0015888 0.000768644 -0.0023497 -0.000890421 0.00108087 0.00514462 -0.00122968 -0.00338898 -0.000667627 -0.000150497 0.00124612 0.0012672 -0.00148771 0.00144911 -5.8105e-05 0.00302416
internal_weight=73042.1 52110.7 34576.8 20931.4 17533.9 15064.1 5867.23 16492.4 21815.6 5906.61 12761.2 16893.2 1041.48 2894.55 3012.07 9157.53 5744.15 13376.7 15076.5 3826.33 11893.8 5331.2 3115.78
internal_count=293528 212011 143867 81517 68144 58593 22924 63678 90254 23341 53613 69465 4466 11540 11801 35252 23492 51742 62205 14780 45650 20472 11936
is_linear=0
shrinkage=0.0131668


Tree=6
num_leaves=24
num_cat=0
split_feature=108 86 55 184 75 184 93 121 85 117 0 116 0 207 188 184 197 44 118 109 96 103 107
split_gain=607.061 143.426 113.765 102.475 68.6707 52.4751 46.2875 35.8645 33.2624 34.3801 32.6662 32.1461 28.8462 33.1845 28.0798 27.4598 25.4408 38.4397 24.718 23.4357 23.2759 22.769 21.71
threshold=0.00062458866159431647 -0.001777177269104868 -0.089174639433622346 -0.21194977313280103 0.58332020044326793 0.20335231721401217 0.0019040521583519878 0.00011866130807902665 0.0004785474884556607 -0.79425397515296925 -0.00024192698037950319 0.037334147840738303 3.5156985177309259e-05 -0.1194181442260742 1.1811299324035647 -0.4043371826410293 9.3017018798491346e-07 -1.6484106779098509 0.17631184309720996 0.78203079104423534 -0.10827583074569701 -0.5401780605316161 0.00028786138864234095
decision_type=2 2 2 2 2 2 2 2 2 2 2 2 2 2 2 2 2 2 2 2 2 2 2
left_child=1 6 -2 18 15 10 -1 -7 14 -10 11 -6 16 -14 -5 -4 17 -8 -3 -15 -9 -19 -11
right_child=2 3 4 8 5 7 12 20 9 22 -12 -13 13 19 -16 -17 -18 21 -20 -21 -22 -23 -24
leaf_value=0.0050228140733575774 0.00014817091353650763 -0.00032297321907857294 -0.0018399677279951608 0.0014805564904446166 0.00029785806879399569 -0.00015586745757211349 -0.0040397793412822614 0.001854313293032387 0.0022519064900295722 -2.788699427233913e-05 -0.003574356716906698 -0.0028138860829101165 -0.0027907977849397077 0.0015141515353673501 0.004002943365600988 -0.00036464976028381874 0.0035045577681534551 0.00031679927717826443 -0.0027447393298586122 -0.003725020014481321 -0.0025515119365715024 0.0024225185308320175 0.001553520255678689
leaf_weight=893.18126625195146 6695.3285919576883 10013.511099752039 3581.298239916563 3542.0889898315072 847.01545192301273 2548.9864241890609 173.0295548401773 192.43962271139026 2076.6779872328043 6279.1630296893418 6040.2995271645486 1470.6358769200742 334.63923826441169 5873.4955301843584 1098.4172731712461 6275.7256158441305 2557.8438344448805 1220.6849721968174 810.76734441891313 140.03507357090712 3220.7590253427625 5318.2257837764919 1927.7592233046889
leaf_count=3797 25819 42254 14080 17746 3252 9893 508 753 7920 24170 24089 5847 1205 22257 5687 24235 10607 4751 3632 553 12814 20096 7624
internal_value=4.65669e-05 0.00107338 -0.00135536 0.00045354 -0.00177635 -0.00236352 0.00203323 -0.00138511 0.00116325 0.000728947 -0.00304813 -0.00162852 0.00185512 0.00113649 0.00210166 -0.000911989 0.00233521 0.00187296 -0.000514679 0.00137359 -0.00227042 0.00204649 0.000329981
internal_weight=73132 42259.5 30872.5 25748.4 24177.2 14320.1 16511.1 5962.19 14924.1 10283.6 8357.95 2317.65 15618 6348.17 4640.51 9857.02 9269.78 6711.94 10824.3 6013.53 3413.2 6538.91 8206.92
internal_count=293589 172807 120782 109033 94963 56648 63774 23460 63147 39714 33188 9099 59977 24015 23433 38315 35962 25355 45886 22810 13567 24847 31794
is_linear=0
shrinkage=0.0131668


Tree=7
num_leaves=24
num_cat=0
split_feature=108 66 188 108 184 111 105 27 76 159 126 118 176 29 13 169 156 170 74 97 93 24 6
split_gain=619.583 117.857 83.9622 79.9942 78.4062 58.3337 49.4375 32.6312 31.5611 31.2123 30.655 30.018 26.968 31.4593 26.9468 27.2619 27.4691 26.3173 26.0429 28.4423 25.4834 25.1844 24.4167
threshold=0.00021295264014042917 0.0016783110913820567 0.078714128583669676 -0.0021210015984252091 -0.20121002942323682 -0.001885899109765887 0.11543089896440507 0.00015675777103751901 -0.08430034294724463 -0.081785254180431352 0.39047674834728247 -0.017213967628777024 0.00010596441279631109 7.8866130934329717e-05 -0.0059558316133916369 -0.00050520108197815705 0.14255430549383166 9.0960335731506365 0.061374697834253318 -0.13504397124052045 0.0059601981192827233 -1.2656233310699461 0.00014257465227274227
decision_type=2 2 2 2 2 2 2 2 2 2 2 2 2 2 2 2 2 2 2 2 2 2 2
left_child=2 4 3 7 5 -2 12 10 20 -10 -1 -5 13 21 -8 16 -16 -15 -19 -20 -4 -3 -6
right_child=1 6 8 11 22 -7 14 -9 9 -11 -12 -13 -14 17 15 -17 -18 18 19 -21 -22 -23 -24
leaf_value=0.0016173177348583899 -0.00079508500450533714 -0.0038216740837680946 0.0025728360545119754 0.00046221385271758383 0.00051006918695079549 -0.0029519658627821812 0.0013849932183096385 0 0.0031008116544394833 0.00073337897161651914 0.0044281478656909403 -0.00090770301692006262 0.00022452404513268734 -0.0013555649734798246 -0.0060841362180624999 -0.0028819503293791428 0 -0.00061122853905038041 0 -0.0049223393830735724 0.0006893925390448664 0 -0.00064304884238687771
leaf_weight=5824.8796541802585 6685.651142347604 361.99617351591587 9316.2609246559441 6302.2419669665396 7438.0468112193048 3384.5759462155402 166.40817906707525 1781.9853783175349 1212.3172695748508 6075.195801731199 832.64260518550873 4902.0166471041739 1106.7907752990723 1940.8272537663579 1040.4905000291765 3333.9701497405767 106.56020614132285 499.84053368866444 252.39989133551717 1612.795127004385 1633.6443108282983 2000.729054607451 5559.0647003278136
leaf_count=22191 26485 1178 37269 25870 29520 14508 629 6741 4581 26026 3250 21204 4882 8720 4236 12980 308 1489 737 4772 6550 7547 22244
internal_value=2.59162e-05 -0.00122257 0.00119855 0.000592863 -0.000658907 -0.00153109 -0.00226024 0.00156202 0.00184482 0.00114253 0.00198562 -0.000127185 -0.0015905 -0.00190848 -0.00335673 -0.00355772 -0.00542459 -0.00258721 -0.00355075 -0.00427867 0.00230203 -0.000624324 8.27776e-06
internal_weight=73371.3 35490.1 37881.2 19643.8 23067.3 10070.2 12422.8 8439.51 18237.4 7287.51 6657.52 11204.3 7775.38 6668.59 4647.43 4481.02 1147.05 4305.86 2365.04 1865.2 10949.9 2362.73 12997.1
internal_count=293917 140235 153682 79256 92757 40993 47478 32182 74426 30607 25441 47074 29325 24443 18153 17524 4544 15718 6998 5509 43819 8725 51764
is_linear=0
shrinkage=0.0131668


Tree=8
num_leaves=24
num_cat=0
split_feature=108 86 55 184 107 184 169 125 106 48 117 96 151 55 55 76 124 174 162 33 88 51 20
split_gain=580.53 106.509 97.9069 77.7559 66.2843 57.0609 49.3909 39.4609 37.763 35.2076 33.0863 32.7288 34.3274 32.1783 31.7649 31.3215 28.2487 27.9993 31.7107 26.4378 28.5608 25.6601 25.2089
threshold=0.00021295264014042917 -0.0016218432574532924 0.23997830599546435 0.28191979229450231 0.0033490397036075596 -0.47344961762428278 -0.00041531695751473302 0.51866275072097789 0.00056329602375626575 -0.56444954872131337 -0.79425397515296925 -1.3995029926300047 -4.2190916360596015e-07 -0.13074795901775357 -0.11326172575354575 -0.16134271770715711 -0.00028289762849453831 3.2650556022417738e-05 -0.012468852568417786 0.0021683243103325371 1.5828930735588076 0.0043901132885366687 7.8705743362661465e-05
decision_type=2 2 2 2 2 2 2 2 2 2 2 2 2 2 2 2 2 2 2 2 2 2 2
left_child=1 7 5 16 6 13 15 11 -5 21 -10 12 -1 -2 -9 -4 -3 18 -13 20 -8 -6 -17
right_child=2 3 4 8 9 -7 19 14 10 -11 -12 17 -14 -15 -16 22 -18 -19 -20 -21 -22 -23 -24
leaf_value=0.0042581098820916614 -0.0002606228520221513 0.0012579089097601987 0.00018032179641298059 0.002573679000126203 -0.0028644533645356255 -0.00023880918627232643 0.00049501648892692806 0.0053357843223337713 0.0026243958472522491 -0.0039049258491498126 8.1067424662467912e-05 0.0015832552098577358 0.0014231148283677217 -0.0021884138057247319 -0.00045534213148353155 -0.0017680807993975685 -0.00050596168726305471 0.0021770830588926792 -3.9381520362071291e-05 0.0038445173601284652 -0.0021919638556068782 0.00060393441189966952 -0.0043016963781358913
leaf_weight=1666.1729230694473 2257.1184220947325 1841.6812406592071 648.4193728081882 3166.5853841640055 836.84140801429749 15057.221851885319 1832.448725618422 911.4895683452487 1188.37655948475 4108.8560498505831 3893.0475600771606 4778.41039378196 1616.1886272765696 5486.2222405858338 158.11614727973938 1908.9101468883455 10099.38661294803 4959.6830988563597 3476.1256377622485 270.83798199519515 1059.3576545342803 583.6018334813416 1315.5839908085763
leaf_count=6480 9088 7252 2248 15310 3143 58449 8374 3389 4535 15775 15101 17748 6300 22023 568 7435 43467 19963 13388 1172 5071 2304 4555
internal_value=-2.77982e-05 0.00110611 -0.00124148 0.000446483 -0.00217914 -0.000719866 -0.00130474 0.00185787 0.00143153 -0.00327156 0.000697827 0.00168787 0.00289619 -0.00164089 0.00437538 -0.00230251 -0.000224574 0.00137929 0.000886418 -4.76103e-05 -0.000450722 -0.00136088 -0.00283639
internal_weight=73120.7 37755.3 35365.4 20189.1 12564.9 22800.6 7035.56 17566.2 8248.01 5529.3 5081.42 16496.6 3282.36 7743.34 1069.61 3872.91 11941.1 13214.2 8254.54 3162.64 2891.81 1420.44 3224.49
internal_count=293138 153501 139637 85665 50077 89560 28855 67836 34946 21222 19636 63879 12780 31111 3957 14238 50719 51099 31136 14617 13445 5447 11990
is_linear=0
shrinkage=0.0131668


Tree=9
num_leaves=24
num_cat=0
split_feature=108 66 184 87 75 184 55 97 15 74 212 134 96 107 5 123 8 118 7 57 167 176 148
split_gain=548.116 125.27 108.301 79.2246 57.8141 55.1684 50.1414 49.6952 39.138 35.1765 32.2746 31.3987 30.109 29.0363 27.9779 27.7184 27.0048 27.1765 38.3903 26.879 26.8629 26.1784 25.466
threshold=0.00021295264014042917 0.0016783110913820567 -0.089342329651117311 -0.0026000611251220103 0.58332020044326793 -0.47344961762428278 -0.27525578439235682 -0.020377743989229199 0.533694088459015 -0.087467376142740236 -0.6035533845424651 0.06964901834726335 -1.4334917068481443 -0.01274257432669401 0.500138819217682 -0.70931720733642567 -0.0026967470766976471 -0.17191581428050992 0.001216254895552993 -0.42979072034358973 -0.00010608627417241222 0.00011163953604409473 -1.5090332681211292e-06
decision_type=2 2 2 2 2 2 2 2 2 2 2 2 2 2 2 2 2 2 2 2 2 2 2
left_child=2 5 3 14 -3 9 -4 10 21 -2 -6 20 13 -8 -1 -5 -14 -18 -19 -11 -12 -9 -10
right_child=1 4 6 15 7 -7 12 8 22 19 11 -13 16 -15 -16 -17 17 18 -20 -21 -22 -23 -24
leaf_value=0.0025295975681448864 0.00077007118617691025 -0.00068023047802887775 0.0027430197820178135 -0.0024355252288961976 -0.0035653770219397133 -0.00013360929999575391 0 -0.0026699305210340423 -0.00052764782299296285 0.00052198556298977219 -0.0027661717202983006 -0.0038738962642569982 -0.0019373050488834494 0.0049506734097366327 0.00032710121257181876 -4.1050482720796259e-05 0.0022546023313289188 0.0011621327903348344 -0.0014356452563321098 -0.0021173586761486958 0.0016860577195562253 0.00059881242890565502 -0.0045815346144829003
leaf_weight=3045.4554755799472 964.05983735620975 3182.4806198403239 6205.242714472115 913.06889691203833 658.90660817548633 15169.552648667246 252.57221429422498 2405.8658847883344 358.4322808906436 676.44321438297629 283.75156623125076 316.17025388032198 454.51920899748802 715.20583132654428 1675.4482106491923 11643.494674198329 3480.7977143526077 8452.8474630378187 1080.1094796173275 6179.8435122407973 1122.9768481813371 451.54856429249048 3612.9666623473167
leaf_count=11701 3781 11838 24541 3668 2434 60634 1062 9110 1398 2690 895 1158 1721 2903 6397 48382 13478 35813 4301 25765 4235 2209 13936
internal_value=-6.4996e-06 -0.00118668 0.00109181 0.000314772 -0.00225705 -0.000604816 0.00173681 -0.00278977 -0.00336907 -0.00150457 -0.00108202 -6.7514e-05 0.00129657 0.00359322 0.00177157 -0.000224055 0.00112326 0.00123873 0.000856093 -0.00184069 0.000708676 -0.00211433 -0.00424375
internal_weight=73301.8 35383 37918.8 17277.5 12393.1 22989.9 20641.3 9210.62 6828.81 7820.35 2381.81 1722.9 14436.1 967.778 4720.9 12556.6 13468.3 13013.8 9532.96 6856.29 1406.73 2857.41 3971.4
internal_count=294050 140083 153967 70148 47213 92870 83819 35375 26653 32236 8722 6288 59278 3965 18098 52050 55313 53592 40114 28455 5130 11319 15334
is_linear=0
shrinkage=0.0131668


Tree=10
num_leaves=24
num_cat=0
split_feature=108 57 188 12 56 55 192 75 56 188 49 118 167 180 103 121 142 19 174 209 165 2 69
split_gain=560.128 109.97 106.071 72.5223 53.5846 52.3587 50.2457 43.3229 39.2791 35.2158 30.9372 33.8406 29.1215 29.0678 28.2567 28.1004 27.743 26.8888 26.7891 26.1135 25.679 25.1279 23.4839
threshold=0.00033192135742865508 0.19094420969486239 -0.27937710285186762 -0.0035486752167344089 0.52607575058937084 -0.29939767718315119 0.23795404285192492 0.4982230961322785 1.1228080391883852 1.1811299324035647 -9.0996469225501628e-05 -0.0068678183015435925 -0.00017213838873431084 0.58190709352493297 -0.68919280171394337 -0.00022689136676490304 -1.8473136151442301e-05 0.00050287102931179117 3.1758614568389028e-05 -2.328483894586952e-08 0.00055679009528830658 0.00089742444106377672 -0.0043435408733785144
decision_type=2 2 2 2 2 2 2 2 2 2 2 2 2 2 2 2 2 2 2 2 2 2 2
left_child=2 6 3 -1 13 15 8 12 -2 -7 20 -12 19 -3 -9 -4 -8 -13 22 -6 -5 -14 -16
right_child=1 4 5 10 7 9 16 14 -10 -11 11 17 21 -15 18 -17 -18 -19 -20 -21 -22 -23 -24
leaf_value=0.0013597401067641532 -0.00078907853318462657 -0.0016323433701551024 0.0037078096585494713 0.00022394908882327242 0 0.00091821755305904326 0.0016869184053885944 -0.00020643659156777429 -0.0032068770378958045 0.0023802197081067102 -0.0001722390132236862 -0.0023929596267039908 -0.0011979132128714463 0.0003334143636496503 0.00018870881569490184 0.0018227869091879897 -0.00015796150816488899 0.0026380288429245107 -0.0022148619880657219 -0.0076868980567501854 0.0044852664537462453 0.0024614252482586169 -0.0042716715181623736
leaf_weight=5878.2302593551576 9579.5730598382652 4148.0479976572096 2761.1661730110645 1742.1617122590542 88.958398666232824 13714.692285809666 1860.2827711328864 593.86594193801284 1380.7816616781056 3816.6262917071581 4510.0242339596152 2657.5600666776299 1853.1651806496084 1777.7883117794991 165.17598017305136 3474.3218495249748 5555.6098317205906 177.08088729158044 2465.5418959744275 202.50994490087032 300.01873488724232 381.22109972685575 4114.3262360803783
leaf_count=22360 37830 16676 10578 7021 273 55856 6904 2368 5590 16290 19001 12131 7543 7121 663 14067 21712 666 10219 601 985 1469 15859
internal_value=-3.48458e-06 -0.00123607 0.00107261 0.000207741 -0.00204443 0.0016234 -0.000535367 -0.00264624 -0.00110385 0.00124287 -0.000501777 -0.000908018 -0.00109035 -0.00102377 -0.00316653 0.0026754 0.000289782 -0.00203931 -0.00341061 -0.00505193 0.000904624 -0.000523634 -0.00407344
internal_weight=73198.7 34166.8 39031.9 15265.1 15790.6 23766.8 18376.2 9864.76 10960.4 17531.3 9386.85 7344.67 2525.85 5925.84 7338.91 6235.49 7415.89 2834.64 6745.04 291.468 2042.18 2234.39 4279.5
internal_count=293783 134828 158955 62164 62792 96791 72036 38995 43420 72146 39804 31798 9886 23797 29109 24645 28616 12797 26741 874 8006 9012 16522
is_linear=0
shrinkage=0.0131668


Tree=11
num_leaves=24
num_cat=0
split_feature=108 184 75 75 135 76 184 180 10 25 159 37 73 49 63 117 27 169 168 166 27 13 214
split_gain=583.656 114.444 107.944 68.8441 56.1462 45.4311 43.4305 41.5264 41.4217 40.3838 34.0639 31.2352 29.9578 28.6199 27.9994 27.2082 24.6939 24.5789 23.8849 22.633 22.3314 21.7793 21.376
threshold=0.00021295264014042917 -0.45089468359947199 0.83986237645149242 -0.68625095486640919 0.074803721159696593 -0.1676351577043533 0.23691188544034961 0.64151504635810863 0.0004928395210299642 0.0022914215223863725 -0.081785254180431352 -0.32867433130741114 0.001553919166326523 -6.9323177740443484e-05 1.1945800185203554 -1.0434445738792417 -8.2374815974617363e-05 -0.00044316837738733733 0.61056539416313182 -0.62751054763793934 -0.00030860939295962447 -0.00026243415777571494 0.81174489855766307
decision_type=2 2 2 2 2 2 2 2 2 2 2 2 2 2 2 2 2 2 2 2 2 2 2
left_child=1 3 7 13 6 9 8 11 -4 14 20 -2 19 -1 -3 22 -10 21 -17 -9 -7 -6 -12
right_child=2 5 4 -5 17 10 -8 12 16 -11 15 -13 -14 -15 -16 18 -18 -19 -20 -21 -22 -23 -24
leaf_value=0.0021327658772502221 -2.5478087621798257e-05 0.0023184848594284273 -0.00010505144362439675 -0.00066156935677989521 -0.00016605864234307461 0.0037622984843502265 -0.00059077127088298079 0.0055802983733871563 -0.00060546818299605327 0 0.0030944370292700419 -0.0013328676726965679 -0.00019626989149341633 5.4160789064604031e-05 0.004882225641242504 0.00081309284946228704 -0.0033374685590482705 -0.0026369199871061483 -0.0010953138518602996 0.0010514825464326069 0.00089045796866288373 -0.0062820715597788302 -0.00058089781179840923
leaf_weight=3049.7735107466578 4568.3720697127283 9830.0550746358931 1202.7312267012894 7425.7609939537942 155.51825020089746 1333.9743312261999 4006.4272324666381 260.2237521559 784.94615295156837 1226.3648054376245 1384.3625775724649 11820.82857613638 4949.4192968457937 2023.1522843874991 900.24830206856132 8284.4850813485682 4177.233176894486 1406.4135712943971 1272.4884172342718 1151.637580960989 908.42836795374751 946.62171802669764 281.65638784691691
leaf_count=11910 17660 38268 4972 30591 570 4721 15783 1141 3165 4957 5760 46678 18933 8523 3559 35485 16685 6033 5381 5220 3712 3428 1117
internal_value=4.07156e-05 0.00117747 -0.00117279 0.000136124 -0.0021499 0.00168506 -0.00169541 -0.000623299 -0.00239519 0.00228527 0.00114381 -0.00097525 0.000265928 0.00132579 0.00254398 0.000833192 -0.00292779 -0.00394823 0.000547318 0.00196524 0.00264864 -0.00552031 0.00240611
internal_weight=73351.1 37920.8 35430.4 12498.7 12679.9 25422.1 10171.3 22750.5 6164.91 11956.7 13465.4 16389.2 6361.28 5072.93 10730.3 11223 4962.18 2508.55 9556.97 1411.86 2242.4 1102.14 1666.02
internal_count=294252 153984 140268 51024 50636 102960 40605 89632 24822 46784 56176 64338 25294 20433 41827 47743 19850 10031 40866 6361 8433 3998 6877
is_linear=0
shrinkage=0.0131668


Tree=12
num_leaves=24
num_cat=0
split_feature=108 184 75 108 184 89 9 46 27 6 118 207 53 97 57 93 7 184 0 118 81 26 72
split_gain=505.395 103.175 94.5632 76.6329 49.2752 49.0121 48.0489 44.9488 43.2274 33.6033 32.8903 32.5319 28.7198 26.78 26.5673 24.9733 24.8561 24.3534 26.4065 24.1782 23.6798 23.4881 24.0638
threshold=0.00033192135742865508 -0.30097959935665125 0.94833067059516918 -0.0023688585497438903 -0.4043371826410293 4.0088568766805119e-06 -0.0004270264616934582 -0.0011376831098459659 0.0015024915337562563 0.00016353432147298011 -0.22966258227825162 -0.050560759380459779 0.0015126556972973051 0.12689424306154254 0.20581398904323581 0.0018852608627639713 0.0027940624859184031 0.20335231721401217 -6.8127719714539112e-05 -0.015478888526558874 0.00067641146597452473 -0.00063039184897206713 0.0065502556972205648
decision_type=2 2 2 2 2 2 2 2 2 2 2 2 2 2 2 2 2 2 2 2 2 2 2
left_child=1 3 4 15 -2 9 -7 12 14 20 -9 -11 13 -3 -6 -1 -12 18 -8 -5 -4 -17 -23
right_child=2 7 5 19 8 6 17 10 -10 11 16 -13 -14 -15 -16 21 -18 -19 -20 -21 -22 22 -24
leaf_value=0.0057517361735515251 -0.0015229571280943714 0.0040001320638624275 -0.0010005316480665278 0 0.00035535846644226861 0 -0.0024572423013650797 0.0025685059792874983 -0.0029865598016504511 -0.0032060544676348109 0.0010747359069725308 0.00015021323280033045 0.0012760549366286362 3.4096996637624676e-05 -0.00082698338225408114 0.0021775967070525619 -0.0025657238449960382 -0.0022256937859390408 -0.0050128509814113785 -0.0013479741994458828 0.0021952588799399688 0.00069390115164501254 -0.0040405467019626199
leaf_weight=227.42693238705397 8612.2762800268829 2580.2929373793304 827.67378261685371 5351.6918721161783 8923.3492662683129 803.38253912702203 1375.7632392607629 2842.7400328032672 948.55491093546152 1410.8529730066657 16225.766609232873 681.08134356513619 1794.400396052748 397.79942112416029 5193.100749026984 2268.7254091203213 314.24266567826271 2593.42911490798 2148.336603436619 4092.3109893836081 743.12734727188945 2943.4918219223619 194.3410459049046
leaf_count=998 34155 9442 3511 22193 34211 3244 5464 11080 3726 5260 67465 3094 7127 1634 20280 8764 1252 10409 8753 17693 2753 11090 720
internal_value=-2.53538e-05 0.000993429 -0.00119525 0.00013069 -0.00072577 -0.00223501 -0.00289511 0.00152734 -0.000262631 -0.000957247 0.0012348 -0.00206 0.00269209 0.00350784 -7.16922e-05 0.00135203 0.000998825 -0.00329303 -0.00404684 -0.000586106 0.000440325 0.00114631 0.000365112
internal_weight=73494.2 39233.2 34260.9 15078 23677.3 10583.6 6920.91 24155.2 15065 3662.74 19382.7 2091.93 4772.49 2978.09 14116.5 5633.99 16540 6117.53 3524.1 9444 1570.8 5406.56 3137.83
internal_count=294318 159458 134860 61458 92372 42488 27870 98000 58217 14618 79797 8354 18203 11076 54491 21572 68717 24626 14217 39886 6264 20574 11810
is_linear=0
shrinkage=0.0131668


Tree=13
num_leaves=24
num_cat=0
split_feature=108 108 27 188 169 158 74 107 93 55 175 40 8 56 19 33 56 149 168 21 116 146 8
split_gain=500.846 99.285 89.1902 80.9942 70.5433 56.4663 36.9671 36.9263 36.8523 33.3203 33.3036 32.0528 29.8653 27.4589 26.9211 26.4872 26.4575 26.2368 25.3394 24.8955 24.6843 25.9123 24.1657
threshold=0.00021295264014042917 -0.002076551783829927 0.00022265327424975115 -0.24582453817129132 -0.00040577967592980707 0.93218287825584423 0.027227796614170078 0.0033490397036075596 0.0019624398555606608 0.17738715559244159 3.3646638257778256e-05 0.71663096547126781 0.00068332665250636648 -1.7171333432197569 0.00032562462729401892 0.0002102509970427491 -0.32001489400863642 0.00080936987069435428 0.33787198364734655 0.00061189202824607502 0.047289617359638221 2.0133165890001696e-06 0.00088650739053264271
decision_type=2 2 2 2 2 2 2 2 2 2 2 2 2 2 2 2 2 2 2 2 2 2 2
left_child=1 8 16 -3 5 6 12 19 -1 14 -10 -11 -4 -12 17 -5 -2 -8 -15 -6 -18 22 -22
right_child=2 3 4 15 7 -7 9 -9 10 11 13 -13 -14 18 -16 -17 20 -19 -20 -21 21 -23 -24
leaf_value=0.0044251813873094773 0.00020511641501705212 -0.00053030968746277949 -0.0026937429752197524 0.0024866099931202942 -0.00070720139943815049 -0.0060552351911954093 -0.00099511605392238315 -0.001777883823840608 0.0011833681583890384 -0.0035785320481861466 0.0060014564716500979 0.00051503253243839774 0.00029447534093368665 0.0026577979489686709 0.0027149997639152445 0.00083863603875710421 -0.00014436693150070374 -0.0044143894680318237 0.00023330568261562776 0.0013643757892024943 -0.0025391983882406049 -0.0002369962770060494 0.0020527796952323468
leaf_weight=945.10890201479197 6863.5129683203995 8476.8522702455521 864.5582174398005 2140.2035553008318 2859.2274936959147 734.55318737402558 1875.9567169435322 3589.0060118697584 9951.1689148284495 4562.4850698262453 395.95972810313106 306.8803722076118 1602.5532806664705 4229.7193861864507 232.93367873504758 10672.541094720364 4811.147871337831 546.49446480721235 1033.5140933729708 1550.3506310880184 2961.4102015160024 1967.6971213780344 185.84073129668832
leaf_count=4012 27087 36000 2921 10356 13362 2562 6734 15140 37044 16553 1615 873 5495 16893 826 43584 19297 1911 4095 6622 12279 7925 723
internal_value=5.53923e-06 0.00106096 -0.001116 0.000459233 -0.00174267 -0.00244557 -0.00216904 -0.000786092 0.00182802 -0.00263341 0.00166363 -0.00329763 -0.00070747 0.00248841 -0.00137337 0.00112262 -0.000410445 -0.00181255 0.00220291 0 -0.000847323 -0.00148671 -0.00223259
internal_weight=73359.7 37845.1 35514.6 21289.6 18725 10726.4 9991.86 7998.58 16555.5 7524.75 15610.4 4869.37 2467.11 5659.19 2655.38 12812.7 16789.6 2422.45 5263.23 4409.58 9926.1 5114.95 3147.25
internal_count=293909 153599 140310 89940 72999 37875 35313 35124 63659 26897 59647 17426 8416 22603 9471 53940 67311 8645 20988 19984 40224 20927 13002
is_linear=0
shrinkage=0.0131668


Tree=14
num_leaves=24
num_cat=0
split_feature=108 180 184 111 86 57 0 116 212 117 118 105 56 142 164 29 142 27 169 164 48 5 152
split_gain=458.52 112.942 103.256 79.9897 75.4754 59.4245 50.3148 40.4717 38.7643 38.2819 32.7392 30.76 27.98 27.4916 25.7065 25.6757 26.0284 24.7698 25.2149 23.3616 22.2958 22.8582 21.939
threshold=0.00023626614711247387 0.51041042804718029 -0.23388523608446118 -0.001885899109765887 -0.0023876280756667252 -0.20982001721858975 0.00047047920816112315 0.057751888409256942 0.12940952181816107 -0.8460368514060973 1.0000000180025095e-35 0.02002543676644564 -0.99580103158950795 -4.8254720240947784e-05 -0.8024882674217223 -0.00010341131201130337 1.2275454992050074e-05 7.9968587670009597e-05 -0.00039607696817256505 -1.0015614628791807 -1.1842913031578062 0.23532237112522128 -4.1753032746782984e-06
decision_type=2 2 2 2 2 2 2 2 2 2 2 2 2 2 2 2 2 2 2 2 2 2 2
left_child=2 3 4 8 13 -5 14 17 12 -4 -10 -8 -2 -1 -3 16 -11 -7 -19 -6 -15 -22 -18
right_child=1 6 9 5 19 7 11 -9 10 15 -12 -13 -14 20 -16 -17 22 18 -20 -21 21 -23 -24
leaf_value=0.0029712806219345249 0.000849941889623275 0.0023560018539582213 0.0024284835290514909 -0.00010874910456192662 0.0012916593009462396 -2.7417742929004251e-05 -0.00016034310825316543 -0.0040647758430584994 0.00081577952765206688 0.0029834934240891074 -0.0010283844406095873 -0.0028764419928712587 -0.0018761471119866445 -0.0023022855723865616 0.00020376727336951994 0.0008164034666492217 0.0040714298408026537 -0.0035583729967946808 -0.00051008962164840596 -0.00071598917145381013 0.0028054494990818915 0.00035012727824176268 0.00050042531357580853
leaf_weight=1521.529476787895 656.25508750602603 1146.5410518981516 6445.7466432377696 1447.9005260914564 1092.9621596634388 916.57556688040495 1654.2375160269439 3864.2208636812866 2746.0768075175583 2455.5403934940696 4135.3865992091596 1427.7141371369362 7462.559232711792 341.93027664348483 7078.2004627548158 10899.06621228531 364.98150256276131 1767.3370888084173 765.82559303566813 9230.5700368620455 1015.2162740193307 2246.4020003266633 2343.6009578555822
leaf_count=6002 2602 4651 25597 5761 4562 4017 6321 15714 10148 9759 16320 5770 29403 1302 28189 45779 1394 6286 3800 38575 3825 8560 9102
internal_value=-1.65858e-05 -0.00110353 0.000984703 -0.00161901 0.000147759 -0.00262679 -1.0334e-05 -0.00311002 -0.00102292 0.00155417 -0.000276248 -0.00145478 -0.00164205 0.00145947 0.000517359 0.00119638 0.00197673 -0.0020082 -0.00268087 -0.000492629 0.000790178 0.00114859 0.00102282
internal_weight=73026.4 35068.8 37957.5 23762.1 15448.6 8761.86 11306.7 7313.96 15000.3 22508.9 6881.46 3081.95 8118.81 5125.08 8224.74 16063.2 5164.12 3449.74 2533.16 10323.5 3603.55 3261.62 2708.58
internal_count=293439 138982 154457 94051 62826 35578 44931 29817 58473 91631 26468 12091 32005 19689 32840 66034 20255 14103 10086 43137 13687 12385 10496
is_linear=0
shrinkage=0.0131668


Tree=15
num_leaves=24
num_cat=0
split_feature=108 88 184 108 184 89 55 97 75 115 6 118 144 55 212 113 155 55 6 89 94 169 105
split_gain=475.552 105.876 104.862 68.2337 67.6847 47.4746 38.7134 34.6216 30.7249 28.7726 28.5266 26.3005 28.1483 25.7413 24.8566 24.3407 28.7479 24.1419 23.6652 27.1417 23.5543 23.1989 23.184
threshold=0.00035677144478540873 1.5828930735588076 -0.31290438771247858 -0.0031728118192404504 -0.06741947308182715 2.753878652583808e-05 -0.29939767718315119 -0.015600607730448244 0.46796318888664251 0.015899457968771461 -0.00048569371574558312 -0.16937389969825742 -5.0626127631403499e-05 0.26138162612915045 0.12940952181816107 0.0058046965859830388 -0.18188531696796414 -0.029477738775312897 0.00029312698461581027 6.8582578478526565e-06 0.00070391924236901115 -0.00060860076337121416 -1.2448650598525999
decision_type=2 2 2 2 2 2 2 2 2 2 2 2 2 2 2 2 2 2 2 2 2 2 2
left_child=2 4 3 -1 7 13 10 14 -9 11 -4 12 -8 -3 -2 -16 -17 21 19 -6 -5 -10 -12
right_child=1 5 6 20 18 -7 9 8 17 -11 22 -13 -14 -15 15 16 -18 -19 -20 -21 -22 -23 -24
leaf_value=0.0015474443050572044 -0.0014239298305628101 -0.00039434590838539468 0.0034364827640888502 -0.0080719009256328671 0.001582666653895155 -0.0052521729655688422 -0.0033654692900159538 -0.0010551242480535744 -0.0057088013877357327 -0.001665281915944874 0.0059933835112950164 0.0009395568122806513 0.0023262380099108087 -0.0027349747047244661 -0.0015680507521599314 0.0037309280712926481 -9.4071706540779768e-05 -0.0031224934700396535 -0.00085823273532913689 -0.00014827398577277196 -0.00038954748455027205 -0.00037465234361261146 0.0012889947085386886
leaf_weight=4066.8736579678953 1853.527147822082 1215.0980165079236 2751.0897620879114 71.340339466929436 2012.5868742577732 1147.1972361057997 140.08038002252579 4680.2367461510003 167.78013379871845 568.07625491172075 209.01143635436893 12687.191219951957 4521.5559913553298 3498.7823157683015 511.32130290567875 639.79382545500994 612.62362621352077 3947.3080382309854 5539.6420903839171 6791.8819380886853 10791.644604749978 1347.9613725021482 3551.6321699544787
leaf_count=15659 7055 4874 10518 601 7828 4603 490 18769 938 2411 590 53058 17561 14289 2142 2252 2257 15917 21265 26423 44750 5224 14601
internal_value=-1.97679e-05 -0.0011627 0.000963732 8.64293e-05 -0.000821351 -0.0027805 0.00149534 -0.00148222 -0.0018792 0.00116703 0.00238154 0.0012662 0.00213127 -0.0021553 -0.000338171 0.000739597 0.00177083 -0.00256477 -0.000179593 0.000234723 -0.000450272 -0.00103872 0.00158013
internal_weight=73324.2 33965.7 39358.5 14929.9 28104.7 5861.08 24428.6 13760.6 10143.3 17916.9 6511.73 17348.8 4661.64 4713.88 3617.27 1763.74 1252.42 5463.05 14344.1 8804.47 10863 1515.74 3760.64
internal_count=294075 133836 160239 61010 110070 23766 99229 54554 40848 73520 25709 71109 18051 19163 13706 6651 4509 22079 55516 34251 45351 6162 15191
is_linear=0
shrinkage=0.0131668


Tree=16
num_leaves=24
num_cat=0
split_feature=108 65 184 108 184 55 105 115 121 203 213 76 184 54 161 212 97 167 151 24 79 95 110
split_gain=510.317 96.9739 86.605 81.8335 57.4091 41.6777 40.5737 39.8398 33.6126 31.9618 29.8787 28.8066 26.6886 26.475 25.0003 24.6135 29.3014 24.2301 23.7693 23.5202 22.5498 22.1051 26.5782
threshold=0.00021295264014042917 0.0022026349324733023 -0.22299002110958097 -0.002076551783829927 -0.18982474505901334 -0.28433969616889948 0.24209839850664142 0.0031780330464243893 -0.00083967469981871534 -0.050889983773231499 -0.87837970256805409 -0.087156269699335084 0.1917274743318558 0.0032653262605890636 -0.56764125823974598 -0.12940952181816107 0.079541608691215529 -8.9283410488860668e-05 -8.019978395168435e-06 -0.34408019483089441 0.54025757312774669 0.15879954397678378 6.839976413175465e-05
decision_type=2 2 2 2 2 2 2 2 2 2 2 2 2 2 2 2 2 2 2 2 2 2 2
left_child=2 4 3 8 7 -4 12 -2 19 -8 -10 13 21 -7 -9 20 -17 -18 -13 -1 -16 -3 -23
right_child=1 6 5 -5 -6 11 9 14 10 -11 -12 18 -14 -15 15 16 17 -19 -20 -21 -22 22 -24
leaf_value=0 -0.0029235577088691238 -0.001521948795539586 0.0024804194083684465 -0.00054357831001909738 -0.0002009290258347748 0.001923312047093265 -0.0042371384914268633 -0.0042642085314969847 0.0039354534529445441 -0.0012559105696380805 0.00058540402762039488 -0.0022609404016813561 -0.00030214658842747351 -0.00030692300392150571 -0.00095895353934912311 0.00079452054608623401 -0.0037968212055886292 -0.00051515502880417193 0.00074723412124226508 0.0044074567113432609 -0.0032845943758761115 -0.0056120710706302167 -0.0003428320400650826
leaf_weight=249.31451223790646 2538.0120606385171 2171.1105041988194 6485.3742377981544 8782.2393552325666 15007.150628726929 8243.7130263485014 2621.6621593870223 411.16133114695549 530.50324054807425 973.62477758899331 5016.1549091674387 476.32027453929186 1973.0156057588756 944.03989040479064 2772.4023745916784 2413.713051430881 516.95471580699086 2094.8561480976641 6218.9331517741084 926.3029479496181 1105.4386571608484 643.22604573890567 287.0506361797452
leaf_count=935 11924 8403 25621 37235 59430 33115 9535 1521 2168 4489 19066 1997 7300 3790 10994 8849 1674 8511 26362 3743 4084 2557 1293
internal_value=-1.25023e-05 -0.00114749 0.00104931 0.000284228 -0.00075058 0.00157463 -0.0023643 -0.00143711 0.0013823 -0.00346084 0.000925933 0.00119776 -0.0015654 0.00168201 -0.0010201 -0.000857756 -0.000223702 -0.00120742 0.000516557 0.00344058 -0.00165069 -0.00233306 -0.00410612
internal_weight=73402.3 35529.4 37872.9 15504.5 26859.7 22368.4 8669.69 11852.5 6722.28 3595.29 5546.66 15883 5074.4 9187.75 9314.53 8903.36 5025.52 2611.81 6695.25 1175.62 3877.84 3101.39 930.277
internal_count=294596 140564 154032 63147 106987 90885 33577 47557 25912 14024 21234 65264 19553 36905 35633 34112 19034 10185 28359 4678 15078 12253 3850
is_linear=0
shrinkage=0.0131668


Tree=17
num_leaves=24
num_cat=0
split_feature=108 86 184 86 184 169 27 112 76 55 181 184 189 128 14 134 50 145 57 75 156 105 27
split_gain=473.826 98.1731 92.9761 63.5753 52.2826 48.0127 52.4221 34.3999 33.2868 31.512 31.3027 27.1692 26.5171 26.2134 25.3549 25.3223 23.007 25.1167 22.4963 29.3196 23.134 21.6324 21.5061
threshold=0.00021295264014042917 0.0017881920211948457 0.044540334492921836 -0.001440030930098146 -0.30097959935665125 -0.00040739426913205529 0.00038124473940115427 0.0018536126008257272 -0.23437896370887754 -0.56940442323684681 -1.1622318029403684 0.1692004278302193 -1.3197214007377622 0.38803648948669439 -0.0035687208874151106 -0.045482588931918137 -0.00078392412979155768 -0.0099513162858784181 0.23111321777105334 -1.1684159040451048 -0.089132621884345994 0.22812683880329135 0.00061270646983757626
decision_type=2 2 2 2 2 2 2 2 2 2 2 2 2 2 2 2 2 2 2 2 2 2 2
left_child=2 4 3 13 -2 6 -3 -4 10 -10 12 21 -9 22 16 -13 -5 -18 19 -6 -20 -8 -1
right_child=1 5 7 14 18 -7 11 8 9 -11 -12 15 -14 -15 -16 -17 17 -19 20 -21 -22 -23 -24
leaf_value=0.0011387355333014678 -0.0013368703729279602 -0.0012348300335194187 0.0025215579180994339 0.0012631895622108177 -0.0067689695913871637 -0.0010331795784319724 -0.0030963430845122653 0.0030595168399147579 0.0046555548212706627 0.00056660656452868182 0.0025517784349488814 0.0012365253753760723 -0.0033264729812026521 0.0041186049511518176 -0.00094161305364089132 -0.0026053356618607418 -0.0040527257464328887 6.8738671746737599e-05 -0.0033182280813920436 0.00057818077694648683 -0.00029254332572333809 -0.0053326464630849306 -0.00093219824785132342
leaf_weight=8112.5047546289861 7430.9071787446737 3729.1556628905237 5651.0983445607126 2260.3899469785392 93.271571211516857 7127.5584937408566 2628.0282756201923 164.90047124773264 351.13123148679733 8162.754294142127 4099.4208079278469 337.05855812132359 307.70094580575824 492.43441465124488 6067.1534800417721 1359.042188834399 331.18038933724165 919.67157485336065 539.15805153176188 7750.5712546594441 2993.2159638255835 1424.4811556711793 913.83843007683754
leaf_count=31243 30285 13318 24057 8863 383 30427 9526 641 1420 33282 16029 1178 1178 1808 26852 4845 1391 3843 2105 30554 12544 5077 3499
internal_value=-4.03868e-05 -0.00113646 0.000982581 0.000328723 -0.000477061 -0.00187658 -0.00249907 0.00164305 0.00125515 0.00074835 0.00217448 -0.00329977 -0.000862166 0.00109408 -0.000420217 -0.00177607 0.000448938 -0.000933276 7.47547e-05 0.000476589 -0.000785953 -0.00390995 0.00091671
internal_weight=73246.6 35412.4 37834.2 19097.2 18807.1 16605.3 9477.77 18737 13085.9 8513.89 4572.02 5748.61 472.601 9518.78 9578.4 1696.1 3511.24 1250.85 11376.2 7843.84 3532.37 4052.51 9026.34
internal_count=294348 140242 154106 77499 75871 64371 33944 76607 52550 34702 17848 20626 1819 36550 40949 6023 14097 5234 45586 30937 14649 14603 34742
is_linear=0
shrinkage=0.0131668


Tree=18
num_leaves=24
num_cat=0
split_feature=87 107 184 88 86 184 166 28 81 111 184 168 53 66 14 85 171 144 166 199 119 103 129
split_gain=449.501 101.654 93.9847 72.5077 68.972 43.4537 32.6947 32.6047 29.5122 28.6342 28.1639 27.5042 27.0651 31.8672 26.4293 26.2695 24.1381 24.0264 25.9668 23.8795 23.7676 22.9999 29.8175
threshold=0.00021394909708760681 0.0022809517104178671 0.41929472982883459 0.86922970414161693 -0.0016590187442488966 -1.1908909082412718 1.0609085559844973 0.89081305265426647 0.0006871723453514279 -0.0015398206887766717 0.338808223605156 -0.94212707877159108 0.0012508868239820006 -0.0018734553013928232 0.00073423457797616731 0.00048809968575369572 -0.2309903800487518 -2.9868057254134324e-06 -0.50770485401153553 -0.30877029895782465 -0.84855246543884266 0.55038446187973034 0.11996501684188844
decision_type=2 2 2 2 2 2 2 2 2 2 2 2 2 2 2 2 2 2 2 2 2 2 2
left_child=2 5 4 -3 7 8 -7 11 -2 10 21 -1 13 19 -14 -15 -6 20 -19 -4 -13 -5 -23
right_child=1 3 12 9 16 6 -8 -9 -10 -11 -12 17 14 15 -16 -17 -18 18 -20 -21 -22 22 -24
leaf_value=0.0037005488300283851 -0.0030930115681736458 -0.0010157195752089198 0.0064767993464638993 -0.0018953150788196525 -0.0015163906060384456 9.9746547276096135e-05 -0.0020842845101413984 -2.2588875347128953e-05 0 -0.0035746122131618098 -4.1592225448400106e-05 -0.0022702190454936852 0.0017509528289254696 0.0029304565441991425 -0.00014878467602593139 0.0011499571995009089 0.00011816372813422417 -0.00073315928209112069 0.0025489401070843808 0.0028502192195865054 0.00099170823020816525 -0.00030712609513166157 -0.0082901157051231775
leaf_weight=1084.2368585802615 1520.0769321732223 9875.5832452625036 541.16514698788524 1620.4371659532189 1799.4427341632545 14299.589422840625 1291.6670859865844 2361.8652170784771 811.59478185325861 3901.3187194131315 1149.120408359915 418.65421015024185 3977.9487231075764 2723.4483491927385 1712.7834217064083 3713.5361168533564 11621.638476688415 420.88748003542423 3288.1596389487386 1296.1809562817216 3510.2636783383787 159.71411629766226 268.76509348675609
leaf_count=4225 6588 37608 1841 6377 8126 57672 5076 8823 3194 14934 4576 1841 15569 13531 6942 14317 48736 1665 12606 5197 13383 662 1058
internal_value=4.90019e-05 -0.00103147 0.00103204 -0.00176322 0.000534394 -0.000332196 -7.40344e-05 0.00130375 -0.0020106 -0.00278733 -0.00179202 0.00167569 0.0018973 0.00239119 0.00115957 0.00192061 -9.26768e-05 0.00137365 0.00214642 0.00397911 0.000615726 -0.00271927 -0.00557491
internal_weight=73368.1 34897.9 38470.2 16974.9 24505.1 17922.9 15591.3 11084.1 2331.67 7099.36 3198.04 8722.2 13965.1 8274.33 5690.73 6436.98 13421.1 7637.97 3709.05 1837.35 3928.92 2048.92 428.479
internal_count=294547 137745 156802 65215 99405 72530 62748 42543 9782 27607 12673 33720 57397 34886 22511 27848 56862 29495 14271 7038 15224 8097 1720
is_linear=0
shrinkage=0.0131668


Tree=19
num_leaves=24
num_cat=0
split_feature=108 86 76 192 184 108 111 180 53 74 180 10 120 20 118 29 203 37 165 93 144 158 173
split_gain=450.125 92.4625 81.8871 71.5663 58.6256 71.8322 46.7421 48.5722 36.8076 31.4456 31.1968 30.8945 28.9546 28.912 27.7017 27.9799 26.1959 24.9698 24.9168 24.0308 23.3536 22.9135 22.5376
threshold=0.00021295264014042917 0.0026149806799367075 -0.26916779577732081 -0.20066569000482556 -0.32428136467933649 -0.0032479624496772881 -0.0035113765625283118 1.0000000180025095e-35 0.0027783600380644207 -0.077267102897167192 0.65342232584953319 -0.0028523985529318448 1.6564617753028872 0.00082323691458441328 0.30343742668628698 -7.6222760981181623e-05 -0.14470673352479932 0.84002268314361583 8.5148061771178632e-05 0.0019040521583519878 1.8417357750877276e-05 0.37284788489341741 -0.00011513708159327506
decision_type=2 2 2 2 2 2 2 2 2 2 2 2 2 2 2 2 2 2 2 2 2 2 2
left_child=2 3 10 9 5 -4 17 -8 12 -2 11 19 21 -9 15 -7 -12 -3 -5 -1 22 -6 -11
right_child=1 6 4 18 8 14 7 13 -10 20 16 -13 -14 -15 -16 -17 -18 -19 -20 -21 -22 -23 -24
leaf_value=0.0096359806146814105 0.00032662215355578071 -0.00052642535606093612 0.0020735426772497201 0.00046970751958174827 0.0011832442362334598 0.00051025374489422769 -0.003711538358192738 -0.0011371875555577636 -0.0011122311713640403 -0.0038047963203732722 0.0045465140052931381 0.00087294196559493237 -0.0010275647927957959 -0.0057216054588164469 -0.0069194600070540818 -0.0011792432522255787 0.0020006722299610574 -0.004082815548319148 -0.00072716285899458277 0.0023420509882551505 0 0.0028527316810871991 -0.0016492546976564066
leaf_weight=92.364298284053802 1461.8709596469998 3864.2114745303988 1903.5977193377912 8720.0343478545547 12404.038039442152 2363.4192001633346 3837.3960154093802 3362.4232648424804 1184.8249636664987 1089.9428953714669 1308.6116472221911 5631.909444116056 854.17102293670177 275.23618732765317 128.73191151767969 5441.5746222212911 2084.7423117533326 394.05190712958574 4590.3823199570179 2645.8161089234054 1278.8070876486599 1754.2003577463329 6586.5435632281005
leaf_count=346 5670 15303 7573 35195 51474 9670 14527 12835 4888 4960 4823 22177 3490 875 556 23255 8510 1545 17837 9830 4898 7268 26511
internal_value=1.53254e-06 -0.0010625 0.00100273 -0.000583079 0.000584592 -0.000207677 -0.00202249 -0.00265741 0.00107266 -0.00140086 0.00191864 0.0014607 0.00125253 -0.00151473 -0.000769092 -0.000653353 0.00301533 -0.000881732 4.85581e-05 0.00262884 -0.00169531 0.00139797 -0.00196984
internal_weight=73258.9 35460.9 37798 23727.6 26034.6 9837.32 11733.3 7475.06 16197.2 10417.2 11763.4 8370.09 15012.4 3637.66 7933.73 7804.99 3393.35 4258.26 13310.4 2738.18 8955.29 14158.2 7676.49
internal_count=294016 140156 153860 95071 108174 41054 45085 28237 67120 42039 45686 32353 62232 13710 33481 32925 13333 16848 53032 10176 36369 58742 31471
is_linear=0
shrinkage=0.0131668


Tree=20
num_leaves=24
num_cat=0
split_feature=108 55 86 184 107 184 75 93 48 179 197 20 131 118 117 199 97 194 170 22 27 106 214
split_gain=394.797 109.294 95.0574 72.6628 69.9877 50.5189 51.2343 41.6805 40.2398 34.1604 32.9295 31.3157 29.2178 27.2969 26.706 25.1476 24.9813 24.8079 23.9673 31.2857 23.9452 23.3599 22.633
threshold=0.00021295264014042917 0.26601007580757147 -0.00173915404593572 0.27061168849468237 0.0023296056315302853 0.30431880056858068 0.65972620248794567 0.0019040521583519878 -1.0444944500923155 7.6784534030593945e-05 1.07368055068946e-06 0.00011842044114018792 -0.071518767625093446 -0.017213967628777024 0.23673697561025622 -0.35711501538753504 -0.2993661761283874 -0.14274932444095609 3.6522517204284672 0.61123245954513561 -0.00079230172559618939 0.00055881816660985361 0.81174489855766307
decision_type=2 2 2 2 2 2 2 2 2 2 2 2 2 2 2 2 2 2 2 2 2 2 2
left_child=2 5 7 13 11 6 12 -1 -6 -10 -9 -3 -2 20 18 -14 -5 -11 -8 -20 -4 -18 -7
right_child=1 4 3 16 8 22 14 10 9 17 -12 -13 15 -15 -16 -17 21 -19 19 -21 -22 -23 -24
leaf_value=0.00449082838054575 0.00092970177433782672 -2.5420994552818337e-06 0.0025897913030135406 0.0034540815579386496 -0.00020252778896517399 3.4709817056527161e-05 -0.0048686825324114336 0.0011723554235230171 -0.0039719433241184538 9.526373200667973e-05 0.0025711963479711072 -0.0022850411469414666 -0.0015787463196736365 -0.0010338107686252845 -0.0025073918459713948 8.4153106525326387e-06 0.0019829611588010163 -0.0030189607243780335 -0.00085188020543282121 0.0038190062924793717 0 0.00045572954100308704 0.0019033108524493553
leaf_weight=932.31950771436095 2427.8702005259693 3260.2752176895738 676.54498936235905 892.37063287943602 917.92865100130439 7785.0454572737217 193.39110483601689 11641.457473777235 4080.7999715544283 720.63077268749475 4213.9771568328142 1603.6486184559762 3238.7888217754662 4812.543599743396 3944.3065111078322 3421.3805558532476 2964.6788210421801 930.1631531342864 1303.9136760272086 307.0034330971539 6939.8024936318398 4823.9847813360393 1340.9460216499865
leaf_count=4003 9328 14036 2485 3649 3529 30134 1138 43241 15032 3071 17573 6322 12516 21176 15866 13949 14291 4000 5006 1104 28772 18772 5131
internal_value=4.37661e-05 -0.000952883 0.000979675 0.00038479 -0.00200996 -0.000440329 -0.00091645 0.00172107 -0.00289429 -0.00330592 0.00155117 -0.000778029 -0.000286539 -0.000253305 -0.00189287 -0.000746656 0.00131122 -0.0015919 -0.000487662 0 0.000225224 0.00105138 0.000321503
internal_weight=73373.8 35476.1 37897.7 21109.9 11513.4 23962.6 14836.7 16787.8 6649.52 5731.59 15855.4 4863.92 9088.04 12428.9 5748.61 6660.17 8681.03 1650.79 1804.31 1610.92 7616.35 7788.66 9125.99
internal_count=294124 140162 153962 89145 45990 94172 58907 64817 25632 22103 60814 20358 35793 52433 23114 26465 36712 7071 7248 6110 31257 33063 35265
is_linear=0
shrinkage=0.0131668


Tree=21
num_leaves=24
num_cat=0
split_feature=87 86 86 180 47 115 188 108 93 116 169 205 208 0 64 67 109 164 188 111 116 88 109
split_gain=432.184 72.4837 61.6266 62.5098 59.9159 53.0366 45.5284 35.8838 35.032 32.3696 28.9286 27.1092 26.8388 26.7629 25.5215 25.1329 24.9927 24.4507 25.3957 24.4386 23.672 23.4928 23.3443
threshold=0.00021394909708760681 0.0017881920211948457 -0.0022276897216215725 -0.41867652535438532 0.00029042160895187413 0.0068044327199459085 -1.0999128818511961 0.0032936409115791325 0.0019040521583519878 -0.097526125609874711 -0.00041830923873931164 3.4617062993902443e-08 0.0088038733229041117 0.0002756164903985337 0.0023815699387341742 -1.9936870336532591 -0.3141742199659347 -0.57223117351531971 0.35919593274593359 -0.0012521487078629432 -0.064842652529478059 0.79498630762100231 -0.35822461545467371
decision_type=2 2 2 2 2 2 2 2 2 2 2 2 2 2 2 2 2 2 2 2 2 2 2
left_child=2 6 8 19 11 10 -2 -7 -1 -5 -6 12 -3 20 -10 -16 -15 -8 21 22 -11 -19 -4
right_child=1 4 3 9 5 7 17 -9 14 13 -12 -13 -14 16 15 -17 -18 18 -20 -21 -22 -23 -24
leaf_value=0.0050905478428886573 -0.0020035379065202578 0.0023514168269611669 -0.00079144021327395516 0.0023962833601199477 -0.0035519241974664275 0.0003967928035003242 0.00090084339603010641 -0.0018014346814397226 0.0017829038897327982 -0.00041069934175934846 -0.001857903808866758 -0.0020766568981754403 -0.0003835378938371525 -0.0011923829909274266 0.006753873097403329 -0.00040882379670832019 0.0011575478866741686 -0.00033359763435302235 0.0002722919792792435 -0.0055254583923074769 0.0014011772932635636 -0.0019457817799105725 0.00059217106765097234
leaf_weight=541.6509472578764 2735.0509637035429 943.66567806899548 4843.3291696459055 2804.526645924896 4081.7322817184031 1890.7004095874727 3024.9169119000435 3599.9508839063346 11527.452846482396 1356.1274463683367 3774.7366273030639 907.78223897889256 1684.4341478385031 1921.0160848796368 90.055782355368137 1491.2137612551451 1300.4415643401444 4599.8670096993446 5164.7669987790287 153.21334661915898 8629.1298347786069 2562.8037907667458 3683.3824490979314
leaf_count=2253 11430 2953 20300 11457 14004 7438 12121 13845 43603 5602 16324 3982 6757 7668 387 6351 5260 17785 20786 1034 37117 10379 15228
internal_value=3.43219e-05 -0.00102265 0.00100127 0.000601794 -0.00164552 -0.0020497 -0.00043509 -0.00102416 0.00171569 0.00109106 -0.00275221 -8.83076e-05 0.00055604 0.000805434 0.00156773 0 -0.000209123 -0.000148399 -0.000414915 -0.000287859 0.00114393 -0.000926016 -0.00018066
internal_weight=73311.9 34970.4 38341.5 24691.2 16883 13347.1 18087.4 5490.65 13650.4 16011.2 7856.47 3535.88 2628.1 13206.7 13108.7 1581.27 3221.46 15352.4 12327.4 8679.92 9985.26 7162.67 8526.71
internal_count=294064 137804 156260 103666 65303 51611 72501 21283 52594 67104 30328 13692 9710 55647 50341 6738 12928 61071 48950 36562 42719 28164 35528
is_linear=0
shrinkage=0.0131668


Tree=22
num_leaves=24
num_cat=0
split_feature=108 184 57 87 6 188 180 95 20 95 118 27 129 160 179 112 39 116 45 34 192 49 192
split_gain=458.759 81.463 78.0589 57.0453 38.5465 37.3386 36.5374 31.8463 30.4877 29.767 29.0687 42.1928 28.2593 27.949 24.9822 23.135 26.6572 29.9578 27.3287 22.7832 22.7047 22.0463 23.8037
threshold=0.00023626614711247387 0.044540334492921836 0.20091101527214053 -0.0024870499037206169 0.0003270696615800262 0.39336523413658148 0.37871806323528295 0.15129929780960086 0.00043923190969508147 -0.15849261730909345 -0.018827909603714939 -0.00030035771487746382 0.32493582367897039 -0.60012918710708607 -6.800544724683276e-05 0.0061630092095583686 0.28059451282024389 -0.097526125609874711 0.0011166992480866613 0.0021342966938391332 0.021982803940773014 1.5323328625527214e-05 -0.14393174648284909
decision_type=2 2 2 2 2 2 2 2 2 2 2 2 2 2 2 2 2 2 2 2 2 2 2
left_child=1 3 4 12 5 -2 7 -4 -8 19 11 -5 14 -10 -1 16 17 18 -11 -3 -12 -6 -23
right_child=2 9 6 10 21 -7 8 -9 13 15 20 -13 -14 -15 -16 -17 -18 -19 -20 -21 -22 22 -24
leaf_value=0.0022649561571210304 -0.00051686766848508148 0.0032038434000435535 -0.0016600899715358591 0.0018154339769171864 -0.00044300080498072344 0.0010381480674335171 -0.00041519902690717201 -0.0033094558083743507 0.0016904576356526885 0.0052339357574089319 -0.0011510228872863358 -0.00016064267883425946 0.0044948933093608093 -0.0042972101400380359 0.00032640907983901344 0.00031977663985147012 0.00079728611106776026 0.0017141001940225442 0.00063285835932916465 0.00072894880818961147 0.0011369321658501663 -0.0032454796414421267 -0.00098156247696206257
leaf_weight=2245.9424272477627 8289.1374059729278 3270.339749570936 6860.0856907218695 2744.1411280892789 3506.0210479646921 3951.9009631089866 4839.8457803688943 3259.6956797204912 137.46608262136579 937.70802508294582 4526.1381747238338 5638.6005488596857 547.0085157006979 700.89712807536125 2694.2979321032763 3120.2188820280135 4408.7624140530825 5892.4515787810087 370.71756480261683 959.12051601335406 854.50830993428826 1524.9189821071923 2135.4557987563312
leaf_count=9229 33014 12864 27045 10695 13461 15466 19664 13406 514 3729 19129 23095 2025 2478 9842 12641 17832 25028 1432 3721 3929 5965 8154
internal_value=5.1554e-05 0.00105207 -0.00103118 0.000440825 -0.000463907 -5.73047e-06 -0.001721 -0.0022024 -0.000843404 0.00166683 -3.67496e-06 0.000472927 0.00157608 -0.00318232 0.0012303 0.00137149 0.00164454 0.00214779 0.00401559 0.00266899 -0.000766932 -0.00123096 -0.0019552
internal_weight=73415.4 38210 35205.4 19250.6 19407.4 12241 15798 10119.8 5678.21 18959.3 13763.4 8382.74 5487.25 838.363 4940.24 14729.9 11609.6 7200.88 1308.43 4229.46 5380.65 7166.4 3660.37
internal_count=294358 155191 139167 77944 76060 48480 63107 40451 22656 77247 56848 33790 21096 2992 19071 60662 48021 30189 5161 16585 23058 27580 14119
is_linear=0
shrinkage=0.0131668


Tree=23
num_leaves=24
num_cat=0
split_feature=108 65 86 184 70 180 101 188 35 74 90 174 117 202 6 158 142 161 167 57 57 30 73
split_gain=455.09 97.6955 80.7877 69.2387 44.2606 37.3996 34.6996 34.9408 34.7919 34.0096 32.1934 31.8139 31.8092 41.5507 30.9429 30.1386 30.0222 26.7501 26.6124 25.3937 24.9314 24.5307 24.4701
threshold=0.00021295264014042917 0.0019247913151048126 -0.0022276897216215725 0.338808223605156 0.00031977221078705048 0.4857200831174851 0.56506565213203441 -0.011926107574254273 0.10762306302785875 0.061374697834253318 -0.0019093421287834642 3.0814440833637498e-05 -0.79425397515296925 3.6837182051385757e-06 0.00014971139898989352 -0.51374834775924672 6.9007757701911046e-05 -0.053997892886400216 -0.00013729235797654835 0.34336051344871527 -0.051900712773203843 -0.00087032461306080211 0.0011421358794905247
decision_type=2 2 2 2 2 2 2 2 2 2 2 2 2 2 2 2 2 2 2 2 2 2 2
left_child=2 5 4 16 -1 10 7 8 -3 -8 -2 -6 -5 22 -7 -10 -4 -16 19 -9 -13 -19 -14
right_child=1 6 3 12 11 14 9 18 15 -11 -12 20 13 -15 17 -17 -18 21 -20 -21 -22 -23 -24
leaf_value=0.0038046439224719369 -0.00041753034067524311 -0.00032306000422555308 0.00013248259766614047 0.0029005266456697148 0.00094595864165508865 0.00080480946188792111 -0.00015974490988766513 0 0.0033189324532486276 -0.0036609258258999389 -0.0015928889057760754 0.0029831483791439872 0.0028076253402730101 0.0022871460513697313 3.6573340037057902e-05 -0.0038042304970665711 -0.0024145757234274334 -0.0055366332790930091 7.0962535007464413e-05 -0.0060406892561832405 0.00064883580022972174 -0.0011671805249636334 -0.00012469878202077213
leaf_weight=1777.4168638288975 8814.243700504303 991.89556467905641 13997.048852697015 2071.8364478349686 7204.6944041773677 4681.0898202322423 638.57256373763084 226.84364908188581 91.675468012690544 3409.1650428138673 8017.4241923503578 3374.2981853671372 554.91372739896178 2739.5503466874361 2317.5752372220159 2029.6933754682541 850.68691918998957 317.13322644680738 2491.4736668430269 262.32099750638008 1210.0472778789699 1137.1865166500211 4026.8832526691258
leaf_count=6817 33962 3942 58649 8701 27145 18744 2354 748 317 12910 33018 13465 2954 11917 9173 7931 3198 1287 10241 868 5009 4678 15936
internal_value=1.97224e-06 -0.00106876 0.00100822 0.000546304 0.00182536 -0.000624635 -0.00216503 -0.00150167 -0.00248536 -0.00313614 -0.000984018 0.00151748 0.0014311 0.00100003 7.77719e-05 -0.0034438 -5.93389e-06 -0.000794932 -0.000436771 -0.00325092 0.00239134 -0.00219672 0.000206091
internal_weight=73233.7 35426.3 37807.4 24240.9 13566.5 25284.7 10141.6 6093.9 3113.26 4047.74 16831.7 11789 9393.18 7321.35 8452.98 2121.37 14847.7 3771.89 2980.64 489.165 4584.35 1454.32 4581.8
internal_count=293964 140173 153791 101355 52436 100862 39311 24047 12190 15264 66980 45619 39508 30807 33882 8248 61847 15138 11857 1616 18474 5965 18890
is_linear=0
shrinkage=0.0131668


Tree=24
num_leaves=24
num_cat=0
split_feature=108 88 86 192 192 89 12 56 166 146 110 68 111 192 112 20 125 62 100 36 155 79 155
split_gain=366.849 98.5615 69.9701 44.9533 40.4866 37.5893 34.8115 32.1186 29.4405 28.2993 27.5375 27.2243 30.3838 25.6152 25.6007 24.0931 23.9994 24.6364 23.9938 24.7806 22.3771 21.6194 20.3832
threshold=0.00016491007409058514 1.5828930735588076 -0.0021270328434184189 0.27187983691692358 -0.40668033063411707 2.1235654457996137e-05 0.0011742613278329375 -0.85797387361526478 -1.0939249396324155 -5.9581184359558384e-06 1.7847318304120566e-05 7.5253661634633331e-05 -0.0043325095903128377 -0.38308136165142054 0.0097355199977755564 0.00054792177979834389 0.21291489899158481 -0.72985520958900441 0.5184752643108369 -0.16202839463949201 -0.10725397616624831 0.57162702083587658 0.41643099486827856
decision_type=2 2 2 2 2 2 2 2 2 2 2 2 2 2 2 2 2 2 2 2 2 2 2
left_child=2 4 8 7 9 -6 13 18 -1 20 15 14 -13 -3 -11 22 17 -7 19 -4 -2 -22 -9
right_child=1 6 3 -5 5 16 -8 10 -10 11 -12 12 -14 -15 -16 -17 -18 -19 -20 -21 21 -23 -24
leaf_value=0.0034394957747238123 0.00073992397850335535 -0.0029559226684278011 0.0024824228233023059 0.0011700209929204474 0.00044285006319375362 5.1615272674837685e-05 -0.0030829339490488828 -0.00044635788136716321 0.0014375429521538523 -0.0016896926349143407 -0.001859115224327293 0 -0.0039831661328552422 0.00041561359243449405 0.00017719237086732655 0.0027664288066023709 0.00053262942956731798 -0.0014517891974539119 -0.0006653530092803556 -0.0013421290741854157 -0.0028192025255182902 0.0024165164291109998 0.0018013898194901967
leaf_weight=1531.1693352423608 1825.628748126328 587.64251034334302 1909.3457211889327 9475.5468958765268 7876.7559765391052 2447.5944704338908 4441.9106111526489 7429.140332210809 12646.399580195546 4764.2126483172178 1767.459745708853 422.90435683354735 1450.8688563518226 1041.0266773626208 1596.5497533902526 493.91838925331831 1983.9555302709341 6621.1310197003186 804.32357283681631 306.75439485162497 727.58640557155013 145.72354830801487 759.6955044567585
leaf_count=5777 7332 2351 8518 39688 31365 9513 17828 30974 48867 19725 7149 1752 5682 4404 6323 1623 7645 25193 3558 1311 3005 492 3280
internal_value=1.17631e-05 -0.000935041 0.000931216 0.000475063 -0.000619137 -0.00024335 -0.00247068 -5.50267e-06 0.00166162 -0.00125954 -0.000359369 -0.00164363 -0.00307793 -0.000732366 -0.00120356 -4.12299e-05 -0.000742469 -0.00103373 0.00118188 0.00190267 -4.63444e-05 -0.00181778 -0.000224203
internal_weight=73057.2 35933.5 37123.8 22946.2 29862.9 18929.4 6070.58 13470.6 14177.6 10933.5 10450.2 8234.54 1873.77 1628.67 6360.76 8682.75 11052.7 9068.73 3020.42 2216.1 2698.94 873.31 8188.84
internal_count=293355 142610 150745 96101 118027 73716 24583 56413 54644 44311 43026 33482 7434 6755 26048 35877 42351 34706 13387 9829 10829 3497 34254
is_linear=0
shrinkage=0.0131668


Tree=25
num_leaves=24
num_cat=0
split_feature=108 184 111 108 86 212 24 166 79 97 157 202 57 184 27 97 149 34 196 172 187 86 4
split_gain=370.163 82.7572 59.1941 56.707 41.9567 41.6378 32.9898 29.4647 27.4714 26.9427 26.537 26.2722 25.1678 24.6779 23.8915 22.5009 25.1487 22.3567 24.958 22.3282 21.1891 20.9582 20.7834
threshold=0.00023626614711247387 -0.034683002158999436 -0.0013801461318507788 -0.0020321259507909413 0.001360936963465065 0.12940952181816107 1.6409029364585879 -1.0256324410438535 0.53812608122825634 -0.18648981302976606 -0.50957694649696339 -1.4342424947244579e-05 0.20091101527214053 -0.96192896366119374 -0.00065617045038379718 -0.027362691238522526 0.0011445147101767363 0.0010488741681911053 1.3194779512559764e-05 0.00017119552649091932 -0.9096410572528838 -0.0080358427949249727 2.9464021054081972e-06
decision_type=2 2 2 2 2 2 2 2 2 2 2 2 2 2 2 2 2 2 2 2 2 2 2
left_child=1 3 5 6 13 8 -1 21 10 -9 14 -10 -12 -4 -2 16 17 20 -19 -16 -7 -3 -5
right_child=2 7 4 22 -6 15 -8 9 11 -11 12 -13 -14 -15 19 -17 -18 18 -20 -21 -22 -23 -24
leaf_value=0.00092479162430793012 0.0013557863412109275 -0.0018516557521133859 -0.002940865954469967 -0.0011324464849875467 -0.0024537518997774298 -0.00064627837991362055 0.0051678311052582547 0.0020568233609782123 0.00071377462203273925 0.00095661590493249533 -2.8564914976726515e-05 -0.0023991700522338214 -0.0035899291184873648 1.055609662501932e-05 -0.00079465392095554781 -0.0004045418246423227 -0.0013677876210328207 0.00083100071250546601 -0.0043866467370048427 0.0042919205801433156 0.0027121260275505795 0.0034589447614703692 8.923493523139689e-05
leaf_weight=7653.6357465833426 1151.6581116206944 110.21130849421024 591.44608783349395 3773.6721843853593 6286.277528014034 337.61301923915744 346.51346715912223 6357.2702908664942 479.36792947724462 11607.019805978984 632.88598619028926 3629.6396186202765 970.37268900498748 2472.6793851852417 6798.3235410824418 8432.8510097451508 678.32370593398809 633.58264951407909 206.56238509342074 146.85878766700625 1759.3141895160079 1857.9658844918013 6298.9008346386254
leaf_count=29062 4627 418 2760 15142 24448 1455 1558 25087 1954 48168 2471 13663 3935 11183 27101 33168 2440 2159 781 828 6206 7537 27636
internal_value=4.18714e-05 0.000944446 -0.000929249 0.00029154 -0.00183289 -0.000598164 0.00112252 0.00153084 -0.0010919 0.00135217 -0.000691978 -0.00200885 -0.00225368 -0.000522722 -0.000368963 -2.30032e-05 0.000836066 0.00138304 -0.000319031 -0.000671029 0.0021182 0.00310488 -0.000357388
internal_weight=73212.9 38005.2 35207.8 18072.7 9350.4 25857.4 8000.15 19932.5 13809.1 17964.3 9700.1 4109.01 1603.26 3064.13 8096.84 12048.2 3615.4 2937.07 840.145 6945.18 2096.93 1968.18 10072.6
internal_count=293787 154608 139179 73398 38391 100788 30620 81210 54579 73255 38962 15617 6406 13943 32556 46209 13041 10601 2940 27929 7661 7955 42778
is_linear=0
shrinkage=0.0131668


Tree=26
num_leaves=24
num_cat=0
split_feature=87 86 66 184 126 75 184 114 115 184 96 110 35 204 3 55 48 24 152 29 21 118 154
split_gain=365.965 81.7549 72.5864 57.2165 47.6193 46.7173 43.2159 38.2619 33.6835 31.3429 31.1969 30.4585 30.5743 30.3269 28.0082 27.523 27.2693 29.6665 26.8033 26.0901 25.0626 24.4565 23.5067
threshold=0.00029193705995567148 -0.0015845852904021738 0.0015243010129779579 -0.75751972198486317 0.39898577332496649 0.54019746184349071 -1.1908909082412718 0.0054952458012849101 0.0030962681630626325 0.21523166447877887 -1.2445214986801145 -4.2528834001132046e-06 -0.35727323591709131 0.036633571609854705 3.8763296288379942e-06 -0.22018148005008695 -1.5349403023719785 0.227434977889061 4.7631556299165831e-06 5.520818012882956e-05 0.00025747378822416073 -0.085897680371999727 -0.82077544927597035
decision_type=2 2 2 2 2 2 2 2 2 2 2 2 2 2 2 2 2 2 2 2 2 2 2
left_child=1 4 6 -3 10 7 8 -4 -2 11 -1 -7 -13 16 -15 -6 17 -5 21 -11 -12 -8 -21
right_child=2 3 5 13 15 9 18 -9 -10 19 20 12 -14 14 -16 -17 -18 -19 -20 22 -22 -23 -24
leaf_value=0.0022036599151750986 -0.004921656363965461 -0.00095404011277686214 -0.0030886206415713705 0 0.004609478423327199 -0.0016359497554470084 0.00049005205681988825 0.00017228031113265208 -0.0011907010198247379 0.00049706676651629 0.0036089529819055017 0.00081152128881877537 -0.0039027660729153871 0.0023741418095179624 0.00049145571818767634 0.00077109112712867695 0 0.0044909916269388981 0.0016291434481052647 -0.0079854823354203221 0.00072258846068246464 -0.00071092729424684508 -0.0016058324931180297
leaf_weight=4388.8293085321784 597.69487475976348 5035.9619932770729 769.59596031531692 446.41212042421103 1273.3832747153938 2603.9865694455802 3806.3737291581929 3034.1880950778723 1878.0247571617365 988.85666767880321 572.40465315431356 214.60223707184196 3497.9941703006625 2792.7969499528408 3051.0241097584367 535.4346956461668 9684.2545308619738 513.52540322765708 1187.5418611802161 113.92562237009406 11276.889525070786 11759.381496138871 3345.0869109779596
leaf_count=17079 2833 21791 2920 1594 4851 10010 14891 11389 7521 3713 2228 789 13460 12770 16591 2000 36829 1988 4535 421 43530 47235 13036
internal_value=-3.80569e-05 0.000819773 -0.00104573 0.000265421 0.00147475 -0.00174993 -0.000506416 -0.000458144 -0.00213651 -0.00219604 0.00123838 -0.00280812 -0.00360021 0.00064465 0.0014103 0.00353495 0.000213816 0.00233062 -0.000258869 -0.00130172 0.000871437 -0.000410077 -0.00184821
internal_weight=73368.2 39570.9 33797.3 21524 18046.9 14568.2 19229 3803.78 2475.72 10764.5 16238.1 6316.58 3712.6 16488 5843.82 1808.82 10644.2 959.938 16753.3 4447.87 11849.3 15565.8 3459.01
internal_count=294004 161251 132753 91563 69688 55738 77015 14309 10354 41429 62837 24259 14249 69772 29361 6851 40411 3582 66661 17170 45758 62126 13457
is_linear=0
shrinkage=0.0131668


Tree=27
num_leaves=24
num_cat=0
split_feature=108 75 96 146 184 110 169 188 49 16 84 163 48 27 110 74 27 95 41 116 47 116 184
split_gain=379.531 100.519 56.0036 53.4466 51.0412 33.6836 31.0629 29.8007 28.6501 32.25 35.8155 28.5079 27.1989 27.0739 26.7517 25.1294 25.1846 24.9684 28.3728 24.6304 23.7615 23.6625 22.9051
threshold=0.00021295264014042917 0.83986237645149242 -1.0119367837905882 2.4803882752166832e-06 -0.70486274361610401 -1.7021063285937995e-05 -0.00050212818314321328 -0.6945359706878661 -5.6966538977576413e-05 0.34408757090568548 -0.5812602937221526 -0.00023253382096299899 2.0008438825607304 0.0004628400929505006 -9.8815526143880544e-06 -0.35352551937103266 0.0015557205188088121 0.076718408614397063 0.0012552039115689697 -0.1356636360287666 0.00096761807799339305 -0.18276578187942502 -0.14664147049188611
decision_type=2 2 2 2 2 2 2 2 2 2 2 2 2 2 2 2 2 2 2 2 2 2 2
left_child=2 7 8 14 5 11 20 13 9 10 -1 -4 -8 -2 22 -6 19 18 21 -17 -5 -9 -3
right_child=1 3 4 6 15 -7 12 17 -10 -11 -12 -13 -14 -15 -16 16 -18 -19 -20 -21 -22 -23 -24
leaf_value=-9.6706136641613055e-05 -0.00070161881424668938 -0.0014676219755239397 -0.0058078248910375411 -0.0016577455081920912 0.0037546033136448796 -0.0010562048161529194 -0.0020465753381236598 -0.0051894155730858012 0.00078408303330190603 0.0017209048555358786 0.0049274599766443326 0.0011196943441290073 -0.0075776326608201711 -0.0027476240131201002 -0.0017697149295077853 0.0022276597958081215 -0.0017909456594668376 -0.00074131448905450726 -0.0021591877731727471 0.00074950405264025198 -0.0060911254490298248 0.00059691167023891514 0.0011111258265125671
leaf_weight=249.81266137957573 4309.5339637510478 1115.9404529072344 103.18508650362492 372.42662781476974 550.65692805871367 4507.5792413838208 3357.8859816640615 120.8947943225503 3310.7878875918686 4044.8645382784307 1311.5360189713538 2527.8811761885881 180.43524406850338 1642.5077567473054 5388.912727240473 2304.2960177920759 584.85249637067318 7794.0119495540857 748.57175949588418 18407.504264138639 914.82609454542398 8234.0309853777289 1273.6547780558467
leaf_count=803 17628 4510 344 1435 2193 19166 13435 484 13745 16334 4705 10045 738 6359 21791 9114 2356 30886 2878 75337 3675 31485 5005
internal_value=-2.69169e-05 -0.00100764 0.000887485 -0.00195452 0.00060098 -0.000354376 -0.00305951 -0.000480443 0.00180629 0.00239007 0.00405214 0.000805599 -0.00236017 -0.00128498 -0.00125467 0.000918252 0.000839674 -0.000190448 0.000268923 0.000919344 -0.00489515 0.000499828 -4.64545e-05
internal_weight=73356.6 35453.6 37903 12604.1 28986 7138.65 4825.57 22849.6 8917 5606.21 1561.35 2631.07 3538.32 5952.04 7778.51 21847.3 21296.7 16897.5 9103.5 20711.8 1287.25 8354.93 2389.6
internal_count=294451 140309 154142 50589 118555 29555 19283 89720 35587 21842 5508 10389 14173 23987 31306 89000 86807 65733 34847 84451 5110 31969 9515
is_linear=0
shrinkage=0.0131668


Tree=28
num_leaves=24
num_cat=0
split_feature=107 86 27 184 184 7 68 85 115 115 112 56 208 133 212 192 147 32 22 156 68 166 97
split_gain=298.09 123.739 61.1726 59.3731 50.126 39.6196 33.7498 32.5129 32.3304 26.3146 26.296 24.8915 27.6307 23.8075 22.7527 22.5231 22.455 22.248 24.8132 27.2463 25.8269 21.1515 21.1226
threshold=0.0020889290608465676 -0.00173915404593572 6.3658437738922666e-06 0.28191979229450231 0.067326143383979811 0.0027940624859184031 -1.4821579043200471e-05 0.00048809968575369572 0.0052291131578385839 0.0035328087396919732 0.0013936505420133474 1.2277091741561892 0.0026772331912070517 1.0263041986036116e-05 -0.12940952181816107 1.9144575595855715 0.007474263198673726 0.00068411987740546476 1.3453407287597658 0.20984994620084765 -9.3340357125271098e-05 1.5648715496063235 -0.02951931674033403
decision_type=2 2 2 2 2 2 2 2 2 2 2 2 2 2 2 2 2 2 2 2 2 2 2
left_child=1 5 6 8 9 7 -2 -1 21 -4 13 12 -6 -5 -7 17 -12 -9 19 20 -19 -3 -11
right_child=2 3 4 10 11 14 -8 15 -10 22 16 -13 -14 -15 -16 -17 -18 18 -20 -21 -22 -23 -24
