tree
version=v4
num_class=1
num_tree_per_iteration=1
label_index=0
max_feature_idx=214
objective=binary sigmoid:1
feature_names=BTC_spot_log_ret_1m BTC_spot_high_low_range BTC_spot_body_size BTC_spot_upper_shadow BTC_spot_lower_shadow BTC_spot_close_position_in_bar BTC_spot_log_ret_2m BTC_spot_log_ret_3m BTC_spot_log_ret_5m BTC_spot_log_ret_10m BTC_spot_log_ret_15m BTC_spot_log_ret_30m BTC_spot_log_ret_60m BTC_spot_log_ret_120m BTC_spot_log_ret_240m BTC_spot_taker_buy_volume_ratio BTC_spot_taker_buy_quote_ratio BTC_spot_taker_buy_quote_volume_ratio_diff BTC_spot_vwap_dist BTC_spot_taker_buy_vwap_dist BTC_spot_ret_x_buy_imbalance_1m BTC_spot_ret_std_5m BTC_spot_volume_z_5m BTC_spot_quote_volume_z_5m BTC_spot_count_z_5m BTC_spot_range_mean_5m BTC_spot_close_vs_sma_5m BTC_spot_close_vs_kama_5m BTC_spot_close_vs_kama_z_5m BTC_spot_kama_velocity_5m BTC_spot_rolling_high_dist_5m BTC_spot_rolling_low_dist_5m BTC_spot_realized_vol_5m BTC_spot_upside_realized_vol_5m BTC_spot_downside_realized_vol_5m BTC_spot_realized_vol_balance_5m BTC_spot_ret_vol_scaled_5m BTC_spot_volume_ret_corr_5m BTC_spot_quote_volume_per_trade_z_5m BTC_spot_taker_quote_volume_per_trade_z_5m BTC_spot_buy_ratio_mean_5m BTC_spot_ret_std_10m BTC_spot_volume_z_10m BTC_spot_quote_volume_z_10m BTC_spot_count_z_10m BTC_spot_range_mean_10m BTC_spot_close_vs_sma_10m BTC_spot_close_vs_kama_10m BTC_spot_close_vs_kama_z_10m BTC_spot_kama_velocity_10m BTC_spot_rolling_high_dist_10m BTC_spot_rolling_low_dist_10m BTC_spot_realized_vol_10m BTC_spot_upside_realized_vol_10m BTC_spot_downside_realized_vol_10m BTC_spot_realized_vol_balance_10m BTC_spot_ret_vol_scaled_10m BTC_spot_volume_ret_corr_10m BTC_spot_quote_volume_per_trade_z_10m BTC_spot_taker_quote_volume_per_trade_z_10m BTC_spot_ret_std_30m BTC_spot_volume_z_30m BTC_spot_quote_volume_z_30m BTC_spot_count_z_30m BTC_spot_range_mean_30m BTC_spot_close_vs_sma_30m BTC_spot_close_vs_kama_30m BTC_spot_close_vs_kama_z_30m BTC_spot_kama_velocity_30m BTC_spot_rolling_high_dist_30m BTC_spot_rolling_low_dist_30m BTC_spot_realized_vol_30m BTC_spot_upside_realized_vol_30m BTC_spot_downside_realized_vol_30m BTC_spot_realized_vol_balance_30m BTC_spot_ret_vol_scaled_30m BTC_spot_volume_ret_corr_30m BTC_spot_quote_volume_per_trade_z_30m BTC_spot_taker_quote_volume_per_trade_z_30m BTC_spot_buy_ratio_mean_30m BTC_spot_buy_ratio_z_30m BTC_spot_ret_std_60m BTC_spot_volume_z_60m BTC_spot_quote_volume_z_60m BTC_spot_count_z_60m BTC_spot_range_mean_60m BTC_spot_close_vs_sma_60m BTC_spot_close_vs_kama_60m BTC_spot_close_vs_kama_z_60m BTC_spot_kama_velocity_60m BTC_spot_rolling_high_dist_60m BTC_spot_rolling_low_dist_60m BTC_spot_realized_vol_60m BTC_spot_upside_realized_vol_60m BTC_spot_downside_realized_vol_60m BTC_spot_realized_vol_balance_60m BTC_spot_ret_vol_scaled_60m BTC_spot_volume_ret_corr_60m BTC_spot_quote_volume_per_trade_z_60m BTC_spot_taker_quote_volume_per_trade_z_60m BTC_spot_buy_ratio_mean_60m BTC_spot_buy_ratio_z_60m BTC_spot_ret_std_120m BTC_spot_volume_z_120m BTC_spot_quote_volume_z_120m BTC_spot_count_z_120m BTC_spot_range_mean_120m BTC_spot_close_vs_sma_120m BTC_spot_close_vs_kama_120m BTC_spot_close_vs_kama_z_120m BTC_spot_kama_velocity_120m BTC_spot_rolling_high_dist_120m BTC_spot_rolling_low_dist_120m BTC_spot_realized_vol_120m BTC_spot_upside_realized_vol_120m BTC_spot_downside_realized_vol_120m BTC_spot_realized_vol_balance_120m BTC_spot_ret_vol_scaled_120m BTC_spot_volume_ret_corr_120m BTC_spot_quote_volume_per_trade_z_120m BTC_spot_taker_quote_volume_per_trade_z_120m BTC_spot_ret_velocity_2m BTC_spot_volume_velocity_2m BTC_spot_quote_volume_velocity_2m BTC_spot_ret_velocity_3m BTC_spot_volume_velocity_3m BTC_spot_quote_volume_velocity_3m BTC_spot_ret_velocity_5m BTC_spot_volume_velocity_5m BTC_spot_quote_volume_velocity_5m BTC_spot_ret_velocity_10m BTC_spot_volume_velocity_10m BTC_spot_quote_volume_velocity_10m BTC_spot_ret_velocity_15m BTC_spot_volume_velocity_15m BTC_spot_quote_volume_velocity_15m BTC_spot_ret_velocity_30m BTC_spot_volume_velocity_30m BTC_spot_quote_volume_velocity_30m BTC_spot_ret_velocity_60m BTC_spot_volume_velocity_60m BTC_spot_quote_volume_velocity_60m BTC_spot_ret_accel_2_10m BTC_spot_volume_accel_2_10m BTC_spot_ret_accel_5_15m BTC_spot_volume_accel_5_15m BTC_spot_ret_accel_10_30m BTC_spot_volume_accel_10_30m BTC_spot_ret_accel_15_60m BTC_spot_volume_accel_15_60m BTC_spot_kama_accel_5_10m BTC_spot_kama_accel_10_30m BTC_spot_kama_accel_30_60m BTC_spot_kama_accel_60_120m BTC_spot_realized_vol_ratio_5_30m BTC_spot_quote_volume_mean_ratio_5_30m BTC_spot_buy_ratio_mean_diff_5_30m BTC_spot_realized_vol_ratio_10_60m BTC_spot_quote_volume_mean_ratio_10_60m BTC_spot_buy_ratio_mean_diff_10_60m BTC_spot_realized_vol_ratio_30_120m BTC_spot_quote_volume_mean_ratio_30_120m BTC_spot_buy_ratio_mean_diff_30_120m BTC_spot_buy_pressure_x_ret_5m BTC_spot_buy_pressure_x_quote_volume_z_5m BTC_spot_buy_pressure_x_ret_30m BTC_spot_buy_pressure_x_quote_volume_z_30m BTC_spot_buy_pressure_x_ret_60m BTC_spot_buy_pressure_x_quote_volume_z_60m BTC_futures_basis BTC_futures_spot_volume_ratio BTC_futures_spot_buy_ratio_diff BTC_basis_change_1m BTC_futures_spot_ret_spread_1m BTC_basis_change_5m BTC_futures_spot_ret_spread_5m BTC_basis_change_15m BTC_futures_spot_ret_spread_15m BTC_basis_change_60m BTC_futures_spot_ret_spread_60m BTC_basis_z_5m BTC_futures_spot_volume_ratio_z_5m BTC_futures_spot_quote_volume_ratio_z_5m BTC_futures_spot_count_ratio_z_5m BTC_basis_z_15m BTC_futures_spot_volume_ratio_z_15m BTC_futures_spot_quote_volume_ratio_z_15m BTC_futures_spot_count_ratio_z_15m BTC_basis_z_30m BTC_futures_spot_volume_ratio_z_30m BTC_futures_spot_quote_volume_ratio_z_30m BTC_futures_spot_count_ratio_z_30m BTC_basis_z_60m BTC_futures_spot_volume_ratio_z_60m BTC_futures_spot_quote_volume_ratio_z_60m BTC_futures_spot_count_ratio_z_60m BTC_basis_accel_1_5m BTC_basis_accel_5_15m BTC_basis_accel_15_60m BTC_basis_vol_scaled_5m BTC_futures_spot_realized_vol_ratio_5m BTC_basis_x_ret_spread_5m BTC_buy_diff_x_ret_spread_5m BTC_basis_vol_scaled_15m BTC_futures_spot_realized_vol_ratio_15m BTC_basis_x_ret_spread_15m BTC_buy_diff_x_ret_spread_15m BTC_basis_vol_scaled_60m BTC_futures_spot_realized_vol_ratio_60m BTC_basis_x_ret_spread_60m BTC_buy_diff_x_ret_spread_60m sin_hour cos_hour sin_dayofweek cos_dayofweek
feature_infos=[-0.043845348060131073:0.022795036435127258] [7.9947383824219287e-08:0.0678725466132164] [0:0.044538237154483795] [0:0.019437819719314575] [0:0.05461970716714859] [0:1] [-0.038589626550674438:0.029261501505970955] [-0.047194894403219223:0.036221131682395935] [-0.076213426887989044:0.046067364513874054] [-0.095875836908817291:0.048212110996246338] [-0.10131821781396866:0.048971254378557205] [-0.11708717793226242:0.059289183467626572] [-0.11607024073600769:0.073422975838184357] [-0.11443992704153061:0.087582550942897797] [-0.12707886099815369:0.099037349224090576] [0.00086942582856863737:0.99867802858352661] [0.00086969445692375302:0.99867826700210571] [-0.0006764479330740869:0.0014152148505672812] [-0.011934725567698479:0.020577596500515938] [-0.011141251772642136:0.022974606603384018] [-0.0026384531520307064:0.013781502842903137] [3.6601552011461536e-08:0.028936754912137985] [-1.7867622375488281:1.7888482809066772] [-1.7867473363876343:1.7888482809066772] [-1.7884433269500732:1.7888411283493042] [8.1823685604831553e-08:0.038309302181005478] [-0.038643468171358109:0.024869173765182495] [-0.03394380584359169:0.017708973959088326] [-1.7888543605804443:1.7888540029525757] [-0.0091741923242807388:0.0066711250692605972] [-0.075865171849727631:0] [0:0.060971371829509735] [8.1821568187478988e-08:0.061745479702949524] [0:0.026813862845301628] [0:0.057759109884500504] [-1:1] [-2.2344343662261963:2.2331657409667969] [-0.99985051155090332:0.99985420703887939] [-1.7887190580368042:1.7888277769088745] [-1.7861675024032593:1.7888469696044922] [0.031661659479141235:0.93599241971969604] [4.9116678724203666e-08:0.02157348208129406] [-2.5907671451568604:2.8457009792327881] [-2.59079909324646:2.8457016944885254] [-2.6901595592498779:2.8455026149749756] [8.4901209618237772e-08:0.03688344731926918] [-0.05986468493938446:0.0367877297103405] [-0.033872321248054504:0.02915235236287117] [-2.8460476398468018:2.8328049182891846] [-0.0063866637647151947:0.0048223217017948627] [-0.093021444976329803:0] [0:0.063059702515602112] [1.4998742869920534e-07:0.065314881503582001] [0:0.045483577996492386] [0:0.058018352836370468] [-1:1] [-2.9627995491027832:2.9730279445648193] [-0.98355090618133545:0.9816555380821228] [-2.7234320640563965:2.8447556495666504] [-2.5560863018035889:2.8460056781768799] [2.6730651825346285e-07:0.012238116934895515] [-4.2600584030151367:5.2898950576782227] [-4.2611784934997559:5.2898373603820801] [-3.0797994136810303:5.291837215423584] [3.8449095995929383e-07:0.021358860656619072] [-0.084052368998527527:0.046029232442378998] [-0.043852288275957108:0.042210288345813751] [-5.1074662208557129:5.0432376861572266] [-0.0025778156705200672:0.0017025102861225605] [-0.11049235612154007:0] [0:0.092154018580913544] [1.4410903759198845e-06:0.066024802625179291] [1.7309052680047898e-07:0.051109783351421356] [1.2021587281196844e-07:0.058201398700475693] [-0.99960184097290039:0.99983894824981689] [-3.7375926971435547:3.6202340126037598] [-0.85380363464355469:0.87670242786407471] [-3.5841763019561768:5.2751727104187012] [-3.1975247859954834:5.2860097885131836] [0.10034411400556564:0.84009838104248047] [-3.7330553531646729:3.9628820419311523] [1.2323812370595988e-05:0.008904648944735527] [-4.2569913864135742:7.602264404296875] [-4.2573928833007812:7.6020750999450684] [-3.3104205131530762:7.6056690216064453] [3.881233624269953e-06:0.012248295359313488] [-0.097655534744262695:0.050217863172292709] [-0.051072604954242706:0.040205702185630798] [-7.3258185386657715:5.8835897445678711] [-0.0013095258036628366:0.0010927136754617095] [-0.11294988542795181:0] [0:0.092154018580913544] [9.4854221970308572e-05:0.068398132920265198] [1.1764276450776379e-06:0.051747065037488937] [1.2707757832686184e-06:0.058982368558645248] [-0.99400663375854492:0.99351805448532104] [-3.4820015430450439:3.8922734260559082] [-0.77804756164550781:0.79133927822113037] [-3.7996804714202881:7.5033888816833496] [-3.3112139701843262:7.5508689880371094] [0.11378718167543411:0.80828744173049927] [-4.4885754585266113:4.5972790718078613] [1.8316210116609e-05:0.0068957037292420864] [-2.4188807010650635:10.748254776000977] [-2.4148194789886475:10.747448921203613] [-2.8070201873779297:10.739285469055176] [5.8381456256029196e-06:0.0095643084496259689] [-0.10323290526866913:0.059706661850214005] [-0.07031838595867157:0.045035708695650101] [-7.8482589721679688:7.4364514350891113] [-0.00083277083467692137:0.00068027974339202046] [-0.11315643787384033:0] [0:0.11619490385055542] [0.00019986527331639081:0.075426086783409119] [0.0001398510648868978:0.057331155985593796] [0.00012600135232787579:0.060784969478845596] [-0.70670390129089355:0.78400701284408569] [-3.569305419921875:3.9381339550018311] [-0.59619253873825073:0.62173265218734741] [-3.6933519840240479:10.20899772644043] [-3.218876838684082:10.704758644104004] [-0.019294813275337219:0.014630750752985477] [-2.9091522693634033:3.0706164836883545] [-2.909278392791748:3.0707666873931885] [-0.015731632709503174:0.01207371149212122] [-1.6969455480575562:1.9905927181243896] [-1.6969799995422363:1.990729808807373] [-0.015242685563862324:0.0092134727165102959] [-1.0878766775131226:1.1846534013748169] [-1.0878939628601074:1.1845837831497192] [-0.009587584063410759:0.0048212110996246338] [-0.55233287811279297:0.61855882406234741] [-0.55241626501083374:0.6194303035736084] [-0.0067545478232204914:0.0032647503539919853] [-0.41827124357223511:0.38676914572715759] [-0.41823545098304749:0.38705432415008545] [-0.0039029060862958431:0.0019763060845434666] [-0.21476039290428162:0.22210720181465149] [-0.21479722857475281:0.22257505357265472] [-0.0019345040200278163:0.0012237163027748466] [-0.089935213327407837:0.1071922555565834] [-0.089923806488513947:0.10678984224796295] [-0.0013171028112992644:0.0013660391559824347] [-0.33492270112037659:0.34447750449180603] [-0.00084881373913958669:0.0011725682998076081] [-0.10611588507890701:0.1220320388674736] [-0.00028423388721421361:0.0002981649013236165] [-0.026503529399633408:0.024828709661960602] [-0.00010711207869462669:6.3899577071424574e-05] [-0.0088859898969531059:0.0074854232370853424] [-0.000888704729732126:0.0010215431684628129] [-0.00021583127090707421:0.00025254301726818085] [-4.6290304453577846e-05:5.3382955229608342e-05] [-1.7230888261110522e-05:1.8450200514052995e-05] [-0.99995529651641846:-6.8280038249213248e-05] [-0.95091784000396729:4.5760483741760254] [-0.50917345285415649:0.51028299331665039] [-0.99988049268722534:-0.0028020653408020735] [-0.91605716943740845:4.3866987228393555] [-0.41423091292381287:0.46329519152641296] [-0.99469423294067383:-0.0025989569257944822] [-0.86474210023880005:2.6518993377685547] [-0.34012660384178162:0.27395203709602356] [-0.0020090395119041204:0.013505637645721436] [-3.1942996978759766:3.1966092586517334] [-0.0053144758567214012:0.011428402736783028] [-16.706647872924805:15.529640197753906] [-0.0048498697578907013:0.012100026942789555] [-25.463090896606445:19.224842071533203] [-0.0051354523748159409:0.010308844968676567] [0.071200057864189148:257.69570922851562] [-0.90968555212020874:0.90424084663391113] [-0.0074743744917213917:0.0038016298785805702] [-0.0074848751537501812:0.0037912395782768726] [-0.0074545275419950485:0.012857949361205101] [-0.007405819371342659:0.012917623855173588] [-0.0060831350274384022:0.010213330388069153] [-0.0060673453845083714:0.010160560719668865] [-0.006043706089258194:0.010634921491146088] [-0.0060278996825218201:0.010582201182842255] [-1.7888543605804443:1.7888543605804443] [-1.7882232666015625:1.7888543605804443] [-1.7882373332977295:1.7888543605804443] [-1.7880738973617554:1.7888543605804443] [-3.608004093170166:3.6027793884277344] [-3.0278909206390381:3.6147844791412354] [-3.0279719829559326:3.6147844791412354] [-3.3795390129089355:3.6147844791412354] [-5.2426753044128418:5.2625250816345215] [-2.9468619823455811:5.2946515083312988] [-2.9470701217651367:5.2946515083312988] [-3.5186407566070557:5.2946515083312988] [-7.4344820976257324:7.5000238418579102] [-2.7900574207305908:7.6168670654296875] [-2.7901036739349365:7.6168670654296875] [-3.4463491439819336:7.6168670654296875] [-0.0016437969170510769:0.00070240255445241928] [-0.00016889473772607744:0.00024897375260479748] [-8.9934355855803005e-06:1.1191999874426983e-05] [-6591.14794921875:4108.29443359375] [-1:1930.4915771484375] [-2.1138561351108365e-05:0.00010847120574908331] [-0.0011682756012305617:0.00074460636824369431] [-3566.98828125:23.359376907348633] [-0.8940538763999939:1340.378662109375] [-5.751256594521692e-06:0.00010474364535184577] [-0.0013694955268874764:0.0010063780937343836] [-4.6319494247436523:1.1128551959991455] [-0.63087153434753418:2.6396844387054443] [-4.1485745896352455e-06:0.00010909026605077088] [-0.00079126888886094093:0.0013851412804797292] [-1:1] [-1:1] [-0.97492790222167969:0.97492790222167969] [-0.90096884965896606:1]
tree_sizes=4652 4645 4637 4681 4654 4644 4624 4708 4653 4672 4666 4674 4673 4640 4685 4638 4658 4661 4684 4656 4672 4664 4665 4655 4696 4635 4670 4641 4679 4690 4685 4656 4627 4680 4678 4692 4657 4658 4692 4684 4637 4678 4698 4654 4668 4642 4628 4664 4679 4682 4700 4675 4636 4665 4650 4655 4647 4664 4650 4664 4646 4646 4653 4633 4660 4664 4625 4651 4692 4664 4634 4636 4631 4646 4606 4654 4667 4626 4635 4640 4641 4628 4678 4602 4687 4649 4634 4631 4664 4632 4627 4657 4662 4633 4619 4655 4618 4583 4651 4636 4648 4611 4656 4660 4620 4590 4635 4638 4670 4638 4645 4668 4622 4654 4625 4661 4660 4627 4652 4645 4649 4646 4624 4615 4643 4635 4616 4659 4606 4660 4590 4604 4603 4639 4644 4631 4574 4626 4631 4566 4634 4592 4543 4590 4679 4618 4610 4614 4615 4617 4606 4616 4614 4582 4577 4644 4602 4622 4633 4611 4610 4581 4600 4614 4607 4616 4587 4572 4582 4602 4637 4569 4623 4609 4646 4546 4590 4617 4576 4641 4595 4610 4604 4614 4639 4623 4588 4565 4635 4587 4549 4570 4633 4690 4618 4594 4563 4614

Tree=0
num_leaves=40
num_cat=0
split_feature=86 184 86 111 184 88 74 172 14 116 203 174 8 33 1 166 122 118 6 78 129 166 33 101 118 175 190 35 160 116 148 74 22 165 1 123 180 168 123
split_gain=514.595 364.792 179.082 93.147 76.189 73.8641 56.0442 53.494 50.6993 48.5457 45.6601 44.8285 39.1335 37.5655 36.7211 41.4107 43.8775 36.1084 31.0972 31.0717 30.8546 30.6967 38.6472 28.9885 30.2817 28.9246 39.5729 28.5802 28.5439 28.5019 27.2071 29.9356 26.6856 25.8854 25.6195 25.4507 25.3268 24.8601 24.5852
threshold=-0.0010405236971564589 -0.49552632868289942 0.001552785106468946 -0.00047742649621795857 1.0415610671043398 -2.3357924222946163 0.12078234180808069 9.3982918770052506e-05 0.0021298589417710905 0.062526226043701186 -0.32727074623107905 -1.7369935449096371e-05 -0.00054055743385106314 0.0018966341158375146 6.4429365011164932e-05 2.0979880094528203 0.96888068318367015 0.11830574274063112 -0.00034866972418967629 3.2818843126297002 0.40217928588390356 1.5670455098152163 0.00077970366692170512 -0.97103485465049733 -0.24117979407310483 -8.0759349657455446e-05 1.0831888914108279 0.99996680021286022 -0.5830959379673003 0.0060071055777370938 -3.2524670245948068e-07 0.12308066710829736 -0.81185671687126149 -9.4285303930519135e-05 0.0002030514879152179 0.37620137631893164 1.4758738875389101 -1.0479810833930967 -0.24849697202444074
decision_type=2 2 2 2 2 2 2 2 2 2 2 2 2 2 2 2 2 2 2 2 2 2 2 2 2 2 2 2 2 2 2 2 2 2 2 2 2 2 2
left_child=5 3 4 9 8 -1 -4 11 30 14 -6 18 -8 20 32 37 -17 -12 28 27 -9 25 -23 -13 -25 35 -27 34 38 -10 -3 33 -2 -32 -11 -5 -22 -16 -7
right_child=1 2 6 21 10 7 12 13 29 19 17 23 -14 -15 15 16 -18 -19 -20 -21 36 22 -24 24 -26 26 -28 -29 -30 -31 31 -33 -34 -35 -36 -37 -38 -39 -40
leaf_value=0.0085110221526980851 0.0012346292940148545 0.0025148150432746639 0.0026824452093014905 -0.0040292980549673108 0.0067013376449823452 -0.0050303417285102337 0.0030121545811722019 0.0073709527378033306 0.0033543121592671155 -0.0030158262207853116 0.0046514500891420328 0.0070627084707428709 -0.00076067111140072641 -0.00016867612169605729 0.0045846858877593728 0.00017135346937379326 -0.011391400090828408 0.00063832660919284682 0.0023167748128203368 -0.0099656180618651492 0.0091674921184558347 -0.016918981364802851 -0.0025479514644353662 0.0074977777418216793 0.0041703221023293513 0.00038584570063679088 -0.0085509444388680734 -0.0089837066316347022 0.0056328489775662807 0.00096826793138603652 0.0088956957142467992 0.0023276675767841186 -0.0036267658465767879 0.0044047650122786327 -0.0001100627740010492 -0.012089131560595216 0.026793897229758119 0.0011426689991977481 0.0031942185644274011
leaf_weight=2108.2005789913237 711.88499662652612 6834.1609036326408 3761.6839438192546 725.28360648453236 3648.6947859972715 176.55243864282966 1264.243553686887 2527.95186098665 2834.875821467489 1559.6600431352854 4324.3825623691082 2374.9960555918515 7450.3157235532999 251.1781103760004 884.75724544748664 342.87682070955634 206.86387922242284 1107.0867907777429 5530.7430573739111 155.4485213086009 69.333090215921402 149.32228165492415 145.01217055693269 1239.0418086983263 8132.7233534790576 1110.857324000448 236.21880292892456 171.83897951990366 2851.3873670846224 6437.6200244687498 539.05627458542585 2806.3138594962656 1179.3033116720617 7888.6451122649014 5072.3939592093229 195.55512365326285 59.594142556190491 12201.767214134336 749.35202447324991
leaf_count=8690 2741 26937 15525 2951 12815 714 5557 12303 10970 5813 18147 8590 30066 1439 3691 1345 447 5118 22075 443 239 450 495 5215 31543 3616 779 801 11433 24758 1578 11066 4362 32096 22148 668 155 49926 3302
internal_value=0.00255765 0.00171317 0.00270994 -0.00023256 0.00341224 0.00495288 0.000659764 0.00463984 0.00288962 0.000175579 0.00498586 0.00429168 -0.000213337 0.00716059 0.000792342 0.00115143 -0.00417964 0.00383346 0.00326389 -0.00120052 0.00785349 -0.00381447 -0.00983869 0.00510609 0.00461025 -0.00303263 -0.00118128 -0.00100027 0.00465066 0.00169775 0.00350128 0.00410139 -0.00179683 0.00469202 -0.000793411 -0.00574094 0.017315 0.00137538 0.00162595
internal_weight=100017 73946.1 48897.1 25049 36420.8 26071.1 12476.2 23962.9 27340.7 22486.8 9080.16 21054.8 8714.56 2908.06 15527.5 13636.3 549.741 5431.47 9308.03 6959.34 2656.88 2562.25 294.334 11746.8 9371.77 2267.91 1347.08 6803.89 3777.29 9272.5 18068.2 11234 1891.19 8427.7 6632.05 920.839 128.927 13086.5 925.904
internal_count=401007 295309 194633 100676 143485 105698 51148 97008 107405 91717 36080 82872 35623 14136 62512 55409 1792 23265 37524 29205 12697 8959 945 45348 36758 8014 4395 28762 15449 35728 71677 44740 7103 33674 27961 3619 394 53617 4016
is_linear=0
shrinkage=1


Tree=1
num_leaves=40
num_cat=0
split_feature=86 184 107 184 90 88 84 76 168 1 95 172 105 76 76 125 163 99 78 53 151 49 157 208 172 40 195 74 208 213 64 184 100 119 6 201 59 145 79
split_gain=517.866 372.968 206.759 87.6534 74.9454 73.9219 62.3488 54.8233 44.4186 46.2508 44.8718 44.1671 41.7213 41.0955 39.9797 38.5286 38.4209 42.8609 36.6412 33.3052 32.0815 31.6541 30.8137 30.2688 30.514 30.7076 30.0726 29.5371 29.0662 27.9751 27.9151 27.8846 27.8333 27.0425 26.9265 32.5367 32.4008 26.4039 25.5346
threshold=-0.001015932240989059 -0.5198579430580138 0.0013396571739576759 0.59419345855712902 -0.00030721945222467179 1.6581897735595705 1.3984901309013369 -0.23530850559473035 2.4422345161437993 5.855004383192864e-05 0.04742593131959439 -5.5114060160121874e-05 -0.75505784153938282 -0.1349292770028114 0.064246442168951048 0.2627809494733811 4.1439459891989834e-05 1.3783624172210696 0.31273610889911657 0.0010113081661984327 2.7395420829634536e-06 -1.876908481790451e-05 -0.62661993503570546 -0.047097003087401383 1.14762042358052e-05 0.73093256354331981 -0.56552648544311512 0.22462780773639682 0.026683887466788295 -0.60785761475563038 0.00014490423200186345 -1.5367625355720518 0.49588291347026831 5.2644839286804208 4.7062121666385799e-05 1.1167401936518219e-07 2.236144065856934 -0.030194128863513466 0.38153342902660375
decision_type=2 2 2 2 2 2 2 2 2 2 2 2 2 2 2 2 2 2 2 2 2 2 2 2 2 2 2 2 2 2 2 2 2 2 2 2 2 2 2
left_child=6 4 3 -3 8 14 7 11 9 -2 27 -1 16 28 23 26 38 18 -18 -8 -15 37 -20 -4 30 -26 -6 -11 -5 -9 -25 -23 -33 -30 36 -36 -10 -12 -13
right_child=1 2 5 13 15 -7 19 29 34 10 21 12 -14 20 -16 -17 17 -19 22 -21 -22 31 -24 24 25 -27 -28 -29 33 -31 -32 32 -34 -35 35 -37 -38 -39 -40
leaf_value=0.00075901568102323719 -0.0050491102331044436 0.00019335448130547832 0.021157546786920004 0.0023030990268428538 0.00033377862787483824 -0.0043990032339445003 0.006670475506418823 0.0031202536587572167 -0.010109481238419392 -0.00089067213002156623 -0.014179054831470876 -0.0067587221497242746 0.0045678380058912166 0.0021387876249901933 -0.0017434138299956194 -0.0099421915967174718 -0.0011025676575193359 0.011666739682815628 -0.019828188383219106 0.0020911704516296602 -0.00094892616285043344 -0.0061093053551364339 -0.0032162554241718581 -0.022748428106273359 0.0011571920635135857 0.013239476265142627 -0.00580807336779932 -0.0058875792763759243 0.0054452576826019006 0.00078383532512089665 -0.0012564165410510534 -0.0012598753558888264 -0.0041021007396456668 0.028358220553730083 -0.0085556148180133112 -0.027292567528459804 0.012043037459848405 -6.3603835577010334e-07 0.005310367328154147
leaf_weight=2367.2740753665566 2227.2295638136566 17225.541005030274 27.320104386657476 1985.3556996695697 392.75730406865478 2955.0655684024096 1883.9777300618589 2461.331707816571 51.98833979293704 9650.4567065611482 53.496263127774 76.612581096589565 6281.808340638876 7759.3219576962292 9887.8985194042325 717.92469913139939 527.6765909679234 79.262621842324734 88.185751460492611 933.91473219171166 1594.796671602875 1425.7646096386015 87.411588460206985 24.000357456505299 3239.4389141909778 84.864087454974651 1551.3995179496706 488.60871898755431 2013.1866630576551 11103.572992257774 2364.0098653770983 2199.3411478362978 3526.4110565148294 20.455994848161936 393.58891091123223 40.152215991169214 51.839763164520264 1485.4810546673834 686.08105319365859
leaf_count=10799 8428 67674 115 7491 1595 12176 7549 10440 186 39457 140 188 26065 31428 40726 2301 1742 213 244 4105 6327 6207 254 68 12329 208 5647 2073 8444 43185 8751 8882 15358 44 1247 129 155 6046 2749
internal_value=-7.48868e-06 -0.000865798 0.000126547 0.00112841 -0.00287783 -0.00152314 0.00236419 0.00203345 -0.00249087 -0.00234718 -0.00202759 0.00313212 0.00384987 0.00233282 -0.000979337 -0.00601683 0.000931105 -0.00215551 -0.00371335 0.00515279 0.00161236 -0.00307307 -0.0115588 0.00033697 0.000237392 0.00146563 -0.0045673 -0.00113148 0.00400968 0.00120778 -0.00147242 -0.00362818 -0.00301036 0.00567573 -0.00811899 -0.0102901 0.000950918 -0.000493492 0.00409803
internal_weight=100015 73437.7 49181.3 30598.7 24256.4 18582.6 26577.1 23759.2 21594.4 21056.8 18829.6 10194.3 7827.04 13373.1 15627.5 2662.08 1545.23 782.537 703.274 2817.89 9354.12 8690.49 175.597 5739.63 5712.31 3324.3 1944.16 10139.1 4019 13564.9 2388.01 7151.52 5725.75 2033.64 537.569 433.741 103.828 1538.98 762.694
internal_count=401165 293632 195781 121408 97851 74373 107533 95879 88308 86591 78163 42254 31455 53734 62197 9543 5390 2453 2240 11654 37755 36633 498 21471 21356 12537 7242 41530 15979 53625 8819 30447 24240 8488 1717 1376 341 6186 2937
is_linear=0
shrinkage=0.0198277


Tree=2
num_leaves=40
num_cat=0
split_feature=86 180 108 90 109 14 118 74 180 42 55 164 97 7 166 105 192 190 33 192 122 79 170 138 166 208 111 97 180 125 128 45 149 68 101 68 125 154 122
split_gain=491.974 320.455 187.15 101.046 68.1687 57.388 56.2397 51.9117 46.4108 40.4876 38.84 37.066 35.4032 34.2598 33.6073 32.8078 30.5948 36.4182 30.2878 30.0871 32.4524 51.0691 29.9756 29.925 29.662 29.6524 29.4128 31.1759 29.3173 27.7837 27.4166 27.3819 30.7192 27.2473 27.0294 27.0025 26.8224 26.568 27.1318
threshold=-0.0010647008311934767 -0.19562499970197675 0.0016629887977615001 -0.00034387577034067357 -2.3752194643020625 0.0023258378496393566 -0.058324750512838357 0.1075490564107895 0.39577975869178778 -0.6414959430694579 0.13296804577112201 -0.72629791498184193 -0.22094462811946866 0.00014189640205586332 -0.030344655737280842 3.0049717426300053 -1.8055089116096494 -1.1737456321716306 0.00012557365698739889 -0.53090736269950856 1.0942227840423586 0.52003514766693126 38.021030426025398 -0.035180917009711259 4.3368017673492441 0.11484957113862039 -0.00068934570299461473 0.34166014194488531 0.5626126527786256 -0.4348162561655044 0.27930252254009252 0.00084833265282213699 -0.0029046152485534544 -0.00018290214211447162 -1.3106457591056822 1.5693578461650762e-05 1.0073557496070864 -0.65727713704109181 0.44514819979667669
decision_type=2 2 2 2 2 2 2 2 2 2 2 2 2 2 2 2 2 2 2 2 2 2 2 2 2 2 2 2 2 2 2 2 2 2 2 2 2 2 2
left_child=4 3 5 6 9 8 14 -4 36 -1 30 -8 18 15 -2 19 17 -13 -6 31 22 -22 -21 29 35 -7 -18 -28 34 -12 -9 32 -14 -34 -11 -5 -3 -32 -39
right_child=1 2 7 24 12 25 11 10 -10 28 23 16 13 -15 -16 -17 26 -19 -20 20 21 -23 -24 -25 -26 -27 27 -29 -30 -31 37 -33 33 -35 -36 -37 -38 38 -40
leaf_value=-0.0005609066593863152 0.00072661162875400258 0.00035009555553924083 3.3670301440022813e-05 -0.0028114800213697882 0.0071560154410171559 -0.00035514234434209219 -0.00029159671359706493 -0.0012070439414856022 0.0024198867655470216 0.011769170305177577 -0.017843993262928227 -0.01365394306027831 -0.014397160263662116 2.4177860987678104e-05 -0.0016244888498382099 0.010235304013008276 -0.0022412056477992782 -0.0043227332534455532 0.0027899826056576619 0.0022930892149994704 0.006587667707783241 0.037231078793853831 0.01435027696181186 -0.0033143493443717861 -0.014219778925611515 0.005703878925363076 -0.004311521181362756 -0.014428121065808099 0.0096512274893191183 -0.0060058243003898977 0.018671863808808475 0.0031633251975626796 0.024116000729992034 -0.00068223022332653471 0.0037648569008062517 -0.0061676232222113896 0.015027251943901929 0.014491629603046704 -0.012198648735939685
leaf_weight=374.76545269042253 4217.258299279958 7054.3614443987608 3948.8820267207921 1552.770509172231 690.6086608543992 8678.3868298344314 2672.7033302076161 2322.8273868486285 13989.139087334275 191.29316507652402 101.34045885130763 185.24295231327415 64.211651965975761 4309.0252415686846 5517.1592349894345 191.48703603446484 13429.216210346669 1463.7149201408029 6540.7801057547331 7924.5860677435994 136.88776214420795 25.338897321373224 81.900395527482033 4482.9850574880838 137.40364192426205 329.60150584205985 1239.5083511173725 132.56306187808514 756.25937492772937 337.55542861297727 54.954539082944393 934.08471859619021 17.562098510563374 2140.1951862685382 1247.3343715816736 2397.910471893847 49.292836278676987 26.90794887393713 33.758877329528332
leaf_count=1438 16891 28241 15992 5880 2655 33239 11121 9761 56141 717 302 717 163 17139 21446 840 55681 5973 27677 32384 338 45 196 18618 395 1716 4423 544 3016 1132 159 4413 55 7819 5118 8282 92 89 84
internal_value=2.98008e-05 -0.000786725 0.00037431 -0.00224606 0.00239897 0.00119135 -0.00183276 -0.00180033 0.00175712 0.00546223 -0.00278429 -0.00245727 0.00205757 0.00153237 -0.000605917 0.00209668 -0.00280914 -0.005371 0.00320695 0.00195907 0.00259432 0.011374 0.00241643 -0.0037981 -0.0051635 -0.000133443 -0.00252373 -0.00528894 0.00649064 -0.00873924 -0.000737978 0.000314877 -0.00088257 -0.000480396 0.00482918 -0.00484853 0.000451942 0.00868551 -0.00036052
internal_weight=99981.8 74355.4 41410 32945.5 25626.3 30100.8 28857.4 11309.2 21092.8 2569.65 7360.33 19122.9 23056.7 15825.3 9734.42 11516.3 16450.2 1648.96 7231.39 11324.8 8168.71 162.227 8006.49 4921.88 4088.08 9007.99 14801.3 1372.07 2194.89 438.896 2438.45 3156.05 2221.97 2157.76 1438.63 3950.68 7103.65 115.621 60.6668
internal_count=400932 296919 165566 131353 104013 119429 116796 46137 84474 10289 30145 78459 93724 63392 38337 46253 67338 6690 30332 45413 32963 383 32580 20052 14557 34955 60648 4967 8851 1434 10093 12450 8037 7874 5835 14162 28333 332 173
is_linear=0
shrinkage=0.0198277


Tree=3
num_leaves=40
num_cat=0
split_feature=86 180 74 111 180 188 21 57 63 188 118 109 201 124 57 116 12 78 116 120 25 164 118 172 145 57 180 83 87 3 180 32 94 212 129 207 57 176 121
split_gain=476.581 342.855 139.809 107.704 62.1645 55.0424 63.3695 53.5012 52.24 49.7408 42.8513 40.0885 37.6151 35.893 39.4582 34.2265 33.7735 36.9397 32.2829 32.2198 33.9777 32.307 29.0718 28.6401 30.3544 28.631 28.2291 28.0351 27.8123 27.3914 27.2515 27.0638 27.3943 27.0537 27.0029 28.649 25.9726 30.8427 29.401
threshold=-0.0010647008311934767 -0.19562499970197675 0.13197436183691028 -0.00068934570299461473 0.18123711645603183 0.51075196266174328 0.00024548410146962857 0.037297593429684646 -0.052806513383984559 -0.50897452235221852 0.24244487285614016 1.8172346949577334 4.1298129360711762e-08 -0.00014969788026064632 -0.22275536507368085 0.029164993204176429 0.0041182900313287982 1.6988809704780581 -0.28562678396701807 3.801530241966248 0.00012102012988179923 -0.26601853966712946 0.15064918249845508 1.8990522221429277e-05 0.035327976569533355 0.089236430823802962 -0.46266840398311609 5.8592233657836923 -0.0010394059936515985 1.4152741186990172e-05 1.1505900025367739 0.0004327513743191958 0.0050901528447866448 0.98296290636062633 0.052742382511496551 -0.19371846318244931 0.084404982626438155 -2.7657994905894153e-05 -0.0005453835183288901
decision_type=2 2 2 2 2 2 2 2 2 2 2 2 2 2 2 2 2 2 2 2 2 2 2 2 2 2 2 2 2 2 2 2 2 2 2 2 2 2 2
left_child=4 3 5 9 13 10 29 23 -6 19 27 15 25 14 -1 18 17 30 -11 20 -2 33 -23 -4 -25 -5 31 -3 -24 34 -9 -21 -33 -22 -7 -36 38 -38 -8
right_child=1 2 7 12 8 6 36 16 -10 11 -12 -13 -14 -15 -16 -17 -18 -19 -20 26 21 22 28 24 -26 -27 -28 -29 -30 -31 -32 32 -34 -35 35 -37 37 -39 -40
leaf_value=0.0040112682198973834 -0.0053077222457151305 0.00047360756502414712 -0.0015062224669276899 -0.0016755202339381334 0.0023008441706871907 0.0032498900787177589 0.0085050099702828515 -0.0016018952005808806 0.0049781058627015925 -0.02279929491807562 -0.0048185459112729968 -0.0057005777446151882 -0.0077703355328579311 0.00055092380271921264 0.00080486702327754809 -0.001777709699735307 -0.0039886902526292279 -0.0062639008768109357 0.00077524861149783054 0.0055629752968891439 -0.00036515457409522266 -0.0021482476780297442 0.0090049713832368317 0.0013935667837239056 0.013156410507386578 -0.0052932549902752158 -0.024780761717194004 0.022373944067304932 -0.0050928116824298418 0.00066859548319748129 0.0017347909177781921 -0.010842056575218455 0.010364637868250997 -0.008032783224837017 0.003802673382803109 0.0091490836335373464 0.0067613584484182967 -0.00059303057109462735 0.0016158041114241206
leaf_weight=3390.5637151189148 1368.6246710941195 12384.470022056252 1693.9881048388779 1387.6095094904304 6938.5279403477907 2848.1234257370234 254.75103935599327 4255.2842141836882 4880.822755202651 22.935188889503479 622.07963402941823 586.64958891272545 1370.4638652801514 7731.3320743329823 2718.7339516915381 3856.7143542729318 2740.3810402192175 543.94836591556668 5313.2788245528936 61.589527238160372 4527.3910834342241 9469.044322822243 56.521868620067835 2617.1639227345586 89.185700390487909 2261.940402764827 36.118125796318054 23.02252846211195 2063.4603160023689 935.91882590577006 1243.4906286224723 263.08076309040189 26.345600318163633 188.43407216668129 785.53177996724844 790.61144509911537 238.33253006637096 3776.3074480034411 5533.4848059266806
leaf_count=14069 5107 48903 6500 4669 28309 10092 1073 17087 19776 141 3165 2574 5077 30659 11297 16350 11801 2112 21426 150 18932 37557 283 10436 232 8022 91 52 9470 5537 4863 695 87 778 2529 2888 1034 15428 21687
internal_value=2.09324e-05 -0.000784235 0.000416591 -0.00229626 0.00235034 0.00120475 0.00201688 -0.00126887 0.00340642 -0.00181424 0.000259637 -0.000675301 -0.0049695 0.00144849 0.00258437 -0.000354611 -0.00216291 -0.00133492 0.000673924 -0.00243095 -0.00230701 -0.00205513 -0.00261814 0.00051565 0.0017812 -0.00391774 -0.00808941 0.000514244 -0.00471694 0.00375031 -0.000847338 -0.00637194 -0.00891167 -0.000671536 0.00440222 0.00648449 0.00106904 -0.000156431 0.00191901
internal_weight=99896.3 74236.3 41376.1 32860.2 25660 28192.6 15163.1 13183.4 11819.4 27840.2 13029.6 9779.58 5020.01 13840.6 6109.3 9192.93 8783.1 6042.72 5336.21 18060.6 17673.5 16304.9 11589 4400.34 2706.35 3649.55 387.134 12407.5 2119.98 5360.19 5498.77 351.016 289.426 4715.83 4424.27 1576.14 9802.88 4014.64 5788.24
internal_count=400938 296828 165419 131409 104110 112388 60268 53031 48085 113641 52120 40491 17768 56025 25366 37917 35863 24062 21567 73150 72127 67020 47310 17168 10668 12691 1023 48955 9753 21046 21950 932 782 19710 15509 5417 39222 16462 22760
is_linear=0
shrinkage=0.0198277


Tree=4
num_leaves=40
num_cat=0
split_feature=107 188 86 57 6 166 180 106 95 180 123 57 15 123 106 58 95 132 171 188 66 57 74 123 164 74 69 20 164 200 199 40 63 116 87 201 35 138 200
split_gain=462.832 308.873 156.411 88.1446 78.092 75.7337 68.2753 55.2928 53.865 52.1558 46.1978 45.5036 42.1575 36.5828 36.4678 35.9826 35.8104 35.8032 35.7702 41.2101 34.5635 33.8006 33.4168 33.8857 31.4715 31.3648 30.6277 29.1449 31.713 27.9672 27.3828 27.0046 27.9957 26.6612 29.2414 26.5385 35.5459 29.8272 29.3235
threshold=0.0013396571739576759 -0.42440579831600184 -0.0010647008311934767 0.2304322421550751 -0.00073714656173251558 4.3368017673492441 0.39577975869178778 0.00032354811264667665 0.2021589204668999 -0.5354519486427306 1.0940525531768801 0.089236430823802962 0.30656836926937109 1.0224694013595583 0.00018393899517832327 -1.0980896353721616 -0.10564365610480307 0.18117330223321917 0.24779679626226428 -0.30726346373558039 -0.00035349461541045452 0.032708227634429939 -0.28577800095081324 1.4987843632698061 0.12958852201700213 0.084817986935377135 -0.010995647404342888 -7.9957553680287657e-06 -0.51194012165069569 -0.0078587075695395452 -0.39767195284366602 0.39636169373989111 1.8580790758132937 0.0030175611609593038 -0.0011824952671304343 3.9726593570321718e-08 -0.48195439577102656 -0.087025847285985933 0.068546473979949965
decision_type=2 2 2 2 2 2 2 2 2 2 2 2 2 2 2 2 2 2 2 2 2 2 2 2 2 2 2 2 2 2 2 2 2 2 2 2 2 2 2
left_child=1 2 21 9 10 7 25 33 17 20 16 14 15 -7 -8 -11 30 -5 19 -10 -2 -1 26 -24 -19 -6 -16 -22 -29 -20 -3 32 -12 -4 -35 37 -37 38 -9
right_child=3 4 5 8 6 13 11 35 18 12 31 -13 -14 -15 22 -17 -18 24 29 -21 27 -23 23 -25 -26 -27 -28 28 -30 -31 -32 -33 -34 34 -36 36 -38 -39 -40
leaf_value=0.002057847394437489 0.0012377042775520719 0.011037213820034428 -0.0021730212347433556 -0.0022544709404568471 0.0010011474534967616 -0.0044670122981584235 0.0056078496253681867 -0.017313413182221994 -0.0086632848142002682 -0.0091576257462028573 -0.0070576853078567637 0.001005610686127882 -0.00095338164961321619 -0.021871892600081096 -0.0047929756514101312 0.0029271382813808506 0.0022341827411394427 -0.0015499643412155036 0.012975352046052074 -0.0041528751391203874 -0.00021705221012355204 -0.00092054500781089542 0.0020936171712620335 0.014217821966732703 -0.010786337066645306 -0.0010218270477086319 0.0065714448684066175 -0.00063370599012388862 -0.0051866111676258115 -0.0024476986540065125 0.0046493929555452666 0.018002486909238634 0.012352387374405091 0.019630527661452978 -0.0049113638025053323 0.0024707549278608501 -0.0033375307475060519 -0.00011863497182925122 0.0034693464390347407
leaf_weight=5955.8140682652593 723.24419852346182 309.93256410956383 3370.6589071676135 8668.1921489425004 14957.318780310452 83.204026740044355 1684.1151532158256 77.592782646417618 1333.4765530601144 102.28739752992988 45.508420955389738 8008.3614686541259 8703.9684883356094 110.56670888140798 101.67725736647844 1826.7582971267402 3081.2751942723989 236.34749123454094 67.25251467525959 1977.1771805807948 889.25401950627565 2001.3452387824655 11786.801202684641 91.328810848295689 375.37087702006102 3773.1203450970352 1122.4437940977514 762.60721959918737 2846.3037149757147 147.81561985984445 1773.4926794581115 141.11610528826714 81.586131930351257 19.211232878267765 2940.2200253456831 486.58749627321959 2785.4740259833634 6590.3534608371556 40.685243781656027
leaf_count=23918 3089 977 11778 36608 59254 281 6115 203 5637 393 108 32151 35764 225 506 5743 13234 764 223 8502 3265 8062 47341 151 1164 15200 4112 3086 11153 485 7876 380 247 67 10703 2219 12403 27779 117
internal_value=-2.2236e-05 0.000831926 -0.000974686 -0.00215078 0.00177304 -0.00207557 0.00148057 -0.00192917 -0.00337428 -0.00116255 0.00400846 0.00220936 -0.000365629 -0.0143983 0.00286132 0.00228634 0.0035918 -0.00258164 -0.00546057 -0.00596959 -0.00278542 0.00130874 0.00250829 0.00218684 -0.00721771 0.000593633 0.0056275 -0.00343228 -0.00422453 0.00237514 0.00559965 0.0120317 0.00540226 -0.00337876 -0.00475205 -0.0010098 -0.00247378 -0.000295752 -0.0101646
internal_weight=100080 71419.8 24461.7 28660.1 46958.1 16504.6 41525.2 16310.8 12805.6 15854.4 5432.91 22794.7 10633 193.771 14786.4 1929.05 5164.7 9279.91 3525.72 3310.65 5221.41 7957.16 13102.3 11878.1 611.718 18730.4 1224.12 4498.16 3608.91 215.068 2083.43 268.211 127.095 6330.09 2959.43 9980.69 3272.06 6708.63 118.278
internal_count=401283 285407 97755 115876 187652 65775 164830 65269 53383 62493 22822 90376 41900 506 58225 6136 22087 38536 14847 14139 20593 31980 52110 47492 1928 74454 4618 17504 14239 708 8853 735 355 22548 10770 42721 14622 28099 320
is_linear=0
shrinkage=0.0198277


Tree=5
num_leaves=40
num_cat=0
split_feature=86 188 107 90 188 109 55 188 180 16 95 43 97 65 72 43 54 97 72 74 151 54 0 1 143 76 105 26 200 57 59 140 98 97 43 62 111 176 145
split_gain=444.429 327.79 186.701 97.2115 57.4024 55.533 49.6157 46.2973 41.4637 43.1135 40.6683 38.73 37.2912 35.6239 35.2257 35.1938 34.7646 33.566 31.2343 31.2301 33.521 31.057 30.5777 30.4417 29.1232 28.7508 40.3919 28.0208 28.9779 34.5529 33.5082 27.8046 27.4974 27.1529 26.4247 26.0273 25.7646 25.6963 31.2244
threshold=-0.0010647008311934767 -0.30726346373558039 0.0019720643758773808 -0.00034387577034067357 0.62187895178794872 -2.3752194643020625 0.1955441236495972 -1.4472237229347227 0.18123711645603183 0.22088013589382174 0.12895679473876956 2.7974075078964238 -0.22094462811946866 -0.0024082467425614591 0.0010175848146900537 -0.64158099889755238 0.001094572071451694 -0.082529716193675981 0.0011028505396097901 0.22462780773639682 2.9345490020205038e-06 5.4323911058418172e-07 -0.00027295011386740947 6.4429365011164932e-05 0.067512843757867827 -0.250844195485115 -0.63224253058433522 -0.00066390522988513101 -0.021990107372403141 0.35244354605674749 2.6793023347854619 -0.054440844804048531 -0.50267690420150746 -0.4449982196092605 1.3980266451835635 3.9396296739578252 -0.00058488661306910206 6.9361856731120511e-05 0.035327976569533355
decision_type=2 2 2 2 2 2 2 2 2 2 2 2 2 2 2 2 2 2 2 2 2 2 2 2 2 2 2 2 2 2 2 2 2 2 2 2 2 2 2
left_child=5 3 4 7 17 15 32 11 12 33 16 22 -7 -14 37 -1 -9 21 36 35 -21 -3 24 -16 -2 26 34 -25 30 -30 -29 -24 -4 -10 -11 -5 -8 -6 -39
right_child=1 2 6 19 14 8 18 10 9 25 -12 -13 13 -15 23 -17 -18 -19 -20 20 -22 -23 31 27 -26 -27 -28 28 29 -31 -32 -33 -34 -35 -36 -37 -38 38 -40
leaf_value=-0.00059753774706491111 -0.0019307780381564662 0.0189184556301033 -0.0024162663003779875 -0.0035892060165638251 0.0018541665217615899 0.0027195788748876396 0.018984202203306991 -0.0016744970448558084 0.021993617197469319 -0.00051763055762828756 -0.0032666663138286359 -0.018051377462039761 0.0031528314871458723 -0.00019982370123388667 0.0052186250571233297 0.005921774395536138 0.0003683196019907425 -0.00039456273177996935 -0.0034496083564699988 -0.0099609805769837034 -0.0037450731761338482 0.0013292294194187438 -0.022335094156540211 0.0058499568418940899 0.0070575697372744408 0.0013502578960669248 0.0048101745999863874 0.002338705486455026 0.00082724296799003877 -0.0026316373612800268 0.021899873693461143 -0.0041358036397424166 0.00030942664734317723 0.0054079469739291034 0.025666819150971985 -0.017804724235873516 0.0010136657624741576 0.0041416514259077341 0.013233157722037148
leaf_weight=381.97644211724401 1383.6229144185781 39.723424382507801 2224.2436433210969 2073.8619213141501 2421.4466547258198 3941.9373397603631 39.156941175460815 11958.010676309466 39.805963702499866 867.39063377305865 4369.8042563423514 71.763259887695312 1512.1233386658132 7078.9427248425782 716.15078245475888 2203.457102727145 4510.412781316787 10836.65730940178 5513.4354740418494 935.01372670009732 536.9469416923821 6065.693198684603 33.270847078412771 442.23919453844428 157.88950558379292 5340.9078008830547 2769.7018693238497 2311.9723965451121 5154.570031248033 1456.1894570142031 34.947989374399185 4099.5360313281417 4207.659760184586 1544.4264784045517 15.421315792948006 51.901958990842104 157.62185822427273 2389.1200680583715 158.35836504399776
leaf_count=1454 5689 169 9532 7469 8692 16485 140 46853 110 3441 18270 147 6506 27742 2710 8871 19312 42815 22300 3320 1937 23579 85 1850 487 22661 12528 9728 20308 5990 75 17222 16850 4506 52 142 514 10349 414
internal_value=-4.51641e-05 -0.000822056 0.000266226 -0.00241468 0.00105996 0.00220276 -0.0018274 -0.00200072 0.00189446 0.00280864 -0.00156621 -0.00357645 0.0011229 0.000390281 0.00194955 0.0049586 -0.00111501 0.000267881 -0.00317257 -0.00547351 -0.00769352 0.00144367 -0.00339338 0.00127804 -0.00101015 0.00227735 0.003633 0.000977815 0.000737278 6.53356e-05 0.00262999 -0.00428232 -0.000633157 0.00582468 -6.02288e-05 -0.00393629 0.00458962 0.00331666 0.00470681
internal_weight=100047 74351.2 44169.2 30182 32027.1 25696.1 12142.1 26584.3 23110.7 10577.7 20838.2 5746.08 12533 8591.07 15085 2585.43 16468.4 16942.1 5710.21 3597.72 1471.96 6105.42 5674.32 10116.1 1541.51 8993.42 3652.51 9399.92 8957.68 6610.76 2346.92 4132.81 6431.9 1584.23 882.812 2125.76 196.779 4968.93 2547.48
internal_count=401304 296948 176015 120933 126679 104356 49336 108065 94031 43298 84435 23630 50733 34248 60116 10325 66165 66563 22954 12868 5257 23748 23483 40661 6176 38682 16021 37951 36101 26298 9803 17307 26382 4616 3493 7611 654 19455 10763
is_linear=0
shrinkage=0.0198277


Tree=6
num_leaves=40
num_cat=0
split_feature=86 184 108 90 184 88 83 118 2 58 96 149 48 125 188 100 148 79 170 45 118 197 69 20 14 189 69 32 100 5 145 0 146 145 188 27 39 197 170
split_gain=426.788 343.811 203.573 86.9119 60.6816 56.2078 49.1657 44.216 44.2859 43.8645 39.8294 38.5783 37.8935 33.499 32.3359 36.7236 30.8658 35.4566 32.4827 32.6134 30.4347 33.0353 37.3718 30.1155 29.6273 29.5882 38.577 29.457 29.055 28.1556 27.5641 33.3784 27.5066 40.3564 29.1049 27.0542 27.0326 26.9421 27.4805
threshold=-0.0010405236971564589 -0.50759673118591297 0.0016629887977615001 -0.00030721945222467179 0.65684187412261974 1.6581897735595705 2.0861250162124638 -0.19988869130611417 7.114067557267846e-05 2.6546678543090825 -0.77162352204322804 0.0022910161642357711 -2.0079319477081294 0.29938286542892462 0.31063197553157812 0.54359731078147899 -2.6629804779076945e-06 0.58652654290199291 11.156684875488283 0.0019438613671809437 0.15305999666452411 -9.4449436005561427e-07 -0.0025468025123700495 0.00017955450312001633 0.0070743425749242314 -1.2937574386596677 -0.00570182898081839 0.0011613438255153599 0.56311121582984935 0.6275860369205476 0.039298096671700485 -0.00021519904839806256 6.9956458901287996e-06 -0.02848098240792751 0.41413129866123205 0.00058833454386331152 -0.55437627434730519 -8.122280235056677e-07 7.6306402683258066
decision_type=2 2 2 2 2 2 2 2 2 2 2 2 2 2 2 2 2 2 2 2 2 2 2 2 2 2 2 2 2 2 2 2 2 2 2 2 2 2 2
left_child=6 3 4 7 12 27 10 -2 -9 20 16 -11 -3 -5 25 -16 18 -18 -1 23 -10 22 -22 -20 30 26 -8 35 -29 -13 -6 36 34 -34 -12 -4 -32 -23 -39
right_child=1 2 5 13 24 -7 14 8 9 11 32 29 -14 -15 15 -17 17 -19 19 -21 21 37 -24 -25 -26 -27 -28 28 -30 -31 31 -33 33 -35 -36 -37 -38 38 -40
leaf_value=0.0026637463456371377 0.00065872096960758477 0.00591509160247395 -0.0015972799636826303 -0.0048144360243259753 0.002082846090661979 -0.0044332156055671302 0.013978772615834275 -0.0042801243264926599 -0.0014617522133472025 -0.0032898872559408172 0.00051944838435183816 -0.0057723596943486622 0.00016561581546519521 -0.010024720301785452 0.0073120346009059858 0.026621086300397893 0.0023157012733950187 -0.0087078872743781097 0.0060292119643254099 -0.0018391307694609481 -0.00058425473996578589 0.0072132094169261862 -0.0075692486389294959 0.01348861950527778 -0.00078283105688884867 0.0042158311092416962 -0.012691056528823404 -0.00074325526415424574 0.0036723674668094372 -0.02671643515333336 0.0042124741666059243 0.0032985890451769696 -0.017641095088732121 -0.00086042891997349462 0.0028002252794523067 -0.0051840596861588775 0.022339594150969075 0.00038511710801493226 -0.0049851657930622935
leaf_weight=1451.6344943009317 1856.9677731059492 460.73188697174191 4548.412050075829 2053.2158008106053 12812.584701579064 2717.6627210602164 27.910534713417292 4467.6918374076486 12245.63222643733 135.02409136667848 5542.6370494440198 39.546003080904484 20624.736232966185 635.21155958995223 773.0973338894546 40.764804940670729 11128.19687589258 115.90336774662137 653.60950679704547 138.17588683590293 409.80780840292573 124.04863635450602 1135.5518419221044 315.48120031878352 1406.2496111169457 817.72084096446633 90.329604111611843 4577.9902051724494 671.81739625707269 69.726232253015041 52.763619042932987 271.3684386909008 58.845490097999573 1324.877439789474 3646.885921113193 1010.3992769420147 83.567697200924158 721.90594312548637 778.66496273130178
leaf_count=7134 7907 1770 16882 7654 51734 11209 100 18155 48359 331 22547 102 80772 1982 2999 87 43285 255 1955 574 2394 495 5329 934 5686 3618 241 21360 1658 124 105 722 203 6107 15775 3826 188 3906 2713
internal_value=5.12865e-08 -0.000769929 0.000187346 -0.0026803 0.000971973 -0.00188422 0.00217834 -0.00226878 -0.00253887 -0.0020421 0.00194789 -0.0103781 0.000291246 -0.0060455 0.0053887 0.00827919 0.00264936 0.00220207 0.0046148 0.00717265 -0.00191 -0.00364156 -0.00571693 0.00845757 0.0019533 0.00287528 -0.00639565 -0.00124331 -0.000178188 -0.0191367 0.00224435 0.00731977 0.00103215 -0.00157406 0.00142458 -0.00224923 0.015324 -0.00166745 -0.00240159
internal_weight=100037 73911.3 49238.3 24673 35712 13526.3 26126.1 21984.6 20127.6 15659.9 24376.2 244.296 21085.5 2688.43 1749.82 813.862 13803 11244.1 2558.9 1107.27 15415.6 3169.98 1545.36 969.091 14626.5 935.961 118.24 10808.6 5249.81 109.272 13220.3 407.7 10573.2 1383.72 9189.52 5558.81 136.331 1624.62 1500.57
internal_count=401177 295363 195912 99451 140977 54935 105814 89815 81908 63753 98769 557 82542 9636 7045 3086 54137 43540 10597 3463 63196 14837 7723 2889 58435 3959 341 43726 23018 226 52749 1015 44632 6310 38322 20708 293 7114 6619
is_linear=0
shrinkage=0.0198277


Tree=7
num_leaves=40
num_cat=0
split_feature=108 184 108 76 140 0 198 123 74 188 29 110 122 45 108 191 50 74 213 174 37 38 152 119 205 93 13 158 187 160 20 130 27 128 114 66 177 211 18
split_gain=404.446 258.24 132.876 92.5892 61.0881 60.5349 60.2072 56.9632 53.422 51.7578 48.1101 44.7394 41.6192 41.2716 39.1826 37.6399 36.7186 36.3088 33.3837 37.2597 33.3329 32.7074 32.3391 33.8763 31.957 31.0772 31.0077 30.9721 34.7478 30.4829 30.2724 30.1064 29.3902 28.7619 28.6384 28.3362 27.7358 27.6622 27.1869
threshold=-0.00039972481317818159 -0.53201794624328602 0.00097644355264492344 -0.23530850559473035 0.058550754562020309 -0.00011017303040716796 -8.0182247508275834e-09 0.51900050044059765 0.1075490564107895 -0.50897452235221852 2.6933616027235988e-05 6.6537056682136617e-06 0.96888068318367015 0.00031757386750541633 -0.0014304947690106926 -0.16190549731254575 -0.00128039886476472 -0.10114072635769843 -0.60785761475563038 2.8819592444051526e-05 0.7355993688106538 1.7804442644119265 -5.7631405070424069e-07 3.7200689315795903 4.9349649700047855e-08 0.00093929519061930488 0.0050868729595094928 0.38952022790908819 1.8632200360298159 -0.25146466493606562 0.00023843109374865892 5.8585605074767961e-05 -0.00036311708390712733 -0.58984175324439991 0.0071724173612892636 -0.00015909232024569062 0.00013822325854562226 -1.0000000180025095e-35 0.00019078623881796378
decision_type=2 2 2 2 2 2 2 2 2 2 2 2 2 2 2 2 2 2 2 2 2 2 2 2 2 2 2 2 2 2 2 2 2 2 2 2 2 2 2
left_child=3 5 11 4 9 20 14 13 25 16 21 34 18 24 31 26 -1 -14 35 -20 -2 -10 -19 -24 -7 -4 -15 28 -27 -6 37 -5 -11 -13 38 -8 -35 -9 -3
right_child=1 2 8 6 29 7 12 30 10 32 -12 33 17 15 -16 -17 -18 22 19 -21 -22 -23 23 -25 -26 27 -28 -29 -30 -31 -32 -33 -34 36 -36 -37 -38 -39 -40
leaf_value=0.0025173852554368765 -0.00099185860859300084 0.0016306992075703197 0.02407701018005122 0.0014442145493119365 0.021593226830680819 -0.0038030753760953579 0.0042003689850947734 -0.001659027488864262 -0.00028497686753029976 0.0046422792702817215 -0.0030606925419193634 -0.013425437741116606 0.012960357037265965 0.00043213690526361636 -0.0013959807739267393 -0.0037857786133682213 -0.0011403501331628159 -0.0117886347385234 -0.00030507279172877757 0.0021137464019164902 -0.0050853800280736732 -0.020734295232531126 0.0013551305840357748 0.021561760533215832 -0.0079233967734429287 -0.00011136922919830218 -0.0036222380318158905 -0.003683867574292152 0.0051751562866299682 0.0023220349991170037 -0.010720097389532121 -0.0027178340164526883 0.0024831150179840866 -0.00046322283462112287 -0.003431166496088192 -0.00028082233065033428 0.0037281269431096802 -0.0077202019663440147 0.0050386699109274957
leaf_weight=2268.129302944988 6239.8668166361749 10474.23739457503 20.861398823559284 5043.0737248957157 100.42185855656862 2755.4267692230642 2490.9675433114171 498.08980305492878 4184.0019507110119 4183.3924418240786 7862.5463996939361 64.080567054450512 234.72087373957038 2337.5465670712292 6062.6121841855347 3463.4911953769624 2057.9364791214466 52.308961991220713 5121.1703273877501 4898.4831685349345 894.08492001891136 30.976793628185987 147.50725952908397 41.878078732639551 1011.7592147141695 7092.9446329250932 1086.1958057656884 875.98619430884719 524.97923146188259 47.547682501375675 591.93410631269217 790.34533692523837 6081.2370599359274 6890.9509834721684 405.53415689244866 713.69749578088522 682.13797695562243 729.65998200327158 1008.9085773639381
leaf_count=9749 24822 41913 56 19974 249 9856 10361 1586 16733 17668 31630 135 588 11282 24163 14446 7985 126 19560 20172 3772 60 367 91 4325 29073 4877 3079 1824 185 1657 3604 24796 25572 1981 2938 3691 2335 3825
internal_value=-6.08592e-05 -0.00109679 -0.000185306 0.00147308 0.00272499 -0.00296169 0.000752229 -0.00379483 -0.00129647 0.00259644 -0.00214443 0.000986547 0.00164828 -0.0032411 -0.00027976 -0.00232841 0.000777377 0.00740588 0.00144086 0.000877458 -0.00150489 -0.000435264 0.00201165 0.00582335 -0.00490968 -9.36986e-05 -0.000854129 -0.000153063 0.000252945 0.0154007 -0.00703697 0.000880316 0.00336309 -0.00019762 0.00174724 0.00320238 -8.56913e-05 -0.00526123 0.00193012
internal_weight=100062 59726.2 40118.1 40335.4 14738.7 19608.1 25596.8 12474.1 20592.3 14590.7 12077.5 19525.8 13700.7 10654.4 11896 6887.23 4326.07 476.415 13224.3 10019.7 7133.95 4214.98 241.694 189.385 3767.19 8514.77 3423.74 8493.91 7617.92 147.97 1819.68 5833.42 10264.6 7637.17 11888.7 3204.67 7573.09 1227.75 11483.1
internal_count=401106 238530 159572 162576 60632 78958 101944 50364 82455 60198 48423 77117 54203 44786 47741 30605 17734 1172 53031 39732 28594 16793 584 458 14181 34032 16159 33976 30897 434 5578 23578 42464 29398 47719 13299 29263 3921 45738
is_linear=0
shrinkage=0.0198277


Tree=8
num_leaves=40
num_cat=0
split_feature=86 184 108 109 90 184 109 1 57 143 110 112 76 180 168 87 168 16 42 166 175 57 8 159 109 169 90 95 194 76 22 100 166 147 146 169 33 145 76
split_gain=396.79 313.106 188.083 63.3863 62.7357 60.7683 60.5868 41.5312 47.4236 47.474 41.3057 41.24 40.338 36.8251 36.1315 34.7052 34.6357 34.4879 33.7147 30.794 30.9039 29.835 28.999 28.2013 28.0669 27.409 27.2446 27.0394 25.7655 25.1716 27.8888 25.0426 24.6793 24.1914 29.061 28.7661 25.1613 24.1581 24.0591
threshold=-0.0010887583484873173 -0.50759673118591297 0.0016629887977615001 -2.3752194643020625 -0.00030721945222467179 0.72160169482231151 1.8506335616111758 6.4429365011164932e-05 0.2509677261114121 0.1204107813537121 6.6537056682136617e-06 0.00031876559660304343 -0.14127208292484281 0.18123711645603183 -0.31711734831333155 -0.0024479385465383525 -0.65609782934188832 0.88527876138687145 -0.64733976125717152 1.4863232374191286 -8.7946245912462459e-05 0.093943968415260329 -0.0015651627909392116 -0.11465631797909735 0.34104131162166601 -0.000595617719227448 -0.0040159670170396558 0.2021589204668999 1.1472077369689944 0.15639597922563556 1.7635439634323122 0.53854611515998851 3.566946387290955 -0.0090809594839811308 -4.9122129439638221e-06 -0.00055152276763692487 0.00032509739685337996 0.0085100368596613424 0.027808269485831264
decision_type=2 2 2 2 2 2 2 2 2 2 2 2 2 2 2 2 2 2 2 2 2 2 2 2 2 2 2 2 2 2 2 2 2 2 2 2 2 2 2
left_child=3 4 5 18 7 10 21 33 14 27 16 -12 -7 15 -9 24 -3 -16 23 20 -6 -4 -20 -1 28 -11 31 -10 -5 -18 -31 -13 -17 36 -35 -36 -2 -27 -23
right_child=1 2 6 13 19 12 -8 8 9 25 11 26 -14 -15 17 32 29 -19 22 -21 -22 38 -24 -25 -26 37 -28 -29 -30 30 -32 -33 -34 34 35 -37 -38 -39 -40
leaf_value=0.0099700343790537754 -0.014396649344796826 0.0032519143294228161 8.3875708533518849e-05 0.0021984214507113284 -0.0076395103088095634 0.0036830226064777055 -0.0043256026741627131 0.00068963462180547924 -0.0024165267346751627 -0.021042551312259232 0.015654806762016939 0.00092922181472073167 0.0012925421548099613 0.002676055797024744 -0.0015628337426689452 0.00045278702716930843 0.0010233506897162035 -0.008308277420332872 0.0041728070419368287 -0.010957943995230784 -0.0029169396643103167 0.00077104873754640512 0.0088178336675246681 -0.003228779293326346 -0.0064836553885863849 0.0078209267135880452 -0.0014739874974679561 -0.0060822925304215613 0.0066025944581404108 -0.00077142143890860564 -0.015780173484826267 0.010813025332137304 -0.01140711813073882 0.0051786581699252692 -0.008650403456208473 -0.0032222873064919411 0.0005531954577024349 -0.011473586859984774 -0.0026144219055248812
leaf_weight=81.081846032291651 177.35854340344667 2105.2392419874668 4594.3692113645375 3139.4459831267595 842.30910244211555 3846.5044540055096 2961.4513712748885 3070.4429080970585 5676.9903434813023 85.467496640980244 58.69417217746377 806.5049807690084 9963.8887143060565 10428.088197182864 9580.9850464649498 8304.4824381731451 9455.311351262033 307.54831603169441 1323.6665879711509 340.69458178058267 1542.0844403244555 991.65667731687427 879.44863605871797 295.89057733118534 128.74446817114949 33.767478581517935 6627.809395108372 919.1446173787117 626.42201748862863 3198.8714383579791 49.424773350358009 115.17258275300264 69.556513451039791 127.99389624595642 508.95830246061087 1561.0798616707325 58.976689644157887 104.34796455129981 4917.927751686424
leaf_count=205 519 8352 18299 13625 3447 15114 12092 12783 24634 162 216 4065 39989 42538 38890 32511 37083 722 5520 1109 5171 3849 3328 1224 545 78 24408 4068 2769 13308 136 335 209 470 1981 5937 187 267 20523
internal_value=-2.55322e-06 -0.000729755 0.000180041 0.00214454 -0.00254265 0.000923731 -0.00182079 -0.00219433 -0.00189355 -0.00323191 0.000286339 -0.000901092 0.00195834 0.00180977 -0.00118923 0.00107345 0.000896393 -0.00177263 0.00508946 -0.00538196 -0.00458523 -0.00111459 0.00602703 -0.000389884 0.0026198 -0.0122174 -0.00102981 -0.00292734 0.00293102 0.000506036 -0.000999789 0.0021643 0.000354276 -0.0046381 -0.00398998 -0.00455689 -0.010666 -0.00675631 -0.00204632
internal_weight=99907.8 74631 49692.8 25276.8 24938.1 36227.4 13465.4 22213.1 19778.7 6819.72 22417 7608.18 13810.4 22696.7 12959 12268.7 14808.8 9888.53 2580.09 2725.09 2384.39 10504 2203.12 376.972 3894.61 223.583 7549.49 6596.13 3765.87 12703.6 3248.3 921.678 8374.04 2434.37 2198.03 2070.04 236.335 138.115 5909.58
internal_count=400668 298194 197769 102474 100425 143006 54763 90698 81604 29209 87903 29024 55103 92197 52395 49659 58879 39612 10277 9727 8618 42671 8848 1429 16939 507 28808 28702 16394 50527 13444 4400 32720 9094 8388 7918 706 345 24372
is_linear=0
shrinkage=0.0198277


Tree=9
num_leaves=40
num_cat=0
split_feature=66 184 66 95 184 89 97 120 184 75 25 7 73 57 57 123 203 57 166 128 20 133 95 55 126 7 100 121 40 56 195 25 181 65 204 50 184 128 17
split_gain=386.157 247.092 115.714 93.1982 84.8437 75.6957 70.1686 59.3857 49.3257 48.647 42.011 41.5659 38.814 37.9178 36.051 35.2581 33.6883 32.2523 31.8923 34.8865 30.4602 29.7894 28.9654 28.8026 33.1041 27.9714 28.9502 27.711 31.9842 27.1302 31.8578 30.5665 30.8527 26.9706 49.5432 28.4445 26.7948 28.7839 26.4957
threshold=-0.0002783844392979517 -0.50759673118591297 0.0011989836930297317 -0.1709017604589462 -0.67937919497489918 2.6775639526022136e-05 0.12001543119549753 0.31454737484455114 1.0415610671043398 0.63479444384574901 0.00018352536426391455 -0.00059935776516795148 0.0010994238546118142 0.014148893766105177 0.35244354605674749 0.96904173493385326 -0.51499706506729115 -0.28428328037261957 -0.007160729728639125 0.42086425423622137 -1.0463397302373776e-05 -4.5977754780324169e-05 -0.11682844534516333 -0.15910343080759046 0.306276485323906 -0.00023250662343343717 0.56311121582984935 0.00016465288354083898 0.54599857330322277 0.010663871653378012 -0.53165528178215016 5.6178727390943102e-05 1.5578837990760805 -0.00019745500321732831 0.038769753649830825 -0.0015369167085736988 1.0563805699348452 0.55189964175224315 -3.0236848942877256e-05
decision_type=2 2 2 2 2 2 2 2 2 2 2 2 2 2 2 2 2 2 2 2 2 2 2 2 2 2 2 2 2 2 2 2 2 2 2 2 2 2 2
left_child=3 6 5 20 17 8 12 10 18 16 -8 23 29 -11 -10 -9 -4 -5 19 -3 -1 -18 -7 24 -6 -22 -27 28 -14 31 -31 32 -2 34 -20 -36 -13 -38 -16
right_child=1 2 9 4 11 22 7 15 14 13 -12 36 27 -15 38 -17 21 -19 33 -21 25 -23 -24 -25 -26 26 -28 -29 -30 30 -32 -33 -34 -35 35 -37 37 -39 -40
leaf_value=0.00088995139495235158 -0.014896281028730661 0.0012540242321589898 0.02557938519454845 0.00088014475725675353 0.0028064927682785964 0.014807458022042443 -0.0078653076788213223 -0.00634670060317337 0.0036023654453420399 -0.00019685474653086398 -0.0024414764542223188 0.00066443069315744912 -0.0015344633020498016 -0.0034353803546738723 -0.0095251852775779834 -0.014693600003762939 -0.008436982999133185 -0.0017090115622899115 0.00056637290069466728 0.0097704045429796733 0.0052715801966153608 0.00036291408130674887 -0.0015536702012512562 0.001095580797671391 0.0065042681494570159 0.0028452874402327853 -0.012226186757787375 -0.0026606352251535197 0.0014574648493315913 0.00041761066828521515 -0.0038064557450587602 -0.0045009007201742748 0.013945104867577196 0.0001891495768640314 0.0055524474069213858 -0.0091000091462805476 0.0023240784304421353 0.016647408355696554 0.00066341441628840433
leaf_weight=1395.7591501809657 192.56656091660261 8441.1180401369929 20.324403092265129 3091.6325646266341 3830.949008397758 42.860584829002619 652.46046820282936 1769.094219699502 4302.2366287820041 1876.1618877127767 4024.0471781603992 12818.205329149961 3701.0035390667617 5862.8551913462579 110.28748248890042 224.16466034203768 158.09495463594794 4872.1710830703378 676.25991757959127 193.43385670334101 3551.5810802057385 3485.2587441056967 5688.2970893122256 2412.5536722838879 1266.4531858637929 2464.3570795506239 51.145427774637938 3312.2800133787096 2263.9421189166605 1049.8706188872457 2118.0706279277802 1232.5804258361459 15.776208452880381 7338.7366373986006 58.457371469587088 477.90117491781712 3935.2897449955344 55.941820729523897 1112.9642735570669
leaf_count=5135 769 33197 72 12744 16440 176 2526 8090 16897 7248 17265 50991 15754 24516 378 579 779 19634 2606 490 14025 14493 21732 10370 4717 9788 118 13607 7807 4131 7479 4746 62 28974 284 1899 16255 105 4603
internal_value=1.62429e-05 -0.000982514 -7.1639e-05 0.00153403 0.0010724 0.000604907 -0.00274815 -0.00441966 0.00111874 -0.0017592 -0.0031982 0.00165407 -0.00194528 -0.00265027 0.00274837 -0.00728541 0.000123071 -0.000703874 0.000594796 0.00144481 0.00353097 -1.89369e-05 -0.00143131 0.00288045 0.00372521 0.00413855 0.00253885 -0.00120642 -0.000398903 -0.00343255 -0.00240658 -0.00568819 -0.0127123 -0.000263489 -0.00300285 -0.00750305 0.00110617 0.00252484 -0.000255181
internal_weight=100147 60401.1 39845.2 39746 32283.2 28442.6 20555.9 6669.77 22711.4 11402.7 4676.51 24319.4 13886.1 7739.02 5525.49 1993.26 3663.68 7963.8 17185.9 8634.55 7462.84 3643.35 5731.16 7509.96 5097.4 6067.08 2515.5 9277.23 5964.95 4608.86 3167.94 1440.92 208.343 8551.36 1212.62 536.359 16809.4 3991.23 1223.25
internal_count=401481 241159 158344 160322 131256 111236 82815 28460 89328 47108 19791 98878 54355 31764 21878 8669 15344 32378 67450 33687 29066 15272 21908 31527 21157 23931 9906 37168 23561 17187 11610 5577 831 33763 4789 2183 67351 16360 4981
is_linear=0
shrinkage=0.0198277


Tree=10
num_leaves=40
num_cat=0
split_feature=86 188 107 69 76 188 76 118 134 166 44 200 183 27 88 174 50 15 23 144 106 17 145 145 181 176 105 1 55 172 111 199 77 76 188 4 29 172 28
split_gain=346.171 232.075 130.466 90.9922 57.357 56.3268 49.6402 42.784 56.2952 40.963 41.7794 40.6616 40.3589 38.4998 37.4683 38.3829 35.7773 34.948 34.8573 33.8415 33.7439 33.713 31.4107 30.9783 30.0456 29.4964 29.7058 28.2396 31.2514 27.9314 27.4399 27.3884 29.5163 27.206 26.3848 26.0013 25.7625 25.752 30.8223
threshold=-0.0010405236971564589 -0.30726346373558039 0.0013396571739576759 -0.00061778535018675018 -0.26297317445278162 0.47288015484809881 0.05859773792326451 -0.056629009544849389 0.14941204339265826 -0.097684096544980989 0.57088112831115734 0.43650156259536749 -0.81751948595046986 0.0003273527254350484 -2.3357924222946163 -8.9749660219240451e-06 -0.00067859955015592266 0.25611425936222082 1.6135483980178835 8.2415459701223892e-07 0.00054600552539341163 1.6042260426729629e-06 0.041882844641804702 0.035327976569533355 -0.98111316561698902 -3.8268455682555207e-05 -0.67029994726181019 0.00014760094927623871 0.28491674363613134 7.5182622822467251e-05 -0.0023138320539146657 -1.430356979370117 0.14970383793115619 -0.099104549735784517 -0.91068840026855458 2.4302609347159892e-07 -8.6815066424605885e-06 1.8990522221429277e-05 -1.2531834244728086
decision_type=2 2 2 2 2 2 2 2 2 2 2 2 2 2 2 2 2 2 2 2 2 2 2 2 2 2 2 2 2 2 2 2 2 2 2 2 2 2 2
left_child=4 3 5 7 16 -3 37 -2 20 21 19 22 -10 31 -6 -16 18 27 29 23 -9 -5 33 30 36 -18 -27 -17 -29 -1 -11 32 -8 -7 35 -19 -24 -4 -39
right_child=1 2 6 9 14 11 13 8 12 10 -12 -13 -14 -15 15 17 25 34 -20 -21 -22 -23 24 -25 -26 26 -28 28 -30 -31 -32 -33 -34 -35 -36 -37 -38 38 -40
leaf_value=0.0027056727228462673 5.2303111335251155e-05 7.3047448401097469e-05 -0.0011677452517216541 -0.0028589072780776229 0.0044968104268631945 0.0026227546481436743 -0.0018341628949853168 -0.002708515350830107 -0.021407956508519926 -0.0016352308258910592 -0.007218275022969534 0.0058641736314483705 -0.0057591718821429182 -0.0031978930571293562 -0.00018918928720182188 0.011497762143785003 -0.0035357072790319017 -0.012138440666389479 0.0078271889742217559 -0.0019112494826781161 -0.00071908332413684901 0.0020054597507786465 0.0039735611738583483 0.01040567341959747 0.0032887294473746167 -0.0025582327512023544 0.0043791275467280864 0.0038776629721201045 -0.016400543936710532 0.0057717185484039406 -0.0067792818251865995 -0.00050386954943485427 -0.015482629411700352 0.00080402616282351249 0.0014515237412159377 0.00038713202125749906 0.023249248627632148 0.0073032781577532331 0.00086462228968099285
leaf_weight=6363.6102756075561 6524.5896341428161 12400.234978545457 2483.162810433656 2616.7277049794793 1271.9049893803895 5087.1478548124433 162.99201022461057 6609.9411556608975 89.156078573316336 529.55909705534577 1676.5856063440442 941.44901878759265 237.10019550099969 5152.4730844609439 6495.9138868674636 194.36920285969973 504.15802603587508 112.96849123016 720.35020011663437 2383.4568428769708 6800.1005567871034 712.68854366615415 44.331818219274282 48.571207366883755 216.44569934532046 351.70063538104296 782.6765302605927 1470.5464888736606 30.4979238063097 1430.7274519503117 1771.3323108926415 5268.8749646730721 100.82794433087111 8874.0818379856646 6246.0699574947357 153.93800439685583 70.783339511603117 326.41477831453085 2796.1833688989282
leaf_count=26319 26377 48947 9268 9149 5025 20261 548 24337 243 2077 6343 4234 663 21833 25761 616 2025 339 2827 8760 32309 3470 104 117 529 1189 3092 4389 90 6996 6472 21571 266 35600 26364 754 134 1190 10614
internal_value=1.08422e-05 -0.000682533 0.000235571 -0.00202681 0.00197253 0.00106525 -0.00117182 -0.00126973 -0.00189768 -0.00360184 -0.00452864 0.00187287 -0.0100355 -0.00196459 0.00123196 0.000949559 0.00313783 0.00185074 0.00365415 -0.00357586 -0.00169969 -0.00181765 0.00160997 -0.00526456 0.00764158 0.000454767 0.00222828 0.00438649 0.00346565 0.00326848 -0.00559536 -0.000816033 -0.0070504 0.00146673 0.00119065 -0.00491433 0.015826 0.000339265 0.00153768
internal_weight=100055 73925.2 43925.4 29999.8 26129.4 27634.5 16290.9 20260.9 13736.3 9738.92 6409.51 15234.2 326.256 10685.2 15976.2 14704.3 10153.2 8208.39 8514.69 4732.92 13410 3329.42 14292.8 2349.46 331.561 1638.54 1134.38 1695.41 1501.04 7794.34 2300.89 5532.69 263.82 13961.2 6512.98 266.906 115.115 5605.76 3122.6
internal_count=401202 295416 175099 120317 105786 109809 65290 83929 57552 36388 23769 60862 906 44218 63338 58313 42448 32552 36142 17426 56646 12619 56628 8666 767 6306 4281 5095 4479 33315 8549 22385 814 55861 27457 1093 238 21072 11804
is_linear=0
shrinkage=0.0198277


Tree=11
num_leaves=40
num_cat=0
split_feature=76 188 184 90 27 27 122 143 112 95 118 0 54 63 200 184 64 128 204 169 28 112 173 128 133 81 149 20 109 204 102 109 197 158 95 184 198 133 178
split_gain=337.185 188.695 118.862 108.096 84.9632 63.9386 49.1637 46.994 43.0968 38.5347 37.4321 35.6997 33.6831 32.9118 32.254 31.1425 34.0665 31.033 30.4785 29.2483 28.704 28.696 28.2848 29.7663 27.8412 27.858 27.5908 27.0183 26.8541 26.4331 27.5888 25.6971 25.3407 25.0299 24.9649 24.542 29.5954 24.5209 24.3667
threshold=0.05859773792326451 -0.10210182517766951 -0.89316383004188526 -0.0035134796053171154 0.00041443870577495551 -0.00058884621830657114 0.96888068318367015 0.1204107813537121 0.0033682530047371988 0.1075265482068062 -0.13720064610242841 -0.00011444710253272204 0.00028253925847820943 0.42170174419879919 -0.16484460234642026 0.34343835711479193 0.0019409237429499628 -0.051750913262367242 0.14628909528255465 -0.00053275033133104433 -1.449958264827728 0.00056327582569792878 8.9113374997396036e-05 0.33655509352684027 -8.8903299911180498e-05 0.00041166854498442268 -0.0042531788349151603 2.5972281946451407e-05 1.4975556135177615 -0.002048539230599999 0.0003052107931580395 2.2071225643157963 1.001202235784149e-06 -0.66127064824104298 0.10932455584406854 -1.4861131310462949 -2.4057065672877792e-07 3.2204381568590186e-05 0.00018375935178482908
decision_type=2 2 2 2 2 2 2 2 2 2 2 2 2 2 2 2 2 2 2 2 2 2 2 2 2 2 2 2 2 2 2 2 2 2 2 2 2 2 2
left_child=1 3 6 -1 9 7 12 21 22 17 -5 -8 -2 -9 -14 16 29 -4 27 37 24 -3 -7 -24 25 -12 -16 -17 -6 30 -11 35 -23 -34 -28 36 -22 -13 -19
right_child=2 5 4 10 28 8 11 13 -10 15 20 19 14 -15 26 18 -18 38 -20 -21 31 32 23 -25 -26 -27 34 -29 -30 -31 -32 -33 33 -35 -36 -37 -38 -39 -40
leaf_value=0.0012992114335463303 -0.0069350141152454163 0.0062238586685139105 -0.00069514232947075389 0.0003419115393409536 -0.0015927893209137949 0.0017967471537976615 0.0041958315777562835 -0.0035125541316056558 0.00057844770533283657 -0.0056134291700730803 0.019785597932763316 -0.025050236542942219 -0.011540708422046107 0.017058550213728239 -0.019159183361871893 0.0013302820170051305 0.0080495502553087628 0.0013597449794357141 0.0055784219613583333 -0.0046427752508230143 0.0025125096063414211 0.0015850256817588261 0.0033495875921031727 0.010581291094952745 0.00032474006764213919 -0.0033708242367567107 -0.0015520386804621065 -0.0023667044182409461 -0.0038455645840152325 -0.0038337536643338081 0.0016430713216139567 -0.0082637186772385376 -0.021271420911903587 0.0049462910711749715 -0.0039814660163206162 -0.0015589656234690794 -0.0050720989088094224 -0.011407410973909174 -0.0033908961620360812
leaf_weight=10340.890481255949 843.33145834878087 1187.2174143642187 6482.6453888751566 4222.6932207494974 4873.078382384032 13240.200816120952 54.931069061160088 37.567596562206745 11063.90089346841 276.57244209200144 59.381351355463266 92.431316547095776 160.47756864875555 164.29253804683685 39.115383140742779 1473.5389602221549 115.8844898827374 8275.9290466308594 346.59200717508793 106.27725846320391 232.40983732044697 2741.420495338738 2653.3021355681121 244.37270674854517 974.22617851570249 31.132661424577236 4445.388204511255 1644.4435179084539 3629.7992723211646 2929.1023523211479 806.99862238392234 259.92495152726769 14.444524221122263 1606.0697253420949 2656.7136490941048 9552.205612026155 1558.9074174612761 117.80429021269083 447.40709936991334
leaf_count=43275 3538 4106 25376 16114 20660 48572 153 86 45564 1045 198 164 783 470 93 6305 813 33059 1656 310 1232 11711 11600 712 3560 125 18620 6344 15414 11763 3253 940 49 7886 11395 35744 5543 297 2692
internal_value=-1.25455e-05 0.000923938 -0.00142802 -0.000297351 -0.000862954 0.0019332 -0.00350488 0.00383268 0.00153161 -0.000232104 -0.00127479 -0.0105594 -0.00318317 0.0132301 -0.00274984 -0.00138565 -0.00254888 0.000343922 5.04277e-07 -0.0131201 -0.00181369 0.00349083 0.00218508 0.00395947 0.00130203 0.0118208 -0.00255229 -0.000619531 -0.00255448 -0.00285496 -0.000209089 -0.00209959 0.00274696 0.0047126 -0.00246083 -0.00195835 -0.00408805 -0.0174056 0.00111609
internal_weight=100003 60184.6 39818.5 27231.8 31302 32952.8 8516.47 5751.01 27201.8 22799.1 16890.9 371.444 8145.03 201.86 7301.69 7593.13 4128.56 15206 3464.57 316.513 12668.2 5549.15 16137.9 2897.67 1064.74 90.514 7141.22 3117.98 8502.88 4012.67 1083.57 11603.4 4361.93 1620.51 7102.1 11343.5 1791.32 210.236 8723.34
internal_count=401220 237487 163733 106731 128380 130756 35353 24308 106448 92306 63456 924 34429 556 30891 31179 16874 61127 14305 771 47342 23752 60884 12312 3883 323 30108 12649 36074 16061 4298 43459 19646 7935 30015 42519 6775 461 35751
is_linear=0
shrinkage=0.0198277


Tree=12
num_leaves=40
num_cat=0
split_feature=86 188 107 111 173 109 188 88 0 123 97 94 175 81 123 23 26 72 191 5 97 99 176 200 149 42 68 126 210 174 66 118 27 160 97 118 169 200 169
split_gain=330.335 243.436 133.259 94.5436 56.2875 49.6753 49.1568 43.4432 42.9606 49.4092 43.7673 38.0265 37.24 36.061 34.1446 34.1265 33.2544 39.4335 30.5488 32.7421 30.5476 29.4916 29.4099 30.0314 28.9611 28.5496 28.467 28.3401 28.0267 30.4537 25.629 25.3726 25.2515 25.1617 25.0575 31.2418 25.2349 24.717 24.5367
threshold=-0.0010887583484873173 -0.30726346373558039 0.0019720643758773808 -0.00033587968209758395 8.7590487964916988e-05 1.8506335616111758 0.51075196266174328 -2.3357924222946163 -0.00011017303040716796 0.53136593103408825 0.098053749650716795 0.001628824742510915 -2.307000977452844e-05 0.0009186545794364066 1.0224694013595583 0.058404179289937026 -0.00072365769301541139 0.0010373762925155463 1.4463872313499453 0.00099552044412121198 -0.082529716193675981 -0.36147053539752955 6.9361856731120511e-05 0.088366307318210616 -0.0032279974548146124 2.6815779209136967 1.5693578461650762e-05 0.73493680357933056 3.9613210901734426e-05 8.2087444752687602e-05 0.00075861130608245741 -0.30524183809757227 0.0012582236668094995 -0.62188702821731556 -0.060620399191975587 0.044913323596119888 -0.00049844564637169231 0.2665857076644898 -0.00061502066091634322
decision_type=2 2 2 2 2 2 2 2 2 2 2 2 2 2 2 2 2 2 2 2 2 2 2 2 2 2 2 2 2 2 2 2 2 2 2 2 2 2 2
left_child=4 3 6 8 7 -4 20 -1 14 18 13 -6 -9 38 31 24 -8 22 19 -10 -3 -14 34 25 -5 30 -17 32 -19 -30 -24 -2 -13 37 -18 36 -36 -20 -11
right_child=1 2 5 15 11 -7 16 12 9 10 -12 27 21 -15 -16 26 17 28 33 -21 -22 -23 23 -25 -26 -27 -28 -29 29 -31 -32 -33 -34 -35 35 -37 -38 -39 -40
leaf_value=0.0046408680310712916 0.0068474607110191694 0.0013392710735223876 -0.00084184181433449509 -0.023888876626593718 0.01308948373673415 -0.0040507963199791462 0.0070437119652340717 0.00034717590048776402 -0.003973374773854046 -0.010539223951447255 -0.0089757517163482001 0.0037562612689425452 0.0032389858622099486 0.013512519873846244 0.0063126715043033107 -0.0032165331775950586 0.0037396747234407775 0.0011144931632006928 -0.010891978056833704 -0.0011920302706586771 -0.00051283520784429527 0.0012271405423064131 0.0023744851817312615 0.0063435709019878201 -0.0032928375791447806 0.017482815224899723 -0.010924512654596744 0.013260752452016102 -0.0070475491952040241 0.0013825303083418584 -0.0097890867096402708 -0.0010128222046912926 -0.0076845214468737088 -0.0030714580559218444 -0.017137857640210433 0.0026527713054253724 -0.0018374389831566889 0.0026270250070899994 -0.0025982131328098146
leaf_weight=1721.6762175224721 163.97696065530181 5461.4848052076995 9762.1601589173079 27.480499189347029 184.10012569278479 2353.8091728240252 445.9602203220129 8352.6131362617016 1944.8392146266997 176.41997122764587 753.32397015020251 3149.8903043195605 4970.0409419089556 49.919307835400105 265.08005091920495 259.02612466737628 1181.2550317756832 10247.886371962726 337.70447909086943 11521.22166633606 9752.9585878178477 6761.7285289615393 1271.5710136890411 1432.9011194817722 1152.7013834379613 46.763207245618105 690.53588891774416 120.84691958874464 355.67104095593095 320.08165548741817 71.954942032694817 10470.448547102511 77.715289246290922 1281.411515314132 44.6044049449265 886.21451796591282 849.03337218984962 63.103109013289213 1150.9091747440398
leaf_count=6926 795 21260 39508 71 742 9782 1838 34047 6906 440 2369 15345 18963 231 667 946 4233 40785 1223 51551 38378 25914 5245 6263 4013 94 2301 370 1408 1493 278 42022 421 4248 123 3259 3152 241 3478
internal_value=3.76775e-05 -0.000625192 0.000308519 -0.00199563 0.00199428 -0.00146526 0.000972471 0.00161815 -0.00169118 -0.00230607 -0.00513325 0.00431612 0.00135903 -0.00303148 -0.00071641 -0.00602376 0.00170017 0.00155754 -0.00190844 -0.00159373 0.00015201 0.00207944 0.00288128 0.00432922 -0.00377242 0.00225313 -0.00882189 0.00383375 0.000856593 -0.0030545 0.00172304 -0.000891621 0.00348079 -0.00442766 0.00150078 1.48616e-05 -0.00260113 -0.00876354 -0.00365368
internal_weight=100131 74792.4 44484.3 30308.1 25338.6 12116 32368.3 21806.1 28178.4 17278.9 2130.57 3532.55 20084.4 1377.25 10899.5 2129.74 17153.9 16707.9 15148.3 13466.1 15214.4 11731.8 5784.3 2823.19 1180.18 1390.29 949.562 3348.45 10923.6 675.753 1343.53 10634.4 3227.61 1682.22 2961.11 1779.85 893.638 400.808 1327.33
internal_count=401329 298601 177099 121502 102728 49290 127809 85850 114171 70687 6518 16878 78924 4149 43484 7331 68171 66333 64169 58457 59638 44877 22647 11880 4084 5617 3247 16136 43686 2901 5523 42817 15766 5712 10767 6534 3275 1464 3918
is_linear=0
shrinkage=0.0198277


Tree=13
num_leaves=40
num_cat=0
split_feature=107 184 90 109 184 109 97 73 39 91 49 74 164 25 123 55 166 117 91 58 17 188 1 206 15 90 44 36 209 45 198 39 106 191 36 38 40 19 112
split_gain=294.098 212.298 97.515 86.8476 60.1339 58.1387 49.5149 44.5927 46.298 38.8522 38.1937 34.4833 34.2954 34.3684 35.8131 32.2885 32.2 30.0806 28.9926 28.6317 26.1259 26.6528 27.6375 28.2439 26.0157 26.8059 25.543 26.6751 25.4004 25.1826 25.072 24.9335 33.0141 24.8293 24.767 24.2162 26.7078 24.1766 24.0341
threshold=0.0011365084792487325 -0.42603488266468043 -0.0026315071154385801 2.1475856304168706 -0.50759673118591297 -2.3752194643020625 -0.084796193987131105 0.00066432321909815084 1.7566386461257937 0.00071561805089004349 -1.3341708381631177e-05 0.1185395121574402 -0.57221370935440052 0.00038767623482272034 1.0224694013595583 -0.24119612574577329 -0.068099547177553163 0.99122455716133129 0.0053654364310204991 -0.91557636857032765 -3.3058442568290041e-05 0.64670255780220043 5.855004383192864e-05 1.2541357136797162e-05 0.11372762545943262 -0.000378600088879466 1.9379804730415346 -0.71137002110481251 2.7292171189685636e-08 0.00010536285844864325 -2.0916137088988759e-07 1.726338326931 0.0011709220707416537 2.8748182058334355 0.36190573871135717 -1.3815063834190366 0.44793176651000982 -6.509778586405445e-06 0.00025304965674877172
decision_type=2 2 2 2 2 2 2 2 2 2 2 2 2 2 2 2 2 2 2 2 2 2 2 2 2 2 2 2 2 2 2 2 2 2 2 2 2 2 2
left_child=1 2 10 4 12 19 18 -4 17 26 16 33 -2 14 -14 -11 30 -9 -7 -3 -17 -22 23 -23 25 -13 27 38 -10 -26 -1 -18 -33 -6 -30 36 -12 -16 -8
right_child=3 5 7 -5 11 6 9 8 28 15 35 24 13 -15 37 20 31 -19 -20 -21 21 22 -24 -25 29 -27 -28 -29 34 -31 -32 32 -34 -35 -36 -37 -38 -39 -40
leaf_value=0.007105634027279535 7.447723304260431e-05 -0.0028403710135576155 -0.0047103232419740603 -0.0047380937516446351 9.2533294725248618e-05 0.0023275135211998335 0.0044105493246079401 -0.0011136279739472404 -0.0026029745927239291 0.0019231236197506008 -0.022753620480431138 0.00701372627101413 -0.0046429373797966271 -0.0022438658225167629 -0.025192670317288925 -0.0027489722964393771 0.00049750479431320425 -0.0087737913529153284 -0.00032755793138598973 0.0058266049722117521 -0.00067637224134790917 0.0021567140046998361 0.00062996816225744897 0.010693539771850493 -0.01129654577724361 -0.011312632160966143 0.0081762617135068723 0.0033163898494226788 -0.020244188344220856 -0.0015429572458773915 0.0021031460585937403 -0.010287964310031251 0.0150122614159043 0.0074267302929745685 -0.0027502062967602802 -0.0007462972862740233 -0.003311803942261706 -0.0023520428624331504 -0.00049831232140239417
leaf_weight=456.73092944175005 1667.8830685839057 165.08511086553335 2079.896923519671 3106.2476263865829 9501.0187380872667 18431.133579235524 486.20799922943115 9224.8974842578173 113.882518094033 3767.6930548101664 40.750809200108051 235.38459098339081 2153.7631903067231 5792.1557862199843 56.8095932751894 1367.7229764759541 3934.5664797201753 206.03861199319363 1772.3681009039283 1623.7604918219149 6949.9538977555931 487.18778588250279 4758.3309501260519 221.69425713270903 105.34054359048605 36.20403241738677 269.09610100835562 2600.7045090794563 106.05938583612442 8613.060939989984 2862.2427263818681 157.56696469336748 23.271322645246983 185.00315598398447 45.449896946549416 4192.3598451055586 87.263985928148031 26.820453710854053 2026.1503624506295
leaf_count=2569 6924 726 8878 12793 38332 72033 1616 35798 302 15717 165 631 7149 25080 129 5203 15996 689 8848 6342 28049 1781 19977 914 362 100 1026 9806 223 34736 11086 429 87 530 125 17455 504 68 7775
internal_value=-4.35798e-06 0.000725026 -0.000800667 -0.00159053 -0.00124594 0.00152412 0.00137888 -0.00207591 -0.00151082 0.000748389 0.000476903 -0.000588192 -0.00251269 -0.00305009 -0.00513725 0.00029649 0.00133849 -0.00128098 0.0020946 0.00502677 -0.000148102 0.000138378 0.00117409 0.0048265 -0.00147255 0.00457073 0.00222215 0.00190879 -0.00967821 -0.00166081 0.00279155 0.000166637 -0.00703218 0.000232617 -0.0149963 -0.00100569 -0.0095007 -0.0178676 0.000451682
internal_weight=99937.8 68458.1 23531 31479.7 28373.4 44927.1 43138.2 11776.2 9696.33 22934.7 11754.8 18676 9697.43 8029.55 2237.39 17552.6 7434.38 9430.94 20203.5 1788.85 13784.9 12417.2 5467.21 708.882 8989.99 271.589 5382.16 5113.06 265.392 8718.4 3318.97 4115.4 180.838 9686.02 151.509 4320.37 128.015 83.63 2512.36
internal_count=400953 274119 94306 126834 114041 179813 172745 46015 37137 91864 48291 74691 39350 32426 7346 71641 30167 36487 80881 7068 55924 50721 22672 2695 35829 731 20223 19197 650 35098 13655 16512 516 38862 348 18124 669 197 9391
is_linear=0
shrinkage=0.0198277


Tree=14
num_leaves=40
num_cat=0
split_feature=86 188 108 69 109 213 180 37 43 86 168 102 188 105 69 43 110 153 169 46 188 121 64 38 137 40 152 100 121 80 201 15 1 88 168 49 146 109 109
split_gain=295.493 218.395 136.36 68.4036 55.4038 52.3909 49.3467 48.2594 45.8199 36.5475 36.2121 35.6327 34.002 33.6208 32.0313 31.7704 31.6045 38.6623 31.0145 30.92 30.9078 30.4682 33.3528 30.1433 30.137 29.5431 29.4169 28.8983 28.5768 27.6917 29.4302 26.9996 26.8582 26.8002 26.7121 26.0381 25.8062 25.6081 32.869
threshold=-0.0010647008311934767 -0.42440579831600184 0.0016629887977615001 -0.00033733168675098563 1.8506335616111758 -0.60785761475563038 0.39577975869178778 0.5931372642517091 2.742417693138123 -0.0038631681818515058 -0.11127225309610365 0.0003421346918912605 0.26263262331485754 0.48235675692558294 -0.0037013262044638391 2.7974075078964238 6.9065454226802112e-06 1.1068221397181335e-06 -0.00060272635892033566 -0.0023445361293852325 -0.9393935203552245 -0.00048161212180275465 0.00032421552168671047 0.50572556257247936 -0.094496015459299074 0.53064534068107616 5.5958562228397575e-08 0.4381887167692185 -5.8237535995431238e-05 -1.5336704254150388 1.3964452261205908e-08 0.77949920296669017 0.00072441642987541865 -1.9890716671943662 -4.1429550647735587 -1.3415042872111369e-06 -1.7116616390921988e-06 -0.8952457308769225 -1.3072741627693174
decision_type=2 2 2 2 2 2 2 2 2 2 2 2 2 2 2 2 2 2 2 2 2 2 2 2 2 2 2 2 2 2 2 2 2 2 2 2 2 2 2
left_child=5 3 6 7 -4 28 16 10 24 14 -2 32 -8 15 23 25 17 34 36 27 -21 -14 -23 -7 -9 26 35 -13 -1 -26 -31 -22 -11 -18 -3 -12 -15 38 -33
right_child=1 2 4 -5 -6 9 12 8 -10 11 13 19 21 18 -16 -17 33 -19 -20 20 31 22 -24 -25 29 -27 -28 -29 -30 30 -32 37 -34 -35 -36 -37 -38 -39 -40
leaf_value=0.004980663879693383 0.00010977422312957459 0.013649233103872083 -0.00086171389503828476 -0.0041455612458500147 -0.0040251686215503034 0.0020114492015273046 -0.00024177841079164677 -0.018288523178999316 -0.017941445039394655 0.0027313592860585545 -0.0014902488214061631 0.026905855526193286 0.006817855584863022 -0.018279596179506863 -0.012584367893990214 -0.026414763352036037 0.0058361555515103105 -0.0061058849050149187 -0.0031479773481518283 -0.0016905445179932041 0.0011323540489494026 0.0028044518750659202 0.00092530689799827771 0.0054586423119130376 0.0031823974821324694 0.00046678022418005064 -0.00086373485025716601 0.0049488575413480923 0.0020298855015356801 -0.001083130028662418 -0.0047166400201816691 -0.0013097997766195447 0.011016682680897441 -0.0015416495984247121 0.00078846120538702462 -0.0051378191962190454 -0.0057958425161644201 0.0015669720392572552 -0.012064521586891001
leaf_weight=2812.3502338565886 6198.6848035827279 63.905035328119993 9931.1240389831364 4932.1819594278932 2787.4038947783411 3070.5043792463839 3500.3822151683271 51.247806068509817 84.331451710313559 1818.9160116948187 1462.6739427037537 25.658931761980057 484.07703382894397 102.52110949158669 51.566197767853737 19.803677543997765 201.43833166733384 322.38214983791113 1435.3830097317696 2216.657928224653 10601.56344686076 6706.3826435916126 8319.968471750617 1476.9391027614474 267.19335179030895 2772.3597809709609 4235.6099560782313 288.79791942983866 2384.0953247472644 1362.4687809273601 2456.3215924724936 275.98881845548749 168.02558021992445 4952.8486150987446 9824.4097929373384 1623.2456920258701 178.35011478886008 329.37435289099813 187.70341028273106
leaf_count=12026 25670 168 40266 18234 11389 13522 14143 127 199 6070 5904 72 2033 387 253 32 702 1379 5047 8714 42590 23910 34987 6414 1123 9883 18487 1400 10017 6195 10153 777 755 19162 39488 7177 749 945 546
internal_value=1.63448e-05 -0.0006178 0.000199022 -0.00203297 -0.00155502 0.00184853 0.000847991 -0.00156467 -0.00347295 0.00139801 -0.00111783 0.000948064 0.00152336 -0.00176108 0.00295484 -0.00132564 1.23697e-05 0.000651277 -0.00432703 0.000593651 0.000451643 0.00192171 0.00176398 0.00313104 -0.00317803 -0.00127642 -0.0019365 0.0067405 0.00362687 -0.00298851 -0.00342028 0.000868374 0.00343201 -0.00125331 0.000871576 -0.00340893 -0.0103526 -0.00266046 -0.00566333
internal_weight=99984.8 74276.7 47094.3 27182.4 12718.5 25708.1 34375.8 22250.2 4221.56 20511.7 18028.6 15912.7 19010.8 11829.9 4599.01 10113.7 15365 10210.7 1716.25 13925.7 13611.3 15510.4 15026.4 4547.44 4137.23 10093.9 7321.53 314.457 5196.45 4085.98 3818.79 11394.6 1986.94 5154.29 9888.31 3085.92 280.871 793.067 463.692
internal_count=401095 296994 187627 109367 51655 104101 135972 91133 17797 82058 73336 61869 75073 47666 20189 41483 60899 41035 6183 55044 53572 60930 58897 19936 17598 41451 31568 1472 22043 17471 16348 44858 6825 19864 39656 13081 1136 2268 1323
is_linear=0
shrinkage=0.0198277


Tree=15
num_leaves=40
num_cat=0
split_feature=107 184 108 188 74 25 166 8 145 184 115 56 209 118 55 15 27 6 15 146 88 27 88 148 156 71 188 166 200 97 71 3 17 40 42 49 56 122 157
split_gain=300.208 243.675 96.7734 72.2261 70.0469 60.15 49.8408 45.3541 44.9927 38.3929 38.4771 38.9005 43.1321 34.5816 31.9316 34.848 30.9638 30.7151 34.5915 30.5588 30.1309 29.3879 29.3546 29.3456 29.0531 30.438 28.6254 28.5657 27.8568 36.8086 27.0287 27.7016 26.9405 26.8464 29.204 26.5627 26.4051 28.0192 26.3941
threshold=0.0011365084792487325 -0.42603488266468043 -0.0014304947690106926 0.5596449375152589 0.12974850088357928 0.00012102012988179923 4.3368017673492441 -0.00059081296785734583 0.041882844641804702 1.0265645980834963 0.004283842397853733 -0.68992915749549855 9.665258460245242e-08 -0.29764495790004725 0.41600537300109869 0.96317711472511303 -0.00055218333727680136 0.00012659132335102188 0.029560705646872524 9.8560729355767775e-08 -2.3357924222946163 1.0000000180025095e-35 -2.4903701543807979 -2.8530486417821516e-07 0.098492201417684569 0.001736117876134813 -1.0639975070953367 -0.33109955489635462 0.17706288397312167 -0.10541651770472525 0.0032740873284637932 2.0068318008270584e-05 -7.4721985583892079e-05 0.37805759906768804 1.2747005224227907 -2.171498726966092e-05 0.83663406968116771 1.0225901603698733 -0.75201135873794545
decision_type=2 2 2 2 2 2 2 2 2 2 2 2 2 2 2 2 2 2 2 2 2 2 2 2 2 2 2 2 2 2 2 2 2 2 2 2 2 2 2
left_child=1 2 13 16 9 21 27 -6 22 10 26 30 -13 -1 15 -9 -3 18 -10 -16 -15 -4 -5 -18 25 -11 -2 -7 29 -24 31 -12 -27 34 -20 -21 37 -8 -33
right_child=4 3 5 8 7 6 36 14 17 24 11 12 -14 20 19 -17 23 -19 33 35 -22 -23 28 -25 -26 32 -28 -29 -30 -31 -32 38 -34 -35 -36 -37 -38 -39 -40
leaf_value=0.0056383053489416851 -0.004734716511247055 0.002292506735306473 -0.0067704684182280182 0.0068731511238714722 6.3815892295718174e-05 0.00042002871993687501 -0.0045776207737175624 -0.0022486316437038073 -0.010996900676351182 0.0065607907708293096 0.016747992014943633 -0.00011438831131849869 -0.0062344657633294489 0.0050728603755422954 -0.011253015266755304 -0.016321031496880148 -0.00049592617439403062 0.00024305303652092107 -0.0080375360235631944 0.015297181725854541 0.0001689763212941881 -0.0021638228593157407 0.0028330205598215826 0.0010939009712617608 0.0061943228503767182 0.015093329696961456 -0.0015270626034639516 -0.0016876723757259103 0.003892005604434947 0.0010208221083265994 0.0017919716684643265 -0.013034844355811039 -0.00071578852872991952 0.017602299020580393 0.012593013065660718 -0.0041505935358238143 0.0016401936071471967 -0.023452431739561946 0.0083593940954411524
leaf_weight=569.10604181140661 1363.1423415318131 4341.268107406795 1284.2866620458663 523.81294572353363 2202.5086601115763 3337.3760855160654 49.91299457103014 9229.1011814400554 25.084100171923637 288.48308389261365 109.33929195255041 4709.9921425953507 500.86526189371943 534.2671427577734 243.30418248102069 69.703417029231787 7797.3555295281112 132.95074163377285 40.089157376438379 27.804226249456406 6312.9707074835896 945.06525563821197 7915.0479791276157 11008.833827819675 431.17014517262578 43.371872738003731 5534.66539074108 10423.437200531363 2990.0502586998045 9940.246107250452 785.65931022539735 30.33876246586442 1848.4777169451118 202.47176085785031 82.46356638520956 3966.2816896736622 42.960530318319798 81.255372520536184 89.69152382388711
leaf_count=2714 5047 17915 4904 2156 9619 13770 154 37070 45 1060 400 20184 2882 2239 867 144 30001 326 104 107 25253 3486 31994 43549 1339 192 20206 41637 13138 39812 3564 149 7976 496 230 15869 133 144 413
internal_value=-3.63643e-05 0.000699405 -0.00093329 0.00155497 -0.00163957 -0.00179367 -0.00130989 -0.00257486 0.00237253 -0.000704083 -0.00114098 -1.09215e-05 -0.000702648 0.000941947 -0.0030042 -0.00235412 0.000783155 0.00835649 0.0114375 -0.00443079 0.00055161 -0.00481762 0.00223726 0.000434732 0.00149148 0.000561467 -0.00216096 -0.0011765 0.00212076 0.00182415 0.00354019 0.00952837 -0.000353354 0.0131689 0.00584439 -0.00401521 -0.0118513 -0.0162701 0.00295179
internal_weight=100054 68580.3 23580.6 44999.7 31473.9 16164.3 13934.9 15738.7 21852.2 15735.2 13123.7 6225.89 5210.86 7416.34 13536.2 9298.8 23147.5 483.059 350.109 4237.39 6847.24 2229.35 21369.2 18806.2 2611.5 2180.33 6897.81 13760.8 20845.3 17855.3 1015.03 229.37 1891.85 325.024 122.553 3994.09 174.129 131.168 120.03
internal_count=401288 274200 94434 179766 127088 64228 55838 63676 88301 63412 52845 27592 23066 30206 54057 37214 91465 1201 875 16843 27492 8390 87100 73550 10567 9228 25253 55407 84944 71806 4526 962 8168 830 334 15976 431 298 562
is_linear=0
shrinkage=0.0198277


Tree=16
num_leaves=40
num_cat=0
split_feature=108 184 108 109 172 184 57 64 13 7 76 55 57 57 22 59 140 178 152 175 160 80 45 76 168 152 197 94 168 3 14 80 112 24 203 32 145 140 167
split_gain=292.99 204.565 121.435 76.2587 67.054 60.0581 48.3062 46.842 45.4492 45.839 44.9762 39.856 33.8201 33.353 35.5629 33.3017 34.1489 33.8091 30.1806 29.159 28.4661 27.0505 26.6474 29.4873 27.9255 26.2881 27.9556 25.8819 35.4863 25.6089 27.292 25.562 30.8395 29.0663 25.5387 34.0271 25.1979 25.191 25.084
threshold=0.00084597399109043192 -0.42603488266468043 -0.00099688977934420087 2.1475856304168706 1.8990522221429277e-05 1.0415610671043398 -0.27407854795455927 0.00064356360235251497 0.005848837550729514 -0.00059935776516795148 0.1436913534998894 -0.12984853237867353 0.060812827199697501 0.089236430823802962 1.7787191271781924 2.6793023347854619 -0.027387765236198899 -6.7825520090991618e-05 -3.2758242696218072e-06 -8.0759349657455446e-05 -0.47220374643802637 -1.4235078096389768 0.00030682365468237554 -0.11378229409456252 0.17681130766868594 8.8147317001130442e-07 8.0586829653839245e-08 0.0022301810095086698 -4.1429550647735587 1.2349921263421495e-07 -0.0035424237139523025 -1.2488024830818174 0.0066639571450650701 -1.2758663296699522 -0.5940943956375121 0.00042719051998574292 0.031417332589626319 0.010782356839627029 -3.7413099562400014e-05
decision_type=2 2 2 2 2 2 2 2 2 2 2 2 2 2 2 2 2 2 2 2 2 2 2 2 2 2 2 2 2 2 2 2 2 2 2 2 2 2 2
left_child=1 2 6 4 11 8 37 15 9 12 -6 25 -3 14 -7 16 -4 -17 -10 22 -16 -5 23 24 -13 31 -27 28 -21 30 -9 33 -33 -2 -29 -36 -22 -1 -24
right_child=3 5 7 21 10 13 -8 29 18 -11 -12 19 -14 -15 20 17 -18 -19 -20 27 36 -23 38 -25 -26 26 -28 34 -30 -31 -32 32 -34 -35 35 -37 -38 -39 -40
leaf_value=0.0013010150125415409 0.023676511369737054 0.0035674200708659463 -0.0055182985312483392 0.0044930700150275964 0.0011295619446628716 0.0032373017142438578 -0.00033274965257489567 0.0097848341245922784 0.002368050009137629 0.0008238806760617228 -0.0013377098451896015 0.0099734022073514634 0.00033593867694151937 0.0011378683335477656 0.016456192902572161 -0.018718998223899365 -0.0020471603517031927 -0.0015608100042062308 -0.0047119986362937358 0.020967600276617253 0.014363149933416594 -0.0046854507403094716 -0.00031854632558660993 -0.0092161698114564018 -0.012461059692355766 0.0044942563840687684 -0.0011832589300684638 0.02085916067671062 -0.00308690058226096 -0.00067656378844116374 0.00074564885782767599 -0.0057257576660623127 9.9671128191921178e-05 0.0018475914126907036 -0.011222512371754069 -0.00092006683662813069 -0.012734300887269569 0.0044900913794424869 -0.004223048804764885
leaf_weight=2566.7884158007801 26.557397093623877 4737.5895130485296 1266.9507558718324 131.18446818366647 6027.2526272833347 7799.1341177411377 5434.7484735883772 209.44709794595838 327.57942109182477 24541.772154796869 5606.5641029141843 65.796391848474741 1741.2265297733247 3550.9446209818125 141.92395718023181 100.4790788628161 9244.0581511221826 81.986293643712997 853.21712851896882 24.229520324617624 24.743058376014233 3344.9195264354348 896.44546835497022 570.14482759684324 32.63071097433567 802.50560569763184 592.82307163625956 20.834757015109062 4923.3983504287899 1992.7130004391074 352.03008595481515 675.93612318485975 757.82173930108547 247.21982205286622 128.64434710890055 6212.689643189311 29.667712926864624 1569.0347151122987 2323.3471612296999
leaf_count=10697 97 19234 3833 509 23387 31945 21824 714 1546 96953 24372 220 7297 14568 297 215 35959 186 3474 65 65 13649 3929 2056 116 3197 2399 75 16841 10650 1177 2512 3155 925 470 24812 69 6359 11414
internal_value=-4.41908e-05 0.000716252 -0.000805693 -0.00155925 -0.00123646 0.00151008 0.000896094 -0.00203512 0.00107016 0.0012155 -5.94646e-05 -0.00198466 0.00269894 0.00273693 0.00344711 -0.00261134 -0.00246556 -0.0110094 -0.00274783 -0.00240275 0.0117815 -0.00433906 -0.00388393 -0.00748603 0.00253588 6.31797e-05 0.00208209 -0.00189351 -0.0029691 0.000377301 0.00411753 -0.00158659 -0.00264669 0.00396508 -0.00105706 -0.00112907 -0.000411835 0.00251088 -0.00313597
internal_weight=99977 66566 22818.2 33410.9 29934.8 43747.8 9570.57 13247.7 32201.4 31020.6 11633.8 18301 6478.82 11546.4 7995.47 10693.5 10511 182.465 1180.8 15198.2 196.335 3476.1 3888.36 668.572 98.4271 3102.86 1395.33 11309.8 4947.63 2554.19 561.477 1707.54 1433.76 273.777 6362.17 6341.33 54.4108 4135.82 3219.79
internal_count=401262 267062 91614 134200 120042 175448 38880 52734 128504 123484 47759 72283 26531 46944 32376 40193 39792 401 5020 59998 431 14158 17735 2392 336 12285 5596 42263 16906 12541 1891 6689 5667 1022 25357 25282 134 17056 15343
is_linear=0
shrinkage=0.0198277


Tree=17
num_leaves=40
num_cat=0
split_feature=76 180 184 86 108 76 78 26 55 66 65 20 134 112 26 67 94 86 176 20 117 149 195 106 149 40 102 77 116 18 187 89 12 97 92 192 207 67 2
split_gain=274.348 147.883 103.835 88.2421 80.3577 78.579 49.1057 41.4157 40.4323 38.9771 38.3117 32.3331 29.7867 35.428 29.1775 27.9047 27.8295 32.0889 30.3474 30.9242 39.0276 34.0839 29.2642 27.5436 27.4813 30.3196 27.4123 32.2049 25.8204 25.0426 27.0578 25.623 24.3032 23.9429 26.0203 23.8832 23.6965 23.5791 24.6148
threshold=0.05859773792326451 0.012393953744322063 -0.90669456124305714 -0.0012710438459180293 0.001095527957659215 -0.27533815801143641 3.2818843126297002 0.00044423104554880416 -0.13693069666624066 -0.00026564254949335003 0.00086792523507028829 9.2785943706985577e-05 0.10478808730840684 0.00044464076927397406 -0.00010201233817497267 -2.242955088615417 0.0036059642443433408 0.00257448572665453 9.2580316390922245e-07 0.00028325659513939177 -0.3405394703149795 -0.00060421973466873158 -1.2719898819923399 0.00027625866641756153 0.00026877985510509467 0.3276937752962113 0.00075588829349726449 3.4232233762741093 -0.14763396978378293 0.00021840233239345255 -0.60205999016761769 2.601375058475242e-06 -0.0083173094317316992 0.20309799164533618 0.002229305100627244 -0.21432672441005704 -0.18622336536645887 3.0149296522140507 0.00031894748099148279
decision_type=2 2 2 2 2 2 2 2 2 2 2 2 2 2 2 2 2 2 2 2 2 2 2 2 2 2 2 2 2 2 2 2 2 2 2 2 2 2 2
left_child=1 3 6 7 -4 11 9 15 -6 24 12 -3 -7 -14 -13 -1 17 18 19 -5 28 -22 -23 33 -2 -26 -18 -28 -21 31 -31 -15 -9 34 -11 -33 -19 38 -12
right_child=2 5 4 16 8 10 -8 32 -10 23 37 14 13 29 -16 -17 26 36 -20 20 21 22 -24 -25 25 -27 27 -29 -30 30 -32 35 -34 -35 -36 -37 -38 -39 -40
leaf_value=0.0063298447287028292 -0.0023106332976938334 0.0025032601729819996 0.000216248154299207 -0.0019591817020004169 0.00076849415097921458 0.0013549687364200109 -0.011656497866363214 0.0023865078671992312 -0.0022082070672325093 -0.0032657600914722863 -0.0021217769957588353 0.0069173490202811367 0.010785951557561412 -0.0012578560350792792 0.0031440895928947898 0.0016662632017328499 0.0032373365862714107 -0.022805105301206857 0.00025978591057639262 0.008570884657921999 0.011453360011167934 -0.014294350128482108 0.0027347239482308277 -0.0029954374061997471 -0.0058448860652044396 0.0049242682890115654 -0.0006982491878594749 0.019951908348669254 -0.0061343034683612975 -0.0009640320071435134 0.012612273004010355 -0.0066076666859833542 -0.003788801017792949 -0.010430612267370307 -0.013569825963900339 0.0071566025259867392 -0.0049804201189075931 -0.014291843095518524 0.0011633089759648483
leaf_weight=539.86949594318867 1015.2067227475345 5040.9903011061251 16623.988561850041 10151.599940307438 2086.9679531119764 16829.595940977335 262.5759487785399 355.55258770659566 12775.66948473081 804.82439339533448 1757.1248238608241 1624.534685343504 268.4914959743619 584.17412883788347 1598.3839036040008 7679.6050057411194 1160.4487953595817 31.212076053023338 4959.0517905466259 55.012459736317396 176.57328157126904 42.283500123769045 642.6988474689424 5113.9219745695591 126.97976993024349 539.28208564966917 2470.3122188411653 30.051931902766228 320.00973020493984 84.893173858523369 180.25864534452558 57.704665817320347 848.37688125297427 378.25186742097139 109.45000910013914 351.12972753867507 484.09365339577198 49.009695913642645 1831.2138143517077
leaf_count=2356 4226 21999 67563 38673 8682 67222 707 1680 52885 2888 6647 5987 808 1799 5829 30647 4724 88 19024 153 537 143 1972 22443 401 2258 11334 94 979 225 526 156 3552 1420 381 1041 1743 176 7335
internal_value=2.42716e-05 0.000868897 -0.00125218 -0.000118881 -0.000730869 0.00184653 -0.00321784 0.0014695 -0.00179023 -0.00294387 0.00122715 0.00349494 0.00159553 0.00424744 0.00504603 0.00197258 -0.000848197 -0.00118839 -0.00103482 -0.00159857 0.00136183 0.00368583 0.00168353 -0.00364904 -0.000257146 0.00287182 0.000718819 -0.000450054 -0.00397718 0.00285212 0.00826557 0.00140663 -0.00196507 -0.00623506 -0.00449929 0.00521385 -0.00606006 -0.000631888 -0.00044532
internal_weight=100041 60204.3 39837.1 29946.8 31486.6 30257.5 8350.49 9423.4 14862.6 8087.92 21993.6 8263.91 18356.2 1526.65 3222.92 8219.47 20523.3 16862.5 16347.2 11388.2 1236.58 861.556 684.982 6406.45 1681.47 666.262 3660.81 2500.36 375.022 1258.16 265.152 993.009 1203.93 1292.53 914.274 408.834 515.306 3637.35 3588.34
